SEED,0,1,2,3,4,5,6,7,8,9,10,11,12,13,14,15,16,17,18,19,20,21,22,23,24,25,26,27,28,29,30,31,32,33,34,35,36,37,38,39,40,41,42,43,44,45,46,47,48,49,50,51,52,53,54,55,56,57,58,59,60,61,62,63,64,65,66,67,68,69,70,71,72,73,74,75,76,77,78,79,80,81,82,83,84,85,86,87,88,89,90,91,92,93,94,95,96,97,98,99,100,101,102,103,104,105,106,107,108,109,110,111,112,113,114,115,116,117,118,119,120,121,122,123,124,125,126,127,128,129,130,131,132,133,134,135,136,137,138,139,140,141,142,143,144,145,146,147,148,149,150,151,152,153,154,155,156,157,158,159,160,161,162,163,164,165,166,167,168,169,170,171,172,173,174,175,176,177,178,179,180,181,182,183,184,185,186,187,188,189,190,191,192,193,194,195,196,197,198,199,200,201,202,203,204,205,206,207,208,209,210,211,212,213,214,215,216,217,218,219,220,221,222,223,224,225,226,227,228,229,230,231,232,233,234,235,236,237,238,239,240,241,242,243,244,245,246,247,248,249,250,251,252,253,254,255,256,257,258,259,260,261,262,263,264,265,266,267,268,269,270,271,272,273,274,275,276,277,278,279,280,281,282,283,284,285,286,287,288,289,290,291,292,293,294,295,296,297,298,299,300,301,302,303,304,305,306,307,308,309,310,311,312,313,314,315,316,317,318,319,320,321,322,323,324,325,326,327,328,329,330,331,332,333,334,335,336,337,338,339,340,341,342,343,344,345,346,347,348,349,350,351,352,353,354,355,356,357,358,359,360,361,362,363,364,365,366,367,368,369,370,371,372,373,374,375,376,377,378,379,380,381,382,383,384,385,386,387,388,389,390,391,392,393,394,395,396,397,398,399,400,401,402,403,404,405,406,407,408,409,410,411,412,413,414,415,416,417,418,419,420,421,422,423,424,425,426,427,428,429,430,431,432,433,434,435,436,437,438,439,440,441,442,443,444,445,446,447,448,449,450,451,452,453,454,455,456,457,458,459,460,461,462,463,464,465,466,467,468,469,470,471,472,473,474,475,476,477,478,479,480,481,482,483,484,485,486,487,488,489,490,491,492,493,494,495,496,497,498,499,LABELS
simplistic,0.7786883,-0.032679915,-0.14054196,0.07964714,0.3639674,0.39140573,-0.23109683,0.08768829,-0.03957237,-0.34325004,0.33513904,-0.19161466,0.9236775,-0.43200222,0.5471389,-0.23672181,0.1977086,0.5260055,0.2519576,0.37815022,0.46509108,-0.42778513,0.1903858,-0.4833031,0.6583768,-0.8119608,-0.68182343,-0.36085045,0.242132,-0.2901288,-0.44796357,0.46366444,0.09059098,0.26282117,-0.28845885,-0.30303997,0.7283995,-0.21800494,-0.020023365,0.1425507,0.665027,-0.34238747,0.50729066,0.4110702,-0.57227,0.1848622,-0.008449594,-0.17311981,-0.00039455338,-0.84156716,0.04321587,0.11907402,0.1070721,0.13002083,-0.12986648,1.0596231,-0.5814811,-0.62324667,-0.5080301,0.030513449,0.16941598,0.9511647,-0.24753594,-0.3504158,-0.42330602,-0.4103964,-0.84490484,0.12737301,0.11867854,-0.48463008,0.22687751,-0.38417682,0.29012108,0.78556156,0.5091941,-0.40965784,-0.08160544,-0.5402082,0.18322888,-0.91893876,-0.06586744,-0.54951644,-0.64889455,-0.15291329,-0.49981114,-0.9696715,-0.26559958,0.24041966,-0.18037568,0.105001524,0.4926639,-0.3761813,-0.6661168,-0.7214141,0.26765534,0.14184874,0.96203244,0.21111712,-0.017963147,-0.33522236,-0.7070353,-0.07189566,0.44840765,0.21544383,-0.2716256,-0.104830235,0.055358745,0.22681949,0.61834234,-0.18045166,-0.36443532,0.36219156,0.05560834,-0.09321369,-0.069188006,0.22803676,0.63616794,0.36004037,0.078426726,-0.2554249,0.14693928,-0.14284968,0.6434179,0.024837807,0.038634367,0.14364336,0.18190245,-0.4540423,0.2403998,0.106701404,-0.147618,0.28853583,-0.38673118,-0.13489081,0.13209005,-0.013265042,-0.10011942,-0.47669822,-0.43357888,0.7430486,-0.09296611,-0.55049866,-0.045225237,0.32049897,-0.827689,-0.14857411,-0.4374587,-0.009657183,1.1004744,0.44836226,0.10223789,-0.6589947,-0.16414109,0.021275498,-0.29344046,-0.2847187,0.6084482,-0.49036285,-0.42832878,0.05231422,-0.37960076,-0.29344195,-0.5345115,0.38516867,-0.5026512,-0.3006342,-0.03738315,-0.3449594,0.46480542,-0.5098921,0.3630129,-0.7030396,0.16281435,0.4679331,0.5272735,0.084729195,-0.2490517,0.46078342,-0.8075688,-0.034142375,-0.030081028,-0.3247401,-0.43162438,0.7922265,0.7295533,0.17937398,-0.4489449,-0.194136,-0.52214724,0.27836862,-0.119928055,0.68816644,0.049175043,-0.019407403,-0.29211816,0.54088724,0.23547585,0.7427901,0.13253477,0.49647158,0.46675318,0.31967586,-0.12156075,-0.27539656,0.17017168,-0.62883276,-0.093186714,0.7841676,0.65746623,0.065296285,0.10087444,-0.5473487,0.12762944,0.14242262,-0.6513976,-0.017577535,-0.29517365,-0.026590168,0.2635598,0.48589966,0.0042902012,-0.26856902,-0.22949634,-0.218538,0.87729305,-0.27046794,-0.40135273,0.13329221,0.10297956,0.19436894,-0.6684007,0.56358325,0.43827045,0.29021215,0.5469526,-0.27741954,0.55922997,-0.5923895,-0.2744537,0.17779428,-0.18122175,-0.16543832,0.7409286,-0.092452735,-0.5622318,0.43627873,0.20716119,0.3909221,-0.105634496,-0.23807812,-0.033283878,0.26738852,-0.7796291,0.3464427,-0.7578835,-0.31625408,-0.29037297,-0.61315674,-0.470956,0.7654662,-0.46486422,-0.19001524,0.5327923,0.44805375,0.23834576,0.19658065,0.55333716,0.09139765,0.39184192,0.072298974,-0.4410583,0.3269638,0.21931069,0.25841644,-0.8515014,0.2686428,-0.19906123,-0.118702255,-0.45173597,-1.0708021,-0.5994161,0.48530346,0.17791799,0.34376028,-0.9602158,-0.09248465,0.108519726,-0.3310497,-0.016880972,-0.3089545,0.40813005,0.07608623,0.12246525,-0.17552727,-0.22054955,0.33840552,-0.2502954,0.17415239,0.14743203,-0.1807402,0.4037941,-0.10983461,-0.2719715,-0.07737244,0.3862631,0.23354378,-0.2701457,-0.16676179,-0.04605823,0.15627198,-0.45233297,0.41485566,0.49104375,0.0433674,0.048491053,0.27824876,0.13827124,0.44983542,-0.26102635,-0.86970294,0.46390578,0.07985928,-0.62409216,0.17540057,-0.35951063,0.2233409,0.02129502,0.5274062,0.5350421,0.09601288,-0.12982042,0.19811067,0.37856522,-0.09280641,-0.06743872,-0.25603265,0.06825533,0.2713163,0.40081927,0.41703692,0.68317926,-0.082657695,-0.45646152,-0.2476894,0.6893892,0.19900873,0.33457702,0.587704,0.8217301,-0.42134857,-0.22498593,-0.31234035,0.1606148,0.4090005,-0.8002218,0.297876,0.5802447,-0.32051274,0.05897161,-0.5294798,0.27646232,0.46473297,0.5605839,1.0381242,0.17054687,-0.04492516,-0.40530512,0.10187622,-0.19286843,-0.30186012,-0.30567724,-0.10712121,-0.43283504,0.12629552,0.32215226,0.08841273,0.68083704,-0.23872949,0.42464665,0.49985683,-0.09372755,-1.0440848,-0.3802585,0.3975742,-0.1538677,-0.18480234,-0.8077896,-0.30626488,0.15741552,0.8600097,0.4116627,-0.58492446,0.7360386,-0.11244062,-0.15448931,0.023572363,-0.2441238,-0.117457435,0.05968643,0.0085836975,1.1777372,-0.3191345,0.5775452,-0.23534447,-0.43722054,-0.3957499,0.17812397,-0.46816006,-0.19941562,0.675486,-0.086492576,0.35295662,0.09507907,-0.25086823,-0.0073637273,0.0866786,0.7637485,-0.15087214,-0.5347192,-0.63409704,-0.2897132,0.49155667,0.49631393,0.08347242,-0.06629446,0.7473774,0.35492468,0.29522046,0.30819926,0.19798735,0.21823852,0.011451622,0.28506258,-0.22118257,0.4830702,-0.28635904,-0.4607361,0.54700136,-0.2794768,0.02732042,0.19427732,-0.12609148,-0.4397447,-0.71230114,-0.29135764,0.005528013,-0.60958624,-0.36240467,0.11975511,-0.3366579,-0.17553583,-0.004453921,-0.07131247,0.1963423,-0.5385902,-0.33743206,0.62911046,-0.18669742,-0.43299556,0.35218367,-0.35080713,-0.33915615,0.047315978,0.5907135,0.22824715,-0.3811638,-0.6198812,-0.34809595,-0.31125367,-0.11643344,0.102874145,0.12825713,0.0738783,-0.74793804,0.013196946,0.24851792,0.5464165,-0.045626964,0.65893424,0.04603819,0.42974785,0.74394387,0.22712278,-0.29177997,0.7706261,0.6089486,0.44875476,0.2526887,-0.099160455,-0.046418443,-0.27415204,-0.7275047,0.120469056,-0.15930338,0.1122215,-0.4124031,-0.3220852,0.21270704,0.20887494,0.6615811,0
positive,0.65247416,-0.61626923,-0.989863,-0.11076034,-0.12661275,0.5533819,0.62915707,0.60277987,2.0171068,-1.6039917,-1.23796,1.8991755,0.087758064,-0.73955905,2.29675,-0.40113682,0.03669638,-0.9586023,-0.91426367,2.02682,0.7980345,0.30759946,0.889155,-0.5895851,1.6154441,-0.7805397,-0.7906827,0.42281678,0.17291534,-0.3853067,-0.8151275,-0.39224288,0.01026476,0.96420646,-2.6157286,-0.11183581,0.14951678,0.37836152,0.6270551,-0.14232488,-0.32699284,-0.34268853,0.28476888,0.9206043,-0.6137653,-0.6394908,1.2804124,-1.4915891,-0.0076173446,-1.8581072,0.5338573,0.96033883,0.69427747,-1.7285903,0.33935037,0.12529945,-0.95405793,0.28456584,-1.4866643,-0.3879583,-0.350008,0.5970329,0.21478072,1.1952864,-1.6572945,0.82777894,-1.483127,-0.6399641,-1.1553996,0.6048386,-0.44441718,-0.23117174,-0.21960439,-1.3182983,0.81483513,-0.68683285,-0.7157199,-0.48291475,0.7261483,-1.4836125,0.64898115,-0.19086193,0.055750705,0.059928514,-0.6040143,-1.1389835,-1.1708407,0.12550111,-0.19718342,-0.3176898,0.30418533,0.16762754,-1.4040301,0.4295504,-0.044180114,-0.5047421,0.4049254,-0.8510883,-0.21957777,0.4365255,-1.4447393,-0.26250562,0.39452186,-1.2956684,1.4139978,0.6286441,-0.23590544,0.37286523,-0.18688293,0.2773078,-0.15810339,-0.22506703,-0.24681959,0.13987856,-1.6676631,0.49890953,-0.15632246,-0.12955013,0.17770852,-0.17554273,-1.2987443,-0.31702456,0.531676,0.29571497,-0.08836838,0.18489222,0.6319537,-0.48831734,1.3062526,1.6741008,0.11560819,0.03230808,-0.16562736,1.5704607,0.53294915,0.39415556,0.5644397,-0.7424885,-0.11810229,0.19578584,-0.29089946,-0.14492254,-0.6754771,0.8199256,0.4401611,-1.3037654,0.58365476,-0.87651837,-0.041999716,-0.1462468,0.34306595,0.39042413,0.0051278085,-0.64784706,0.07959071,0.1547187,0.36378112,-0.42895603,-0.52324146,0.43351933,-0.334411,-0.23116383,-0.3244007,-1.0221492,0.622535,-0.1586406,1.0212319,-0.20264485,0.008769892,-1.5274228,-0.7326112,-0.32770655,-1.139811,1.7342175,0.06492592,-0.7168043,-0.4867237,-0.41290677,-0.34879738,1.2658284,-0.48584163,-1.571161,0.012497779,0.28670874,-1.3593346,0.4263847,0.81282806,-1.393229,0.34645045,0.42011192,0.2605846,0.7890094,-0.113536455,-0.7611164,-0.45447752,0.36763522,-0.74167496,1.043439,-0.42906633,0.34149247,1.5430552,-0.85907084,-0.5374798,-0.06483343,-0.80088,1.2398232,-0.4790848,-1.167181,-0.12584093,-0.49420872,0.6285446,-0.015995089,0.5151319,-0.83272326,-0.40473098,0.44732803,-0.40230304,1.1305716,-0.008258739,-0.9101541,1.7912229,0.83727056,0.30412084,0.82036865,-0.57148093,1.328769,0.50643826,0.7426268,-0.4250014,0.98413473,0.15085512,2.404846,0.028291745,0.3701445,-1.5106149,0.3427712,1.7945107,1.7629956,0.59930384,-1.0093409,-0.25625095,-0.2324447,-0.31014273,0.19304855,0.7814469,0.41174275,-0.7022146,0.43306583,-1.5582552,-0.80365545,-1.5529704,-0.1946476,-0.22842796,0.74134547,1.7042152,-0.6558584,-0.013665079,0.72272253,0.45972562,-0.28073686,-1.3143775,-0.33488512,0.8574403,0.21980089,-0.08245873,-0.51784384,0.28769368,1.6323501,0.40319982,0.23078269,1.9211191,-0.80890787,1.8138336,0.97069937,0.69251466,-0.6783035,-0.24947438,-0.738192,0.8451818,-0.7457763,-0.32052514,1.1437534,0.50036615,-0.08681794,0.23509781,-0.27844608,-1.1109813,0.2346972,-1.4034095,-0.07933262,0.04808291,0.6421399,0.10767511,-2.849612,-0.15559141,0.8209129,-0.57540053,-0.0013751131,2.4441571,1.1811945,0.15443556,0.7480162,0.9527005,-0.7287646,-0.5468094,-0.38256764,-2.1536112,-0.5362123,-0.7808866,-0.8432199,0.99062157,-0.8533928,1.0664737,0.44285583,0.4059955,1.4379255,0.25739148,-1.0978767,0.78359205,0.23934576,-0.3587911,0.25363714,-1.9159467,-0.82621145,1.678487,0.4379084,-0.13091479,0.28653142,-0.5695143,2.9925537,1.4542434,0.35794306,1.5962765,-1.3103501,-0.9338478,0.38948262,0.6460766,0.9344856,1.1297363,0.633149,0.2677213,-0.24341172,-0.12428252,0.26418066,0.031311877,-0.7818622,0.66990197,-1.0847845,-0.5221157,0.5816921,-0.07219911,0.6346624,-0.27070427,0.4011679,0.44259518,-0.39685223,1.2173156,-0.28161746,-0.63639575,0.67429495,0.11493966,-1.1827844,1.2605662,0.12542105,-0.50044626,-0.41824946,-0.8223487,1.0799651,-0.88684905,0.68986124,1.3828572,0.21645878,0.11338405,0.3803833,-0.9950594,-1.5327109,0.9811425,-0.4227834,0.14578286,1.0167044,0.4504445,-1.1789119,1.7849321,2.5571623,0.011601771,-0.82974905,1.4547256,-0.5704646,-1.4772916,1.2962745,-0.8669262,-0.14884304,0.40446523,-0.2395212,0.23222154,-0.19565867,-0.108356126,0.6769339,0.15104404,0.32502425,1.1665578,0.4815511,1.7860746,0.17195466,-1.185923,-2.9612067,1.0456438,-0.49134895,-1.2840399,0.14925294,0.27064976,1.2046834,1.1341221,-2.0343277,2.234501,1.8660514,1.5279558,-0.118471734,0.2917114,1.6453079,0.43682158,0.16606638,0.8992889,0.045684844,1.0276675,-1.7660775,1.4406111,-0.71742785,0.27639437,-0.68409324,0.33993417,0.26584578,-0.5666485,-0.6995634,1.0199097,0.041616175,0.0014715483,-1.5635713,-1.9715331,0.4275558,0.4683481,-0.7634134,-0.35225835,-0.38564768,-0.17908438,-0.0880123,0.28501022,-0.2504687,1.85333,-0.77381116,-1.2947383,0.09977611,-0.9131137,-1.649395,0.28792796,-0.59403235,1.0934982,-0.41089603,-0.8501405,-0.48124155,-0.23264757,-0.6590822,0.5541282,-1.3633585,-0.8041753,-1.2798251,-2.0522563,-0.7805479,-0.97815657,0.76237226,-0.1525039,0.48023948,2.1138253,-0.7028777,0.15609527,-0.6712007,1.2234018,0.7899427,0.15955156,1.5031517,-0.20892149,1.1117489,-0.34147966,-0.5483224,-0.17377055,-0.36834836,-0.20203005,0.33414495,-0.89466786,0.41801462,-0.18728861,-1.0096219,0.46287826,-0.21001184,1.0356249,0.42347583,-0.8035618,1.1555632,-0.55377704,0.35975105,1
disappointing,0.23124602,0.48940927,-1.2010912,-0.6665622,-0.7086762,1.1811122,0.97196764,0.15499064,0.50269765,-1.2566953,-1.1779425,0.93858224,-0.41055936,1.202224,1.236095,-0.28962478,-0.15442644,-0.076868884,0.82893133,1.1845102,0.79491156,0.3121456,-0.5493347,-1.2451221,1.1890393,-0.46709627,-1.4920416,1.5018494,-0.10305408,-0.38699535,0.43744293,-0.30308154,0.2546156,1.1282982,0.23236443,0.42174807,0.857447,-2.023998,1.299854,-0.4070906,0.81878823,0.20959146,0.2607125,0.5615397,-0.08205333,-0.5588053,0.81624746,-1.5281626,0.72672045,-2.0729759,-0.23927483,0.74883306,0.15059301,-1.0628799,1.2987037,0.4081935,0.34005034,-0.18727195,-0.31851807,-0.26693267,0.6059955,1.230953,-0.2788732,-0.44319224,-0.8374373,0.2671155,0.91132903,-1.6968559,-0.4143742,-0.3046275,0.3483175,0.52206314,0.47771475,1.2729346,-0.770909,0.91608715,0.14964646,-1.3327715,-0.21033707,-0.7085174,-0.63027453,-0.67534435,-1.5325584,-0.033019397,0.33678317,-0.62610924,-0.72413117,0.32283714,0.21078137,0.53523827,-0.18805112,-0.60050255,-1.8183719,0.8685579,0.1533942,0.57501924,-0.062478762,-0.24185766,-0.7446438,-0.34338793,-0.35238242,0.14842726,1.1975769,-0.069395214,0.55258346,-0.113488615,-0.111615874,0.7722759,0.80178136,0.08776322,0.04037751,1.1452513,0.3153194,-0.19980083,-0.68723863,1.170967,-0.28317901,-0.32482556,0.20075913,1.6485702,-1.3505203,-0.4872325,-0.016375652,0.5836176,0.8306255,-0.95029014,-0.005175103,-0.9856744,-0.39499617,0.63907003,0.5127805,0.2938373,-0.20224929,0.5617868,0.3606468,-0.26223823,0.30235532,-0.42002967,-0.3515273,1.3295348,-0.7540255,-0.1636116,-0.55939174,1.2206538,0.058192916,-0.4055381,0.8122659,0.9870442,0.28499043,-0.24703126,-0.08018706,0.43689844,0.5028078,-0.06752432,-0.13596135,-0.42224678,-0.39156988,-0.4311572,-0.16928148,0.3577391,-0.8667437,0.9769065,-0.8017577,-0.8200552,-1.7405485,0.20352416,1.2189878,-0.98221356,-1.1639162,-0.35656404,0.4376181,0.31495354,0.8748245,0.7930185,0.25245154,-0.4374879,0.25935718,0.09724794,-0.18753394,-0.38831994,0.061553426,-1.2656577,-0.43288076,0.7841794,-0.11659764,-1.0011842,-0.036778223,-0.55988145,-1.457128,0.85635656,-0.23351382,1.5830656,-1.0516633,-0.2808362,0.33285892,1.0286344,0.2278049,1.6550611,0.34891215,0.5121529,0.15382572,1.0146711,0.50931215,0.09025858,0.44662568,-1.4359963,-1.0803287,0.19266105,-0.077287756,-0.44629365,-0.1661894,-1.3203561,0.6978537,0.58754617,-1.1868249,-0.39859274,0.31317127,0.79481095,-0.13438366,0.77511984,0.54296833,0.880074,-0.43085903,0.2909438,1.1801176,-0.8795815,-0.37280795,-0.97226506,0.73708045,1.0884806,-1.7390738,0.5647633,0.8387637,0.19551136,-0.10374029,1.3001317,0.36605564,0.24881877,0.84073883,0.78797215,-0.36494872,-0.35110277,0.2245509,-0.93803763,-0.4669237,0.05992678,1.090528,0.2746233,-0.15803997,-0.47907788,-0.33787802,0.30741373,-1.3192793,1.1064546,-1.4627042,-0.5263753,-1.3183602,-1.0381179,-0.23317817,1.3534697,-0.38974088,-0.48360455,0.6312437,0.32929018,-0.60217285,-0.27515814,0.011035137,0.59377956,-1.2641903,-0.17287295,0.15769188,-0.07715505,0.90207714,0.35992977,-0.15226519,-0.31509572,-0.5046657,-0.06288607,-0.9231263,0.08965246,-1.0967582,0.88364637,-0.7524134,-0.22913034,0.5294942,-0.8987625,-0.6671602,0.038775213,-0.7068214,0.07663774,1.0111463,0.080403894,-0.3824199,-1.26111,-0.468078,-0.46673587,0.3154014,0.6717078,0.84115475,0.6545115,-0.23034747,0.34136188,-0.6547437,0.24724121,0.079640746,-0.027775934,-1.4782162,-0.6276789,-1.3929318,-0.9317317,0.63822,1.0917606,0.7146785,0.9366301,1.2221407,-0.5383444,-0.45435154,-0.6804426,-1.7811117,0.36202148,0.18346846,-1.1012411,-0.9519683,1.2312069,-0.6419242,-0.09231356,0.5453318,-0.3899969,0.09242814,0.0053286855,1.1423779,-0.54547375,0.94937456,-0.12978995,-1.456393,2.4616158,-0.57043684,-0.05324696,0.027637,0.82087106,0.23520027,-0.3579073,-0.7265116,-1.0063527,0.5096557,0.45776233,0.17417596,0.647453,1.1339521,0.47744015,-0.9327619,-1.2638516,-0.6232118,0.6856113,-0.6997763,-0.4487439,0.6729591,0.15180835,-0.4230931,0.46695578,-0.10876357,0.83420044,0.119997315,0.11017066,-1.24707,0.48106632,0.21022515,1.1095074,-1.1606052,-0.91460574,0.24711357,0.14847356,-0.60484886,0.04186304,0.34860936,-0.2799098,-0.7434192,-0.655213,0.450371,1.5760773,-0.13721381,0.051379133,0.5619379,0.7817789,-0.7363641,-0.99589694,-0.2870878,-0.47101647,-1.1217344,1.8871922,1.4019476,-0.57175916,-0.32563317,-0.04400205,-1.0875094,0.019732306,0.76469606,0.3124774,-0.36760938,-0.34798494,1.3410728,-0.08614797,1.3548921,-0.6221037,0.36279345,-0.57380015,0.45102006,0.016381286,-0.4377799,0.36604914,-0.3598572,0.43777218,0.8973765,-1.936426,0.17086896,0.4052036,0.039154544,1.0476147,0.7135634,-0.41846564,0.3377212,0.63852245,0.14242865,-0.14803492,-0.282418,0.11028434,0.9326794,-1.1232537,-0.058314566,-1.0738931,0.9132194,0.22628984,0.82986706,-1.4188455,0.378877,-0.078882016,0.21190499,0.09648718,-0.058109384,-0.3885419,1.1355709,1.9442031,0.20128758,-0.5259967,-0.8443873,0.95147884,-0.7657973,0.009569741,0.96415216,1.8739614,1.3265103,0.22358105,-0.24175613,0.4261329,-0.4362084,1.1632681,0.06448758,-1.5133904,1.0215456,0.28678402,-1.1025625,-0.9143461,0.30048552,-1.3372493,-0.76519644,-0.7020001,-0.6591256,-1.3223933,-0.17681177,0.0960013,-1.0882078,0.15957944,1.5455167,-1.0711375,0.58464265,-0.24177684,-1.1903609,0.63747996,0.81219137,0.11598657,-0.45482162,0.19273044,-0.5708673,-0.22960791,0.058130004,-0.15969716,1.3592217,-1.2939253,-0.4142455,0.35945845,0.39948037,-1.0470176,0.61791676,-0.82104295,1.5885996,0.11634886,1.0243356,0.94914067,0.9337694,0.9013897,0
poor,-0.020178715,1.2959028,-2.3514514,0.2288084,-1.5368081,1.9955395,0.6911847,0.14984797,0.6436105,-1.1274558,0.7182349,1.6057289,0.28770334,1.3961123,2.237639,0.28130934,-1.2089287,-0.28105733,-0.9434017,3.5749342,-0.123638876,-0.7346707,0.7198655,-2.1904733,0.0029561797,-1.6503944,-0.30835924,0.17496154,0.25308296,0.7639336,1.8692644,1.0522237,-0.41281453,1.7480743,-1.214059,-1.2324384,-0.5926907,-0.50304145,-0.20407169,-0.42864323,0.31093732,0.028187688,0.89416,0.3449881,-0.87934375,-0.76772964,-0.042149886,-1.3450768,0.89555013,-1.40562,0.52382225,-0.17355542,1.0504981,-0.447385,0.27773362,0.58585525,-0.3356384,1.8544856,-0.040908534,0.041594364,0.9182968,1.838071,0.621498,-0.5468824,0.9333059,-0.36223298,-0.27557343,-0.8920883,-0.51946896,-0.89361745,-0.3236383,1.5686983,-0.045531858,0.47951892,-2.2275844,-1.2116994,-1.7077128,0.010869973,-0.07606673,-2.1055498,-0.21769941,-1.3244531,-0.22124544,-1.0825096,-0.82002366,0.61181605,0.31651267,-0.29325554,-0.23312281,0.7795142,0.06441887,-0.4584531,-1.0860358,0.71853,1.3741593,1.1040837,0.14963594,0.38712296,-0.07834587,-0.37306795,-1.262137,1.1706827,0.9089744,1.2646431,-0.04418152,-0.27828556,0.007986056,0.38577253,0.8464522,-1.2311416,0.9112556,-0.16971426,0.53692156,-1.6839948,-0.510837,1.4409636,-0.32021648,0.29346886,1.212853,1.3836259,-0.7605373,-0.04977824,0.27962798,1.9467973,-0.12556091,-0.7883079,1.6785393,0.8191271,-0.019796072,1.4966421,0.73383653,1.4577373,-0.44796577,0.39578018,1.2535071,-1.4918393,-0.620073,-0.005467155,1.8141497,0.385607,-1.0080204,-0.17026216,0.046124116,1.0137068,0.51353616,-1.1570201,0.8013761,-0.019195614,-0.003850994,0.054450456,-0.8006596,-0.9197649,0.89776474,2.068997,-0.6421702,0.61093664,-0.14957179,-0.886404,-0.46315974,-0.06240114,-0.50835466,-0.42885086,-0.37603277,-1.0502055,-1.5103959,0.30237326,1.0851748,-1.4760232,-1.5166975,0.15656176,0.4574334,-0.2101183,0.039063845,1.4464003,1.517003,-0.3536746,0.6327985,0.19694565,-0.5982398,0.82152504,-1.4083488,-0.061649963,-1.1771708,-1.4060922,-0.29231155,0.052022684,0.22822274,-1.2783495,0.05161911,1.3682448,-0.6003833,1.8145685,-1.1572707,-1.8886672,0.4922071,0.98311996,0.8941532,2.7175472,0.74058133,0.9127827,-0.28605837,0.9626553,0.712972,0.09083805,0.23320575,-1.4960763,0.15076211,-0.8403708,0.45990342,-1.7725729,-1.1431674,-0.804256,0.4077157,-0.0336326,0.68747586,-0.60851634,-0.27170464,-1.378508,0.5037587,1.5505564,1.2459558,0.5450303,-0.64275986,0.72995603,2.757505,-0.39078486,-0.8600912,0.43297377,-0.2890313,1.5269854,-1.7044574,0.4075925,2.1795483,0.9542551,0.48345202,1.2660856,1.7144053,0.5742447,0.7352107,0.84523124,0.33812964,-0.036078535,0.24358149,-0.697628,-1.5284269,0.28653294,1.5958178,-0.0017863488,0.12104644,-0.71624833,-0.6643616,-0.17679943,-0.6592137,1.2879459,-0.2223747,-0.6573256,-2.2394307,-1.2741592,-0.21492763,0.89991134,-0.29907486,-0.21684228,-0.41562364,0.42076513,0.44531032,-2.0736952,-0.5175446,-0.54368955,-1.5748516,-0.262402,0.6404475,0.82691544,-1.0159853,0.04026498,-0.07504814,0.519916,-0.7538195,1.4596915,-1.3779622,0.8690932,-0.1697899,-0.12733948,-2.0334568,-1.8649434,0.04987491,0.051796783,0.7046106,-0.5985273,0.4073291,-0.07196283,0.20745082,0.44720158,-1.2284307,0.25287008,-1.0084671,0.46221542,0.63262683,0.020226112,0.17543584,0.19250503,1.7289058,-0.6292601,-0.10675962,0.52811337,0.63996273,0.34888393,-1.9176232,0.95045966,-1.4758667,-1.5344054,1.2518466,1.5053048,-0.43763435,1.587152,0.4253808,-1.0225995,-0.1553844,-0.7662067,0.35678735,0.80201745,0.7101864,0.7363976,-2.1596203,0.37483236,0.92353827,0.6456944,1.6053514,1.0332124,1.5497516,-0.5540357,3.2130613,0.43743593,1.0261903,-0.8693706,0.2731473,1.1574988,-0.21164808,-0.4144438,0.19880955,-0.07961982,-0.8039561,-0.32119253,-0.008048974,-2.3744702,1.8012856,1.6418,0.19769064,-0.058959834,0.8562277,-0.4852452,-1.1459484,-1.7665681,-2.2522278,-1.9867342,-0.5567775,-0.6902683,1.2298867,0.011943706,-0.4848643,-0.20955677,-0.49123397,-0.3722922,-0.05837873,0.95430326,0.26703838,-0.21656983,0.43733191,0.63775,-0.76954424,-1.0721987,0.34203944,-1.5181998,1.0846015,0.055098414,0.21772432,0.94601166,-0.41322792,0.14916763,1.1876156,2.1958847,-0.4575741,-0.908581,-0.4360421,1.3235067,-0.45565018,-0.9142174,0.5489832,0.06081222,-2.9367988,1.3040878,-0.25309813,-2.223375,-0.025602387,1.6704067,-0.17949478,-0.88381743,0.808946,0.60290515,-0.59805673,-0.9741419,1.887984,-0.6516675,1.003524,-1.2789414,0.23828681,0.88874334,-0.008637928,-0.34038606,-1.3014624,-0.54054964,-1.1452262,0.26143262,0.33956856,0.6852141,0.62916917,0.29038388,-0.6620339,0.5640262,-0.15744512,-0.07924313,0.5855524,0.2540766,0.82210165,0.3273596,-1.0249264,-1.1701462,-0.002344786,-1.1030021,0.005712176,-1.0296311,0.39377597,1.6351103,1.8583267,-2.0021348,0.12651335,-1.2070136,-0.50525075,0.37031862,-0.75528294,0.33004254,-1.2196577,-0.1288734,-0.8678069,-0.18267252,0.4035482,0.23544665,-1.0045953,-0.40769827,0.4373963,0.68314654,0.8142052,-0.04593344,-0.79562795,-0.066729926,-0.55654323,0.8562522,-0.49479955,-2.081962,0.14865169,0.9967487,0.68458784,0.5473926,0.9153384,-1.790323,-0.2585852,-0.7849591,0.7629588,-0.11224312,-0.35637274,1.5269724,-0.7688066,-0.2931024,2.8801668,-0.8923876,0.6592506,2.0033462,0.54188186,-0.96043867,0.47144106,0.7593441,-0.035822053,-0.050098956,-0.003832882,-1.8889462,-0.19905362,-0.43476272,3.4951544,0.6862895,-1.1246856,0.9804744,0.96287733,-1.7223526,-0.0041567893,-0.5903625,0.5973206,0.34721386,0.59782964,0.38927168,1.1692803,1.064625,0
correct,-0.9968001,-1.694252,-1.1767335,-0.6020401,0.47359496,-0.6129722,0.20611778,-0.45853773,1.4754219,0.20120864,-0.19103654,1.1404905,-0.4180375,0.39151543,0.9757431,-1.2227757,-1.5312916,-1.528774,-1.365103,-0.021539047,-0.13499203,0.45918703,-0.4076436,-0.35838917,-0.030886356,-0.56799936,-0.5657848,0.4668183,-0.63074756,1.1053717,-0.8594474,-0.5110011,-1.250487,0.71923566,-0.06306832,-0.21230438,0.09975002,-0.31557807,-0.9336864,-0.35765544,0.53887486,0.86838686,-0.34846103,0.86497104,-2.2474358,-0.39793184,1.3361977,-0.931168,0.5688043,0.35814622,1.3469218,1.3609046,-0.17658402,-0.27561843,-1.1509475,0.34374928,-1.3677274,0.028595557,-1.0493906,-0.510955,-1.1556728,0.3576842,-0.4832208,0.89692664,0.12775148,0.3673114,-1.1907383,0.37222737,-0.63924277,-0.19172919,-1.4826009,1.5622911,-0.21104094,0.60540265,-1.2602881,-0.7090275,0.68160045,0.4384631,-1.878807,0.083764665,-0.64179397,-0.6663134,1.0666258,0.36100635,0.30178759,0.8732629,-0.27498117,0.641077,-0.50048965,0.46115762,0.6971013,-0.003875075,0.23644117,-0.6095064,-0.26280323,0.12310269,-0.96168965,1.173114,-0.084922895,-1.9818072,-0.13368042,1.4579244,0.41937476,-0.2540778,-0.2183333,1.0751755,0.08378427,-1.296496,-1.1184814,-0.6800013,0.47597644,0.31909996,-0.51772594,-0.7532838,0.2960814,0.24129748,-0.94933623,0.3767977,0.09367925,0.6833806,1.1327746,0.27084607,0.84435326,1.533339,-0.899556,-1.425808,0.610359,-0.50100696,0.24435498,0.27647415,-0.5623146,0.7498441,2.1417599,2.4180195,1.0695287,-0.8254064,-0.62868255,0.47090662,-1.0706317,-0.2647383,-0.07869535,-0.67899156,0.7364757,0.45038465,-0.37799203,-0.6944972,-0.108378455,-0.16348197,-0.77930254,0.9049511,1.4752073,-0.090451166,0.63985205,0.17264912,0.14794621,0.08978349,2.1093416,-0.16816358,-1.1753749,-0.4493809,-0.054751903,0.72749376,-0.11276263,0.5696453,0.4528739,1.2404041,0.2642383,-0.34514368,1.3220844,-0.4329053,0.35017845,0.08690651,-0.83390313,-0.27820802,0.15681918,1.0662289,-0.21918528,-0.08659715,-0.19287547,0.2966364,1.5559386,-0.7046499,-0.79827285,-0.22606075,0.24036504,-0.33454353,0.8070381,0.19340591,0.28849775,-0.44127175,0.13007803,-0.4157468,-1.2896636,-0.23127525,0.3264982,-0.49080625,-1.8138226,-0.028469596,-0.17240062,-1.4784895,-0.49550244,2.072326,-0.51810837,0.44197673,-0.3840533,1.214818,0.8438401,0.1329398,0.36482117,1.0410786,-1.3432447,1.44506,-0.39301547,0.26997858,-0.00016562206,1.6819974,0.17599207,0.15519296,1.2191728,0.6846289,-1.0223134,0.71811914,-0.16625366,-0.80616254,0.734122,0.5049535,-0.8628002,1.2469735,-1.0184562,2.5396056,-0.220814,0.04013237,0.99930197,-1.0153413,0.10078795,0.014679899,-0.17886087,0.97125024,2.6433043,-0.45871353,0.06195633,-0.6817823,0.21479583,-0.2625694,-0.27044427,0.145415,0.07738256,-1.6586481,-0.2224202,0.72555685,-0.081620365,-1.2690277,-0.09029207,-0.08448402,-1.7539829,0.7419858,-0.71630514,1.2088536,0.25162703,-0.77525526,-2.0074594,-0.100107856,0.042771414,0.9006216,-0.18296373,0.5158971,-1.0866402,-0.18987334,0.15535018,-0.38960367,0.64096713,-1.0678883,0.5614337,0.73862225,-0.49788645,-0.24547812,-1.4957249,-0.27498844,0.13137932,-0.9160579,0.72760284,0.4659531,-0.64637434,-0.6592651,0.32935697,-0.4329072,0.07356835,1.3026702,-0.8788012,0.59861404,-0.29113966,-0.014493216,0.36715215,-0.2524585,-0.4818078,0.22427294,0.32504642,-2.0933163,0.80321527,0.71136224,-0.2958723,0.10766781,-0.021603188,-0.4970806,-0.48860464,-0.61176616,0.625526,1.3668813,0.66792446,-1.0176467,0.61118,-0.82236445,-1.1464627,0.7626692,0.8642504,-0.10030278,0.43192947,-0.99884516,0.36434558,1.543448,-1.7019912,0.96854717,0.5034489,-1.0401351,-0.20514844,0.73745716,0.87674147,1.4596306,-0.09957756,0.72114056,1.2398376,0.25470892,0.023630137,0.56738937,0.4465748,-0.5336869,0.45040432,-0.6247188,0.6748939,0.9542767,-1.5626832,0.5164755,0.29030105,-0.22797327,1.6877937,-0.9910191,-0.37006593,0.09229802,0.3230555,1.2876916,-0.014248909,0.13800597,-1.7330595,0.37660554,-1.3077339,-0.561056,-1.3927346,0.26711473,-0.09945674,0.34565264,-0.2913256,-0.88366306,1.3793061,0.6139036,0.51139146,0.81771356,-0.06390076,0.6628557,-0.40651208,0.62120074,0.2212313,-0.5884258,0.038388014,-0.45543706,-1.467968,1.3023471,0.54449517,-0.4609848,0.882109,-0.6130519,-0.33005488,1.4005641,0.0045617535,0.48769102,0.75005907,-0.6187617,0.3420043,-0.61211336,-0.8222114,-0.2296674,-0.17208932,0.7347269,-0.19565663,-0.75622696,-1.195105,-0.49357128,-0.7481738,-0.64704967,1.1326251,0.46313277,0.32575244,-1.0224754,0.11142825,-0.2629812,0.08165465,-0.3935299,-1.9038388,-0.7196651,0.38513082,0.5135619,1.673918,-0.77660877,-0.3701791,-1.8575333,0.7795099,-0.49514475,-0.86282766,0.056092378,-1.1851277,-1.1794826,1.4565884,0.3657162,-0.3596105,-0.3827463,1.4320298,-0.56938297,0.07507535,0.66693133,0.6961549,0.21376848,-0.5379356,-0.090458885,-1.3431437,-0.9076247,1.6620654,-0.45750102,-0.91192484,-1.4979502,-0.47468838,-0.81880116,0.03767079,1.2566422,0.60848624,2.046885,0.9537779,0.6882955,-0.63874084,0.1254232,0.110330224,-1.8401374,-0.22160724,0.033663426,-1.707176,0.78945506,0.9488396,0.35970062,0.7887993,-0.9674641,-1.8665415,-0.82667416,0.20684284,-0.5833516,0.5702402,-0.93000126,0.14650764,0.6443962,-0.26384643,-0.020401664,0.54141295,1.0350692,-0.09954195,-1.4477558,0.09309219,0.6140177,1.7872704,-0.5338158,0.9062822,0.1792699,0.49063167,-0.9298626,-0.35260388,1.6943084,0.68468416,-2.0358002,-1.2662398,0.5771652,0.08698024,-1.0413091,0.5296769,0.67309,-0.8751162,-1.1361338,-0.1672729,0.27185002,0.5183391,1.7819264,-0.99982697,-0.40531212,-0.88288444,0.8706044,1
terrible,1.2565359,1.60169,-2.3187072,0.45572674,-0.8052369,0.93840927,0.019656977,0.8102876,1.4674084,-0.04651609,0.24979357,-0.25037086,-0.71212786,1.127384,1.3480791,-0.85200155,1.0523553,-0.77547514,-0.018317135,2.662279,0.6207802,0.15650035,-0.17884417,-1.5149783,0.58643657,-1.1682447,-0.179005,0.5848835,0.3008137,-0.46497768,1.4458566,0.13609836,-0.491995,1.3257283,-1.1416372,-2.0326097,-0.49094093,0.036966767,0.48058257,-1.177127,0.81455773,-0.61529404,0.9582303,-0.33447486,-0.34187433,-0.52437615,0.49948466,0.017320525,0.9733059,0.06760291,0.42785367,-0.32708594,0.63912225,0.605898,0.02559405,-0.17285593,0.41197184,-0.09197707,-0.99028105,0.1637814,-0.06304606,0.2548576,-0.62621623,-0.57268775,0.52591646,0.3721962,0.30326462,-1.0074238,-0.5820149,-1.117905,0.8262805,0.8410053,-0.09850725,-0.40288618,-1.5968002,-1.3172356,-1.2552909,0.9649356,-0.44233143,0.010041567,-0.03752313,-1.4716309,-0.2490997,-1.1261224,-0.2731835,0.8989591,-0.2573197,0.1552525,0.41408494,-0.002317569,0.33049098,0.302926,0.49211866,0.12487258,1.0010638,1.3194124,-1.0482526,0.6686662,-0.94484013,-0.7072482,-0.5694193,0.9386647,0.12927033,0.5961375,-0.19616738,-0.9653051,-0.42994812,0.60244304,-0.45509896,1.0358555,0.16901147,-0.4382756,0.62246984,-1.0552511,-0.24527104,0.7714617,0.03811537,-0.8565368,0.21621318,0.1911342,-0.18463832,0.08597299,-0.5254108,0.20585409,0.39558536,0.2126445,0.82640135,0.7642568,-0.66901577,1.4125922,0.6683026,0.7737304,-0.12756082,1.2407346,0.6258365,-0.16521855,-0.24547638,1.3912303,0.47776663,-0.18754959,-0.7801684,-0.16869685,0.4098488,-0.3970744,0.6108311,-1.6870062,0.7955149,-0.26458165,-0.25902858,0.042342193,0.20205918,0.37250644,1.0815893,1.6154227,-0.6486755,1.0302528,-0.33753902,-0.74320096,-0.0355325,0.300393,0.16411977,-0.6621224,0.2757238,-0.24220182,-0.8227898,1.2323322,0.93181527,-1.6542704,-1.1175185,-0.327306,0.9064243,0.38557774,-0.36324748,0.8761474,0.61038035,-0.51976806,0.98401606,0.7222361,-0.70326775,0.76122195,-0.012613825,0.007961234,-1.7726161,-1.1491767,-0.48185137,0.1541829,0.16699329,-0.5310576,-0.56304795,1.0740294,-0.48850736,1.2118528,-0.28626394,-0.92658025,0.87377024,0.72861934,-0.028632503,1.4627583,0.4801839,-0.15974371,0.07173867,-0.2913743,0.09394721,0.12437496,0.44370052,-0.55812216,-0.18805972,-0.5806221,-0.033944532,-0.98987776,-0.33868062,-1.082225,0.13429421,-0.4654928,0.8114191,-0.97317034,0.39556324,-0.61730695,1.0614315,1.2170577,0.51326466,-0.35271233,-0.84026974,-0.265798,0.6706844,-0.5778421,-0.23329125,-0.48572424,-0.9165281,0.41815287,-0.5343178,0.0015116162,2.205934,0.355838,0.8262274,0.7429338,1.2826251,0.76639694,1.4669675,0.11046349,-0.3759134,-0.6555202,0.5687391,0.03929539,-0.31376716,0.24969788,1.1252313,0.30185798,-0.46192718,0.12087095,0.07809794,-0.35652632,-0.7428327,0.87345845,0.103956245,0.61543906,-0.024343973,-1.1288472,0.9349623,0.6897238,-0.686554,-0.2167758,-0.85132146,-0.2541901,0.9614665,0.25523776,0.8641716,-0.8456869,-0.38218156,0.5787186,0.2858356,0.29562578,-0.68285424,0.7456584,-0.39954647,0.14761786,-0.5671428,0.42929235,-1.176329,1.0678259,-0.18519314,0.0858294,-1.6494063,-0.36814556,-0.054427292,0.4479364,0.13492969,-0.24342337,0.74963796,-0.1580305,1.1475646,-0.4146265,-0.3037127,0.5666636,0.75527877,-0.24338119,-1.0993992,-0.9963173,0.18310827,-0.074106075,0.23255879,0.22219223,0.054001197,0.65618616,0.24210602,-0.5766161,-1.5002962,1.948186,-0.22524051,-0.98735,0.13759267,0.6117146,0.15255128,1.1571391,0.48327327,-1.4859003,-0.15130387,-1.8168,0.2923118,1.4284277,0.30726865,-0.19681968,-1.495607,0.0819481,-0.04281675,0.5358729,0.4884976,1.4624519,0.79290116,-0.32715043,1.5043479,0.87905556,0.7091615,-0.18454982,-0.047304284,1.092456,0.16919538,-0.2976516,0.13780066,0.111858375,-0.6522644,-0.07284619,0.3399267,-1.688463,1.6678604,0.35739958,-0.44168276,-0.6548581,0.3107191,-0.49880514,-1.4719191,-0.782109,-1.092618,-0.39302716,-0.19859755,-0.20772141,-0.09072687,0.15770221,-0.41071418,-0.042705417,-0.5116207,0.36670536,-0.16063072,-0.36936274,-0.86075526,-0.29410186,-0.98864305,-0.2589642,0.4230772,-0.2778548,0.921541,-1.2269622,0.41425693,0.32166514,1.1561942,0.639854,-0.95326155,-0.57284606,-0.050524667,1.7206645,0.2316714,-0.087225966,-0.6278618,0.62637824,-0.5936835,-0.6572323,-0.1612501,0.3749504,-1.9892955,-0.14163128,0.04147723,-0.97316146,-0.23632489,0.89704424,0.52472574,-0.9511264,-0.16497119,0.3728283,0.57177037,0.24311936,0.8039982,0.110330544,1.2967274,-0.4025531,1.4280293,1.1457173,0.12106338,0.06793662,0.009652351,-0.8831722,-0.5990464,-0.062250994,-0.061449014,0.0642687,0.42087182,0.53291684,-0.8696757,0.34756348,-0.38942373,-0.23713349,0.6199181,-0.26788503,-0.14576057,-0.040837254,-0.07338066,-0.18518509,0.08281266,-2.4228957,0.66921544,-0.7763251,0.2485911,0.7826019,1.5694695,-0.50283164,-0.07867319,-0.37579927,-0.050304502,0.8953609,-0.16902876,-0.031126074,-1.0675488,-0.2662131,-0.10832687,-0.6912975,-0.18294758,-0.26969796,-1.0898314,-0.6576268,0.92614734,0.00042230982,0.84979004,-0.13349846,-1.2797526,0.70550793,-0.9305497,0.65627885,0.7078321,-1.5512142,-0.14054517,0.8968076,-0.67782485,1.3547987,0.2859638,-1.3799857,-0.30185983,-0.9529314,-0.12884223,-0.42191583,0.66506505,0.24949566,-0.21349728,0.283277,1.8458997,0.19337103,0.7774859,1.0830089,-0.046133738,-0.55428386,0.56302285,0.3344876,0.4218609,0.33546418,-0.2510467,-0.44227365,-0.13871133,-0.8253275,2.3446376,-0.5681248,-1.0484498,1.1160953,1.7257847,-1.3514857,-0.018260289,-0.039276548,0.19872117,0.49932986,0.48904088,-0.6810516,1.0621524,1.4342926,0
horrible,1.4683082,1.4880887,-1.9689283,0.42192858,-0.007663693,1.4657096,0.22284205,0.79171544,0.7253103,-0.13860245,0.11393676,-0.4346175,-0.30170825,0.529683,1.4720192,-0.90523154,0.79898727,-0.8989427,-0.25462458,2.6064293,0.8143179,0.06776829,-0.363551,-1.1034633,0.2119228,-1.1835144,-0.34605777,0.78318304,0.028929604,0.2894022,1.7477003,0.8564577,-0.2630506,0.9627751,-1.6035993,-2.3585255,-1.2052673,0.34899127,0.27422777,-0.9539147,0.21006656,-0.9514912,0.7514692,-0.79278374,-0.19779487,-0.6908612,0.1399129,-0.52602553,1.1219739,0.79815084,0.65042984,-0.39101374,0.054713663,0.55544347,-0.030585626,-0.49629778,0.3178234,-0.1053815,-0.96050376,-0.18971002,0.1629759,0.28542104,-0.3168518,-0.27896723,1.0442263,0.74763775,0.42313388,-0.55567443,-0.26715106,-1.1002282,0.68631446,0.8489099,0.20970337,-0.6084487,-1.4044613,-0.840721,-1.5657763,1.2479088,0.015640534,0.019842036,0.07409034,-1.4453504,-0.95785666,-1.5965012,-0.08591338,0.42199346,0.1911309,-0.44127753,0.23929323,-0.3161458,-0.13460274,0.21438944,0.15014486,-0.5054243,0.6300103,0.80774623,-0.84134936,1.2194716,-0.7348547,-0.69710517,0.117838696,1.3363634,-0.1406594,0.2598137,-0.31669077,-0.3692552,-0.7170179,0.40926063,-0.836941,0.6696513,0.11099049,-0.43701014,0.3541516,-1.2970785,-0.42305273,0.5804191,0.5904865,-0.7366945,-0.23752928,-0.37985173,-0.37848288,-0.09623571,-0.50562394,-0.41408414,1.1493748,-0.4238325,0.624566,0.9094552,-0.2615972,0.864027,0.41279027,0.87685996,0.19063713,0.80534494,0.15634947,-0.12285422,-0.82853717,1.5465809,0.5379686,-0.42628372,-0.768924,-0.28059524,0.48856434,-0.8965673,0.826228,-1.9452336,1.0635308,-0.015340415,-0.75268644,0.29244196,0.16231075,-0.34059232,0.8125564,1.3242483,-0.77398974,1.4182531,-0.20808655,-0.54695547,-0.26673266,0.09160551,-0.27388138,-0.59799206,0.3452779,0.08880934,-1.2691435,1.0692427,1.2728201,-1.4054329,-1.0834055,0.07879215,0.5995076,0.055343967,0.29073682,1.1108174,0.3701666,-0.887545,0.95988065,0.61023325,-0.82149744,0.3271306,0.6977438,0.01414915,-1.3856211,-1.0494394,-0.74783736,0.18575329,0.22510985,-0.3250947,-0.37067848,0.8518091,-0.32279447,1.606037,-0.7557373,-1.3304108,0.21256995,0.96087784,-0.5855711,1.1522132,0.40805227,-0.6326944,0.51317465,-0.19906367,-0.23712201,0.40371588,1.068121,-0.7732392,0.1475259,-0.31133002,0.3567345,-1.20761,-0.23331262,-1.3164268,0.46197224,-0.27645597,0.857457,-0.8927744,0.99454874,-0.7643654,0.48572016,0.56936854,0.3072803,-0.38254127,-0.48140052,0.25862756,-0.27868974,-0.101891935,-0.005205251,-0.86424106,-0.5376701,0.8516892,-0.5583096,-0.023614978,1.4217638,0.38521785,0.37700945,0.7317618,1.7493292,0.9498667,0.9283236,0.26457497,-0.45692444,-0.22063738,0.6167788,0.009774374,0.06719291,0.2610877,0.6144066,0.47380537,-0.6161567,0.28709313,0.2612728,-0.22213416,-1.1330987,1.1403781,0.16153468,-0.03536107,0.0017890531,-1.3085649,0.52831817,0.62206525,-0.578479,-0.56287014,-0.4050962,-0.11360106,1.0914291,0.13517094,0.4629642,-1.0818181,-0.75209516,0.7530024,0.25158563,0.6213855,-0.719775,0.6096299,-0.024881825,-0.22502892,-0.24222748,0.8176846,-1.0210096,0.6351228,-0.5410214,-0.38400602,-1.6056762,0.031876087,-0.26100895,0.24321184,0.8032828,0.10055886,0.24572228,-0.55263466,1.1478413,-0.31955588,-0.37359387,-0.21930341,0.6391736,-0.30530858,-1.049733,-0.7710225,0.54189986,0.13688236,-0.35999534,0.27929625,0.77606696,-0.11784273,0.27113608,-0.2329955,-1.0657694,1.504723,-0.44600365,-0.90914035,0.14789954,1.562415,-0.29683858,1.445575,0.3470366,-1.6456354,-0.94909286,-1.9907812,0.019261334,1.4404883,0.06933725,-0.13903835,-1.0849954,0.5574927,0.15665348,0.46725947,0.45729986,1.412839,0.32374808,-0.026203461,1.6073604,0.8362112,0.66689134,-0.3185581,-0.30818647,1.2554588,-0.34829608,-0.09123809,0.54532015,0.7185679,0.1832784,0.5500949,0.7405418,-1.3971884,1.1343801,0.23521785,-0.19612704,-0.47426465,1.0678668,-0.4019929,-1.6935439,-0.76671994,-1.1775379,0.14759219,-0.24048197,-0.55779845,0.15423834,-0.029044857,-0.8854178,0.54960454,-0.6341371,0.849263,-0.28187847,-0.6504048,-0.48710302,-0.02949779,-0.4056453,-0.27980325,-0.17884205,-0.53399247,0.54929274,-1.7977492,0.6093591,0.03224872,0.78764254,0.6141572,-1.813651,0.17904405,-0.30199078,2.0761092,-0.14740278,0.036149114,-0.5866763,0.16681701,-0.96476495,-0.8861339,-0.7046345,0.10053919,-2.3671517,-0.6976304,0.28480658,-0.47828108,-0.3981901,1.1793401,0.46869028,-0.80006194,-0.45597345,1.0850558,0.18069954,-0.1295952,0.9657538,0.478439,1.6558418,-0.120423265,0.98271275,0.7369051,-0.025649708,0.15475087,0.31636304,-0.6884826,-1.5049103,-0.13961917,0.1861205,0.26083347,-0.14230578,1.060002,-1.757336,0.078230746,-0.3503982,-0.12975243,1.0376529,-0.35468698,-0.5355014,0.36242086,0.39237842,-0.22431125,0.18270639,-2.6259103,0.7881236,-0.69533265,-0.12505595,0.73004603,1.8379265,-0.4634535,-0.16744462,-0.22335792,0.6244581,0.7706552,0.4050371,0.12172439,-1.1469623,-0.9423523,-0.26115242,-0.5165848,0.0918698,-0.5829691,-0.9134362,-0.46774557,0.97441393,-0.42586496,0.6204643,0.032249022,-0.99531746,0.70873195,-0.5614737,0.54722595,0.4768872,-1.4075581,-0.13795163,1.3275574,-0.5613389,1.1207455,0.6592577,-1.7094172,-0.14233392,-0.865183,0.02475449,-0.5732367,0.38868883,0.3026087,0.021071875,0.37778512,1.61238,-0.34455106,0.67872155,0.736911,0.6353049,-0.5622324,0.85721505,-0.48643133,0.26932883,0.27606094,0.3992844,-1.043917,-0.95277536,-0.83688307,1.8790323,-0.24776673,-0.91686016,1.1211646,1.3562331,-1.6688201,-0.27275783,-0.012152704,0.26450703,0.17436293,0.5574221,-1.0246729,1.215311,1.1850106,0
excellent,0.027039923,-0.12122329,-0.26081115,-0.41092622,-1.783692,0.53299236,0.3656134,-1.0821265,-0.18031901,-0.14746974,0.9549016,0.4190822,0.003464723,1.5698982,0.5214955,0.992289,-0.38277993,0.85584426,1.1930902,2.0142117,0.6469111,-0.33357555,-0.19216828,-2.3913517,-0.22276384,0.4975567,0.5024686,1.2718612,-0.42059198,-0.2591773,1.1695861,-0.4251238,-1.0685675,-1.1950243,0.5587717,-0.92327386,-0.5033335,1.0450968,-0.6792838,0.1734221,0.4252337,-1.1784331,-0.0886042,0.9526527,-1.3273338,-0.74359554,0.67723393,0.4736809,-0.934684,-0.13237083,-0.7055167,0.098629355,1.1024501,2.212494,-0.10422426,0.6126128,-0.875447,0.55266714,-1.210986,-0.4352907,-0.33142495,0.82157665,-0.058072694,-0.6912758,0.076811,-0.675401,1.4867687,0.61232835,-1.2382593,-0.1918429,1.0716324,0.5674699,-0.63651085,-2.1414766,0.7637658,0.24227086,-0.30925673,0.85819685,-0.029377304,-0.40689334,-0.31355074,-0.33960584,0.93872297,0.15899785,-0.50255865,-1.2854394,1.444644,1.0208983,1.1789999,-1.8472728,0.9045939,0.7847186,-0.3562372,2.028257,-0.7400686,1.5522205,-0.16774166,-0.6970713,1.203219,-0.3247581,-1.0916802,0.64282805,-0.49272817,0.22387075,-0.4190281,-0.4413238,0.58245224,0.122939296,0.9029821,1.1760659,1.338671,1.3549517,0.34356442,-0.05166496,-0.7547891,2.1710296,-0.2385226,-0.40019998,0.046696924,-1.6777548,-0.5270996,0.9580753,-0.7477275,1.4166169,-1.5644159,0.053240564,0.16474153,-0.9426403,0.10799828,1.5098711,0.852476,0.12601312,0.10004669,-0.52124184,1.6432782,0.28929645,-0.20234866,1.1992669,2.1296737,-0.26167905,-1.2079513,-0.7650353,-0.17861527,0.008740603,-0.6973642,0.2997982,0.5337804,0.118595354,1.3887874,-0.34631303,0.26036152,-0.27682334,0.91258246,0.8557929,-0.43452397,0.089265965,0.4464775,-1.211835,-0.41120094,1.8393415,-0.3079054,-0.9339932,1.1614982,-0.55751187,-0.69109184,-0.00354749,0.7164064,0.54174316,-0.709637,0.4249371,-0.22301698,-0.08522572,0.20177193,0.82894915,1.1127661,-0.92145264,-0.6024517,-0.41211993,0.27493116,0.6862803,-0.9243483,1.1814065,-0.7355104,-1.7829576,0.5103404,-0.32347083,-2.0213647,-0.69738346,-0.94096035,0.17555076,-0.27203432,0.88833976,-1.3510605,-1.1440678,0.8787122,-0.0512253,-0.43462482,0.9724081,0.30083698,1.354053,0.53539664,0.603015,-0.37000316,0.9041538,-0.5500659,-0.6400621,0.0038313835,0.48956007,-0.6079492,-1.2716906,-1.0357848,0.4757024,0.238603,-0.0076794312,-0.0052508847,1.5601934,-0.09923527,0.21557005,0.8044807,-1.4417874,0.20387718,-0.30051336,-1.4354782,0.9051711,1.6913087,0.13456684,-0.3000392,0.64417934,-1.1013927,0.5550236,-0.8343139,-1.3079584,0.8919851,-0.64184767,0.75504816,0.19413243,0.42393237,-0.75326097,0.4185946,-0.085854374,0.49445993,-0.74330175,-0.11935418,0.35402545,0.6292004,-0.5434241,0.17691301,0.35691425,-1.8050468,0.44537282,-1.3533235,-0.8260127,0.017770156,-0.46769562,0.7492758,-0.6015604,-0.36713913,0.5103052,0.6329464,1.9836186,-0.99529296,-0.42962584,1.4255517,-0.4068847,1.2894084,-0.8941129,1.3187795,-0.3885151,-1.5192875,0.5308608,0.2673462,1.2705584,0.104496114,0.5966108,-1.4270042,-0.35993442,-2.1977239,-0.16883346,-0.36062807,0.0871397,0.77729994,0.7461686,-1.9739599,-1.3123392,-1.1224606,-0.28678617,-1.0775328,-0.615248,-0.23855032,-1.8526125,-0.24631396,-0.6053406,-0.12278558,-0.40456617,1.3797599,0.0563325,-2.1186357,-0.78013974,-1.5725605,0.67288226,1.7824007,2.1711903,-1.2039608,-0.33431342,1.404676,0.19918214,-0.7533089,0.2874485,-0.54305744,-0.7902233,0.16253066,1.1940039,0.13595796,2.177241,-0.33426517,0.036956657,-0.19724926,-1.4511546,-1.0162519,1.4051017,1.5270374,-1.7853838,0.15818731,-0.1917978,1.2654651,-0.10791533,0.77117604,0.4037862,1.6032506,0.37999,2.1184888,1.1883036,0.61273146,-0.6522339,0.020457257,0.16259174,-0.3094883,-0.9242789,-0.0001900992,-0.029113237,0.26602337,0.82069725,0.097400896,-1.4866538,1.7462322,-0.25065392,0.12369601,-0.23431712,0.025044499,-0.2715755,-1.5497606,-1.6155629,-0.031600524,-1.0134444,-1.1096177,-0.408457,-0.35440925,-0.26775703,-0.6791772,-0.44865304,0.025819913,0.25495762,1.0784239,1.6522337,-0.10466718,0.20898853,0.5627297,0.31185558,-1.0629859,-1.833745,-1.4043623,-0.41167957,0.37138999,0.14205977,0.18944336,-0.38881382,0.43967912,1.027469,1.3274324,1.5137987,-0.561609,-2.718164,-1.3041024,1.5327536,-0.6930792,0.4828898,1.0074215,-0.7293694,-1.7250309,1.6807169,0.043348134,-1.0617777,-0.7399876,1.1212391,-0.10554984,-1.2116026,0.50649077,-0.94699967,0.06876942,0.124691725,0.47339132,-0.7896323,0.59834266,0.13884374,0.9027341,0.1313971,0.8330961,-0.8196151,-0.3129895,-0.9497196,0.19257428,0.8326002,-0.10011919,0.5325589,-0.13806602,1.4225909,-0.13502726,-0.2935582,0.79861075,-0.036160722,0.057469945,-0.16378598,1.8582432,0.7530738,1.0104566,-1.6024698,0.066034436,-0.37033948,1.1219022,-0.19555828,-0.6958436,1.4990592,1.3684952,-0.8705777,-0.14841996,-1.3929186,-0.044021994,0.8601204,0.5931051,0.7490012,-0.2834707,-1.1910952,-1.4312096,0.07327891,0.22032319,0.5257526,-0.39635572,-0.11362007,1.0008565,0.19630922,-0.7576605,0.24678032,0.07461113,-0.47415164,-0.64278156,0.68444943,0.0756016,-1.4405302,1.1363804,1.5768179,0.7684396,0.5837402,0.5463624,-1.2616894,-0.56100476,-0.8034611,-0.099466994,-0.45972654,0.85968643,3.0408525,0.4892908,-0.6821873,2.7436235,-1.4020131,-1.0623881,1.3657641,-0.023251288,-0.14427282,0.7870837,-0.32346562,-0.28622344,0.37371996,1.6938772,-1.1181114,0.7211193,-1.6204995,0.6613731,0.5243603,-1.099554,-0.28755194,0.612548,-0.66058236,0.6780588,0.37617546,-0.879259,-1.0991681,0.51699495,0.24695244,0.20809212,0.11317692,1
gifted,0.83338577,0.34011298,-1.0266855,-0.106217,0.7910882,0.17302807,-0.3488363,-0.12793896,-0.24446301,-0.10134519,0.021767259,0.049485132,-0.58200866,-0.13965003,0.2963065,-0.272024,-0.18688768,0.06767469,-0.08535032,-0.18069866,-0.4366213,-0.543271,-0.25367036,0.30701944,-0.119811654,-0.24186642,-0.21373244,0.56254154,-0.19696733,-0.20894168,-0.29830694,-0.45121822,-0.302092,0.4986784,0.03365586,-0.094854295,0.52749836,-0.060553547,0.003460054,0.250382,0.116532244,-0.3916548,0.17766424,0.39871398,0.0113904355,-0.108415805,0.6220065,-0.10594607,0.027342614,-0.42409888,-0.4647581,-0.1526336,0.18907492,-0.034670364,0.46639258,0.040792182,-0.1843192,-0.04747481,0.008859016,-0.047572076,0.08700817,0.84897804,-0.16241768,-0.11576029,-0.4761888,-0.32681566,0.2598245,-0.7093299,0.08061514,0.3672722,0.0863844,-0.33107027,-0.18522298,0.8105746,0.18449831,0.015049679,-0.45026648,0.13734789,0.18931948,0.2540118,0.19014497,0.0039375303,-0.010382418,0.23220482,0.20640434,-0.4928227,0.47387367,-0.5320551,0.081538536,-0.43391404,0.2094262,0.5315602,0.00032109374,-0.22528216,0.6646634,0.18805315,0.50485563,-0.5491868,0.08879675,0.072594576,0.041951977,0.2576397,-0.20827,-0.30319187,-0.10923608,-0.5600344,-0.14374249,0.20205557,0.33630517,0.101040505,-0.043800466,-0.10016324,0.31239673,0.46563283,0.34416744,0.047688313,0.05225304,-0.15292642,-0.038075417,-0.07660583,0.183351,-0.35119715,-0.60342044,0.37459657,0.026160257,-0.23725566,0.12263769,0.10738204,0.19001877,0.25701854,-0.35502586,0.3436787,-0.23379862,-0.13852474,0.24326472,0.044371653,-0.71113485,-0.4665146,0.102512926,0.25683588,-0.15852803,-0.29625624,0.74372,0.33220208,0.17755672,0.49054596,-0.048882898,0.15443377,-0.15877509,0.3969894,0.51060885,0.03478141,-0.14016795,0.031074133,-0.2927835,-0.26736006,-0.020123284,0.06809165,-0.15524267,0.19918919,-0.5425811,-0.20960139,-0.14402002,-0.07315499,-0.36205783,-0.22522676,0.74996483,0.4006874,-0.34984425,-0.0016923362,0.09319204,-0.098665506,0.3433112,-0.3834494,-0.13365665,-0.22370979,0.2845404,0.0464668,0.12730207,0.25149825,0.14807487,-0.04516072,-0.28975806,0.027013456,0.06315633,0.2373292,-0.3729706,-0.45122957,0.15095262,0.36036056,-0.527711,-0.056145042,-0.046892907,-0.15431668,-0.10909007,0.0018734618,0.8509152,0.005933999,-0.20137307,0.2928729,0.4111664,0.11413692,-0.09822139,-0.04003964,-0.12759937,0.41526464,0.3542179,-0.11865168,0.044847757,0.23335135,-0.12776992,0.36410928,-0.009808974,-0.37326896,-0.13936707,-0.24287175,-0.15857618,-0.13376984,0.26948273,0.17566277,0.036331154,0.24860516,0.3012099,0.41912198,0.6694828,0.25089335,-0.1641751,-0.5254265,-0.10637098,-0.13679042,-0.19776915,-0.00498322,0.1154128,0.35384727,0.007315069,0.06619453,0.16357365,0.08440007,-0.43526107,-0.49769813,-0.026245588,0.32291454,0.15265624,0.10654708,0.16418166,0.6889916,-0.2709865,-0.24608131,0.06983305,-0.4731039,-0.0024516527,0.04309087,-0.14148244,-0.31923413,-0.0028526736,-0.20044445,-0.016995149,-0.3367538,-0.11037819,-0.12966354,-0.013184275,-0.0142415,0.60743886,0.202865,0.21236171,-0.35614473,0.039598685,0.44694456,0.2427971,-0.08378034,0.3319235,-0.33331192,0.30271465,0.109713346,0.36942837,-0.17765272,-0.27665246,0.15610673,0.46179813,-0.3877035,0.059869427,-0.2031302,0.29326376,-0.17224596,-0.16292362,0.10893357,-0.043623626,0.5824649,-0.05878501,0.32481432,0.17940645,0.1579028,-0.16272518,-0.1420494,0.2370472,-0.1365923,0.40184397,0.080018,-0.038583953,0.1164701,-0.59338796,0.073441006,-0.079576984,0.11754416,0.6462007,-0.4557709,0.78987014,-0.026340699,0.056173656,0.23468696,-0.03307361,-0.13934693,0.2922862,-0.3876003,-0.5076955,-0.19570102,0.049376003,0.07747317,-0.08042382,-0.20286608,-0.013595626,0.49183232,-0.2469673,0.2161068,0.2645715,0.23077334,0.40342528,0.06319944,0.17802002,-0.07463974,0.26139158,0.4824053,-0.32723957,0.55287856,0.16905878,-0.21856804,0.08906086,0.115580864,0.420415,0.32090282,-0.08505542,0.24226186,0.06274317,-0.09176624,0.12913147,0.28465104,0.031478494,-0.1912925,0.028808603,-0.027297458,0.38485727,-0.25296783,0.24563356,0.49310723,-0.06142173,0.29738116,0.22262467,0.16700083,-0.056161873,-0.0056324587,0.4664402,0.03778354,0.044315208,-0.11339451,-0.24425122,-0.09934638,-0.16572738,-0.1517751,0.14811268,0.3105837,0.45458633,0.091786176,-0.17755124,-0.5879019,-0.27760705,0.36232945,-0.17987897,0.24344029,0.14744173,-0.28703964,0.21078178,0.18478358,-0.21111651,-0.42271405,0.5427819,0.042730983,-0.367651,0.023900658,-0.25773075,0.39594573,0.19043097,-0.2794897,-0.15486428,0.3687763,-0.17318377,0.40500692,0.15338986,-0.34242857,0.15587862,0.41271797,0.32048512,0.0684412,-0.29689103,-0.13287112,-0.36247432,0.025014903,0.16955689,0.23151672,-0.113375776,0.28880015,-0.042378817,-0.17295395,-0.0052338424,0.06791692,-0.12455452,0.14372747,0.17809594,-0.30364785,0.117555484,0.24714568,0.17157331,0.13132714,0.23951551,0.30114695,0.9146081,0.016703956,0.20864813,-0.23445752,-0.009279054,0.23857835,-0.20788969,-0.20033261,0.026749799,0.09704751,0.14842696,-0.0640186,0.33109593,-0.07992477,-0.22862433,-0.081409074,-0.33427766,-0.07900946,0.33577016,-0.1809119,-0.020688431,0.1538259,0.2757663,0.24345444,0.29836243,0.06314054,0.31967944,-0.28414834,-0.18874483,-0.2747877,-0.63863665,0.5531106,0.6034083,0.26389292,0.32060394,-0.22610246,-0.26515558,0.053025477,-0.58512634,0.16128832,-0.16621323,-0.0013290381,0.8380398,-0.21107413,-0.033234116,0.30907524,-0.12249179,-0.11155912,0.07789658,-0.00087287463,0.01748609,-0.43254644,-0.49667302,-0.3528815,0.42622644,-0.29443994,-0.22912417,0.07778738,-0.011413159,0.05597694,-0.33886573,0.37047315,-0.32237634,-0.019917421,-0.022780668,0.019683039,0.14741467,-0.2587273,-0.045968603,0.47244844,-0.53618354,-0.51806843,-0.25512266,0.30536088,-0.5117482,-0.07840843,1
superior,0.62472135,1.2358334,-0.40827352,0.89151114,0.0018508036,-0.24000037,1.7630771,-0.8297755,0.5002816,-0.71169186,0.53828156,1.5223844,-1.2546455,0.6547427,1.0259212,0.47242448,0.0005058211,-0.7134917,0.9308379,2.2533886,-0.34324595,0.78322136,-2.1959524,-0.66371554,-0.45532885,2.5341334,-1.0927542,0.5164727,-0.7397549,0.16047841,0.25347403,-0.20255516,0.43455842,-1.2921872,1.0294136,-0.38424763,-1.6284453,-0.095428824,-1.3779641,0.5241443,-0.39216387,-1.4706023,-0.46503255,2.2156708,0.14853232,-0.8642492,0.7002737,-0.61685854,0.49154687,0.06055697,-2.5024352,-0.4621415,0.31656525,0.73270994,0.053528674,0.93345636,-0.7828797,1.2079674,-2.0955331,1.2091053,0.84632206,-0.16008335,-0.9325393,0.0387854,-1.6774294,-0.47472814,2.6325343,0.0058890465,0.1443826,-0.3406942,0.8269302,0.6395118,-1.8561294,-0.5101379,-0.3353795,1.0542691,-1.4920164,0.8840055,0.8374503,-1.2896017,-1.4449339,0.63399196,0.11092195,-0.7138715,-0.21297444,0.69542176,1.4438945,0.8997336,1.8114449,-1.2502791,-0.28983444,0.70820844,-1.7585886,2.1034727,-0.61754185,-0.18138534,0.15135072,-0.87275887,0.8649609,-0.774421,0.8971557,1.1821148,0.35693538,-0.5095895,-0.80352443,0.6446213,-0.7513772,0.3626112,0.49952146,1.4614805,0.01391123,1.1339132,0.51904917,-1.8010263,-0.55735385,1.629753,-0.13247164,-1.4082309,-0.49808136,-1.3147761,-0.7017863,-0.6119847,-1.190213,-0.45385838,-0.066931285,0.5527879,0.88629925,-0.028688403,-0.644568,1.7900844,0.6810416,0.9218118,-0.8413175,-2.0570047,2.0911224,1.2114031,0.169916,-0.0953544,3.3461766,-0.2435482,-0.25957808,-1.6040252,0.06390647,0.3888019,-0.5088531,0.79351455,0.81661975,-1.0280887,0.112107776,0.8755874,0.4539049,-0.96839964,-0.032080237,0.5513585,-0.056183744,-0.64376134,-0.53950197,0.20628308,-1.5767872,0.57576275,1.2434413,0.54762584,-0.9880018,2.4957948,0.5697171,-0.62429166,1.1089927,0.35814068,-0.15246241,2.2417727,0.33152044,0.42743245,1.4313692,0.55230457,0.7459772,-0.7735757,0.3334369,0.22893004,-1.6345978,0.13971633,-2.3193378,1.8782365,-0.3960893,-0.76934916,-0.22907424,0.20317474,-0.39793763,-1.290744,-0.14477775,0.13424225,-0.75863004,-0.021285499,-1.8942087,-0.109908886,-0.9321522,0.3718713,0.8045744,1.5759875,-0.2794187,1.7623812,1.0506693,0.8681253,1.6904804,0.17069975,1.1354501,-0.16723856,-0.70522463,-0.5720449,-1.1498777,-1.2411348,-0.8495961,1.0931166,0.737547,0.09218521,-0.5551237,-1.7341504,0.18133087,-0.24991563,0.17769533,0.4426571,2.9496396,0.005229604,-2.3108497,1.1142484,0.56882197,1.5874909,0.2733632,0.74930215,-3.0325756,0.8172691,-0.28119892,-0.41245797,1.0464274,0.47800538,1.2736033,-0.38673723,0.40530488,-0.96749175,1.0171207,0.25360042,-0.042571347,-0.31854418,0.09466163,0.40025097,0.55396605,-0.39392802,1.5993044,1.5747,0.081056565,-0.7521176,-1.7707903,-0.18640897,-1.0556008,-1.5935376,0.59846437,-1.6499808,-0.536748,0.30289263,-0.43993503,-0.7144928,-0.30739865,-0.8032113,1.0759937,-0.21321185,2.5661945,-1.1872597,0.8578356,-0.052034933,-2.8902903,0.88507205,1.6854976,-0.64031935,0.74041873,-0.22807223,-0.47889778,-0.30932838,-0.3277817,0.20181884,-0.89864665,-2.4911466,0.04386847,0.94007593,-1.6880988,-1.6228746,-1.9814553,-0.5680054,-1.3309013,-0.71532345,0.066410914,-1.4027319,-0.42141914,0.15601711,0.53790796,-0.49506128,2.0390222,0.13282026,-0.33301994,0.06701356,-0.8040063,-0.034230966,1.3881673,2.1134453,-0.4987823,-0.7338444,-0.47099242,0.049454715,-1.2766553,-0.6913397,-0.6411075,0.4946589,0.8275613,0.42032862,-1.4654758,2.0161264,-1.1447959,-0.3899724,-0.4075156,1.4623195,0.0870935,-1.2360324,0.7879471,-2.9579396,-0.7086944,-0.24882978,1.194566,-0.85906905,1.0481025,-0.094289325,-0.53743994,0.7024,0.9900784,-0.14568071,0.17554018,-0.2910901,-2.6572566,0.60521996,0.048774485,0.73808724,0.6742148,1.7176864,-0.03810696,-0.94500256,0.35149476,-1.9101161,0.6056731,0.34762594,1.1300607,1.0312803,1.1325567,-0.8782566,-0.59288913,-1.1619207,-0.98373485,-0.80462503,-0.61246014,1.4227723,-0.50286037,0.7704382,0.6684305,1.3026961,0.50666445,-0.17735334,-0.25088882,1.4455578,-0.9244622,1.8499069,0.5886716,0.8000778,0.6130837,-1.56727,0.18567678,-0.9707587,-0.14823116,-0.629652,-0.3720108,-0.88622653,-0.46796155,1.1912187,1.263533,0.56119454,-1.1146185,0.02351764,-1.6660426,2.0106645,-0.68464714,0.81480837,1.7257433,0.6733682,-1.2947879,1.2227751,1.411382,-1.9991083,-0.90582526,1.0725696,-0.015986199,-0.72105026,-0.19939485,-1.4863458,0.829564,-0.1480226,0.094361305,-1.3535558,0.8715892,-0.16674976,0.15304676,1.6688647,-0.14969787,0.0015673974,-0.8682725,0.3161913,0.23352617,0.5310977,0.086336546,0.6189358,1.2001452,-0.15860079,-1.1291449,0.2249312,-0.05373888,1.0481511,0.14352912,-0.19758728,0.80345744,1.9070121,-0.37507343,0.6118582,0.36724207,-0.67191106,1.0307423,0.11973485,0.21985151,2.1715024,1.6124029,-0.47352037,-0.5384587,0.66293174,-0.07824985,0.011846038,0.00921345,0.2560792,0.038519174,-0.3724843,-1.1770476,0.6250804,-0.27708647,-0.21865529,-0.44068742,-1.4958999,2.0691533,-1.4767812,-1.0395142,0.9391863,0.65363383,0.22987571,-1.3118244,0.9712111,0.06308934,-1.3570787,1.074098,1.3038518,0.3195929,3.0705097,-0.17181785,-1.2984359,-0.7012231,-0.33892348,-0.9369805,-2.9709606,-0.96217257,1.0385728,-0.07928822,-0.11749784,1.8623208,-0.35646644,-0.7762992,1.1263658,-1.2344009,1.0568082,1.8728695,-0.86739343,0.9171606,0.59232455,1.2277726,-0.8823603,0.6154698,-1.9316933,1.2013404,0.62687695,-1.744469,-0.38722655,0.7506149,-0.33602297,-1.4789625,-0.39230934,-0.8363908,0.69630325,-0.5036168,-0.5071271,0.32244325,0.15542904,1
incredible,0.8821979,0.3866858,-0.5377285,-0.2630535,-0.08216796,0.20316081,-0.8445224,-0.8118881,-0.60883325,0.22358212,-0.1951728,-0.031731028,-0.09161511,0.22512569,-0.39427146,0.9056087,0.81999093,0.22428489,0.4970628,1.1679246,1.2082311,0.16007796,-2.0666194,-1.0733756,-0.12749954,0.6433394,0.018699626,1.0771801,0.24795373,-0.21548697,1.5206507,-0.23236789,-1.2306267,-0.23133592,0.3887843,-1.6469635,-1.2280375,0.5820462,-0.21515563,-0.588823,0.39566827,-1.5854045,0.2425473,-0.4452339,0.10799341,-1.4625942,1.05101,2.3104548,-0.23391424,-0.140047,-0.4253913,-0.30540484,0.81641173,0.6728668,0.74753267,0.48445597,-0.7932288,-0.062426236,-1.1703279,-0.5961884,-1.5959204,-0.03425574,-0.52665985,-0.3457348,0.2861151,-0.80766684,1.6723232,-0.37198275,-1.5266948,0.15228255,0.7405728,0.6486613,-0.023227708,-1.8672148,0.6679553,0.81464636,-2.0178525,1.0548003,0.5468178,-0.025796471,-0.071937576,-0.57013196,-0.22207844,0.29905272,-0.71118015,-0.9894955,1.2124254,1.7854522,1.2210138,-1.098075,0.39753348,1.9331458,-0.44618464,0.847016,-0.8401362,0.8937357,-0.3070964,0.46138942,-0.05774759,-0.91012824,0.07790613,-0.41151968,-1.1113725,0.3343881,-0.8279366,-0.49923596,0.0112165855,0.38140672,0.89374185,1.2323954,0.3279697,0.5707131,1.8993703,-0.91906315,-0.9060917,1.5929701,-0.05371133,-0.9145737,-0.6845881,-1.9232811,0.055857167,0.31542963,-0.6139639,0.3225996,-0.71317846,-0.35775304,0.07219797,0.323186,-1.0123024,1.74422,0.3184078,0.10028437,0.012915815,-0.26547268,0.32192522,-0.042954896,0.77754724,1.371382,2.1892753,-0.69363654,-0.39866075,0.430019,0.38537684,-0.79628265,0.46117535,-0.25083458,-0.657465,-0.5700964,-0.020467538,0.27696946,0.3760042,-0.16147123,0.21501243,-0.74168986,-0.34708473,-0.16812441,0.3574936,0.019344397,-0.5484483,0.8103915,-0.688492,0.1777472,0.92226315,-0.27685562,-0.4423614,-0.58417606,1.5033073,0.09887732,-0.71012795,0.70376897,0.3263269,0.31034088,0.9052463,0.30219564,0.09656539,0.031663366,0.2362117,0.12127908,0.28852293,1.5698795,1.1637018,-0.18193437,-1.1984919,-1.0160986,0.07966815,-0.25364155,-0.6146836,-0.4286086,-0.11158703,0.1994016,-0.30353177,0.49936652,-1.4393116,-0.9370195,0.10874775,-0.10249911,-0.4726078,-0.25513652,0.9525439,1.2055401,0.43128762,0.7040525,0.2649061,0.9043062,-0.104126126,0.38486013,-0.89517534,-0.16439182,-1.1777259,0.36579162,-0.6936869,-0.27867123,-0.053551096,0.25194517,-0.09016958,-0.039401,0.33361754,-0.13920502,0.397307,-1.3156512,-0.0021346514,-0.57324344,-0.07515181,0.7083419,0.9221414,-0.5078511,0.06467165,1.5606917,-1.0584189,0.16431823,-0.77841675,-1.0040034,0.03811254,-0.7763002,0.9826067,0.16038339,0.7363967,0.076655716,0.8485856,-0.26004884,-1.1794821,-1.0043191,0.17967333,0.5863887,0.48742893,0.20960768,1.3431082,0.8297137,-1.8107741,0.660049,0.57397777,-0.7078076,-0.002782269,-0.6179138,0.8820411,-1.1239475,0.024070585,1.5899295,0.18116741,0.6386753,-0.23716548,0.7177563,0.006662158,0.025853815,0.2599035,0.083050415,1.3978628,-0.29885113,0.115016446,0.46377733,-0.536229,0.9905837,-0.17543082,0.69163907,-0.8788735,-0.27495936,-1.9308976,-1.0155551,0.06527234,-0.5581969,0.3263662,1.0402718,-1.1007733,-1.3924493,-0.5180791,-0.7614545,-0.5473205,-0.9671222,0.48439008,-0.07087213,0.9251946,-0.21601565,0.78040034,0.26338345,0.4328448,-0.02418215,-1.3903977,-0.45336452,-1.7798544,0.22376055,1.0294874,1.4064705,-1.0090982,-1.5653528,1.3054875,-0.6787951,-1.4808589,0.0016746023,-0.2574845,-0.49962425,-0.5181848,0.7931109,-0.39662662,1.8402156,0.15096503,-1.0665051,-0.19430038,-2.9721649,-1.9246982,0.85668635,0.06142422,-2.2554243,-0.7389774,0.80950093,-0.43238285,0.19555144,-0.22663271,-0.96233535,0.30105522,1.0979329,1.4640448,0.25918925,0.054591183,-0.6510194,-0.72917104,0.64926744,-0.020490695,-1.0439783,-0.30271345,-0.083406016,0.23853368,1.3582557,0.42341378,-0.44728395,0.46796265,-0.78801423,-0.033038747,0.14041719,1.0315903,-0.45411202,-0.8499285,-0.7085949,-0.37727544,-0.2001878,0.2372505,-0.2868767,-0.34241447,-0.10591775,-0.019522103,0.34259602,0.037855115,0.5926295,0.788311,0.61719966,0.11148343,0.17213465,0.48731565,0.005611791,-0.05028589,-0.5974867,-0.19323394,-0.46092087,-0.80854964,0.30671945,1.597971,-0.26405355,-0.14778224,0.44559437,-0.64958674,1.3911213,0.31311792,-2.1711853,-1.0779171,1.3049927,-0.3526017,1.1075824,0.49454024,-0.8988191,-1.4267628,0.42959657,0.4562974,-0.33549917,-1.2609006,1.4618186,-0.37547785,0.5150697,-0.46636963,-0.4296295,0.54201156,-0.048101444,0.2515562,-1.2895113,-0.18758881,-0.1035371,0.9481295,0.7602738,0.6856504,0.38192037,-0.595077,-0.50334674,0.3284915,0.9394642,-0.4381407,-0.47234178,1.216373,1.7001668,-0.52417743,-0.7718865,0.5825551,0.81485945,0.47690624,-0.3867044,1.0869466,0.7959591,0.22052383,-0.031842545,-0.49897397,-0.0025571059,0.7409846,-1.0372716,0.2114668,0.68898475,0.32793435,-0.07313813,-0.48491034,-0.3229486,0.82265574,1.0086424,0.3609388,0.7311245,-0.45679384,-0.49656036,0.70825785,-0.68632853,-0.073409446,-0.38989553,-1.3059106,0.23853485,1.7235751,-0.7106811,-0.6717138,-0.5565063,-0.66715676,-0.64327407,-0.5494489,2.4397635,0.09174357,-0.013949609,-0.16814828,0.82815105,1.0567315,0.12432229,0.44168875,-0.42768827,0.5612716,-1.4866918,-0.14402932,-0.5757414,2.160477,1.8934231,-0.19202186,0.20065093,1.7650636,-0.7263559,-0.5469602,0.941637,-0.20341593,0.31127426,1.451077,0.0014732545,0.15536834,0.02562733,1.5149546,-1.377932,0.26936886,-1.8871866,-0.68850946,-1.0621246,-0.6335721,-0.36482236,-0.0024633142,0.7107155,-0.098516695,-0.19640969,-0.62935024,-0.7194179,0.46332756,-0.40984085,0.31169918,-0.067505054,1
wrong,-0.5990296,1.8228668,-2.0780914,-1.2504104,0.8206085,-0.32635427,1.1013155,-1.0708686,1.1527393,0.420373,-1.6054524,0.48564598,-1.3155681,-0.90195954,-0.2531438,-0.010393469,0.7706508,-1.4833649,0.7985043,1.2219366,1.8088696,-1.0091655,0.69648355,-1.3640198,1.1900704,-1.2896873,-1.5187901,2.1590934,0.41058773,-0.0752975,-0.9384154,0.26860255,-1.8308364,1.2295482,0.6411984,-0.18301713,-1.3732314,-0.47908664,0.484764,-1.2188889,0.65135753,0.1570744,-1.73824,-0.84297097,-1.0802222,-1.0707434,2.7231426,-0.46963972,1.7009292,1.826756,-0.7529838,1.5861988,-1.6662105,-1.4416288,-1.3583118,-1.3586677,-0.03792727,-0.16751176,-1.5797586,0.8989543,-0.13240269,-1.3616501,-0.9317535,-0.18243493,0.4084484,0.67669106,-1.4937314,-0.059927933,1.423244,-0.22926031,-1.1777259,0.9072504,-0.29988378,-1.9166907,-2.4607313,0.8169603,-0.7695182,1.0302799,-1.753722,-0.10338377,0.16993786,-1.608421,-0.9059559,-2.4571161,0.4759734,-0.8492689,0.9101923,1.4791178,-1.6023023,-0.0029459924,0.27770293,0.59887064,-0.78978705,-0.84104866,0.08495052,-0.9254289,0.69917977,1.9098401,0.41679022,-0.19124883,2.5604944,-0.48943654,0.38447276,1.0907909,0.9850178,0.01603017,0.880594,-0.014830806,-0.28037065,-0.47168207,-0.705195,0.5558747,0.961141,-0.3029447,0.25411353,-0.68039715,-0.35085768,-1.0834514,-0.23507828,1.1655191,2.3787153,0.16082157,1.875682,0.41112062,-0.26452804,-0.28685346,0.8934452,-0.15053728,-1.57113,0.5651117,0.23532148,-0.2155966,1.1347178,3.122292,0.3249303,-0.5557809,-2.1871445,0.901526,0.059216402,-0.46222466,-0.6955594,0.25164664,1.0892048,-0.23578751,0.8705693,0.14646165,-0.20676012,-0.4875489,-2.0199995,-0.072337136,2.5879467,0.32466257,-1.0945574,0.12872577,0.28021666,-0.44600186,2.038085,-0.029697284,-0.53451514,0.30449894,-1.7243712,-0.0026804341,-2.1503043,-0.3817605,0.5365641,0.2127248,0.48714313,-1.3040128,0.31915495,-0.47456524,1.1240978,-0.663732,-0.8164284,0.094338045,1.1399648,-0.04674274,0.4037872,-0.9843844,0.75958943,-0.34567466,2.530042,-0.20950836,0.026806934,0.6368345,0.5245336,0.74180037,1.3828735,-0.071908146,-0.93280655,-0.5156749,-0.09372209,-0.11937996,-2.0770342,0.1553993,-0.8867565,0.3965858,-0.48466355,0.3654996,-2.4423778,0.6597948,0.14198196,0.40766078,1.1454053,1.1357929,-0.5803092,0.43928292,-0.28434056,-0.51137847,-0.5578485,0.8989467,-1.0086175,1.1540667,-0.51169604,-0.46164554,0.43885958,0.5214454,1.0108544,0.17336287,1.8373271,0.8518127,0.24394596,-0.37979046,1.6634147,0.23682593,-0.5948561,1.918445,-1.3619295,2.04364,-1.6377801,2.1227934,1.3520465,-0.35105222,-0.56850743,-1.8409339,-1.3262972,0.9588435,-0.33216584,2.4906542,1.1812042,-1.3660948,0.004664975,-0.76694816,-0.46056372,-1.8085561,0.23183924,0.9427865,0.61806685,1.5272242,-0.6572068,-0.9503596,0.24904723,-0.07857339,-0.11439165,-0.43139416,-1.6038126,0.5598847,0.70989245,1.4449042,1.3813758,1.0692098,-1.29815,-0.57595885,0.40206468,0.84316176,-0.9977189,2.0537062,-0.7612202,0.20676921,1.6501242,0.40164864,1.3540945,-0.7047441,0.072057694,-0.4604864,-0.9746022,-1.4556464,-0.6514173,1.8307937,-0.28683394,1.2811847,0.989649,-1.1263634,0.004988802,0.066443525,0.8286787,0.68939644,-0.7341094,0.03642323,-0.54291135,1.8767525,0.40606162,0.4703952,0.24084608,-1.5817921,-0.8925349,0.37871444,-0.61246175,0.10165899,1.1069107,0.22420144,-0.26919547,0.5655675,0.20091558,-0.22011553,-0.21385248,-0.8258492,1.1009996,0.81567603,0.50981736,-1.9928402,-0.62571645,-0.82200646,-0.16046946,1.4940286,0.22979733,-1.2026393,1.0747862,0.40148547,-1.3465296,1.2289503,-0.7365464,-0.15731844,0.1478107,-1.0233134,-0.6201334,0.5197752,2.468266,1.3989972,1.0246552,2.3863442,1.6108526,0.8936058,1.6641533,-1.0070949,0.2816131,0.40221894,-0.5222411,-0.07611947,1.3512431,-0.55182207,-1.4493743,-1.3127396,0.59341407,0.25076404,0.3867063,-1.4361494,0.7761755,0.955342,-0.9400005,-0.2750916,-0.9496354,-0.3853751,0.20509431,0.35717788,-1.3796363,1.2848089,1.7832862,0.11631148,-1.2920008,0.6788794,-0.86961377,0.050189048,-0.29407248,1.6556307,0.3517871,1.4368862,-0.552764,0.69535,-0.81222594,0.74595684,-0.066011764,0.41488394,0.2061155,-1.0870926,-0.33592725,1.2103183,0.71576864,0.3770148,2.1479933,-1.1842691,0.5768354,0.14068876,-1.275649,-1.5889796,-0.13266525,-0.83691835,-0.24931239,-1.2635292,-0.31360886,-1.0559828,-0.524331,0.24456738,0.8181034,-1.0575228,-1.5451764,-0.7353164,0.43317825,0.06737822,0.83765256,-0.31152287,1.685753,-0.0009838201,0.09817198,0.68560773,-0.39347515,0.48363432,0.60940975,-1.5861651,0.40572274,1.2299522,0.09989461,0.23763369,0.08798024,-1.7129864,0.12163286,-0.99475586,-1.8146466,0.18415162,-1.3822315,0.19499834,-0.3615166,-0.7902857,-1.1958714,1.1456217,-0.687806,-0.06447262,0.4218514,0.4269717,-0.022497976,-0.6340993,0.30883297,-0.844982,-0.26813984,-2.097956,0.30251446,-0.76118845,-0.31413904,-1.175777,1.6230417,0.37255207,0.5677343,1.1182787,0.58012855,0.787872,-0.5482311,1.6951071,1.0963354,0.84813845,-0.6375402,-1.8130498,-1.2692183,0.12921137,-1.0089097,-0.49294108,-0.31869435,0.5012432,1.1668777,-2.8821347,-1.0492532,0.4955617,-0.1567354,0.6816929,0.105636016,-0.38146135,0.6453113,-0.7960616,1.6505287,1.003433,1.0343498,-0.605235,-1.5110027,1.1496639,-0.9640391,-0.929379,0.6458064,1.1204137,1.099308,0.53903925,2.1375158,-1.2050184,-1.455677,1.5624112,-0.7698973,-0.17951763,-1.2463095,-1.7565433,1.4053057,0.06998219,-1.4862245,0.07296725,-1.0945418,-1.5427296,0.46550956,0.63612777,1.0808951,2.0472693,0.81166154,-0.70987093,0.17577185,-1.4127905,0
good,0.423013,0.5147343,-1.3481554,0.19843388,-1.9317821,1.7692683,-0.25822297,-1.9934695,0.45317993,0.10273232,-0.1691942,1.0145408,0.2049703,0.938547,0.32524705,-0.08827768,0.11177799,0.39256394,0.9254751,3.6693597,1.0255215,0.079089805,-0.010196315,-1.5779457,0.06412929,-0.290494,0.42894998,1.2562671,-0.36145654,0.16063415,1.5182594,-0.67920196,-1.174739,0.017850526,0.025514307,-0.81231046,-0.10250735,-0.2814566,0.06330249,-2.0323415,0.47455618,-0.5348519,0.94497675,0.5776157,-1.3796139,-1.2719694,-0.708759,0.5178508,0.4114434,-1.3964367,0.4298935,0.056584667,1.3422897,0.90980285,1.0527855,0.7694467,-0.09964074,0.52019507,-1.8473636,-0.67067677,-0.20342568,0.42529348,0.024268648,-0.8795876,0.42558062,0.5738252,-0.6221587,-0.058118273,-1.5002918,-1.0094901,0.79902,1.29851,-0.007620049,0.21661426,-0.9216909,-0.3336233,-0.18475847,-0.28470472,0.3857703,-0.5070486,0.77614754,0.105957896,-0.75049764,-0.99128425,-0.6766319,-0.6214558,0.32696506,-0.2971529,-0.6635904,-0.44544712,0.25765404,0.50152093,-0.4092066,1.321722,-0.17785485,1.2062043,1.6693344,0.65976703,-0.37079078,0.73960406,-0.98254734,-0.61224437,0.03244773,0.64839906,-0.052543577,-0.62385356,-0.27775118,0.188941,0.40729886,1.5626998,1.1336353,1.5062246,0.032532785,-1.333961,-0.28522032,1.9118325,0.13996929,-0.06091615,1.0254123,0.801037,0.6526695,0.52875435,0.46926975,1.1447589,-0.5624732,0.34404254,0.86033523,-0.20359264,-0.4560428,1.7432762,0.87368643,-0.49714202,-0.44911337,0.5943363,1.3297087,-0.4293274,0.04421622,0.9279259,1.0435556,-0.63797516,-0.62164724,0.6017977,-0.76905733,0.23420125,-1.8786857,-0.9913827,0.14166613,-0.27780256,1.6603084,-0.5145196,-0.39413354,0.61588436,0.7693115,-0.040211715,0.74394244,-0.5992399,1.236815,-1.7351311,-0.79778934,1.4630083,-0.3947206,-0.30160195,0.35799718,-1.3178531,-1.5704759,-0.48613954,0.6564269,-0.19555908,-1.7173549,0.04740247,0.5954304,-0.5272725,0.7470173,1.6396105,1.5891486,-1.8183373,1.0579746,-0.5799946,0.30643448,0.71257716,-1.1197021,-0.30973724,-1.6623689,-0.04916774,0.6878815,-1.2007159,-2.1502135,-1.7641943,-1.0641195,0.16864547,0.49401256,1.6461238,-2.5657282,-2.0645833,-0.06382541,-0.3344433,0.3047892,0.95648974,1.6710234,1.5565176,0.17106597,0.27218315,-1.0192169,1.2076031,-0.589516,-0.15673023,0.14766051,0.49507135,-0.55901575,-1.1658819,0.012865327,-0.38510847,0.027652806,1.1263373,-0.31693697,1.2723268,-1.3906257,0.82483935,1.0841995,-1.525186,-0.1428324,1.2230551,-1.117249,0.2259511,0.41752234,-1.1821103,-0.8389688,-0.6059849,-0.9975211,1.144488,-1.4077305,-0.30790788,0.18761644,0.07822014,0.661363,1.6629691,1.7852541,-0.6939874,0.43554252,0.527396,0.92178106,0.29418102,0.2353693,1.1036091,1.0806407,-1.2057816,0.4611902,1.1195227,-1.0176779,-0.94859904,-0.35314617,-0.28015378,-0.66757303,-0.33914194,0.20741776,-0.31984422,-1.5676156,0.83959854,1.6570952,2.152144,-1.275017,-0.88851094,0.6086167,-0.3224893,0.010869003,-0.5649748,0.56453955,-1.0921861,-0.7916025,0.7609421,1.4409555,2.1654007,-0.31030414,0.24828555,-1.5966182,-0.46326125,-1.8244219,-0.28451422,-0.25292453,-0.445894,-0.43062717,0.18317327,-1.604427,-0.45819008,0.015201322,-0.019974565,-0.96866727,-0.8290295,-0.20646158,-0.38043347,-0.58471316,-0.030755084,0.20076436,-0.2901156,0.35823986,0.7280224,-1.5646759,-0.4680456,-1.170493,0.6024294,1.4401509,1.4462609,-1.4854177,-0.46548337,0.5684926,-0.96345586,-2.0311933,0.38979232,-1.0333582,-1.6016283,-0.018914683,2.1443243,-0.53353137,2.2758477,0.7699742,-0.43880644,-0.33096778,-1.2504199,-1.4600502,1.3197057,0.68127114,-1.8542926,-0.4630346,-0.49944115,0.07447112,-0.5709934,0.38582656,0.19572091,1.7656138,0.2089556,1.1029625,0.36056188,1.4222869,-0.6731676,0.43524295,0.57827187,-0.109731115,-1.3728493,0.37275407,-0.45256144,0.30364984,-0.21433,-0.28338045,-0.7574369,1.5995103,-0.41618758,0.38572398,0.84015185,0.06249406,-1.167204,-1.6725495,-1.7873273,-0.35472,-0.89631826,-0.31018174,-0.60352886,0.90020883,0.23483908,-0.9091571,0.3173859,0.7027856,0.3111155,0.44438142,1.8453658,0.22119461,0.4787992,-0.5375752,0.4877409,-0.5851872,-2.2414076,-0.87661374,-1.4237976,-0.27007645,-0.0848271,-0.08751002,-0.3621433,0.74442667,0.25642177,1.8546518,2.2338607,-1.0385392,-2.6371508,-1.7714747,0.58068216,0.234263,0.04330569,0.25288177,-1.5780897,-1.6138812,1.311656,0.73283476,-0.85818493,-0.11968942,0.5865369,-0.7406695,-0.98397106,0.71883285,-0.314736,-0.45259586,0.24835315,1.0085782,-0.19392276,0.22615428,-0.29502594,0.90716475,0.061025754,0.10171604,-0.92754984,-1.1466869,0.126944,0.5827659,0.6926994,-0.36192805,-0.43816638,0.40224707,0.7482804,0.7343036,-0.33997282,0.08420627,-0.6710939,1.9536834,-0.18992463,1.2863716,1.5187588,1.0465305,-0.6798841,0.23977984,-0.23565647,1.5430076,-1.0627522,1.118692,0.43007126,1.1545954,-1.4015088,2.1765757,-0.05932022,1.2673424,0.6528265,0.47902375,-0.03141278,-0.12761222,-0.6824195,-0.7732525,-1.3157308,-0.46477607,0.24527448,0.16213235,-1.0174277,0.77264607,0.12282127,-0.44440195,0.4870508,-0.14891161,-0.120462574,-1.2493067,-0.4515011,0.62231463,-1.7404412,1.4414227,1.9996833,-0.40641552,-0.51723665,-0.212042,-1.5397651,0.97657394,-0.43272537,-0.3696587,-0.9011875,-0.4002563,1.6437368,0.7473711,-0.13917752,1.987607,-1.004605,-0.010592925,1.8208817,0.11685541,0.26014757,1.5178679,0.9381796,-1.0391718,0.30600768,1.406951,-1.6261472,1.3866011,-1.5859942,1.0462841,0.7804811,-2.3444402,-0.7395744,1.1950934,-0.55663955,0.4334285,-0.24612617,0.037093524,-0.4396377,-0.82647866,-0.29648495,-0.28030422,-0.41923985,1
interesting,0.12191204,-1.8602405,0.39370838,-0.56749845,-0.3989314,-0.46098214,-0.5593892,-0.6132458,-0.6590529,-0.38724187,0.2559414,0.45738503,0.497408,-0.46824813,0.72161466,0.011828354,-0.43888593,-0.33076444,-0.4541763,1.0905508,1.1640294,-0.28943056,-1.1708232,-0.73681694,1.5756462,-1.4865934,-0.1970284,0.9837397,0.45723844,0.118544914,0.053639773,0.7682616,0.5373191,1.2025256,-1.4342557,0.33633193,0.80332106,-0.7411678,-0.2685369,-0.72608304,1.4169804,0.21080694,1.679158,0.20302685,0.19563663,0.46108955,0.93426657,-0.6659479,0.11445522,-0.92547995,0.4403127,1.1486526,-0.092025675,-1.1902757,0.33913842,0.35165656,0.10587054,0.2611615,-0.76411396,-0.5778795,-0.20613125,0.254472,-1.2883261,0.41188106,-1.4941504,0.92693937,0.67200637,-0.52519894,-0.37964776,0.5860636,0.24006784,0.12270982,1.2072682,0.76905817,1.3937991,1.1287736,-0.48143256,-0.36327466,-0.18443112,-1.2526804,0.0921859,-0.6590157,-1.182203,0.80324256,-0.4357733,-0.8302518,-0.04209943,0.78142905,-0.1282611,-0.051034544,0.32554665,0.12979485,-0.49194002,0.062831394,-0.33974147,-0.5207022,1.8243126,0.06914919,-0.102120645,1.0548671,0.46558732,-0.08327725,0.72487384,-0.44908774,0.81404114,-1.6505637,0.16878068,1.0511461,0.7074859,1.1521609,-0.3161092,0.681405,0.059829686,-0.2918146,0.015487773,0.46951672,0.4890867,0.21752319,-1.630342,-0.92693734,0.7640784,-0.3991881,-0.09636538,-0.024399163,0.34218583,-0.7704394,0.64334184,0.16971716,0.60812694,-0.5742496,-0.7883645,0.23546404,0.1641398,-0.2974504,0.7308708,0.2737223,0.94042814,-1.1220897,1.2991049,1.2824585,-0.82458943,0.6383064,-0.5821709,1.0280396,0.4719083,-0.2105562,0.27996475,-0.16465895,0.5809929,-0.21542925,-0.9244158,-1.5961303,0.09973527,0.32287753,-1.1586307,-1.9227695,1.1049905,0.16140859,-1.5062308,0.5455714,-0.576026,0.3061355,-0.2908768,-0.26734996,-0.12000806,0.97553563,1.8973843,-0.22587298,0.6959188,-1.0773278,-0.7000268,0.19096152,0.006600286,0.46718353,0.7041384,-0.964501,0.50475353,0.5453176,-0.96804875,0.26055986,0.68081725,-2.0653377,-0.8875625,0.28005216,0.8068286,-1.5772387,0.032708913,-0.36252937,-0.26284978,-0.79437405,-0.7458071,-0.034472942,-0.21006928,-0.116823405,0.31206733,-0.73466337,0.5306425,0.104937196,-0.16098292,1.6379075,0.4598464,-0.372717,-0.39728004,-0.14611815,-0.14077686,-0.40578058,-0.94312984,-0.25249392,0.028112836,1.4044127,0.49826407,-1.3744469,0.13522142,0.5974852,-1.664222,-0.19893573,0.3145799,0.9124018,0.6907869,0.88350636,-0.5930721,0.35192823,0.20092425,-1.0458823,0.92217827,0.087547675,-1.0043972,0.6509867,0.018369444,0.7238741,0.2789733,1.2854829,0.15480381,-1.0397422,0.23022929,0.06197864,1.4602971,-0.17706361,1.0519953,0.38098732,0.15007745,0.26939318,0.42355818,0.019953357,-0.47102374,0.22703241,0.9820722,-0.9775899,0.27132103,0.16774246,0.32678133,-0.19876108,-0.21373463,1.2458186,-0.7279584,-0.8582434,-0.008266111,-0.6788422,-1.4142048,0.5600665,-0.50895125,-0.45840254,0.9460819,-0.52421385,-1.85376,0.033130262,0.24145421,0.09011082,0.7896008,0.69805616,0.4251856,0.7057885,0.39386734,-0.16115591,-1.9917943,-0.45510837,-0.12800087,-0.27422693,-0.22501193,-1.8286272,-0.5660902,0.24013211,0.01586898,-0.1415743,-1.094307,-0.43613023,-0.579134,0.3497061,-0.9728966,0.40666848,-0.73612314,1.1011513,1.331864,-1.8670133,-1.3620945,1.1474648,-0.6809312,-0.28044978,0.2512234,0.21519953,-0.50820196,-0.22760606,0.23831525,-1.738395,-0.15884374,-0.30991268,-1.6569811,-0.902602,0.46272406,0.0778684,0.8092962,0.067655385,-0.37672383,0.2690126,0.9104446,1.3376634,0.9244578,-0.7237186,-0.44290724,-0.32976174,0.15232313,-0.36248714,0.4452054,0.737521,-0.51003045,0.7575928,-0.15793592,0.18486057,0.31557313,0.19527091,0.07952271,0.16634995,1.1277181,-0.52122325,0.08818669,0.070555165,0.82753456,1.091532,0.5121318,-0.123675175,1.2590952,-1.430309,0.054965373,0.32051134,-0.94239455,-0.058502372,0.10391017,1.9469287,1.6062896,-1.2177352,-1.1796117,-0.9986814,-0.8394879,0.54824746,-0.9782215,1.0197101,1.1914344,-1.4833529,-0.60481375,0.44509265,0.62438524,-0.93448293,-0.61800647,-0.3116774,-1.1242704,0.26694813,1.0487051,0.5881204,0.41344514,1.3858389,1.0588558,0.81521356,-1.1793486,0.077402055,0.19919394,0.087854475,0.0044818283,0.5914861,0.48973393,0.8455913,-0.3078724,-0.61813086,0.5315327,0.686512,0.40435192,-0.25376534,-0.12108485,-0.5401095,-0.25683108,0.8114714,0.24837063,-0.69471425,0.424305,0.47666636,0.6016158,-0.15361895,0.60388464,0.4150857,-0.58127564,-0.058008995,1.812575,0.32214642,0.47324625,0.18920697,0.11825351,-0.7891947,0.46963763,0.51762486,0.20149961,0.7500288,1.4456781,0.6331104,-0.2499125,-1.4341785,0.6244683,0.74071145,0.55696785,0.2467614,0.38068473,-0.8927769,0.3941657,0.108540416,0.50877565,0.9484301,0.6925134,0.6090865,1.5265324,-0.36564285,0.6800706,-1.0478625,1.3733438,0.06660701,-0.8198159,-0.9903026,-0.50483364,-0.13549174,0.30435985,1.1081303,0.29947847,-0.042419285,-0.17720558,1.4461862,-0.522411,-0.71755475,-0.009017852,-1.3995198,-0.46877027,-0.269174,0.39721942,-0.63928485,-0.05916946,2.1587193,0.510687,0.445887,-0.3302067,1.1839206,0.55461097,-0.7441186,-0.73569596,0.18562089,-0.43971056,0.406881,-0.34400225,0.1461491,-0.21712933,-0.4530337,0.3049053,-0.2914855,-0.580531,-0.13627386,0.7388815,-0.42153147,1.1049883,-0.41045746,0.08307154,0.074970104,0.2198646,0.49696293,0.76635087,-0.5230613,0.38888273,0.5785773,0.8409025,-0.50702846,0.07043236,-0.81114215,0.86145073,-0.47610077,-1.0998689,0.36400387,0.5652049,0.5600292,0.11345292,-0.3181257,0.899905,0.3269078,0.5602321,0.8235755,-0.14847547,1.4588207,1
bad,0.5343104,1.0223954,-3.691418,-0.80715036,-1.6352496,2.0315177,0.029812448,0.50659686,1.6640713,0.050022233,-0.8536893,0.55368084,0.49609473,-0.43707967,1.5200171,-0.6788262,0.54052633,-1.1636845,-0.27249992,3.8144271,2.170612,-1.3166802,1.262028,-1.1051244,1.0715262,-2.104575,-0.36013615,0.6946438,-1.1347251,0.067346975,0.4358075,-0.4136658,0.20672257,0.06392392,-1.9591898,-1.4563317,0.2145062,-0.5946029,0.0234268,-1.1941541,0.08397001,0.20005025,0.78073925,0.057847507,-0.17453972,-1.8398631,0.46819076,-0.09931688,1.2017537,0.13160358,1.9917431,-0.7484483,1.9094849,0.5257619,-0.29132053,0.8401781,1.607194,0.57873744,-1.5546846,-0.7030912,-0.19041692,0.22200933,-0.11306158,-0.18179956,0.3210607,2.2931316,-1.015843,-0.99316156,-0.028979216,-1.1809524,-0.21405211,1.1558626,-0.72833806,-0.57812417,-2.3410735,-0.8155061,0.49549332,-0.47354037,-0.59403265,-0.9591652,0.5902594,-0.9935245,-0.8821143,-1.332557,0.43464616,0.32722753,0.45293778,-0.3007114,-0.2944364,0.047438722,-0.33584845,-0.89630693,-0.66855925,-1.7439029,0.9303856,0.43151304,0.9201286,1.383223,-1.0482676,1.0136571,-0.73676956,0.29719502,0.6174036,1.0527831,0.74181336,0.0734872,-0.104161225,1.8562734,0.16335844,0.13008988,-1.1965961,0.13117002,0.28200686,-0.99328065,-0.47990087,-1.0217953,-0.49407148,-0.51206154,1.9944966,1.6077399,1.0588298,0.4073547,0.56084204,0.6262105,1.7130815,-0.532478,1.2838506,1.8653162,-1.8071064,0.84972924,-0.3163496,0.22189073,-1.1750638,2.1793654,0.66419524,-0.30646235,-1.236495,0.7444492,-0.12329311,-0.13681023,0.30683464,1.0390662,-0.006559689,-0.18116526,-0.13144334,-1.5992941,0.32211944,-0.51457316,0.12972079,0.88790536,-0.30941203,-0.06234153,0.10773594,0.47338226,1.090154,0.16244495,0.74157023,-0.1302781,0.11359058,1.0734154,-0.0036197267,-2.3137774,-0.41851315,-1.1916295,-0.81591225,-0.21760917,2.1998239,-0.9381122,-1.9784185,-0.22035015,0.06373673,0.010689689,1.73837,0.6247877,1.8700581,-1.3276383,0.55453414,-0.54543775,0.040454794,1.5277363,-0.4683531,-0.55990016,-1.3640604,0.5356666,-0.46544632,-0.5483434,-0.3051615,-1.8344955,-1.5441965,0.6680657,0.85026675,0.7106275,-1.8852855,-1.4021791,1.0119534,0.027278036,0.5381631,1.6078283,-0.15253244,0.95392716,0.9125183,-0.0037631814,-1.3826392,-0.022312349,0.49028528,-0.6040691,-0.55479836,-0.8823845,-0.30133882,-0.38224745,0.8085178,-0.8125087,-0.37478083,-0.3652408,0.039576292,-0.27855644,-0.096739896,0.14495552,0.4884838,0.27988148,0.8711571,0.054614425,0.089992866,0.076729536,-0.6893865,-0.98153186,-0.6744503,-0.06746739,0.06313711,1.2916598,-0.89729613,0.8173774,-0.27762774,0.17201133,0.16877021,0.87540156,1.752523,0.40459117,0.06992034,0.5559723,-0.08990769,0.02128458,0.3906246,-0.49341387,0.68972385,0.80276364,-0.26282424,0.91053057,-0.9747732,-0.8741044,0.3294332,0.492651,-0.85790485,-0.109991126,-0.23982291,0.20836964,-0.73071486,-0.9681149,1.8083426,0.9142665,-1.3255454,-0.00976718,-0.354529,0.07699747,-0.4457805,0.8745742,0.42215246,-0.9106715,-0.51249784,-0.31106246,1.2867315,0.26524976,0.12770218,0.2892618,0.40679407,-1.0513456,-0.48440436,1.0539298,-1.2480986,0.69290113,-1.3190781,-0.57597166,-1.911772,0.68387586,0.38637778,0.24953882,-1.3668749,-0.2922825,-0.4916176,1.593647,-0.07704488,0.54997325,0.07823503,-0.5898403,-0.898896,0.23252228,-0.40302217,-0.29750922,-0.42507628,-0.3039001,-0.9997297,0.3745216,0.20235872,0.18171646,0.313582,-2.6153514,-0.9632679,0.80054635,-0.2481252,-1.115132,-0.33718055,0.01778715,0.12931067,1.6064044,1.042717,-0.92946476,0.51535743,-0.52662456,-0.14768057,1.0354191,-0.21417175,0.26831183,-1.3518081,0.0887172,-0.5199515,0.6774553,-0.020811688,1.0371662,1.7714113,0.37550098,0.47186524,-0.38090175,2.2651172,0.0023577437,-0.42608538,0.7921676,-0.9483152,-0.95695287,0.3106441,-0.3295491,-0.11890879,-1.0665525,0.24507321,-1.6531932,1.2896501,0.8354593,0.58458453,-0.28934103,0.41588295,-1.2132069,-1.6051301,-0.91229653,-1.7178422,0.548564,-0.097291164,1.0033003,0.931269,1.2253405,-0.3120105,0.21966968,-0.14381704,0.11391564,0.28135353,-0.4881016,-0.5333225,0.48008302,-1.4284912,0.4850016,0.3326657,0.12559359,0.96180123,-1.2509696,0.3757099,0.4635098,0.7494432,2.2058258,-0.9647012,0.06759542,0.43258122,2.1660166,0.19419596,-0.3176962,-0.6248705,0.050457325,-0.29030398,0.10136352,-1.0271014,-0.27364042,-1.7934225,1.4159136,1.0434886,-0.532732,0.84097564,-0.18759395,0.6172983,-0.9572736,-0.40388006,0.18748778,-0.44718894,-0.079905495,0.5067838,-0.6337684,0.49078742,0.40149906,0.12613292,0.09651984,0.59869623,0.077084444,1.0359313,1.1450528,-0.45242795,1.0698465,0.0001496617,0.044602267,0.16757843,-0.9705432,0.28770334,-0.23688234,-0.48760232,-0.7454056,0.6537307,-0.10195025,1.0489603,1.2538038,1.3545986,-0.5705751,-0.2398103,-2.3265855,2.2641494,-0.6837424,0.30355096,-0.4729565,-0.04765147,-1.119374,1.3283188,-0.86489826,-0.22453927,0.13707544,-0.9103878,1.3017305,0.007428867,0.10226742,1.1518577,-1.7891287,-2.123035,0.114960894,0.73331547,0.08114551,0.18440476,0.018717496,-0.27902928,0.08810887,-0.40748286,0.082111046,-0.3499917,-0.2856722,0.84451425,-1.0860822,0.9087117,0.42642167,-0.56586236,-0.28217697,-0.51545,-1.4397875,1.6548718,0.56296355,0.44919738,-0.47161496,-0.26643366,0.049865413,-0.02432254,1.9695665,-0.14788896,-0.6808939,1.8646712,0.4285102,1.7897431,-0.4950288,1.3618968,1.2357061,-0.6430402,1.4829955,-0.06974002,-1.049125,-0.3919341,-0.116751,1.3522483,-0.3784165,-1.3426466,-0.19399196,1.3748399,-1.4827145,0.16662428,0.2639482,1.4726486,0.6852625,0.016790088,-0.45350525,0.29659408,-0.55077684,0
bore,1.5033695,0.119025305,-0.7956386,-0.09921646,0.60224,-0.27520743,-0.2091788,1.0528849,0.3514058,-0.13222724,-0.48165128,-0.3789822,-0.47083604,-0.09010994,-0.63632786,-0.056660153,-0.31583694,0.081105284,0.18023942,0.25982073,0.6425304,-0.34484267,-0.5841147,-0.08568926,0.066002496,0.1106765,-0.19371513,-0.43967146,0.52692306,-0.7005085,0.59322375,-0.32509235,0.37853503,0.38425973,-0.52728,-0.43857634,0.079974845,-0.2426787,-0.68032056,0.68606263,-0.6139851,-0.05433633,-0.4398983,0.5145249,0.05488407,-0.63427746,0.0292151,-0.099601775,0.68751496,-0.019108547,0.35258642,-0.6965266,0.22107384,-0.8458188,0.22551736,-0.16652131,-0.5749775,-0.22013,-0.48365623,0.14559814,0.12116483,0.1678536,-0.44744125,0.11685397,-0.8791239,-0.7599936,-0.37276152,0.23331064,-0.5228038,-0.038923692,-0.25993338,-0.30571663,0.010365317,-0.085059874,0.055270903,-0.688904,0.2494767,0.14047241,0.8650369,-0.1400174,0.55407107,-0.026415013,-0.8552791,-0.21387874,-0.30897868,-0.1626145,-0.46511596,0.31379297,0.1968342,-0.5790794,-0.024124902,0.043938093,-0.2593463,-0.73419166,0.5340366,-0.080844805,0.36995745,-0.20744209,-0.26531538,-1.1802387,0.0055587008,0.016470557,-0.1303484,-0.50315297,0.17816432,-1.2213514,0.16467649,-0.1812223,0.7099636,0.026642803,0.64117676,-0.090381466,0.13200411,0.8958197,0.28341246,-0.27701643,0.40007743,-0.68132025,-0.6227698,-0.30003828,0.020693066,-0.11755479,0.60607684,-0.39250678,0.87009454,-0.035301115,-0.62291783,0.7745126,-0.37447464,-0.47848198,-0.1340571,0.08087931,-0.017806679,0.41398683,-0.15632625,0.17884833,0.92691344,0.38143352,-0.29439858,-0.20408395,-0.26115412,-0.2583349,-0.41919878,0.07584497,-0.09610476,-0.23871586,-0.72002923,-0.08065116,-0.24652208,-0.16213802,0.6029684,0.0809316,-0.74263203,0.5154972,0.012085986,-0.59083885,-0.2200635,0.065509915,0.16329435,-0.31629544,-0.109271355,-0.31102383,-0.50525945,0.4616397,0.0294355,-0.4850242,0.4568882,0.11175112,-0.097745046,-0.5114352,-0.03654855,0.71424544,-0.24338911,0.5284942,0.15250963,-0.47971317,-0.7729343,0.34643993,0.4318588,0.1725841,0.2591875,0.078837074,-0.3324824,0.42522797,0.38026145,-0.14211725,0.14844331,-0.2752317,0.16006742,-0.5059245,-0.04431022,0.28291866,-0.5261886,-0.1085752,-0.70974386,-0.05679319,0.6215567,0.5108403,-0.33685067,-0.28715524,0.2779849,0.44928032,-0.2822487,0.17784949,-0.25796515,-0.4985602,0.3280627,-0.19876266,-0.6253868,0.20014586,0.24982508,0.00859566,-0.425351,-0.21757369,0.63711387,-0.21848208,0.17183392,-0.28396437,-0.7960975,0.6962607,0.3797371,0.005492035,0.55945027,-0.14094514,-0.14756161,-0.22404633,0.34508774,0.39481077,1.0132015,-0.67158353,0.78755516,-0.14329892,-0.4085294,0.55771726,0.38972607,0.3077037,-0.43087244,0.43766966,0.13279437,-0.5444,-0.6452718,0.1829588,-0.3194298,-0.07564453,0.14343874,0.98326635,0.60885024,-0.094732106,0.6432331,-1.0479428,-0.30941778,-0.098456986,0.46738914,-0.37333608,-0.633235,-0.2269733,0.43453074,0.5758164,0.104643375,0.4476019,-0.23857298,-0.49687114,0.17173955,0.47906053,-0.6701931,0.24754168,-0.82091564,-0.15949729,0.33452055,0.8868211,-0.39052272,0.41923425,0.15184766,-0.22834623,-0.7254147,-0.22577341,0.0563443,-0.45817333,0.17909352,-0.119792715,0.23805024,0.39532664,0.12976159,0.8244046,-0.65802264,0.07849675,0.22865881,0.2796279,-0.10973391,0.38440105,0.038455978,-0.41524717,-0.13833365,-0.66309935,-0.29887092,0.16052297,1.2533935,0.08050953,-0.31172734,0.22169983,-0.34778348,0.4337934,-0.066430554,-0.47014925,-0.13133137,-0.2726985,0.7580279,0.31969655,0.005950032,-0.65304923,-0.63609016,0.018865637,-0.36258847,-0.4782053,-0.3220165,-0.24946618,-0.36954874,1.5483851,-0.5265706,-0.2014491,-0.7883488,-0.37366498,-0.17274213,-0.2619533,-0.69584835,-0.1362328,0.07632986,-0.3476925,0.12287225,0.1040763,0.6042658,0.06767177,0.4920721,0.27734506,0.4155049,0.19027117,0.48512745,0.021349717,0.021130884,-0.04907236,-0.33878615,-0.101325564,0.39972275,0.25786924,-0.4542858,0.07818777,0.20262793,0.0818327,0.16501877,-0.18728592,0.3603835,0.048001498,-0.41697502,0.58397305,0.4534054,-0.68340737,0.054896276,-0.45265502,-0.3592384,-0.60422987,-0.03813606,-0.08149544,0.600265,0.049808566,0.42052534,0.15945055,-0.43771192,0.5485243,0.6760032,0.49936277,0.0029676263,0.8051134,0.43819785,0.1735271,0.22777162,0.8975153,0.20162532,0.8158535,-0.11414177,0.3804094,0.37067044,-0.09711286,0.56729907,-0.046495717,0.5879181,0.0097540105,0.005949686,-0.62018406,0.22054024,0.073403835,-0.26177612,0.254049,0.751163,-0.0058850152,0.01741813,0.58725286,0.7404735,-0.61126894,-0.018151214,-0.041149613,0.1617317,0.00550989,-0.03961792,0.2062741,-0.49894744,0.15353347,0.12479564,-0.020105515,0.29728138,0.09232509,0.027932309,-0.44976532,-0.0759823,-0.15085045,0.07149899,0.17698243,-0.49284315,0.2537799,-0.54442155,0.2502162,0.73064977,-0.116311945,0.19782346,-0.726845,-0.12892078,0.3276754,-0.6097407,-0.25561017,-0.7060372,-0.36808628,0.3581538,-0.8214755,-0.35010058,0.24705319,-0.41667807,-0.08053885,-0.07741919,-0.4280114,-0.30660576,0.05144647,-0.41236427,0.43304658,0.75914323,0.27547112,0.7014807,-0.4386257,-0.47733027,0.5152843,0.73215204,-0.17597543,0.6758232,-0.73889524,-0.6240315,0.50091314,-0.53789514,0.23253548,-0.10142527,-0.23738526,-0.47401595,-0.5525221,0.4182794,0.11105349,0.40930435,-0.044026293,0.83630276,-0.23176228,-0.28933728,-0.06564445,-0.32067227,0.3866224,-0.05815253,-0.06272449,-0.12315858,-0.1290732,-0.38708824,-0.14355364,0.512188,0.31158423,-0.30226263,-0.55388516,0.5137497,0.065374486,-0.269503,-0.46150407,0.31735092,0.11323417,0.005453663,0.24044138,-0.4686116,0.17594978,-0.43858027,-0.73187083,-0.43836236,0.24349906,0.3598867,-0.36721814,-0.5488546,0.22791246,-0.33825603,-0.49031585,0
amazing,0.8424375,0.36224174,-0.8786086,-0.7727331,0.24452183,0.9695995,-1.7249207,-0.07112217,-0.40545014,0.22378439,-0.42952892,-0.40598547,-0.10937023,0.6809919,-0.8598753,0.9730416,0.8779106,-0.011194235,1.036876,1.1154253,1.5511876,0.71671593,-1.7755799,-1.6845711,-0.20911363,-0.04390288,-0.3493604,1.2531238,0.1808795,0.20130172,1.1738588,-0.080220945,-1.0926442,-0.18264021,0.35314822,-1.34833,-1.2331741,0.39856812,0.49239776,-0.986845,-0.013000086,-1.519556,0.7224498,-0.72633034,-0.3215628,-1.1300211,1.466375,1.9012877,0.73638135,-0.13397036,-0.70582503,-0.58005255,-0.58052075,1.4456252,0.6790423,0.22575025,0.034675766,-0.7618737,-1.4383287,-0.5221123,-1.8143007,0.6148689,-0.24018106,-0.3113521,-0.82909936,-0.7955886,1.6819841,-0.98018384,-1.6448061,-0.08158854,1.2388679,0.5984448,0.08842327,-1.6021602,0.9583833,1.1321515,-1.8040615,0.6539093,0.66504025,0.46463987,0.52613944,-0.8737679,0.0052576815,0.21583286,-0.9466268,-0.6620613,1.1129004,1.2434858,1.7435265,-0.9869948,0.7340788,2.07268,-0.07906091,0.8385899,-0.459854,1.2024535,-0.23475501,1.0277644,-0.038054746,-0.99818987,1.2549322,-0.659496,-0.7653333,0.64629173,-0.36656857,-1.2887832,0.52996993,1.4580318,0.71810925,1.9198267,1.0401516,0.7052677,1.7475904,-0.5207076,-0.65806735,1.6051335,0.102734245,-0.52475893,-0.6830954,-1.5210768,-0.45522162,1.2759972,-1.1208386,-0.021311712,-0.58989245,-0.4491872,-0.47500113,0.5091382,-1.0918181,1.3212258,0.1449867,-0.22034113,0.23005894,0.18796243,-0.09084618,0.24340901,0.5510526,1.699747,1.6724781,-0.41741267,-0.42116484,0.45791233,0.14904296,-0.46793094,0.7417068,0.2263417,-0.78629917,-0.580098,0.043099884,0.04347922,0.234804,-0.31242692,0.21313153,-0.61118025,-0.12745336,-0.9443757,0.60131747,-0.6774653,-0.20092463,1.4189262,-0.2782828,0.3032091,1.1435044,-0.055480834,-0.4812781,-0.5720712,0.93619734,0.32614797,-0.6427718,1.1372448,0.34329006,1.1558135,0.9153696,0.68297356,-0.32655588,-0.1437596,0.6184088,-0.09112048,-0.12697658,1.3255633,0.35557356,-0.45873496,-1.2582418,-0.9910169,0.10556159,-0.49081638,-1.0468297,-0.1659305,-0.48119912,-0.26011562,-0.12329792,0.93845516,-2.325102,-1.308374,0.06439067,-0.1352809,-0.13138166,0.07476239,0.7419525,1.540754,0.5752798,0.97117263,-0.36138323,1.3577536,0.12899515,0.063284144,-0.84087276,-0.486202,-1.4630768,0.2362816,-0.113382295,-0.24373733,-0.07001357,0.36007574,0.27327594,-0.01041919,0.33252525,-0.21757604,0.23648852,-0.7737593,0.047796234,-0.9467353,-0.11299152,1.0306557,0.75138706,-1.0078827,0.31688863,0.8041574,-1.3065476,0.45504895,-0.4940277,-1.2569085,-0.32875046,-1.440265,1.0008829,1.0389895,1.1918707,-0.00019756099,1.1647754,-0.73619497,-0.63040984,-0.9642654,0.85408753,0.08030524,0.8559998,0.052243132,0.89785933,0.6380305,-1.9254893,0.6062215,0.7952223,-0.9028084,-0.1572743,-0.860723,0.24529639,-0.79173046,-0.10654413,2.1086285,-0.434742,1.5156239,-0.22553623,-0.23133752,0.15663765,0.013439668,0.018840624,-0.6766246,1.5025778,-0.6621206,-0.053066682,0.32017684,0.11110923,1.0231726,0.21021731,0.59382397,-0.9999665,-0.10629354,-1.9845883,-1.4422102,0.49271244,0.022124832,0.09396688,0.9949998,-0.92839175,-0.81296563,-0.58279026,-0.7965438,-0.91825974,-0.84545034,0.11858596,-0.06856988,1.196632,-0.40344718,0.63560617,0.11825547,0.78752446,0.13321494,-2.5112948,-1.1170291,-1.9442439,0.68952435,0.63504744,1.7553173,-0.23054273,-1.5818387,1.7309667,-1.2535518,-0.907886,0.48675796,-0.34435543,-0.85771644,-0.83069324,1.231225,-0.311244,1.1276174,-0.084577195,-0.9530533,-0.3360509,-2.6020222,-2.337545,1.2136556,0.034165226,-2.2149012,-0.8589225,-0.29164773,-0.2827906,0.57322705,0.35372537,-0.7905414,0.953246,1.0253174,1.091322,0.8556071,0.45661306,-1.2800884,-0.9345914,1.3020875,-0.35211724,-1.2782506,0.8258628,0.24308279,0.1192418,0.83199215,-0.08848382,-0.19988307,0.449917,-0.50451845,0.044191353,0.10899542,1.0077509,-0.4801376,-0.9983556,-1.5280709,-0.44112253,-0.06709483,-0.3711781,0.3733995,0.29907984,-0.395677,-0.60193646,0.30717364,-0.36410725,0.7873155,0.70253414,1.0872912,-0.40163475,0.3737318,0.03439931,0.3845052,-0.33807975,-0.91426224,-0.20089802,-0.39770323,-0.37647763,0.0348346,1.6139028,-0.0039108857,-0.3134397,0.63432,-0.58544356,1.3579998,0.053354897,-2.641725,-1.6139745,1.4411504,-0.58193517,0.036718562,0.22512473,-1.3177011,-0.70904016,-0.05293314,0.5282313,-0.88127226,-0.9639856,1.5968065,-0.23896945,0.48393115,-0.502338,-0.2148479,0.5187573,0.6090856,-0.66158503,-1.3202959,0.019386703,0.65392494,1.4995353,0.7723419,2.0815177,0.27640682,-0.6762872,-0.39626256,-0.19223885,0.505632,-0.13618025,-0.08813704,0.34218732,1.6802493,-0.95167977,-0.89701456,1.4074177,0.22456418,0.29966345,-0.62129617,0.10865617,0.7714933,0.50564265,0.5087008,-0.9106222,-0.35576898,0.5057221,-0.7688487,-0.053315382,0.7101261,1.1448022,-0.29987434,-0.5903276,-0.33760005,1.3890907,1.4006536,1.122387,0.39125407,-0.24479033,-0.68558055,1.1974757,-1.1482791,0.43237594,0.15261914,-1.4065919,0.13821155,1.4729452,-0.67964935,-0.114849284,0.032124467,-0.8530673,-0.567505,-0.56990045,2.6491535,0.43213218,-0.5345088,-0.07324636,0.79617363,0.40667012,-0.25832918,0.50349206,-0.9160488,0.19183241,-1.6655365,0.08001344,0.009318068,1.126118,1.5733111,-0.11602745,0.8767877,1.8763952,-1.1910577,-1.0672903,1.3742937,0.18327354,0.21224253,1.6344316,0.30075392,-0.1864166,0.6682202,1.7747325,-1.5747355,0.24147546,-2.6853874,-1.2754785,-0.864235,-1.6297573,-0.5174126,0.05653378,0.46113256,-0.10764199,-0.5721524,-0.3195699,-0.6790682,0.1475962,-0.2281849,0.69780946,0.46018258,1
