SEED,0,1,2,3,4,5,6,7,8,9,10,11,12,13,14,15,16,17,18,19,20,21,22,23,24,25,26,27,28,29,30,31,32,33,34,35,36,37,38,39,40,41,42,43,44,45,46,47,48,49,50,51,52,53,54,55,56,57,58,59,60,61,62,63,64,65,66,67,68,69,70,71,72,73,74,75,76,77,78,79,80,81,82,83,84,85,86,87,88,89,90,91,92,93,94,95,96,97,98,99,100,101,102,103,104,105,106,107,108,109,110,111,112,113,114,115,116,117,118,119,120,121,122,123,124,125,126,127,128,129,130,131,132,133,134,135,136,137,138,139,140,141,142,143,144,145,146,147,148,149,150,151,152,153,154,155,156,157,158,159,160,161,162,163,164,165,166,167,168,169,170,171,172,173,174,175,176,177,178,179,180,181,182,183,184,185,186,187,188,189,190,191,192,193,194,195,196,197,198,199,200,201,202,203,204,205,206,207,208,209,210,211,212,213,214,215,216,217,218,219,220,221,222,223,224,225,226,227,228,229,230,231,232,233,234,235,236,237,238,239,240,241,242,243,244,245,246,247,248,249,250,251,252,253,254,255,256,257,258,259,260,261,262,263,264,265,266,267,268,269,270,271,272,273,274,275,276,277,278,279,280,281,282,283,284,285,286,287,288,289,290,291,292,293,294,295,296,297,298,299,300,301,302,303,304,305,306,307,308,309,310,311,312,313,314,315,316,317,318,319,320,321,322,323,324,325,326,327,328,329,330,331,332,333,334,335,336,337,338,339,340,341,342,343,344,345,346,347,348,349,350,351,352,353,354,355,356,357,358,359,360,361,362,363,364,365,366,367,368,369,370,371,372,373,374,375,376,377,378,379,380,381,382,383,384,385,386,387,388,389,390,391,392,393,394,395,396,397,398,399,400,401,402,403,404,405,406,407,408,409,410,411,412,413,414,415,416,417,418,419,420,421,422,423,424,425,426,427,428,429,430,431,432,433,434,435,436,437,438,439,440,441,442,443,444,445,446,447,448,449,450,451,452,453,454,455,456,457,458,459,460,461,462,463,464,465,466,467,468,469,470,471,472,473,474,475,476,477,478,479,480,481,482,483,484,485,486,487,488,489,490,491,492,493,494,495,496,497,498,499,LABELS
negligent,-0.07345649,0.09608537,-0.10646143,0.066511184,-0.04683431,0.07200648,0.071054906,-0.03509986,0.036393996,0.03217283,-0.08186552,-0.08236466,-0.036818895,0.0022140476,0.10177599,-0.086503804,-0.16068076,-0.109560035,-0.012860717,0.15576075,0.016128616,0.028929627,0.09446919,0.11636957,-0.029688986,0.03500475,-0.18650718,0.103031166,0.04394239,-0.2211458,-0.014958031,-0.09110908,-0.009327232,0.021305008,-0.0049333307,-0.031238563,0.12608945,-0.015573684,-0.032437775,-0.017219173,0.017154168,0.19287182,0.030757459,0.028995072,-0.03398369,0.010699797,-0.00953179,-0.16721562,-0.024891695,-0.12371986,0.018433243,-0.04178313,0.07750801,-0.08726014,-0.122984394,0.005309882,-0.15880135,-0.03209178,0.026720839,-0.0875997,0.006256868,0.19605969,-0.014487729,0.04932804,0.024260372,-0.012411594,-0.0581292,-0.03162336,0.037508454,0.024306903,0.01799103,0.05327385,-0.062086634,0.17695875,0.016594272,0.094870955,-0.030799357,-0.003604278,0.030650849,-0.055373233,0.0044209133,-0.080005445,-0.021387292,-0.014858751,-0.01786944,-0.046239827,-0.1564785,-0.06430027,0.095574185,-0.13285542,0.0077702194,-0.010849274,-0.08660383,-0.17956844,-0.048480917,0.030798422,-0.043625377,0.100116506,-0.1433447,-0.03680298,0.0003668855,-0.00091047713,-0.054152798,0.12694667,-0.022829449,0.038978234,-0.009670738,-0.1274379,0.038421776,0.09316522,-0.13746601,-0.06054534,0.11745708,-0.04286915,0.007245818,0.02556271,0.014056669,-0.017860996,-0.064020865,-0.027587766,-0.11553971,-0.052109007,-0.04780361,0.005800226,-0.013544004,-0.040864944,0.118889846,-0.072736904,0.023943305,-0.012851617,-0.117708094,0.17080307,0.029500993,-0.1119276,0.05142759,0.051363867,-0.035307437,0.0739228,0.04974142,0.19322042,-0.057101272,0.0062935106,0.085727766,0.06408803,-0.01097118,0.09085494,-0.047686644,-0.026219532,-0.05531928,0.045625165,-0.006274831,-0.04086079,-0.035605285,0.07321316,-0.07452483,0.20684102,-0.08960634,-0.11707976,-0.013703731,-0.08329851,-0.0043279356,0.051072393,-0.04763062,0.057807438,-0.02314407,-0.03368887,0.078510486,0.06573965,0.00019369142,0.010772939,0.05119535,-0.20648082,0.028690157,-0.21660863,0.10136308,0.008305544,-0.05457815,-0.04461697,-0.0077541033,0.034904033,-0.053858384,-0.07120603,0.01445527,0.037226327,0.12588985,0.033799823,0.09494407,-0.039209247,0.11590096,-0.0132406745,-0.10999459,0.07065066,-0.073159955,-0.005912758,0.054517347,-0.0917773,0.14687307,0.14171833,-0.032583036,0.20938233,-0.011962411,0.12789361,0.20366494,0.007762407,0.05742371,0.0016093284,-0.14936045,-0.13605848,0.13786028,-0.0084809065,0.019644165,0.0688152,0.0079723485,0.032895494,0.026060522,-0.15659569,-0.012442008,-0.14754212,0.032966264,0.07352572,-0.0054982803,0.15672417,0.025237724,-0.05385874,0.03216293,-0.06840837,-0.014071529,0.049014233,-0.04265775,-0.023826342,0.083428904,-0.07789198,0.12110668,0.08133959,-0.020965524,-0.030471688,-0.027897267,0.06431716,0.078932054,0.14028497,-0.11233657,0.09238442,0.041637834,-0.1162433,0.04521251,0.059077125,0.03708846,0.046188492,-0.027064973,-0.0400099,-0.032691192,-0.00083653745,-0.09731481,0.0009999707,-0.03074067,-0.0010525458,-0.21586125,-0.015480341,-0.03127482,-0.12873736,-0.01583196,0.03421908,0.086511955,0.04436945,0.096461356,0.021660179,0.07005795,0.020969646,0.0583204,0.04728885,-0.018012488,0.012304027,0.09950368,-0.0035755516,0.005930759,0.05926222,0.13483736,0.03465288,-0.09450097,-0.17382488,0.060706496,0.006470437,-0.1421989,0.013306018,-0.09461409,0.104322955,-0.06825569,0.15055414,-0.02437148,0.18408689,0.19814105,0.037942115,-0.06288865,0.1249329,-0.058383457,-0.075996384,0.07272253,0.050717045,0.096648775,0.024425695,0.004575596,0.094937965,0.05717148,0.061756466,0.114201896,0.022784678,0.14970216,0.11810084,-0.04420009,-0.09593653,0.041356456,0.0597315,0.0070901243,-0.18647121,-0.048855856,-0.06910408,-0.006995501,0.0037133654,-0.028082369,-0.015530147,0.0017952058,-0.013026957,-0.0029834323,-0.0357054,0.101647034,0.005616212,-0.0068047885,0.087856025,0.05306621,-0.0046943994,0.14565498,-0.055836607,-0.014991412,0.04891098,-0.007547427,0.05229756,0.011051257,0.035573184,-0.1071624,0.03485673,-0.035474055,-0.012453037,-0.0032183498,0.022446817,-0.011277253,-0.018722108,-0.05697908,0.01889069,0.18041913,0.058723833,-0.019837242,-0.037918624,-0.042251285,0.034040015,0.023985282,0.014293844,0.054441348,0.0020076942,0.072211325,0.013229728,0.11698577,0.13738373,0.118942924,0.15853672,-0.035965882,-0.17199874,-0.058401845,0.042519603,-0.08799296,0.033395708,-0.08367695,-0.05292089,0.028767189,0.061957903,0.10273148,0.070811115,-0.0038103433,0.067929536,0.0034570764,0.06664953,-0.13140628,0.103393935,0.0071974695,-0.004083396,-0.04963374,0.03178172,-0.0820864,-0.022487964,-0.18416406,-0.03592134,0.097250886,-0.009641735,0.06940716,0.044716716,-0.10761899,0.069342874,0.022152677,-0.012827373,-0.0013521863,-0.12073746,0.095971145,0.02454087,-0.05018279,-0.0436656,-0.03474924,0.07722053,0.04960194,0.06194595,0.08871697,0.151637,0.017883727,-0.054353453,-0.073731884,-0.09437962,-0.066037476,0.05554725,-0.030514665,-0.10910809,-0.07748846,-0.11104956,0.068764426,0.1764556,0.002895842,0.055731293,-0.066021286,0.047460616,0.0411428,0.06292015,-0.13393195,-0.035589166,0.042814806,0.045924466,-0.06549839,-0.021816554,-0.060196854,-0.09383397,0.028024757,0.049293645,-0.030392395,0.096327595,0.04577573,-0.052346524,-0.045552276,-0.01687629,0.11534466,-0.050783955,-0.027406914,-0.02790815,-0.048459835,0.01487598,0.004515697,-0.0102381315,-0.0889166,-0.03730195,-0.1209749,0.019354021,-0.0036115486,-0.038089506,0.106160104,0.1329389,-0.16866446,0.06935143,-0.027739987,0.024277585,0.00967248,-0.039374642,0.07550801,0.00097523216,-0.11092178,-0.005512854,-0.035136096,-0.062342115,-0.064794175,0.014028128,0.08403929,-0.1064447,0.08497242,-0.038541898,0.119749226,0.079957806,0.038176786,0.014187413,-0.15496878,-0.008762588,-0.15971692,-0.07152383,0.05956457,0.13484567,-0.0074790847,-0.120610476,-0.055980712,-0.025983399,-0.019750655,0.13916956,0.020093616,0.024341233,0.14853239,-0.028921533,-0.00074923143,0.257676,0
unhappy,0.3345073,0.325371,-2.2310529,-0.5191098,0.7078253,1.4585476,0.9587436,0.92157483,-0.0965905,-1.168458,-1.9165798,0.1818345,-1.623412,0.42954132,1.2358226,0.16163284,-0.6076661,-0.3976386,1.145556,0.88380325,-0.5758953,-0.2497923,0.8461518,-0.1303271,0.62248415,-0.768612,-0.99224406,1.4706358,0.0555274,-1.5681213,-0.62894744,-1.2609473,0.010450374,1.2123361,-0.14237218,-0.019996392,0.38802803,-1.4612185,1.055052,0.030925207,-0.093425296,0.54228634,-0.024919339,0.6855604,-0.08528771,-1.6650294,0.48484388,-0.8924527,1.1279233,-1.0622722,-0.042580143,0.9532019,0.700781,-1.933751,1.0231965,0.60673535,-0.49152535,1.0503703,-0.6010377,-0.08092864,0.12213637,1.1138927,-0.8446592,-0.47264516,-1.980869,-0.56014,0.12687977,-1.9720868,-0.40505618,-0.54932564,0.10660372,0.094178975,0.10581132,1.3522114,-0.31470376,0.43774483,-0.40889573,-0.42827752,0.63398194,-0.5885863,0.383396,-0.28009817,-1.4390941,-0.17709786,0.6479794,-0.5431345,-0.5370016,-0.061658345,-0.14777783,-0.22620793,-0.93881154,0.052265994,-0.9641135,0.15930435,0.843585,-0.18050666,0.8806098,0.6307967,-0.17471935,-0.29035026,-0.52877283,0.4709984,0.38478383,0.3400783,-0.8868151,-0.8554041,0.8261792,1.2376438,-0.5566862,0.09085228,0.15804282,0.7315682,0.521855,-0.086156495,-0.8940024,1.9552218,0.34274358,-0.67679656,-0.5663075,0.74647397,-0.73596877,-1.2155077,-0.6548911,0.9855202,-0.07299216,0.024553915,1.0134662,0.44142607,0.026630502,0.77069193,0.0055999155,0.33194944,-0.009960253,1.140508,0.78782165,-0.7234204,-0.15800872,1.0084013,-0.35721335,1.0037912,-0.17359143,0.308791,-0.57090837,1.134512,-0.23441629,-0.009772081,0.4819295,0.75962543,0.1756961,-0.62652886,0.7441322,0.71080685,0.31038222,-0.24567571,0.13650839,-0.1928956,0.17210345,0.063022815,-0.6650649,0.21272051,-1.3597338,0.98794895,-0.71981484,-0.62995523,-1.3644977,-0.07964351,1.8918748,-1.2718166,-1.1956278,-1.1025041,0.41627303,-0.18542095,0.051066365,0.86269367,0.3728051,-0.41181055,0.39974678,-0.18211181,0.32255447,0.5654322,0.17191054,-0.04997427,-0.7873643,0.39636928,0.33399448,-0.4293738,-0.17169225,-0.7064845,-1.0681791,1.1312551,-0.72881866,0.36960405,0.2253669,0.3484977,0.057959646,0.38172927,0.24968717,2.5760727,-0.15439792,0.08035249,-0.9618334,1.2467293,0.63658446,-0.41320497,-0.5027863,0.41590643,0.062693216,0.73354936,0.25286472,-0.34809056,0.1747199,-1.0595399,0.44114003,-0.042617004,0.26044697,-0.5947753,0.09823222,-0.8218167,0.41853553,1.4065162,0.60025424,1.0141633,-0.025093907,0.80551845,0.59337896,-0.5880563,0.21372972,-0.42194214,0.4563744,0.7080973,-1.9383435,0.185644,0.052886102,-0.7583456,-0.73927975,1.2910371,1.8510302,0.82255995,0.8475049,-0.12239755,-0.46809155,1.2840254,-0.4151234,-0.092656724,-0.19210933,-0.91959816,-0.052349593,-0.06926874,0.7951245,-0.6418025,-0.59213877,0.0030586729,-1.3439448,-0.23629795,-0.14618209,-0.9212791,-1.0000635,-0.058827203,-0.43179786,-0.19788344,-0.9126213,-0.32370588,0.26378062,-0.48285004,-1.0277456,-0.6681152,-0.3695696,1.0629834,0.04391389,0.026343076,0.059565015,0.08384558,0.87165743,0.29956466,0.29906687,-0.80163157,-0.17591798,1.2614964,-0.9688888,0.7385181,-0.8764475,0.24954222,-1.1770773,-0.59022003,-0.39665645,0.8711065,0.37811032,0.22495313,-0.99821365,-0.22644024,0.9186476,1.237264,-0.52723706,-1.3991466,-0.73063713,-0.6722683,0.83859235,0.9190218,0.558994,0.2723427,-0.51954657,0.6120217,0.3364269,0.51576036,0.27982843,-0.06646292,-0.2188942,-0.39458728,-0.76566434,-0.8331888,-0.3753426,1.964009,0.067633465,0.42404768,1.2508807,-0.5543161,-0.2548881,-0.6316909,-0.9293026,0.24346262,-0.1549417,-0.16751997,-1.5675894,0.25717932,-0.93256575,0.3490428,0.63642037,-0.82605827,0.8710288,-0.22426319,1.5506281,0.41111934,0.5204206,0.065844566,-0.71115774,0.85857993,-0.046318978,0.3044429,0.20967598,0.17520113,-0.5820378,-1.1772083,-0.6134618,-1.1490597,0.28959164,0.3841438,0.9147539,-0.19555326,0.29905954,-0.6004553,0.6503377,-0.33040926,-0.45890683,0.57977617,-0.1995009,-0.02474243,1.6104625,-0.44912797,-0.83210546,-0.26408333,1.208337,0.027120523,1.0457475,0.632585,-0.6331565,-0.21525587,-0.26638803,1.9748466,0.49760884,-0.67318386,0.9636868,0.54502034,-0.9028816,-1.3123465,-0.021940045,0.93273926,-0.0062450864,0.21897496,0.4637807,1.1777852,-0.36312145,0.44928017,0.10216316,0.3726404,-0.34546044,-0.38384682,-0.53175676,-0.597644,-1.6452345,-0.088016205,0.79334193,0.2613475,0.28133625,1.1766254,-0.6866672,0.20382144,0.19808377,-0.97629887,-1.2044896,-0.4774993,0.4686162,0.7374491,1.8914002,-0.58342344,-0.5278181,-0.86104137,-0.18303998,0.102610774,-0.5256121,0.5386777,-0.16943383,0.12478834,0.048029706,-1.2827886,-0.09744911,0.5297824,-0.23599878,0.7088571,0.9903689,-0.3739209,0.56901324,0.17914061,0.5384943,-0.67524576,-0.02914534,-1.0816004,-0.22467683,-0.8758922,-0.3471373,-1.13478,0.5775866,0.023666551,0.6072826,-1.080904,1.1656213,-0.40062797,0.8716096,-0.5445434,-0.47816613,-0.016893862,0.11207745,0.8342283,-0.3187853,0.3617528,-0.48877564,0.38536286,0.56735045,-0.02076766,0.2529288,0.79945153,0.50998944,-0.3948703,-0.1545329,-0.29255,-0.92876655,0.4418727,0.7130306,-0.46997032,1.2298568,-0.011880398,-0.43879816,-1.0548198,0.6716019,-1.1618003,0.24459347,-0.9681737,-0.13798687,-0.7575274,-0.32982567,1.128242,-0.5599177,-0.09394595,0.6405812,-0.81704074,0.81759906,-0.042709436,-1.1629264,0.4542196,0.49570492,-0.26540437,-0.028951628,-0.24533165,-0.6802446,-0.24508908,-1.3652507,0.47942647,0.20600592,-0.39339426,-0.85768235,-0.03279915,1.1997054,-1.7186625,-0.6802759,-0.8265376,0.29606724,-0.36591038,0.23882839,0.5358057,0.9334562,0.35695446,0
amazing,0.8424375,0.36224174,-0.8786086,-0.7727331,0.24452183,0.9695995,-1.7249207,-0.07112217,-0.40545014,0.22378439,-0.42952892,-0.40598547,-0.10937023,0.6809919,-0.8598753,0.9730416,0.8779106,-0.011194235,1.036876,1.1154253,1.5511876,0.71671593,-1.7755799,-1.6845711,-0.20911363,-0.04390288,-0.3493604,1.2531238,0.1808795,0.20130172,1.1738588,-0.080220945,-1.0926442,-0.18264021,0.35314822,-1.34833,-1.2331741,0.39856812,0.49239776,-0.986845,-0.013000086,-1.519556,0.7224498,-0.72633034,-0.3215628,-1.1300211,1.466375,1.9012877,0.73638135,-0.13397036,-0.70582503,-0.58005255,-0.58052075,1.4456252,0.6790423,0.22575025,0.034675766,-0.7618737,-1.4383287,-0.5221123,-1.8143007,0.6148689,-0.24018106,-0.3113521,-0.82909936,-0.7955886,1.6819841,-0.98018384,-1.6448061,-0.08158854,1.2388679,0.5984448,0.08842327,-1.6021602,0.9583833,1.1321515,-1.8040615,0.6539093,0.66504025,0.46463987,0.52613944,-0.8737679,0.0052576815,0.21583286,-0.9466268,-0.6620613,1.1129004,1.2434858,1.7435265,-0.9869948,0.7340788,2.07268,-0.07906091,0.8385899,-0.459854,1.2024535,-0.23475501,1.0277644,-0.038054746,-0.99818987,1.2549322,-0.659496,-0.7653333,0.64629173,-0.36656857,-1.2887832,0.52996993,1.4580318,0.71810925,1.9198267,1.0401516,0.7052677,1.7475904,-0.5207076,-0.65806735,1.6051335,0.102734245,-0.52475893,-0.6830954,-1.5210768,-0.45522162,1.2759972,-1.1208386,-0.021311712,-0.58989245,-0.4491872,-0.47500113,0.5091382,-1.0918181,1.3212258,0.1449867,-0.22034113,0.23005894,0.18796243,-0.09084618,0.24340901,0.5510526,1.699747,1.6724781,-0.41741267,-0.42116484,0.45791233,0.14904296,-0.46793094,0.7417068,0.2263417,-0.78629917,-0.580098,0.043099884,0.04347922,0.234804,-0.31242692,0.21313153,-0.61118025,-0.12745336,-0.9443757,0.60131747,-0.6774653,-0.20092463,1.4189262,-0.2782828,0.3032091,1.1435044,-0.055480834,-0.4812781,-0.5720712,0.93619734,0.32614797,-0.6427718,1.1372448,0.34329006,1.1558135,0.9153696,0.68297356,-0.32655588,-0.1437596,0.6184088,-0.09112048,-0.12697658,1.3255633,0.35557356,-0.45873496,-1.2582418,-0.9910169,0.10556159,-0.49081638,-1.0468297,-0.1659305,-0.48119912,-0.26011562,-0.12329792,0.93845516,-2.325102,-1.308374,0.06439067,-0.1352809,-0.13138166,0.07476239,0.7419525,1.540754,0.5752798,0.97117263,-0.36138323,1.3577536,0.12899515,0.063284144,-0.84087276,-0.486202,-1.4630768,0.2362816,-0.113382295,-0.24373733,-0.07001357,0.36007574,0.27327594,-0.01041919,0.33252525,-0.21757604,0.23648852,-0.7737593,0.047796234,-0.9467353,-0.11299152,1.0306557,0.75138706,-1.0078827,0.31688863,0.8041574,-1.3065476,0.45504895,-0.4940277,-1.2569085,-0.32875046,-1.440265,1.0008829,1.0389895,1.1918707,-0.00019756099,1.1647754,-0.73619497,-0.63040984,-0.9642654,0.85408753,0.08030524,0.8559998,0.052243132,0.89785933,0.6380305,-1.9254893,0.6062215,0.7952223,-0.9028084,-0.1572743,-0.860723,0.24529639,-0.79173046,-0.10654413,2.1086285,-0.434742,1.5156239,-0.22553623,-0.23133752,0.15663765,0.013439668,0.018840624,-0.6766246,1.5025778,-0.6621206,-0.053066682,0.32017684,0.11110923,1.0231726,0.21021731,0.59382397,-0.9999665,-0.10629354,-1.9845883,-1.4422102,0.49271244,0.022124832,0.09396688,0.9949998,-0.92839175,-0.81296563,-0.58279026,-0.7965438,-0.91825974,-0.84545034,0.11858596,-0.06856988,1.196632,-0.40344718,0.63560617,0.11825547,0.78752446,0.13321494,-2.5112948,-1.1170291,-1.9442439,0.68952435,0.63504744,1.7553173,-0.23054273,-1.5818387,1.7309667,-1.2535518,-0.907886,0.48675796,-0.34435543,-0.85771644,-0.83069324,1.231225,-0.311244,1.1276174,-0.084577195,-0.9530533,-0.3360509,-2.6020222,-2.337545,1.2136556,0.034165226,-2.2149012,-0.8589225,-0.29164773,-0.2827906,0.57322705,0.35372537,-0.7905414,0.953246,1.0253174,1.091322,0.8556071,0.45661306,-1.2800884,-0.9345914,1.3020875,-0.35211724,-1.2782506,0.8258628,0.24308279,0.1192418,0.83199215,-0.08848382,-0.19988307,0.449917,-0.50451845,0.044191353,0.10899542,1.0077509,-0.4801376,-0.9983556,-1.5280709,-0.44112253,-0.06709483,-0.3711781,0.3733995,0.29907984,-0.395677,-0.60193646,0.30717364,-0.36410725,0.7873155,0.70253414,1.0872912,-0.40163475,0.3737318,0.03439931,0.3845052,-0.33807975,-0.91426224,-0.20089802,-0.39770323,-0.37647763,0.0348346,1.6139028,-0.0039108857,-0.3134397,0.63432,-0.58544356,1.3579998,0.053354897,-2.641725,-1.6139745,1.4411504,-0.58193517,0.036718562,0.22512473,-1.3177011,-0.70904016,-0.05293314,0.5282313,-0.88127226,-0.9639856,1.5968065,-0.23896945,0.48393115,-0.502338,-0.2148479,0.5187573,0.6090856,-0.66158503,-1.3202959,0.019386703,0.65392494,1.4995353,0.7723419,2.0815177,0.27640682,-0.6762872,-0.39626256,-0.19223885,0.505632,-0.13618025,-0.08813704,0.34218732,1.6802493,-0.95167977,-0.89701456,1.4074177,0.22456418,0.29966345,-0.62129617,0.10865617,0.7714933,0.50564265,0.5087008,-0.9106222,-0.35576898,0.5057221,-0.7688487,-0.053315382,0.7101261,1.1448022,-0.29987434,-0.5903276,-0.33760005,1.3890907,1.4006536,1.122387,0.39125407,-0.24479033,-0.68558055,1.1974757,-1.1482791,0.43237594,0.15261914,-1.4065919,0.13821155,1.4729452,-0.67964935,-0.114849284,0.032124467,-0.8530673,-0.567505,-0.56990045,2.6491535,0.43213218,-0.5345088,-0.07324636,0.79617363,0.40667012,-0.25832918,0.50349206,-0.9160488,0.19183241,-1.6655365,0.08001344,0.009318068,1.126118,1.5733111,-0.11602745,0.8767877,1.8763952,-1.1910577,-1.0672903,1.3742937,0.18327354,0.21224253,1.6344316,0.30075392,-0.1864166,0.6682202,1.7747325,-1.5747355,0.24147546,-2.6853874,-1.2754785,-0.864235,-1.6297573,-0.5174126,0.05653378,0.46113256,-0.10764199,-0.5721524,-0.3195699,-0.6790682,0.1475962,-0.2281849,0.69780946,0.46018258,1
horrible,1.4683082,1.4880887,-1.9689283,0.42192858,-0.007663693,1.4657096,0.22284205,0.79171544,0.7253103,-0.13860245,0.11393676,-0.4346175,-0.30170825,0.529683,1.4720192,-0.90523154,0.79898727,-0.8989427,-0.25462458,2.6064293,0.8143179,0.06776829,-0.363551,-1.1034633,0.2119228,-1.1835144,-0.34605777,0.78318304,0.028929604,0.2894022,1.7477003,0.8564577,-0.2630506,0.9627751,-1.6035993,-2.3585255,-1.2052673,0.34899127,0.27422777,-0.9539147,0.21006656,-0.9514912,0.7514692,-0.79278374,-0.19779487,-0.6908612,0.1399129,-0.52602553,1.1219739,0.79815084,0.65042984,-0.39101374,0.054713663,0.55544347,-0.030585626,-0.49629778,0.3178234,-0.1053815,-0.96050376,-0.18971002,0.1629759,0.28542104,-0.3168518,-0.27896723,1.0442263,0.74763775,0.42313388,-0.55567443,-0.26715106,-1.1002282,0.68631446,0.8489099,0.20970337,-0.6084487,-1.4044613,-0.840721,-1.5657763,1.2479088,0.015640534,0.019842036,0.07409034,-1.4453504,-0.95785666,-1.5965012,-0.08591338,0.42199346,0.1911309,-0.44127753,0.23929323,-0.3161458,-0.13460274,0.21438944,0.15014486,-0.5054243,0.6300103,0.80774623,-0.84134936,1.2194716,-0.7348547,-0.69710517,0.117838696,1.3363634,-0.1406594,0.2598137,-0.31669077,-0.3692552,-0.7170179,0.40926063,-0.836941,0.6696513,0.11099049,-0.43701014,0.3541516,-1.2970785,-0.42305273,0.5804191,0.5904865,-0.7366945,-0.23752928,-0.37985173,-0.37848288,-0.09623571,-0.50562394,-0.41408414,1.1493748,-0.4238325,0.624566,0.9094552,-0.2615972,0.864027,0.41279027,0.87685996,0.19063713,0.80534494,0.15634947,-0.12285422,-0.82853717,1.5465809,0.5379686,-0.42628372,-0.768924,-0.28059524,0.48856434,-0.8965673,0.826228,-1.9452336,1.0635308,-0.015340415,-0.75268644,0.29244196,0.16231075,-0.34059232,0.8125564,1.3242483,-0.77398974,1.4182531,-0.20808655,-0.54695547,-0.26673266,0.09160551,-0.27388138,-0.59799206,0.3452779,0.08880934,-1.2691435,1.0692427,1.2728201,-1.4054329,-1.0834055,0.07879215,0.5995076,0.055343967,0.29073682,1.1108174,0.3701666,-0.887545,0.95988065,0.61023325,-0.82149744,0.3271306,0.6977438,0.01414915,-1.3856211,-1.0494394,-0.74783736,0.18575329,0.22510985,-0.3250947,-0.37067848,0.8518091,-0.32279447,1.606037,-0.7557373,-1.3304108,0.21256995,0.96087784,-0.5855711,1.1522132,0.40805227,-0.6326944,0.51317465,-0.19906367,-0.23712201,0.40371588,1.068121,-0.7732392,0.1475259,-0.31133002,0.3567345,-1.20761,-0.23331262,-1.3164268,0.46197224,-0.27645597,0.857457,-0.8927744,0.99454874,-0.7643654,0.48572016,0.56936854,0.3072803,-0.38254127,-0.48140052,0.25862756,-0.27868974,-0.101891935,-0.005205251,-0.86424106,-0.5376701,0.8516892,-0.5583096,-0.023614978,1.4217638,0.38521785,0.37700945,0.7317618,1.7493292,0.9498667,0.9283236,0.26457497,-0.45692444,-0.22063738,0.6167788,0.009774374,0.06719291,0.2610877,0.6144066,0.47380537,-0.6161567,0.28709313,0.2612728,-0.22213416,-1.1330987,1.1403781,0.16153468,-0.03536107,0.0017890531,-1.3085649,0.52831817,0.62206525,-0.578479,-0.56287014,-0.4050962,-0.11360106,1.0914291,0.13517094,0.4629642,-1.0818181,-0.75209516,0.7530024,0.25158563,0.6213855,-0.719775,0.6096299,-0.024881825,-0.22502892,-0.24222748,0.8176846,-1.0210096,0.6351228,-0.5410214,-0.38400602,-1.6056762,0.031876087,-0.26100895,0.24321184,0.8032828,0.10055886,0.24572228,-0.55263466,1.1478413,-0.31955588,-0.37359387,-0.21930341,0.6391736,-0.30530858,-1.049733,-0.7710225,0.54189986,0.13688236,-0.35999534,0.27929625,0.77606696,-0.11784273,0.27113608,-0.2329955,-1.0657694,1.504723,-0.44600365,-0.90914035,0.14789954,1.562415,-0.29683858,1.445575,0.3470366,-1.6456354,-0.94909286,-1.9907812,0.019261334,1.4404883,0.06933725,-0.13903835,-1.0849954,0.5574927,0.15665348,0.46725947,0.45729986,1.412839,0.32374808,-0.026203461,1.6073604,0.8362112,0.66689134,-0.3185581,-0.30818647,1.2554588,-0.34829608,-0.09123809,0.54532015,0.7185679,0.1832784,0.5500949,0.7405418,-1.3971884,1.1343801,0.23521785,-0.19612704,-0.47426465,1.0678668,-0.4019929,-1.6935439,-0.76671994,-1.1775379,0.14759219,-0.24048197,-0.55779845,0.15423834,-0.029044857,-0.8854178,0.54960454,-0.6341371,0.849263,-0.28187847,-0.6504048,-0.48710302,-0.02949779,-0.4056453,-0.27980325,-0.17884205,-0.53399247,0.54929274,-1.7977492,0.6093591,0.03224872,0.78764254,0.6141572,-1.813651,0.17904405,-0.30199078,2.0761092,-0.14740278,0.036149114,-0.5866763,0.16681701,-0.96476495,-0.8861339,-0.7046345,0.10053919,-2.3671517,-0.6976304,0.28480658,-0.47828108,-0.3981901,1.1793401,0.46869028,-0.80006194,-0.45597345,1.0850558,0.18069954,-0.1295952,0.9657538,0.478439,1.6558418,-0.120423265,0.98271275,0.7369051,-0.025649708,0.15475087,0.31636304,-0.6884826,-1.5049103,-0.13961917,0.1861205,0.26083347,-0.14230578,1.060002,-1.757336,0.078230746,-0.3503982,-0.12975243,1.0376529,-0.35468698,-0.5355014,0.36242086,0.39237842,-0.22431125,0.18270639,-2.6259103,0.7881236,-0.69533265,-0.12505595,0.73004603,1.8379265,-0.4634535,-0.16744462,-0.22335792,0.6244581,0.7706552,0.4050371,0.12172439,-1.1469623,-0.9423523,-0.26115242,-0.5165848,0.0918698,-0.5829691,-0.9134362,-0.46774557,0.97441393,-0.42586496,0.6204643,0.032249022,-0.99531746,0.70873195,-0.5614737,0.54722595,0.4768872,-1.4075581,-0.13795163,1.3275574,-0.5613389,1.1207455,0.6592577,-1.7094172,-0.14233392,-0.865183,0.02475449,-0.5732367,0.38868883,0.3026087,0.021071875,0.37778512,1.61238,-0.34455106,0.67872155,0.736911,0.6353049,-0.5622324,0.85721505,-0.48643133,0.26932883,0.27606094,0.3992844,-1.043917,-0.95277536,-0.83688307,1.8790323,-0.24776673,-0.91686016,1.1211646,1.3562331,-1.6688201,-0.27275783,-0.012152704,0.26450703,0.17436293,0.5574221,-1.0246729,1.215311,1.1850106,0
delightful,0.6638544,0.08440266,-0.042301737,0.0933856,-0.1758617,0.17747529,0.16215657,-0.06453134,-0.11081701,-0.046479534,-0.018946072,-0.26716983,0.28078178,0.20067891,0.25071812,-0.06628736,-0.07838432,0.24927452,0.31171396,0.22852106,0.23021518,-0.3485826,0.07188522,-0.035250988,0.8181881,-0.10058436,-0.4169432,0.48944616,0.15063173,0.1529582,0.04239575,0.110406205,-0.2817388,-0.0144954305,0.24862048,-0.14797628,0.005218163,0.08852265,0.12073951,0.29064432,0.2988715,-0.73195475,0.45279643,0.21582003,-0.24521302,-0.33162832,0.3935903,-0.22683114,0.034575418,0.09486756,-0.7549204,-0.09974113,0.026490498,-0.14187439,0.19005695,0.103471495,0.0649848,-0.19006883,-0.049832746,-0.18022025,-0.41459623,0.31706592,-0.26111794,-0.2605045,-0.61487746,-0.44446185,0.42978686,-0.49821514,-0.024948278,0.47878504,0.037795823,-0.49627575,0.1782596,-0.030589266,0.1704203,0.21994692,-0.213238,-0.17561905,0.062459216,-0.111545935,-0.012476187,-0.13782348,-0.3234057,-0.16172963,0.13024768,-0.07694261,-0.04460842,-0.19148928,0.15314566,-0.10385957,0.047088712,0.08207966,-0.48891845,0.21234356,-0.1202159,0.35464242,-0.15305705,0.12161974,0.45579624,-0.17731969,0.1397947,-0.0017694676,-0.108500086,0.10177808,-0.28259593,-0.70468616,-0.08766817,0.20795977,0.022250637,0.5016342,0.19231725,0.12385385,0.16073984,0.35971782,-0.23615529,0.09015753,-0.12333412,0.057258647,-0.2409552,-0.5274891,0.116522,-0.012474748,-0.47691333,0.1127788,-0.15273577,0.11046972,0.5982312,-0.18561256,-0.12027002,0.41124782,-0.43784493,0.031534977,0.0503084,0.0368206,-0.07306728,0.09735583,0.1696077,0.18462662,0.11883494,0.1533301,-0.40818194,-0.15668736,0.208747,-0.24675687,0.29214174,0.08286062,-0.21651712,0.07919335,0.22906841,-0.19338568,0.0591367,0.32461908,0.0929847,0.07052244,0.0063069556,-0.48221543,0.18314895,0.006851828,-0.6061617,0.2558956,-0.28922755,-0.029521493,-0.03834269,-0.066929385,0.16392191,0.34070435,0.45605868,-0.2727541,0.22425985,-0.14879453,0.4509493,0.3285764,0.096803755,-0.4185925,-0.14344049,-0.10603771,0.01680137,0.08870704,-0.018288411,-0.19443838,0.016842844,-0.3569513,-0.56942195,0.2549254,-0.034724366,0.029394325,0.13475974,-0.08331565,-0.45989832,-0.3243261,-0.18644945,-0.050694335,-0.04963188,-0.34809962,0.5005935,-0.1612985,0.11168609,0.34055325,0.120052695,0.2590721,0.5165303,-0.20858285,-0.1448641,-0.30739352,-0.09280025,0.4117967,-0.2845642,0.14518788,0.043747608,-0.18878077,-0.57140917,-0.1818956,0.20694806,-0.005005034,0.01872377,-0.06782723,0.6216448,0.061131224,-0.17519909,-0.52928466,-0.14282627,-0.18113397,0.10487386,-0.024255395,0.14294207,0.20269154,0.048331823,0.46404484,-0.10046642,0.005888356,-0.052938122,-0.023221785,0.21239267,0.15221436,0.1632733,-0.112159304,-0.0085054105,0.013035739,-0.2540795,-0.10630413,-0.044259083,-0.17590322,0.16647352,-0.079966515,-0.11369212,0.26305014,0.20668806,-0.20938303,-0.5800929,0.20067021,-0.27801597,-0.077743456,-0.33764324,-0.18351051,0.2150178,0.059894867,0.3112658,0.17877859,-0.09836802,0.14614116,-0.08161299,-0.14365621,0.2646635,0.021653356,-0.21862146,0.3691886,0.3755416,0.013506027,-0.17114992,0.096189626,-0.15942518,0.1182745,-0.19827223,0.04729505,-0.35679364,0.22850536,-0.54848886,-0.102564394,0.09143029,-0.0059654093,0.024102917,0.15942203,0.08185902,-0.15061922,0.039204925,-0.033682156,-0.074586764,-0.04269921,-0.043877818,-0.0018147451,0.5062641,-0.21210665,0.08341175,-0.19598763,0.020948118,-0.17667514,-0.20065552,-0.0084649995,0.054682046,0.20397443,0.21481769,0.07262676,-0.012445768,-0.036944065,0.35539627,0.13240525,-0.35496926,-0.028480077,0.32643503,-0.07249954,0.08534499,0.17958961,0.18965194,0.056391712,0.023764709,-0.17305687,-0.27314517,-0.60431534,-0.5830434,0.15417892,-0.11125098,0.038733795,-0.07814782,0.13481252,-0.15632665,0.36428496,0.02605701,-0.21570632,0.10146745,0.073337376,-0.160863,0.32803932,-0.10912457,-0.058822248,-0.044089854,0.19357802,0.1794861,0.611829,0.08195206,-0.0024560038,0.28453594,0.15491734,-0.00039320532,-0.110783055,0.29533088,-0.2372215,-0.08869922,0.2897297,0.2542637,0.16800144,-0.068318166,-0.14927547,-0.33640715,0.17856483,-0.15782654,0.32109338,0.06803712,-0.32283515,-0.45007792,0.1579252,0.20197317,0.10224231,0.037880428,-0.16318826,-0.019032653,-0.28342825,-0.29351097,0.06138073,0.07371704,0.16329755,0.41550344,0.1691183,-0.15286796,0.0778564,0.2924556,0.072635464,-0.099524915,0.22434747,0.10912811,0.7010124,0.5173883,-0.37342837,0.109337255,0.3915506,-0.1606705,0.25130847,0.4127551,0.09249958,-0.07695397,0.18280856,0.0002452355,-0.059052765,-0.25657856,-0.049910527,0.24019343,0.102700196,0.16695279,-0.32927987,-0.055856578,-0.074317165,0.50561625,0.14604926,0.28311473,0.3796268,-0.38424382,-0.20426579,0.15635912,-0.12415728,0.6028718,-0.3235138,0.2098649,0.5078238,0.118152335,-0.19351569,0.088233665,0.6984001,-0.22272295,-0.17730208,-0.20162094,-0.17828104,-0.0137793375,-0.057880014,0.13997203,-0.057937413,-0.06377854,-0.18419653,0.29962617,-0.3483827,0.024332006,-0.14704072,-0.038456943,0.047457054,-0.03021024,-0.2712888,-0.3925803,-0.13466959,0.19225942,0.1986208,-0.09618495,0.25352588,0.24488689,0.09455576,-0.31211016,-0.07768338,-0.0035201407,-0.23760368,-0.23882931,0.07184114,0.33415106,-0.21695195,-0.18019912,0.55478406,-0.21119894,0.07965496,-0.001891918,0.2704506,-0.25269276,-0.1661064,-0.3840587,-0.20993555,-0.10138056,-0.30656767,0.36584264,-0.071689084,0.112709224,-0.37920865,-0.086337805,0.099617094,-0.04659705,0.019666601,0.49175513,0.27326378,-0.07064939,-0.31918663,0.27356657,-0.31325692,-0.08152662,0.23849037,0.23837517,-0.2570414,-0.09589921,0.03301242,0.32333288,-0.22579993,-0.04859665,-0.59169894,-0.169337,-0.1735853,-0.12579325,-0.066337146,0.16133225,-0.09772395,0.22441852,-0.18302841,0.119988576,-0.57868856,0.3920918,0.15445928,0.32984614,0.37202686,1
unpleasant,0.61586165,-0.4623524,-0.6127636,-0.17652228,-0.42202222,0.6476766,1.0847746,-0.42922267,0.069200255,-0.51506364,-0.22146104,0.06684178,0.83474624,-0.27223885,1.848035,-0.58782774,0.21950531,0.022314632,-0.76058453,0.43289882,0.5049635,-0.04342474,-0.21849458,-0.14585403,1.5895164,0.15838149,-0.28505933,-0.025004225,-0.07987346,0.11864501,-0.19130473,0.8222093,-0.29993743,0.2813329,-0.7164461,-1.3204433,-0.52246785,-0.67154753,0.15246895,-0.3110492,0.112430885,-0.6859754,0.6133607,-0.25416282,0.16049619,0.053749148,-0.2350045,-0.6081394,0.37401655,-0.915826,-0.24895762,0.72087854,0.55458504,-0.8597316,0.4272367,0.21661752,0.767777,0.43467486,0.13290948,-0.59859335,-0.009145804,0.22127049,-0.18938816,-0.94944906,-1.0371071,-0.3203196,-0.22779812,-1.0797509,0.060203344,0.10826936,-0.14337136,0.9169511,0.38872468,0.36863783,-0.54625654,0.56709987,-0.33427823,-0.4227568,-0.06333126,-0.5754846,-0.25283158,-0.9479249,-1.517549,-0.13042635,0.23522118,-0.5539558,-0.21181373,0.24337947,-1.0195967,-0.20141123,-1.2417341,-0.5883973,-0.8830447,-0.55622977,-0.4263854,0.48616326,-0.049584046,-0.02274539,-0.6025721,-0.11120203,-0.03000281,0.9627283,0.7109166,0.124356836,0.044333585,-0.7265682,-0.16557735,-0.07758782,-0.26612276,0.13221169,-0.5574098,0.062450655,-0.05411148,-0.7970608,-0.602095,0.6170258,-0.5862999,0.663539,-0.44294697,0.22345233,0.16337283,-0.13991155,-0.22184013,-0.3497065,-0.04179483,-0.9297276,1.2503742,0.26723868,-0.46491072,0.7006387,-0.11325235,-0.41643837,-0.6300634,0.45743367,0.43132252,0.05081749,-0.23550422,-0.48249137,0.07144056,0.42835724,-0.0319689,0.16481107,-0.21828255,0.008535957,0.74931216,-0.5814415,0.8592841,0.23182173,0.4161682,-0.67054814,-0.012558802,0.7474697,-0.034698594,0.22764914,-0.61676323,0.08272022,0.7748505,-0.06850419,-0.6114587,-0.28752822,-0.85661423,-0.16176824,0.19396274,0.41233194,-0.9642727,0.12838449,1.648635,-1.80143,0.41555318,-0.46245652,-0.2538746,0.19524772,-0.06699044,0.08409718,0.08738889,-1.0993915,0.22854936,0.02103076,0.242296,0.8967877,0.18077013,-0.48457122,-0.88015854,0.45752364,-0.18672228,-0.20169991,-0.33040708,-1.189755,-0.27305803,0.20657113,0.14865069,0.6380073,-0.1499666,-0.04332745,0.62513745,-0.96742576,0.35688856,0.40849403,-0.12860152,-0.088868916,-0.11514403,-0.24816002,-0.6605798,-0.3358675,0.38540334,0.35260358,-0.36476067,-0.06305681,0.38976362,-0.36207345,-0.42545715,-0.52159184,0.2937755,-0.013720875,-0.62717843,0.50914663,0.40835646,0.6852003,-0.03075455,-0.22818877,-0.15199186,0.40892375,-0.13593766,-0.591825,-0.14121349,0.44303784,-0.70794576,-0.40071318,-0.18026452,-0.080988936,-0.3940039,1.0776738,1.1288166,0.24286559,-0.75370324,0.6560953,0.06402002,0.11183424,0.33158422,0.5469277,0.08993386,-0.3129159,0.92420226,-0.14109428,-0.49259543,0.58825576,0.33444804,-0.19378057,-0.43118644,-0.73281145,-0.065188326,-0.3147292,-0.52247405,0.4380519,0.31875625,-0.10701614,0.03825433,-0.02899236,-0.42048407,-0.15923409,-0.14902735,-0.15053949,0.064699516,-0.39790002,-0.7701576,0.34749624,-0.12978838,0.046130937,-0.12798153,1.1590889,0.024030967,0.16892643,0.2084063,0.08685047,0.7233135,0.4407002,-0.18324958,0.6244883,-0.06964845,-0.86587495,0.14021441,0.53871584,-0.4222944,0.0009311746,0.18551539,-0.26477566,1.1386821,-0.21593007,-0.2394131,0.6998115,0.8610599,-0.3740852,-0.10221979,-0.40877253,0.012611491,0.1626609,0.07364123,0.21671903,-0.4258003,0.63272834,-0.5432518,-0.13536248,-0.13212174,-0.045293108,0.28146112,-0.028534124,-1.1045177,-0.28451133,-0.16158526,-0.36581403,0.680166,0.1403225,0.76173973,0.521264,0.7238262,-0.4776689,0.38445464,-1.1618743,-0.3534092,0.17267832,0.24610086,-0.56580085,-0.12708779,0.549692,-0.76811576,-0.19643901,-0.5366141,0.043497678,0.57991266,0.5708366,-0.7979338,1.0008541,0.36758837,-0.2866244,-0.14640887,0.59272665,0.22139181,1.5772784,-0.09037692,0.5998731,0.12782058,0.103011414,-0.7582657,-0.10548266,0.71553284,0.8276082,0.10765488,0.7503446,1.7061095,0.3417166,-0.3062048,-0.9010922,-0.778329,1.0239208,-0.6891426,0.7652938,-0.009602524,-0.011422723,-0.2433246,-0.107812054,0.47723576,0.597263,-0.2343576,-0.21651202,-0.18653893,-0.4484349,0.03354772,0.5901053,0.08452782,-0.19369876,1.1270381,0.847051,0.32687405,-0.05347831,0.017876286,1.4699366,-1.0676613,-0.21648008,0.27645192,1.2102904,0.4697308,0.41336244,0.63088405,0.13772489,0.2739109,-0.09118478,-0.21116066,-0.1691842,-0.45395547,1.6098223,0.6921704,-0.7331334,-0.945758,0.19957963,-0.11426385,0.26661292,0.8096398,-0.087135896,0.22960083,0.01695676,1.3070388,0.42782918,0.1834444,-0.20640011,-0.36045134,-0.56015635,-0.93663573,0.03643643,-0.052076336,-0.2789794,0.33052516,0.7622661,0.5038713,-0.25639609,0.26497322,0.95406044,0.12721203,0.29705977,-0.28658372,0.4213674,-0.20403776,-0.56769407,-0.05750668,0.0199241,-0.013595145,-0.10522635,0.66558886,-0.8989674,0.75219464,0.020437323,0.0263,0.19056115,0.038863786,-0.28319687,-0.4826265,0.34931505,0.5366252,0.3509825,-0.72549766,0.4627252,0.4450662,0.48644352,-0.43226475,-0.5684866,-0.0019250409,-0.76270753,0.10062835,0.06800577,0.5115364,0.39897862,0.047278073,0.88546246,-0.20851931,0.07181822,-0.21093121,-0.049197122,-0.78827554,-0.6116647,-0.9008422,0.17955351,-0.21524766,-0.79925066,0.9796318,-0.84227353,1.285429,-0.48311812,0.043199606,-0.7420554,-0.23595577,-0.2917223,-0.077936664,-0.18946701,1.0630466,-0.40787333,0.8844869,-0.6334175,1.0530676,1.0616567,0.057796355,-0.91712373,-0.36796525,-0.14893648,0.61945564,0.04306895,-0.03509471,-0.5762105,1.330565,-0.08076612,0.0849758,1.5776374,1.1120926,0.15903978,-0.27013764,-0.6585442,1.1342865,-0.24569502,0.8327854,0.3484255,1.4988915,1.3781888,0
incredible,0.8821979,0.3866858,-0.5377285,-0.2630535,-0.08216796,0.20316081,-0.8445224,-0.8118881,-0.60883325,0.22358212,-0.1951728,-0.031731028,-0.09161511,0.22512569,-0.39427146,0.9056087,0.81999093,0.22428489,0.4970628,1.1679246,1.2082311,0.16007796,-2.0666194,-1.0733756,-0.12749954,0.6433394,0.018699626,1.0771801,0.24795373,-0.21548697,1.5206507,-0.23236789,-1.2306267,-0.23133592,0.3887843,-1.6469635,-1.2280375,0.5820462,-0.21515563,-0.588823,0.39566827,-1.5854045,0.2425473,-0.4452339,0.10799341,-1.4625942,1.05101,2.3104548,-0.23391424,-0.140047,-0.4253913,-0.30540484,0.81641173,0.6728668,0.74753267,0.48445597,-0.7932288,-0.062426236,-1.1703279,-0.5961884,-1.5959204,-0.03425574,-0.52665985,-0.3457348,0.2861151,-0.80766684,1.6723232,-0.37198275,-1.5266948,0.15228255,0.7405728,0.6486613,-0.023227708,-1.8672148,0.6679553,0.81464636,-2.0178525,1.0548003,0.5468178,-0.025796471,-0.071937576,-0.57013196,-0.22207844,0.29905272,-0.71118015,-0.9894955,1.2124254,1.7854522,1.2210138,-1.098075,0.39753348,1.9331458,-0.44618464,0.847016,-0.8401362,0.8937357,-0.3070964,0.46138942,-0.05774759,-0.91012824,0.07790613,-0.41151968,-1.1113725,0.3343881,-0.8279366,-0.49923596,0.0112165855,0.38140672,0.89374185,1.2323954,0.3279697,0.5707131,1.8993703,-0.91906315,-0.9060917,1.5929701,-0.05371133,-0.9145737,-0.6845881,-1.9232811,0.055857167,0.31542963,-0.6139639,0.3225996,-0.71317846,-0.35775304,0.07219797,0.323186,-1.0123024,1.74422,0.3184078,0.10028437,0.012915815,-0.26547268,0.32192522,-0.042954896,0.77754724,1.371382,2.1892753,-0.69363654,-0.39866075,0.430019,0.38537684,-0.79628265,0.46117535,-0.25083458,-0.657465,-0.5700964,-0.020467538,0.27696946,0.3760042,-0.16147123,0.21501243,-0.74168986,-0.34708473,-0.16812441,0.3574936,0.019344397,-0.5484483,0.8103915,-0.688492,0.1777472,0.92226315,-0.27685562,-0.4423614,-0.58417606,1.5033073,0.09887732,-0.71012795,0.70376897,0.3263269,0.31034088,0.9052463,0.30219564,0.09656539,0.031663366,0.2362117,0.12127908,0.28852293,1.5698795,1.1637018,-0.18193437,-1.1984919,-1.0160986,0.07966815,-0.25364155,-0.6146836,-0.4286086,-0.11158703,0.1994016,-0.30353177,0.49936652,-1.4393116,-0.9370195,0.10874775,-0.10249911,-0.4726078,-0.25513652,0.9525439,1.2055401,0.43128762,0.7040525,0.2649061,0.9043062,-0.104126126,0.38486013,-0.89517534,-0.16439182,-1.1777259,0.36579162,-0.6936869,-0.27867123,-0.053551096,0.25194517,-0.09016958,-0.039401,0.33361754,-0.13920502,0.397307,-1.3156512,-0.0021346514,-0.57324344,-0.07515181,0.7083419,0.9221414,-0.5078511,0.06467165,1.5606917,-1.0584189,0.16431823,-0.77841675,-1.0040034,0.03811254,-0.7763002,0.9826067,0.16038339,0.7363967,0.076655716,0.8485856,-0.26004884,-1.1794821,-1.0043191,0.17967333,0.5863887,0.48742893,0.20960768,1.3431082,0.8297137,-1.8107741,0.660049,0.57397777,-0.7078076,-0.002782269,-0.6179138,0.8820411,-1.1239475,0.024070585,1.5899295,0.18116741,0.6386753,-0.23716548,0.7177563,0.006662158,0.025853815,0.2599035,0.083050415,1.3978628,-0.29885113,0.115016446,0.46377733,-0.536229,0.9905837,-0.17543082,0.69163907,-0.8788735,-0.27495936,-1.9308976,-1.0155551,0.06527234,-0.5581969,0.3263662,1.0402718,-1.1007733,-1.3924493,-0.5180791,-0.7614545,-0.5473205,-0.9671222,0.48439008,-0.07087213,0.9251946,-0.21601565,0.78040034,0.26338345,0.4328448,-0.02418215,-1.3903977,-0.45336452,-1.7798544,0.22376055,1.0294874,1.4064705,-1.0090982,-1.5653528,1.3054875,-0.6787951,-1.4808589,0.0016746023,-0.2574845,-0.49962425,-0.5181848,0.7931109,-0.39662662,1.8402156,0.15096503,-1.0665051,-0.19430038,-2.9721649,-1.9246982,0.85668635,0.06142422,-2.2554243,-0.7389774,0.80950093,-0.43238285,0.19555144,-0.22663271,-0.96233535,0.30105522,1.0979329,1.4640448,0.25918925,0.054591183,-0.6510194,-0.72917104,0.64926744,-0.020490695,-1.0439783,-0.30271345,-0.083406016,0.23853368,1.3582557,0.42341378,-0.44728395,0.46796265,-0.78801423,-0.033038747,0.14041719,1.0315903,-0.45411202,-0.8499285,-0.7085949,-0.37727544,-0.2001878,0.2372505,-0.2868767,-0.34241447,-0.10591775,-0.019522103,0.34259602,0.037855115,0.5926295,0.788311,0.61719966,0.11148343,0.17213465,0.48731565,0.005611791,-0.05028589,-0.5974867,-0.19323394,-0.46092087,-0.80854964,0.30671945,1.597971,-0.26405355,-0.14778224,0.44559437,-0.64958674,1.3911213,0.31311792,-2.1711853,-1.0779171,1.3049927,-0.3526017,1.1075824,0.49454024,-0.8988191,-1.4267628,0.42959657,0.4562974,-0.33549917,-1.2609006,1.4618186,-0.37547785,0.5150697,-0.46636963,-0.4296295,0.54201156,-0.048101444,0.2515562,-1.2895113,-0.18758881,-0.1035371,0.9481295,0.7602738,0.6856504,0.38192037,-0.595077,-0.50334674,0.3284915,0.9394642,-0.4381407,-0.47234178,1.216373,1.7001668,-0.52417743,-0.7718865,0.5825551,0.81485945,0.47690624,-0.3867044,1.0869466,0.7959591,0.22052383,-0.031842545,-0.49897397,-0.0025571059,0.7409846,-1.0372716,0.2114668,0.68898475,0.32793435,-0.07313813,-0.48491034,-0.3229486,0.82265574,1.0086424,0.3609388,0.7311245,-0.45679384,-0.49656036,0.70825785,-0.68632853,-0.073409446,-0.38989553,-1.3059106,0.23853485,1.7235751,-0.7106811,-0.6717138,-0.5565063,-0.66715676,-0.64327407,-0.5494489,2.4397635,0.09174357,-0.013949609,-0.16814828,0.82815105,1.0567315,0.12432229,0.44168875,-0.42768827,0.5612716,-1.4866918,-0.14402932,-0.5757414,2.160477,1.8934231,-0.19202186,0.20065093,1.7650636,-0.7263559,-0.5469602,0.941637,-0.20341593,0.31127426,1.451077,0.0014732545,0.15536834,0.02562733,1.5149546,-1.377932,0.26936886,-1.8871866,-0.68850946,-1.0621246,-0.6335721,-0.36482236,-0.0024633142,0.7107155,-0.098516695,-0.19640969,-0.62935024,-0.7194179,0.46332756,-0.40984085,0.31169918,-0.067505054,1
good,0.423013,0.5147343,-1.3481554,0.19843388,-1.9317821,1.7692683,-0.25822297,-1.9934695,0.45317993,0.10273232,-0.1691942,1.0145408,0.2049703,0.938547,0.32524705,-0.08827768,0.11177799,0.39256394,0.9254751,3.6693597,1.0255215,0.079089805,-0.010196315,-1.5779457,0.06412929,-0.290494,0.42894998,1.2562671,-0.36145654,0.16063415,1.5182594,-0.67920196,-1.174739,0.017850526,0.025514307,-0.81231046,-0.10250735,-0.2814566,0.06330249,-2.0323415,0.47455618,-0.5348519,0.94497675,0.5776157,-1.3796139,-1.2719694,-0.708759,0.5178508,0.4114434,-1.3964367,0.4298935,0.056584667,1.3422897,0.90980285,1.0527855,0.7694467,-0.09964074,0.52019507,-1.8473636,-0.67067677,-0.20342568,0.42529348,0.024268648,-0.8795876,0.42558062,0.5738252,-0.6221587,-0.058118273,-1.5002918,-1.0094901,0.79902,1.29851,-0.007620049,0.21661426,-0.9216909,-0.3336233,-0.18475847,-0.28470472,0.3857703,-0.5070486,0.77614754,0.105957896,-0.75049764,-0.99128425,-0.6766319,-0.6214558,0.32696506,-0.2971529,-0.6635904,-0.44544712,0.25765404,0.50152093,-0.4092066,1.321722,-0.17785485,1.2062043,1.6693344,0.65976703,-0.37079078,0.73960406,-0.98254734,-0.61224437,0.03244773,0.64839906,-0.052543577,-0.62385356,-0.27775118,0.188941,0.40729886,1.5626998,1.1336353,1.5062246,0.032532785,-1.333961,-0.28522032,1.9118325,0.13996929,-0.06091615,1.0254123,0.801037,0.6526695,0.52875435,0.46926975,1.1447589,-0.5624732,0.34404254,0.86033523,-0.20359264,-0.4560428,1.7432762,0.87368643,-0.49714202,-0.44911337,0.5943363,1.3297087,-0.4293274,0.04421622,0.9279259,1.0435556,-0.63797516,-0.62164724,0.6017977,-0.76905733,0.23420125,-1.8786857,-0.9913827,0.14166613,-0.27780256,1.6603084,-0.5145196,-0.39413354,0.61588436,0.7693115,-0.040211715,0.74394244,-0.5992399,1.236815,-1.7351311,-0.79778934,1.4630083,-0.3947206,-0.30160195,0.35799718,-1.3178531,-1.5704759,-0.48613954,0.6564269,-0.19555908,-1.7173549,0.04740247,0.5954304,-0.5272725,0.7470173,1.6396105,1.5891486,-1.8183373,1.0579746,-0.5799946,0.30643448,0.71257716,-1.1197021,-0.30973724,-1.6623689,-0.04916774,0.6878815,-1.2007159,-2.1502135,-1.7641943,-1.0641195,0.16864547,0.49401256,1.6461238,-2.5657282,-2.0645833,-0.06382541,-0.3344433,0.3047892,0.95648974,1.6710234,1.5565176,0.17106597,0.27218315,-1.0192169,1.2076031,-0.589516,-0.15673023,0.14766051,0.49507135,-0.55901575,-1.1658819,0.012865327,-0.38510847,0.027652806,1.1263373,-0.31693697,1.2723268,-1.3906257,0.82483935,1.0841995,-1.525186,-0.1428324,1.2230551,-1.117249,0.2259511,0.41752234,-1.1821103,-0.8389688,-0.6059849,-0.9975211,1.144488,-1.4077305,-0.30790788,0.18761644,0.07822014,0.661363,1.6629691,1.7852541,-0.6939874,0.43554252,0.527396,0.92178106,0.29418102,0.2353693,1.1036091,1.0806407,-1.2057816,0.4611902,1.1195227,-1.0176779,-0.94859904,-0.35314617,-0.28015378,-0.66757303,-0.33914194,0.20741776,-0.31984422,-1.5676156,0.83959854,1.6570952,2.152144,-1.275017,-0.88851094,0.6086167,-0.3224893,0.010869003,-0.5649748,0.56453955,-1.0921861,-0.7916025,0.7609421,1.4409555,2.1654007,-0.31030414,0.24828555,-1.5966182,-0.46326125,-1.8244219,-0.28451422,-0.25292453,-0.445894,-0.43062717,0.18317327,-1.604427,-0.45819008,0.015201322,-0.019974565,-0.96866727,-0.8290295,-0.20646158,-0.38043347,-0.58471316,-0.030755084,0.20076436,-0.2901156,0.35823986,0.7280224,-1.5646759,-0.4680456,-1.170493,0.6024294,1.4401509,1.4462609,-1.4854177,-0.46548337,0.5684926,-0.96345586,-2.0311933,0.38979232,-1.0333582,-1.6016283,-0.018914683,2.1443243,-0.53353137,2.2758477,0.7699742,-0.43880644,-0.33096778,-1.2504199,-1.4600502,1.3197057,0.68127114,-1.8542926,-0.4630346,-0.49944115,0.07447112,-0.5709934,0.38582656,0.19572091,1.7656138,0.2089556,1.1029625,0.36056188,1.4222869,-0.6731676,0.43524295,0.57827187,-0.109731115,-1.3728493,0.37275407,-0.45256144,0.30364984,-0.21433,-0.28338045,-0.7574369,1.5995103,-0.41618758,0.38572398,0.84015185,0.06249406,-1.167204,-1.6725495,-1.7873273,-0.35472,-0.89631826,-0.31018174,-0.60352886,0.90020883,0.23483908,-0.9091571,0.3173859,0.7027856,0.3111155,0.44438142,1.8453658,0.22119461,0.4787992,-0.5375752,0.4877409,-0.5851872,-2.2414076,-0.87661374,-1.4237976,-0.27007645,-0.0848271,-0.08751002,-0.3621433,0.74442667,0.25642177,1.8546518,2.2338607,-1.0385392,-2.6371508,-1.7714747,0.58068216,0.234263,0.04330569,0.25288177,-1.5780897,-1.6138812,1.311656,0.73283476,-0.85818493,-0.11968942,0.5865369,-0.7406695,-0.98397106,0.71883285,-0.314736,-0.45259586,0.24835315,1.0085782,-0.19392276,0.22615428,-0.29502594,0.90716475,0.061025754,0.10171604,-0.92754984,-1.1466869,0.126944,0.5827659,0.6926994,-0.36192805,-0.43816638,0.40224707,0.7482804,0.7343036,-0.33997282,0.08420627,-0.6710939,1.9536834,-0.18992463,1.2863716,1.5187588,1.0465305,-0.6798841,0.23977984,-0.23565647,1.5430076,-1.0627522,1.118692,0.43007126,1.1545954,-1.4015088,2.1765757,-0.05932022,1.2673424,0.6528265,0.47902375,-0.03141278,-0.12761222,-0.6824195,-0.7732525,-1.3157308,-0.46477607,0.24527448,0.16213235,-1.0174277,0.77264607,0.12282127,-0.44440195,0.4870508,-0.14891161,-0.120462574,-1.2493067,-0.4515011,0.62231463,-1.7404412,1.4414227,1.9996833,-0.40641552,-0.51723665,-0.212042,-1.5397651,0.97657394,-0.43272537,-0.3696587,-0.9011875,-0.4002563,1.6437368,0.7473711,-0.13917752,1.987607,-1.004605,-0.010592925,1.8208817,0.11685541,0.26014757,1.5178679,0.9381796,-1.0391718,0.30600768,1.406951,-1.6261472,1.3866011,-1.5859942,1.0462841,0.7804811,-2.3444402,-0.7395744,1.1950934,-0.55663955,0.4334285,-0.24612617,0.037093524,-0.4396377,-0.82647866,-0.29648495,-0.28030422,-0.41923985,1
wrong,-0.5990296,1.8228668,-2.0780914,-1.2504104,0.8206085,-0.32635427,1.1013155,-1.0708686,1.1527393,0.420373,-1.6054524,0.48564598,-1.3155681,-0.90195954,-0.2531438,-0.010393469,0.7706508,-1.4833649,0.7985043,1.2219366,1.8088696,-1.0091655,0.69648355,-1.3640198,1.1900704,-1.2896873,-1.5187901,2.1590934,0.41058773,-0.0752975,-0.9384154,0.26860255,-1.8308364,1.2295482,0.6411984,-0.18301713,-1.3732314,-0.47908664,0.484764,-1.2188889,0.65135753,0.1570744,-1.73824,-0.84297097,-1.0802222,-1.0707434,2.7231426,-0.46963972,1.7009292,1.826756,-0.7529838,1.5861988,-1.6662105,-1.4416288,-1.3583118,-1.3586677,-0.03792727,-0.16751176,-1.5797586,0.8989543,-0.13240269,-1.3616501,-0.9317535,-0.18243493,0.4084484,0.67669106,-1.4937314,-0.059927933,1.423244,-0.22926031,-1.1777259,0.9072504,-0.29988378,-1.9166907,-2.4607313,0.8169603,-0.7695182,1.0302799,-1.753722,-0.10338377,0.16993786,-1.608421,-0.9059559,-2.4571161,0.4759734,-0.8492689,0.9101923,1.4791178,-1.6023023,-0.0029459924,0.27770293,0.59887064,-0.78978705,-0.84104866,0.08495052,-0.9254289,0.69917977,1.9098401,0.41679022,-0.19124883,2.5604944,-0.48943654,0.38447276,1.0907909,0.9850178,0.01603017,0.880594,-0.014830806,-0.28037065,-0.47168207,-0.705195,0.5558747,0.961141,-0.3029447,0.25411353,-0.68039715,-0.35085768,-1.0834514,-0.23507828,1.1655191,2.3787153,0.16082157,1.875682,0.41112062,-0.26452804,-0.28685346,0.8934452,-0.15053728,-1.57113,0.5651117,0.23532148,-0.2155966,1.1347178,3.122292,0.3249303,-0.5557809,-2.1871445,0.901526,0.059216402,-0.46222466,-0.6955594,0.25164664,1.0892048,-0.23578751,0.8705693,0.14646165,-0.20676012,-0.4875489,-2.0199995,-0.072337136,2.5879467,0.32466257,-1.0945574,0.12872577,0.28021666,-0.44600186,2.038085,-0.029697284,-0.53451514,0.30449894,-1.7243712,-0.0026804341,-2.1503043,-0.3817605,0.5365641,0.2127248,0.48714313,-1.3040128,0.31915495,-0.47456524,1.1240978,-0.663732,-0.8164284,0.094338045,1.1399648,-0.04674274,0.4037872,-0.9843844,0.75958943,-0.34567466,2.530042,-0.20950836,0.026806934,0.6368345,0.5245336,0.74180037,1.3828735,-0.071908146,-0.93280655,-0.5156749,-0.09372209,-0.11937996,-2.0770342,0.1553993,-0.8867565,0.3965858,-0.48466355,0.3654996,-2.4423778,0.6597948,0.14198196,0.40766078,1.1454053,1.1357929,-0.5803092,0.43928292,-0.28434056,-0.51137847,-0.5578485,0.8989467,-1.0086175,1.1540667,-0.51169604,-0.46164554,0.43885958,0.5214454,1.0108544,0.17336287,1.8373271,0.8518127,0.24394596,-0.37979046,1.6634147,0.23682593,-0.5948561,1.918445,-1.3619295,2.04364,-1.6377801,2.1227934,1.3520465,-0.35105222,-0.56850743,-1.8409339,-1.3262972,0.9588435,-0.33216584,2.4906542,1.1812042,-1.3660948,0.004664975,-0.76694816,-0.46056372,-1.8085561,0.23183924,0.9427865,0.61806685,1.5272242,-0.6572068,-0.9503596,0.24904723,-0.07857339,-0.11439165,-0.43139416,-1.6038126,0.5598847,0.70989245,1.4449042,1.3813758,1.0692098,-1.29815,-0.57595885,0.40206468,0.84316176,-0.9977189,2.0537062,-0.7612202,0.20676921,1.6501242,0.40164864,1.3540945,-0.7047441,0.072057694,-0.4604864,-0.9746022,-1.4556464,-0.6514173,1.8307937,-0.28683394,1.2811847,0.989649,-1.1263634,0.004988802,0.066443525,0.8286787,0.68939644,-0.7341094,0.03642323,-0.54291135,1.8767525,0.40606162,0.4703952,0.24084608,-1.5817921,-0.8925349,0.37871444,-0.61246175,0.10165899,1.1069107,0.22420144,-0.26919547,0.5655675,0.20091558,-0.22011553,-0.21385248,-0.8258492,1.1009996,0.81567603,0.50981736,-1.9928402,-0.62571645,-0.82200646,-0.16046946,1.4940286,0.22979733,-1.2026393,1.0747862,0.40148547,-1.3465296,1.2289503,-0.7365464,-0.15731844,0.1478107,-1.0233134,-0.6201334,0.5197752,2.468266,1.3989972,1.0246552,2.3863442,1.6108526,0.8936058,1.6641533,-1.0070949,0.2816131,0.40221894,-0.5222411,-0.07611947,1.3512431,-0.55182207,-1.4493743,-1.3127396,0.59341407,0.25076404,0.3867063,-1.4361494,0.7761755,0.955342,-0.9400005,-0.2750916,-0.9496354,-0.3853751,0.20509431,0.35717788,-1.3796363,1.2848089,1.7832862,0.11631148,-1.2920008,0.6788794,-0.86961377,0.050189048,-0.29407248,1.6556307,0.3517871,1.4368862,-0.552764,0.69535,-0.81222594,0.74595684,-0.066011764,0.41488394,0.2061155,-1.0870926,-0.33592725,1.2103183,0.71576864,0.3770148,2.1479933,-1.1842691,0.5768354,0.14068876,-1.275649,-1.5889796,-0.13266525,-0.83691835,-0.24931239,-1.2635292,-0.31360886,-1.0559828,-0.524331,0.24456738,0.8181034,-1.0575228,-1.5451764,-0.7353164,0.43317825,0.06737822,0.83765256,-0.31152287,1.685753,-0.0009838201,0.09817198,0.68560773,-0.39347515,0.48363432,0.60940975,-1.5861651,0.40572274,1.2299522,0.09989461,0.23763369,0.08798024,-1.7129864,0.12163286,-0.99475586,-1.8146466,0.18415162,-1.3822315,0.19499834,-0.3615166,-0.7902857,-1.1958714,1.1456217,-0.687806,-0.06447262,0.4218514,0.4269717,-0.022497976,-0.6340993,0.30883297,-0.844982,-0.26813984,-2.097956,0.30251446,-0.76118845,-0.31413904,-1.175777,1.6230417,0.37255207,0.5677343,1.1182787,0.58012855,0.787872,-0.5482311,1.6951071,1.0963354,0.84813845,-0.6375402,-1.8130498,-1.2692183,0.12921137,-1.0089097,-0.49294108,-0.31869435,0.5012432,1.1668777,-2.8821347,-1.0492532,0.4955617,-0.1567354,0.6816929,0.105636016,-0.38146135,0.6453113,-0.7960616,1.6505287,1.003433,1.0343498,-0.605235,-1.5110027,1.1496639,-0.9640391,-0.929379,0.6458064,1.1204137,1.099308,0.53903925,2.1375158,-1.2050184,-1.455677,1.5624112,-0.7698973,-0.17951763,-1.2463095,-1.7565433,1.4053057,0.06998219,-1.4862245,0.07296725,-1.0945418,-1.5427296,0.46550956,0.63612777,1.0808951,2.0472693,0.81166154,-0.70987093,0.17577185,-1.4127905,0
unforgettable,-0.029698221,-0.09142525,0.07754535,-0.24083231,-0.03554448,-0.13871564,-0.14278728,-0.189152,0.0011723392,0.13636333,0.07853712,-0.056402583,0.15724249,0.06781471,0.06402597,0.12020149,-0.022048518,-0.027630718,-0.14703359,-0.047035147,0.05425374,-0.07196612,-0.030882467,0.09715256,0.14793861,-0.1579876,-0.07243933,0.091268755,0.060540475,-0.0445644,-0.022629714,-0.00799543,-0.075269744,-0.016772939,0.030724443,-0.17648469,0.1677729,-0.120514326,0.006589919,0.050662484,0.12838359,-0.1366616,0.10061353,0.04935327,-0.030577462,0.08544716,0.3222021,-0.12797573,-0.040037204,0.04018639,-0.09144702,0.035350446,-0.025471121,-0.12570827,-0.07354955,0.07203983,0.020673012,-0.1530184,0.09196668,-0.18890956,0.02919505,0.2064006,0.068281755,0.06475653,-0.090105206,-0.12546077,0.117843226,-0.15877908,-0.12294608,0.3217173,0.15800266,-0.015508103,0.092154674,0.105781674,0.24684167,0.054359857,-0.14471267,0.03711076,0.0016454883,-0.056757554,0.12834853,-0.12446579,-0.21002842,0.14446464,0.01327027,-0.12811436,0.24899404,0.016299242,-0.054001432,-0.051037923,0.051870473,0.13104272,-0.027330399,-0.010394746,0.19543925,-0.04783534,0.18806726,-0.016700752,0.10639379,0.037829686,0.028686097,0.08121709,-0.2157207,0.09516715,0.045888845,0.053455673,0.017684232,-0.09461442,-0.093338154,0.37552604,-0.00026413635,0.014438065,0.15500602,-0.002698927,0.09671726,-0.14261344,-0.14086157,-0.058413677,-0.18745866,-0.36877126,-0.025957352,-0.017983098,-0.0414641,0.034751154,0.12429481,-0.051041782,0.19398798,-0.09054803,-0.09121462,-0.014357506,-0.09572536,0.11537392,-0.07073581,-0.115336806,-0.0036834856,0.09742523,-0.058676254,-0.08449984,0.123328835,0.17375112,-0.018348418,-0.12841646,0.095574774,-0.07757007,-0.03853304,0.013737433,0.03417837,-0.063458614,-0.00031199233,0.18251632,0.041101556,-0.031672593,0.00769243,0.06779183,0.07780281,-0.0049062152,0.01342591,-0.09554013,-0.16722977,-0.099991255,-0.019130265,-0.026192864,-0.0017544978,-0.003836334,-0.07247359,0.045422707,0.3179534,-0.053993497,0.010330401,-0.068395875,0.10579214,-0.05219044,0.034276005,-0.13622497,-0.120985426,0.0075118206,0.083734736,-0.070209,-0.08255383,0.15124296,0.062444516,-0.049308963,-0.007397086,-0.0048261583,0.039107986,-0.10875227,-0.124448515,-0.08310292,0.058689404,-0.0040873354,-0.031570643,-0.07944607,-0.12188833,-0.08046138,0.029260019,0.020560177,0.13772494,-0.028403478,-0.0038415962,0.15019207,-0.03867278,-0.05820671,0.124120176,-0.106614605,-0.03738916,0.05592948,-0.109100185,0.044322997,0.037997752,0.15646999,-0.052803494,0.013996601,0.100851245,-0.113473415,0.1546296,-0.104321934,0.030599661,-0.0019817487,-0.13318639,-0.07170729,-0.032467943,-0.19494802,0.07401385,-0.092290744,0.03909014,0.071408205,0.07992058,0.047804404,-0.020530013,0.13090849,-0.012464614,0.12561707,0.004572031,0.0852945,0.2433735,-0.103169195,-0.04867962,0.06712721,0.008444191,0.011656044,0.0013472869,-0.096934535,0.05048652,-0.024304029,-0.04041888,0.12818056,-0.05306853,0.23570764,-0.098970205,0.047221754,-0.15723142,-0.18177363,-0.085090086,0.13818017,-0.06880581,-0.0635805,0.1340749,-0.0587902,0.036058664,0.06836182,0.05644131,0.1403805,0.07477334,0.08484725,-0.02714895,-0.07264508,-0.073550485,-0.07886931,0.0063891,0.06698547,0.088166185,0.11774097,-0.046319123,-0.05585644,-0.13781478,-0.24232255,-0.13412869,-0.09556685,-0.0087571405,-0.15784788,0.032401137,-0.026517518,0.028599618,-0.04228892,0.04165101,-0.14706136,0.012883741,0.17093325,-0.10480287,0.05299707,-0.00251561,0.00724245,-0.016202519,0.017862143,-0.02603397,0.13477968,-0.044202425,-0.048169956,-0.1470338,-0.17365927,0.07816203,0.0064885095,0.22053841,-0.12785417,-0.0008557647,0.0061028986,0.10648736,0.10275146,0.11201717,0.061443746,0.10487682,0.098005615,-0.113010675,0.11281092,-0.15384376,0.10579172,-0.044558164,-0.028726755,-0.20194905,-0.04210695,-0.11667403,-0.1595477,-0.0651067,0.13946295,0.037051514,0.12833895,0.034565307,-0.16427289,-0.024941733,-0.029958775,-0.044022463,0.124312304,-0.1990106,0.0069462615,0.061746974,-0.029464783,0.12452772,0.08658041,-0.10286518,-0.059170127,0.11081182,0.17306961,0.08766465,0.005081652,-0.024694862,-0.00595937,-0.030505601,-0.15973099,0.15583123,0.07210268,-0.0021930165,-0.05192836,-0.01106249,-0.070713334,-0.104048535,-0.087190226,-0.03913903,-0.29516155,-0.073221825,-0.10723092,-0.043264613,-0.006656327,-0.04003323,-0.28074744,-0.081375174,-0.032706317,0.053705297,-0.07562857,0.08971156,0.09671916,0.14679138,0.12359978,-0.05325653,0.048375968,0.0151065625,-0.013016597,-0.19156814,0.1557132,-0.085470535,0.04717343,0.14650844,0.065107115,0.027887968,-0.06822573,0.062781416,0.0971847,-0.0735033,-0.041043334,0.06348545,0.11693829,-0.06470365,-0.060748752,-0.00072488445,0.23593354,0.17655995,0.10879271,-0.027825207,0.016687676,0.00019026377,-0.008540932,0.14625217,0.07240932,-0.027302427,-0.13696456,0.026762245,-0.14648493,0.09995116,0.07001949,0.27371955,-0.037839003,0.0066150147,-0.008566269,-0.0073081027,-0.008449781,-0.028361551,0.021717504,-0.16096906,-0.2553007,-0.016219053,-0.14035434,-0.074695505,0.16998251,-0.10073201,-0.056359686,0.03662921,0.06955958,-0.10140237,-0.07558711,-0.02115689,-0.18225594,-0.12713183,-0.054619938,-0.09085302,-0.046323884,-0.18582614,-0.02038364,-0.00952171,0.15960966,0.040302176,-0.19883111,-0.04460621,0.14328681,0.068652846,0.101398356,0.119676836,-0.192644,-0.117119685,0.16328815,-0.011695786,0.008289054,0.13644972,0.18928331,-0.10597607,-0.06189132,-0.13051163,0.23519485,-0.09624918,0.021496518,-0.07372851,-0.12895454,-0.045041032,0.0928916,0.036246043,0.18624939,0.12633249,0.023666417,0.052445944,-0.047446188,0.052699197,0.042288393,0.03945433,-0.026036395,0.06524516,-0.2711485,-0.067596,-0.11656261,-0.020038672,-0.10897248,0.05844153,-0.01789526,0.07578062,-0.015125926,-0.07252069,0.168955,-0.02654461,0.032669153,-0.018907664,-0.08081349,0.02383854,0.14491382,-8.334529e-05,0.06926687,0.052705098,-0.0068641864,-0.1273999,-0.051584646,-0.012813029,-0.036591303,0.084196895,0.22651592,1
bland,0.048654065,0.07173817,0.6267129,-0.075506605,-0.5230587,0.520876,-0.068206005,0.1405983,0.5613766,-0.013434244,0.59634334,-0.20780167,0.72713506,0.09926662,0.8654572,-0.51756,0.21222629,0.12497726,0.59959114,0.449952,0.5678911,-0.5754473,-0.04820796,0.04127877,0.90782344,-0.57106227,-0.5504056,0.51483005,0.1900281,-0.14903788,-0.12673676,0.3449036,-0.03729982,0.28178298,-0.2373989,-0.15582688,0.2914842,-0.54039526,-0.18869364,0.12012207,-0.069221154,-0.6645631,0.5528629,0.16013536,-0.23279732,-0.109811306,-0.08321273,0.14060846,0.2991052,-0.03538839,-0.18220945,0.011573035,0.18297844,-0.09406427,0.26829103,-0.1632126,0.36942717,0.22732992,-0.045285784,-0.100837536,-0.21532778,0.25152087,-0.25477383,-0.16510531,-0.23320536,-0.26495227,-0.02744543,-0.36610383,0.26311982,0.100513846,-0.2154313,0.07334367,0.2555321,0.519519,0.3566651,-0.58249706,-0.32972193,0.045566805,0.17233884,-0.6370041,-0.2179044,-0.2261569,-0.50964296,-0.2809044,-0.4611883,-0.41641155,-0.101008624,-0.11942736,-0.41851294,-0.03869688,0.018711945,-0.059303958,-0.15775229,-0.14909287,0.23450933,-0.13059467,0.1391292,0.40522766,-0.079085805,9.662857e-05,0.3431373,0.036821015,0.26682007,0.6430878,-0.20448193,-0.4314803,-0.23765196,0.1861195,-0.12944628,0.32289916,0.102673024,0.24495116,-0.062418696,-0.7748377,-0.27795124,0.27216947,0.048666455,0.6002649,-0.33963796,0.43554974,0.13589932,0.06509746,0.36606959,-0.36442924,0.17527887,-0.36722216,0.19943033,-0.5878071,0.1990387,-0.01940794,0.36090124,-0.24858835,-0.16246527,0.07095301,-0.15354954,0.17856166,0.19945078,-0.22248256,0.08880574,0.5220142,-0.011456132,-0.102524795,-0.11233379,0.64428526,-0.57154006,-0.21858072,-0.1498364,-0.27348378,0.6519535,-0.24319822,-0.15112019,0.022243531,0.08462815,-0.32347077,-0.43294898,-0.67168087,-0.0644003,-0.1279015,-0.59696525,0.028683,0.004601077,0.040894963,-0.5977185,0.3152056,-0.20724943,0.3909298,-0.027599452,-0.29446974,0.62447274,-0.22262836,0.33012855,0.035555944,0.030598491,0.29216245,-0.20918724,-0.27202702,0.28281435,0.207372,-0.3840811,0.6513162,-0.1723002,-0.23384954,-0.174158,0.67118305,-0.17377572,-0.2252206,0.03209857,0.11381673,-0.2955077,0.35508242,-0.33375764,0.6459449,0.059625287,-0.37092918,-0.046942577,-0.05716282,0.3045015,0.1781409,-0.24849509,0.5768342,0.13667528,0.060956515,0.088495895,0.61287636,-0.16222197,-0.75839716,-0.20359795,-0.14742506,0.063042305,0.21423003,-0.028360335,-0.5709299,-0.22612906,0.32597882,-0.069188766,-0.08009864,0.18242358,0.37215343,0.13019401,-0.27325824,0.4230641,0.033037115,-0.41725525,0.077148825,-0.18763207,-0.3713216,-0.45548764,-0.5604917,0.016569046,0.08161419,0.027455226,-0.06895475,-0.047775615,0.21478605,0.31443816,0.12702595,0.58603543,-0.27228808,0.39519408,0.5770254,0.5605451,0.4246614,0.59407157,0.22677448,0.18061839,0.00095668447,0.9134584,0.2444673,-0.6763307,0.037363052,-0.008104164,-0.21166314,-1.075131,0.53802085,0.058796175,-0.05139502,-0.15123777,0.009154084,0.103784144,0.5205558,0.054551333,-0.19462922,-0.30937946,-0.25625178,-0.31206882,-0.0061375494,0.5844539,-0.6241112,-0.25263143,0.8997663,0.1964231,0.49896517,-0.2152554,-0.29447064,-0.08683145,0.08223893,0.024179775,-0.20748311,-0.29594907,-0.4993079,0.1665506,0.1840995,-0.30198833,0.15037757,-0.21944393,0.21315706,0.43301746,-0.16580449,-0.49227357,0.3877458,0.38067153,0.124703035,0.028199825,-0.058431465,-0.61556655,-0.054298304,0.084773675,0.09955462,-0.7725026,0.5278181,0.41057697,0.029253384,-0.05651904,-0.4760336,-0.07951867,-0.08034917,-0.11445128,0.070014134,-0.47241682,-0.062467366,0.21571152,0.2998881,0.05206215,-0.28615773,0.073123,0.29248267,0.20866777,-0.015671382,-0.4956634,-0.34754112,0.65120614,-0.51902616,-0.20496596,0.45751733,-0.29427657,-0.048494015,-0.1330272,-0.4409492,0.61145353,0.51885295,0.005163572,-0.05992041,-0.40469247,-0.037552692,0.088580124,-0.10278265,-0.09593666,0.38116214,0.62695307,-0.6128979,0.25223312,0.1399486,-0.40863755,-0.58261585,0.0049273553,0.5683033,0.25418025,0.37363172,0.8033418,-0.6215171,-0.063798204,-0.41757062,0.17694546,0.31314945,-0.2870114,0.19599617,-0.051757473,0.16740763,0.41244394,-0.048100624,-0.020379227,0.36165762,0.3100659,0.25447547,0.19132756,-0.11254789,-0.30017802,0.074209824,-0.25837073,-0.02654931,0.45797387,-0.00542124,-0.064473085,-0.051050868,0.14886148,-0.0015206888,-0.39158502,-0.10777061,-0.21975984,0.42335472,-0.26142386,-0.7579177,-0.40940914,-0.020512963,-0.12869373,0.27113792,0.24898674,0.00292383,-0.21463811,0.49263656,0.606219,-0.49908218,0.3490123,0.72089213,-0.09505977,0.47865975,-0.0113328565,0.04385429,0.14044707,-0.15011527,0.57341486,-0.40878648,0.15409455,-0.41766298,0.08668673,-0.049021374,-0.16448745,-0.0044428874,0.072774194,0.15768638,-0.13459478,0.04673795,-0.04245702,0.2816862,0.20857143,0.069838636,0.29907322,0.08431032,-0.08709849,-0.2705315,0.52194536,0.48356682,-0.16984954,0.9037045,0.23328072,0.342725,0.122953504,-0.001413909,0.4743817,-0.39648274,0.26517382,0.34096384,0.8298762,-0.17812096,0.09163401,0.56095064,0.100477464,-0.06930883,0.3344757,-0.5300364,-0.101464055,0.038909055,-0.18003152,-0.65421385,0.066968985,-0.25258678,-0.76981044,0.05336996,0.20610288,0.04186933,0.12677322,0.5130839,-0.6636868,-0.03802359,-0.9107417,0.2540171,-0.27117684,-0.6936935,-0.108640455,0.14769538,-0.987823,-0.24175702,-0.16903661,-0.5055794,0.82632476,-0.7729972,-0.11955553,-0.36300033,-0.47657043,0.08514312,-0.041113228,-0.0718149,0.22076845,-0.40190452,-0.1145586,-0.2280542,0.067600295,-0.07411942,-0.18653426,-0.38044944,-0.15125524,0.68692577,0.24583723,0.55620855,0.3384176,-0.10755621,0.50242954,0.0030047402,-0.23222433,-0.01146404,0.0031404896,-0.050871626,-0.23161119,-0.51632845,-0.31546977,-0.20481133,-0.05143042,-0.05968507,-0.057583585,0.20130366,0
gains,-0.49510187,-0.21580268,0.32278135,0.007465998,-0.05100188,0.22069879,-0.022342237,-0.26345927,0.3297321,0.43758595,0.67308944,-0.077729486,0.13219917,-0.30316308,0.3233433,0.5681218,-0.51903594,0.22346634,0.035622742,0.36948973,0.45012814,-0.26825714,-0.297238,0.21911182,0.18922937,-0.551678,0.12706524,-0.21489307,-0.21772362,0.22339459,0.17929867,-0.23466328,0.28938454,0.37785432,0.29891938,-0.29645997,-0.26287186,-0.17559545,0.16929027,-0.06844098,0.5217149,-0.35953912,-0.32394442,0.07405636,-0.019637603,0.26146555,-0.20690973,-0.4343543,-0.1860184,0.13532239,0.39374223,0.18719654,-0.06596116,0.10289736,0.20581958,0.07534852,-0.13293655,0.023551553,-0.08518523,0.34337974,0.068197235,0.3902214,-0.31518194,-0.18587582,-0.112823494,-0.5517908,0.32471862,0.09624076,-0.08918118,0.040445056,0.4375222,0.5613521,-0.1673298,-0.20400141,-0.37349352,0.1607484,-0.6122927,-0.34713027,-0.022776697,-0.43898222,0.19960429,0.038478877,-0.05667438,-0.11845934,-0.031153612,0.07404383,0.22860134,0.8646975,-0.057213765,-0.13709863,0.2845931,0.00045970222,-0.6884178,0.56336784,-0.8159287,-0.2722193,0.06317906,0.13498777,0.27531675,0.01440992,-0.21623814,0.31291887,0.22607876,-0.09928423,-0.092641085,0.25503826,0.13826007,-0.25097406,0.1369893,0.1439038,0.26278675,0.12159652,0.31731513,0.15287167,-0.22730114,0.39096567,0.13575436,0.007399004,0.029023321,-0.49601847,0.06311825,-0.18335468,-0.3466627,0.35464838,0.37264386,-0.2965602,0.24413614,0.454159,-0.17559628,0.07934582,-0.52632207,-0.07135205,-0.0034094895,-0.58227247,-0.41401985,-0.35493472,0.22509377,-0.24959344,0.15243788,-0.0057283365,0.60592896,0.107847355,0.68048173,0.13786598,0.21625878,0.23982677,-0.4753794,-0.16248268,0.33190268,0.459581,-0.14987887,-0.051589433,-0.01763533,0.3199773,-0.13448964,0.15737556,0.08561081,0.13943455,-0.5382294,-0.35868958,0.4906904,0.010442282,-0.07298241,-0.2350764,-0.20953107,0.30471602,-0.42620057,0.15369526,-0.058286797,-0.15828952,-0.7575717,-0.13040033,-0.48202652,-0.13942678,0.010078757,0.3509053,0.20814474,0.18560717,-0.024200613,0.51506406,-0.33231375,-0.21884345,-0.020615682,0.11260688,-0.42045924,-0.006832862,0.14801951,0.1928046,-0.22905222,0.25796548,0.256831,-0.04293289,-0.46354985,0.08174627,0.3642609,0.058776222,-0.0930782,0.18772393,0.5889252,-0.025689226,-0.088348135,0.37088653,-0.17124875,0.24508086,0.14188586,-0.089632615,-0.16745786,-0.14609273,0.26765695,0.15944566,-0.43284297,0.2872654,0.109149605,-0.1350974,0.09065716,0.12902892,0.09045308,0.1271867,0.028560096,-0.03760517,-0.1456026,0.2191944,-0.2319082,-0.103382416,0.23431323,-0.118682206,-0.5408172,0.32446828,-0.20336363,-0.08834805,0.06962192,0.07383861,0.22190519,-0.23267138,0.07298776,-0.21270022,-0.0101391,0.083579764,0.30661753,-0.17768508,-0.36465338,-0.36924013,0.083314024,-0.061325125,-0.16208838,-0.3667413,-0.27826923,-0.28536785,-0.74705327,0.0074631106,-0.24648288,-0.45803842,0.34904456,0.13048887,-0.5194966,-0.23814733,-0.60622185,-0.20378016,-0.31980956,-0.060777657,0.21537143,0.23984203,-0.1622169,-0.17928466,-0.06683754,-0.59693784,0.02529116,0.3081583,-0.7362813,-0.20084457,0.15262584,-0.3019965,-0.19321789,-0.13023685,-0.037700057,0.16199996,0.023311386,0.07386464,-0.23054254,-0.30692127,-0.0031236263,0.3190309,-0.16332571,-0.4211921,-0.5383917,0.12705661,-0.1283552,-0.27116594,-0.27555883,-0.23333177,0.0070708143,-0.39875063,-0.30500606,0.2743616,-0.010901457,0.28861335,0.005022208,-0.2405174,-0.07542144,0.2241373,0.068040885,-0.17135961,0.009801528,0.20862538,-0.33263546,0.062176056,0.0227915,-0.7737112,0.34695253,0.29337555,0.38474858,0.07811241,0.24271153,0.28077015,-0.22634022,0.37210104,0.20238285,0.119453974,0.21468423,-0.41256085,-0.34942415,-0.2258232,-0.5707319,-0.31825426,0.25291422,-0.023038844,-0.01572119,-0.13581651,-0.7820797,0.11396137,-0.5299435,0.046963476,-0.16626613,0.038585164,0.018088799,0.1658851,0.121909894,-0.07289241,-0.04660827,-0.40836462,-0.02616959,0.32177687,-0.2709594,0.012850306,0.12528643,0.1737749,0.40861464,0.49638355,0.119826354,0.009110709,0.48428953,0.3449616,-0.4185309,-0.1562362,-0.26916295,-0.049293187,-0.66205484,-0.21019335,0.19243704,-0.09453471,-0.18314058,-0.043494508,-0.087318294,0.21118963,-0.030414041,0.035023734,-0.34737137,0.28747952,0.23866184,0.4435579,0.1904672,0.33207142,0.06818583,0.19737789,0.26681304,0.18660633,-0.13093963,0.26546574,-0.16560173,0.14659475,0.11231015,0.48100045,-0.10992154,-0.08260166,-0.111521006,0.45450372,0.5136742,0.0811621,0.37619936,0.6020092,-0.43974015,-0.2491254,0.116259284,0.14956555,0.06695584,-0.109088056,0.20243905,0.076483436,-0.27607477,-0.31424478,-0.19044457,0.26971593,-0.521642,-0.17962869,-0.002245962,-0.12993436,0.14019768,0.012803273,-0.33838287,0.45606378,0.23956016,-0.033403397,-0.18208109,-0.006953484,0.4333125,-0.18838713,-0.26314747,0.20775971,0.1984422,0.31627652,0.20910747,-0.36407292,0.15608826,-0.18871869,-0.33042163,-0.46047246,-0.10747129,-0.16610666,-0.15126042,0.18036246,0.06308219,-0.29391035,-0.22928059,-0.2543739,-0.45969447,-0.07878029,0.08842221,0.21914111,0.58347785,0.057416372,0.1204768,0.41145337,-0.23821281,0.35063586,0.2120445,-0.2089355,-0.40715435,-0.21215229,0.04507277,0.36459514,0.06032667,-0.3076106,0.10622981,0.1882177,0.40478304,0.5922912,0.00036825982,0.28721598,0.50212854,-0.49422035,0.39356124,-0.45871794,0.16381022,-0.13137679,-0.4696518,-0.26222843,0.2981397,0.0023949426,0.021499997,0.07217801,0.4353636,-0.24891782,0.96363366,0.23844104,-0.035606958,0.13074502,0.5740367,-0.039121754,0.1299365,-0.06573314,0.16438405,-0.5076433,0.6552884,-0.006561039,0.2722336,-0.2852034,0.39505884,-0.1953281,0.11585398,0.087514535,0.031364836,0.36551175,0.0050589545,-0.580249,0.18133537,-0.08166737,0.1279029,-0.112819456,0.0279583,0.5934337,1
failure,0.06740596,0.24712983,-1.9864088,1.6613479,-0.89105296,1.1237757,0.95964116,1.6883937,0.8394021,-0.53413904,0.77052075,0.614447,-0.08664353,-0.30873755,-0.95986784,-0.35776708,-0.7052129,0.61348844,-0.09885591,0.83091575,-0.39154992,-0.41375625,0.64947534,-0.98391634,-0.9180674,-0.78866506,-0.033635095,-0.047837604,-1.1562122,-1.2238907,-0.45846224,0.8492196,1.4558104,0.23532477,-0.59571093,-0.020871552,-0.563974,-1.7347656,1.1220561,0.49950898,-1.0609694,0.9468957,-0.90105295,1.9576305,1.053905,-0.6329604,0.17557575,-1.877586,1.4242653,-0.91402656,0.038931143,0.36390063,0.9536031,-1.0842748,-0.59838027,1.1945164,-0.33926028,2.2019796,1.2813168,-0.23790763,0.3686837,-2.333891,0.30319402,0.40215898,-0.49590898,1.5259545,0.43469134,0.6041241,2.2228374,-0.78664535,-0.6384793,1.9973062,0.46921772,0.8341584,-0.46108946,-0.6068413,-0.012612594,-0.055269446,-0.82579577,-1.3719531,-1.1242901,-0.850648,-0.13148081,1.3068256,-1.0034143,-0.8242617,-0.024974277,1.6634166,-0.9504112,0.54821604,-0.3422778,-2.0320387,0.6599973,0.72057843,0.6955891,0.008637248,0.78474885,0.49792227,1.7320039,-0.7954735,0.2856085,1.018897,1.6389109,-0.9825863,-0.9901749,1.7910671,-0.7147236,0.76206565,0.9147658,0.08708553,-0.43215322,0.030938927,0.2659968,-0.26156992,-0.15617962,-0.51097155,1.0870165,-1.6871271,-1.5204047,0.46593606,-0.31378707,-0.20177004,-0.54719,-0.20036662,-0.14850213,-1.3463762,2.2422645,-0.1140709,-0.80593646,0.5349594,0.3856921,1.9941186,-0.25209987,-0.8387423,0.37287822,1.0493661,0.8036173,0.033877242,-1.3829455,-0.48907435,-0.59473556,-0.17004831,-0.52318656,-0.18494935,0.19050618,-0.33827466,-0.030898057,0.34513053,-0.6985619,0.23604357,-0.09557838,-0.029098688,-0.07262754,-0.6673631,-0.50004494,2.7608926,-0.60880744,-0.104148716,-0.74743295,-0.25208628,0.9269726,-0.22026142,-0.8585635,-2.769641,0.90764385,0.5977621,1.1758187,-0.6386082,-0.5995327,0.021005357,0.1636688,1.6566778,-0.030772377,0.58645433,1.1794395,-0.9716788,-2.0644808,-0.83239377,-2.2094872,-0.046383042,-1.1756992,0.5797432,1.3170931,1.6273974,0.2357821,0.20496692,-0.14000267,-0.61492133,-0.9385273,0.71465456,-0.8499047,0.04091662,1.2773277,1.0850697,0.531575,1.1809314,-0.26709443,0.13383783,0.44621456,1.0233341,-0.21658139,1.205106,0.5277354,-0.16184135,0.12700787,0.7564094,-0.48068973,-1.6044079,1.4476376,-0.025954064,-1.3195585,0.70487934,0.8193324,-0.8346546,0.4883067,0.83259857,-0.1446815,-0.6950274,-1.1425596,1.7210512,-1.0728846,0.03489507,2.187158,-0.4814803,-0.4148675,1.1252851,0.03399083,1.9641609,0.4869253,-0.0686426,-1.3289266,1.8098224,0.97949576,0.47802395,0.38431025,-2.0359702,0.41369334,1.4831916,-0.53004533,-0.074263684,-0.8794087,-1.0151466,-1.3542714,-0.5921955,-1.694391,0.9683008,-0.13042714,-2.0817616,0.022171644,0.6216498,-1.7229762,0.3225477,-0.51357996,-1.3707722,-0.32240278,-0.22409944,0.47095448,0.7803622,-1.6713173,0.42495054,0.58236617,1.3330677,-0.9977987,0.8280557,0.71028316,0.25907806,-0.32101426,0.077962935,-1.8876508,0.035124425,-2.3455634,-1.2587535,-1.8481772,-0.10056399,0.2256477,-0.12651312,2.2620265,1.3037376,-0.8590082,2.1399462,0.6951471,-1.198265,0.12940566,0.7482998,0.9097975,-0.6037613,-0.38065404,1.142493,0.9997404,1.6601745,1.050672,1.4318486,-0.90745497,-1.3483279,0.018760234,-0.60567147,0.9413754,-0.054270606,0.06166732,1.5192281,0.4509818,0.8117214,1.0285168,1.4951329,0.80438024,-0.46728635,-0.101726934,-0.8145726,-0.2742585,0.07756662,-0.8150671,-1.2765023,1.2970839,0.04324454,-0.111904286,0.27699265,0.3186442,-0.70756954,1.5950032,-0.048826844,-0.5114143,0.18002808,-1.1985586,-1.12646,-0.4085642,0.9151087,0.15286484,-0.35541454,0.3933209,-0.6249649,0.70259464,1.0112267,1.0442302,0.7373778,0.62818986,0.07446859,1.1220828,0.5624661,-0.93592334,0.60629714,0.5679765,-0.4732528,1.7287164,-0.5037149,-0.29652098,0.4610088,-0.70606244,-1.2987307,-0.005424966,-0.85631514,-0.21043837,1.8718961,-1.2264453,-0.183736,-0.13131118,-1.0297139,-0.55443245,2.2807815,0.40842766,0.8043931,-0.20477368,-0.4493258,-1.2430018,1.5539813,-1.4789023,0.8633199,0.8299407,-0.30997232,0.049449388,2.3784406,0.42236,-0.5083531,1.1619973,0.77916986,0.71477497,1.3781172,-0.025806686,-0.07340521,-0.2596411,1.9482014,-0.7456791,2.9890845,0.056595124,0.29572216,-0.18234822,-0.09282084,0.24343674,1.3546237,-0.9524069,2.0103788,0.4256657,-0.82122886,-0.21981981,0.24898301,0.21853086,0.18304251,-0.90439963,1.2589792,-0.03196282,-1.5452119,0.2960302,-0.14392751,-0.78105694,0.73862034,-2.4393585,0.8471131,0.6296984,-0.41819245,1.3557194,0.13266748,2.1323652,-0.3120733,0.41226408,-0.4424312,0.6245531,-0.6257649,0.6513895,0.6069979,-1.0070424,0.041021857,-0.9349117,-0.48426893,1.1793909,-1.5043051,-1.710257,-2.4303594,-0.38780874,-1.1926523,0.267383,0.3453631,-1.3044314,1.1785725,-1.1543995,-1.2109338,0.860665,-0.9567776,0.26934284,1.3727894,-1.6074804,0.03221454,-0.67247164,2.7156782,0.79100734,0.059870157,-0.39886904,-0.64767414,-0.28231677,-0.45229036,0.7951704,0.38050693,0.59296024,-0.19285206,1.1255553,-0.55621934,0.16468722,-0.18401863,0.3721129,0.46941116,0.55023044,0.19034134,-0.528146,1.1271344,-1.3869706,-1.4925,-0.6803608,0.073766015,0.6311265,0.1544257,-0.81834704,-0.84889984,0.0816924,0.39488235,0.1659512,0.50302273,2.0600746,-0.7868394,0.82611597,-0.32257894,-0.6170225,1.6933959,0.568772,-0.637184,0.9510317,-0.603855,0.06955212,0.31311196,1.1631126,-1.5283387,0.66686755,1.3644516,0.24716021,0.059235208,0.13504426,0.40457866,2.374085,1.1426678,1.7169188,0.12770706,-0.09708141,-0.51351875,0
happy,0.042347677,0.4151237,-1.3428197,-1.4079344,2.6607442,1.8338825,0.6133752,1.2541476,-1.077402,-1.6421038,-2.5053654,0.48312566,-2.0693738,-0.38793355,0.2682224,0.9930567,-1.0702866,0.78848547,3.0210736,1.4513326,-0.9359501,0.42879492,-0.13583125,-0.7621233,0.5766079,-0.86976343,-1.1760218,2.007773,-0.9600774,-0.17902894,-0.45910564,0.091833085,-0.8052374,0.29607788,0.45671245,-0.2592916,0.8181006,-0.9377309,0.9572461,-0.41495827,-0.16485986,0.59140134,1.1191665,0.33033532,-0.2070776,-1.0368862,-0.08048245,-1.1379634,-0.18673004,-2.389658,-0.13203973,0.082732104,1.2257056,-1.28537,1.1754417,1.2933519,-0.43142596,0.81442124,-1.0286893,-0.6275083,-0.027360061,1.5655314,-0.29422504,-0.7253715,-2.6208398,-0.58440286,-0.08121821,-1.5717764,-1.2033304,-0.38326263,0.894058,-0.3383762,-0.5483298,2.2828176,0.26846746,1.468989,0.18703474,-1.1169547,0.74253947,-0.4029912,1.3657537,0.59408236,-1.0104531,0.39197907,1.6377575,-1.228884,0.60902137,0.16451071,0.47870716,-0.47252396,-0.10626478,0.2859896,-1.3074008,0.6913439,-0.36422327,0.98440415,0.95938957,0.07672108,1.7072965,0.38236392,-0.9976161,-0.15125711,0.86490816,0.71647763,-0.21964668,-0.74131066,0.53966814,1.165266,0.073010065,0.47258863,1.4268852,2.4044306,1.3924216,0.4327383,-1.2254363,1.6860834,0.3393503,-0.3983653,-0.6365719,1.3371607,-0.79453355,-0.87233275,-1.5600653,1.24917,-1.000304,-0.7149776,0.6206647,-1.4879184,1.4672803,1.0826765,0.41942063,-0.21481162,-0.950681,1.6064513,1.6931298,-0.45953998,0.2313753,1.2426875,-0.38995034,0.26701432,-0.48208234,0.23799768,-1.5119351,1.6948612,-0.4429896,0.37938684,0.055887066,1.3352898,0.821101,-0.28096506,0.87638617,0.4739374,-0.099025026,0.0569562,0.8813796,-0.45320433,0.5772343,-0.7712166,-0.6413021,1.6940016,-1.7650338,1.2039464,0.23089384,-0.5277237,-0.7453188,-0.8319737,1.4496742,-1.2252626,-1.7690511,0.02493341,0.22942653,-0.7705974,0.086584106,0.52263945,-0.0052009863,0.45493287,0.39376223,0.63189834,1.0297737,0.40640098,-0.9889831,-0.39134243,-1.3947636,-0.08388688,0.99449426,-0.9263962,-0.8302376,-0.496341,-1.1704735,0.52037597,-0.7674202,0.8110278,-1.8433739,-0.5125139,-0.11673875,0.26999027,-1.162933,2.940426,-0.15262747,0.6265246,-0.91756076,-0.5352115,0.12436449,0.086213425,-0.44202974,0.21211076,0.047552872,1.4680228,-0.6388675,0.5410446,0.43264562,-1.4076613,0.6740592,0.43340448,-1.0118014,0.07530966,-0.15657572,0.17977227,0.50709116,0.43000925,1.0721633,1.3358951,-1.4915539,0.83152896,1.6792257,-1.3406051,0.008615302,-0.84465843,0.70820755,1.1926842,-1.9516672,0.2840914,0.041520126,-1.3644589,-1.3821037,1.9035565,1.943976,-0.5782533,1.0854582,0.2090742,-0.5132794,1.1500452,0.2340803,1.6191399,0.5716852,-1.0707425,0.7160975,0.24518356,-0.8917354,-0.3211891,-0.6131456,-0.12015822,-0.8503447,-1.5640866,1.1730616,-1.0882335,-1.4243908,0.24815662,-0.14669506,0.99722725,-1.5631167,-0.71150523,0.09485484,-0.61807066,-0.59896886,-1.5356323,-0.41340172,1.2659174,-1.215534,-1.0125138,-0.3044176,0.22678578,0.78094727,0.39506522,-0.28984126,-0.3655794,-1.360436,0.47228393,0.1462791,1.3231604,-2.373833,-0.036738083,-0.28804758,-0.6681043,-0.2124323,0.09946799,-1.2894325,0.87231195,-1.2453495,-0.9713856,-0.025195936,0.9696879,0.1905163,-1.5093361,-1.2485206,-1.1033849,-0.5445489,0.6970215,-0.9289031,1.5180718,-0.42628998,0.59397054,-0.95000637,-0.20649707,1.3047172,-0.72113717,-0.40609086,0.6075257,-2.188399,-1.8194141,-0.7233819,2.8451428,0.0155726,-0.19584501,1.5988458,0.17022313,-0.5959186,-0.45574626,-2.2361937,-0.0006695947,0.39556843,-0.72816014,-0.62275565,-0.20746237,-0.41682628,0.6251317,0.98544973,-0.5352103,0.8965303,-0.93631464,1.4260143,0.5071688,-0.70369923,-0.545864,-2.1569142,1.5249641,-0.9874277,-1.4870948,1.1785605,0.77231705,0.30811504,-1.7823956,-1.3242099,-1.2854162,1.0839412,-0.34342378,1.4210923,-0.12439656,-0.21937047,0.08965075,-0.24977347,-0.515028,0.21051879,-0.21164168,-0.9662973,-0.83603406,1.5819128,0.28711075,-0.79081774,-0.23248926,0.11543934,-0.3811219,1.0941774,1.7047049,0.28064907,0.64450186,-0.15362202,1.4894809,-1.1758901,-0.25786597,0.027684355,-0.21497314,-1.3628577,-0.18143243,-0.2960634,0.7730138,0.051114023,0.2153356,1.9834474,1.7123116,-0.049797498,-0.66286206,-0.27486014,0.7674874,-0.5035481,-0.98839164,0.3720857,-0.68192893,-0.63543004,0.48815623,1.078506,0.6775546,-0.652481,0.255573,-0.5558419,0.6178047,0.73150414,-2.7695699,-2.0493374,0.34951428,0.20089665,1.859167,1.4159094,0.46758327,-0.43847463,-0.68431246,0.5727801,-0.38412893,-1.0466608,0.14736626,0.1426802,0.91450995,-0.25308144,-1.2491353,0.048797816,-0.34968355,0.24975473,0.8197316,1.6691362,-1.1194873,0.2369586,-0.7091359,1.7436675,1.0005863,0.62696195,-0.67694277,1.488819,-2.140772,0.8983695,-1.6214957,0.58512235,1.6694049,-0.692897,0.009929385,1.1012315,-0.446698,1.0352585,-0.37416932,0.48610193,-0.573639,1.2554989,0.26777914,0.06748213,-0.41692463,-0.5137905,1.1400034,1.1773318,-0.28035426,1.4214652,0.54059035,-0.084055305,0.62088364,1.6908679,-0.037089553,-0.5052479,0.9600992,1.3500625,-0.466312,1.2310109,0.251444,-1.3991429,-1.15717,0.48839745,-0.5883722,0.2506875,-1.4285103,-0.4557975,-0.6142751,-0.19052441,2.2189505,0.18195544,0.92743266,0.06544242,-1.267758,0.23423241,0.9113657,-0.44072863,1.3718821,0.5928736,0.40934956,-1.5837761,-0.0008119806,0.7639414,-1.7017878,0.022297556,0.09461627,-0.83938545,-0.4420968,-1.1289818,-0.082802586,1.0330578,-1.3632132,0.16736546,-0.64843553,0.07656245,-0.20007998,0.47852334,0.48538843,0.8670074,-1.0515213,1
bore,1.5033695,0.119025305,-0.7956386,-0.09921646,0.60224,-0.27520743,-0.2091788,1.0528849,0.3514058,-0.13222724,-0.48165128,-0.3789822,-0.47083604,-0.09010994,-0.63632786,-0.056660153,-0.31583694,0.081105284,0.18023942,0.25982073,0.6425304,-0.34484267,-0.5841147,-0.08568926,0.066002496,0.1106765,-0.19371513,-0.43967146,0.52692306,-0.7005085,0.59322375,-0.32509235,0.37853503,0.38425973,-0.52728,-0.43857634,0.079974845,-0.2426787,-0.68032056,0.68606263,-0.6139851,-0.05433633,-0.4398983,0.5145249,0.05488407,-0.63427746,0.0292151,-0.099601775,0.68751496,-0.019108547,0.35258642,-0.6965266,0.22107384,-0.8458188,0.22551736,-0.16652131,-0.5749775,-0.22013,-0.48365623,0.14559814,0.12116483,0.1678536,-0.44744125,0.11685397,-0.8791239,-0.7599936,-0.37276152,0.23331064,-0.5228038,-0.038923692,-0.25993338,-0.30571663,0.010365317,-0.085059874,0.055270903,-0.688904,0.2494767,0.14047241,0.8650369,-0.1400174,0.55407107,-0.026415013,-0.8552791,-0.21387874,-0.30897868,-0.1626145,-0.46511596,0.31379297,0.1968342,-0.5790794,-0.024124902,0.043938093,-0.2593463,-0.73419166,0.5340366,-0.080844805,0.36995745,-0.20744209,-0.26531538,-1.1802387,0.0055587008,0.016470557,-0.1303484,-0.50315297,0.17816432,-1.2213514,0.16467649,-0.1812223,0.7099636,0.026642803,0.64117676,-0.090381466,0.13200411,0.8958197,0.28341246,-0.27701643,0.40007743,-0.68132025,-0.6227698,-0.30003828,0.020693066,-0.11755479,0.60607684,-0.39250678,0.87009454,-0.035301115,-0.62291783,0.7745126,-0.37447464,-0.47848198,-0.1340571,0.08087931,-0.017806679,0.41398683,-0.15632625,0.17884833,0.92691344,0.38143352,-0.29439858,-0.20408395,-0.26115412,-0.2583349,-0.41919878,0.07584497,-0.09610476,-0.23871586,-0.72002923,-0.08065116,-0.24652208,-0.16213802,0.6029684,0.0809316,-0.74263203,0.5154972,0.012085986,-0.59083885,-0.2200635,0.065509915,0.16329435,-0.31629544,-0.109271355,-0.31102383,-0.50525945,0.4616397,0.0294355,-0.4850242,0.4568882,0.11175112,-0.097745046,-0.5114352,-0.03654855,0.71424544,-0.24338911,0.5284942,0.15250963,-0.47971317,-0.7729343,0.34643993,0.4318588,0.1725841,0.2591875,0.078837074,-0.3324824,0.42522797,0.38026145,-0.14211725,0.14844331,-0.2752317,0.16006742,-0.5059245,-0.04431022,0.28291866,-0.5261886,-0.1085752,-0.70974386,-0.05679319,0.6215567,0.5108403,-0.33685067,-0.28715524,0.2779849,0.44928032,-0.2822487,0.17784949,-0.25796515,-0.4985602,0.3280627,-0.19876266,-0.6253868,0.20014586,0.24982508,0.00859566,-0.425351,-0.21757369,0.63711387,-0.21848208,0.17183392,-0.28396437,-0.7960975,0.6962607,0.3797371,0.005492035,0.55945027,-0.14094514,-0.14756161,-0.22404633,0.34508774,0.39481077,1.0132015,-0.67158353,0.78755516,-0.14329892,-0.4085294,0.55771726,0.38972607,0.3077037,-0.43087244,0.43766966,0.13279437,-0.5444,-0.6452718,0.1829588,-0.3194298,-0.07564453,0.14343874,0.98326635,0.60885024,-0.094732106,0.6432331,-1.0479428,-0.30941778,-0.098456986,0.46738914,-0.37333608,-0.633235,-0.2269733,0.43453074,0.5758164,0.104643375,0.4476019,-0.23857298,-0.49687114,0.17173955,0.47906053,-0.6701931,0.24754168,-0.82091564,-0.15949729,0.33452055,0.8868211,-0.39052272,0.41923425,0.15184766,-0.22834623,-0.7254147,-0.22577341,0.0563443,-0.45817333,0.17909352,-0.119792715,0.23805024,0.39532664,0.12976159,0.8244046,-0.65802264,0.07849675,0.22865881,0.2796279,-0.10973391,0.38440105,0.038455978,-0.41524717,-0.13833365,-0.66309935,-0.29887092,0.16052297,1.2533935,0.08050953,-0.31172734,0.22169983,-0.34778348,0.4337934,-0.066430554,-0.47014925,-0.13133137,-0.2726985,0.7580279,0.31969655,0.005950032,-0.65304923,-0.63609016,0.018865637,-0.36258847,-0.4782053,-0.3220165,-0.24946618,-0.36954874,1.5483851,-0.5265706,-0.2014491,-0.7883488,-0.37366498,-0.17274213,-0.2619533,-0.69584835,-0.1362328,0.07632986,-0.3476925,0.12287225,0.1040763,0.6042658,0.06767177,0.4920721,0.27734506,0.4155049,0.19027117,0.48512745,0.021349717,0.021130884,-0.04907236,-0.33878615,-0.101325564,0.39972275,0.25786924,-0.4542858,0.07818777,0.20262793,0.0818327,0.16501877,-0.18728592,0.3603835,0.048001498,-0.41697502,0.58397305,0.4534054,-0.68340737,0.054896276,-0.45265502,-0.3592384,-0.60422987,-0.03813606,-0.08149544,0.600265,0.049808566,0.42052534,0.15945055,-0.43771192,0.5485243,0.6760032,0.49936277,0.0029676263,0.8051134,0.43819785,0.1735271,0.22777162,0.8975153,0.20162532,0.8158535,-0.11414177,0.3804094,0.37067044,-0.09711286,0.56729907,-0.046495717,0.5879181,0.0097540105,0.005949686,-0.62018406,0.22054024,0.073403835,-0.26177612,0.254049,0.751163,-0.0058850152,0.01741813,0.58725286,0.7404735,-0.61126894,-0.018151214,-0.041149613,0.1617317,0.00550989,-0.03961792,0.2062741,-0.49894744,0.15353347,0.12479564,-0.020105515,0.29728138,0.09232509,0.027932309,-0.44976532,-0.0759823,-0.15085045,0.07149899,0.17698243,-0.49284315,0.2537799,-0.54442155,0.2502162,0.73064977,-0.116311945,0.19782346,-0.726845,-0.12892078,0.3276754,-0.6097407,-0.25561017,-0.7060372,-0.36808628,0.3581538,-0.8214755,-0.35010058,0.24705319,-0.41667807,-0.08053885,-0.07741919,-0.4280114,-0.30660576,0.05144647,-0.41236427,0.43304658,0.75914323,0.27547112,0.7014807,-0.4386257,-0.47733027,0.5152843,0.73215204,-0.17597543,0.6758232,-0.73889524,-0.6240315,0.50091314,-0.53789514,0.23253548,-0.10142527,-0.23738526,-0.47401595,-0.5525221,0.4182794,0.11105349,0.40930435,-0.044026293,0.83630276,-0.23176228,-0.28933728,-0.06564445,-0.32067227,0.3866224,-0.05815253,-0.06272449,-0.12315858,-0.1290732,-0.38708824,-0.14355364,0.512188,0.31158423,-0.30226263,-0.55388516,0.5137497,0.065374486,-0.269503,-0.46150407,0.31735092,0.11323417,0.005453663,0.24044138,-0.4686116,0.17594978,-0.43858027,-0.73187083,-0.43836236,0.24349906,0.3598867,-0.36721814,-0.5488546,0.22791246,-0.33825603,-0.49031585,0
positive,0.65247416,-0.61626923,-0.989863,-0.11076034,-0.12661275,0.5533819,0.62915707,0.60277987,2.0171068,-1.6039917,-1.23796,1.8991755,0.087758064,-0.73955905,2.29675,-0.40113682,0.03669638,-0.9586023,-0.91426367,2.02682,0.7980345,0.30759946,0.889155,-0.5895851,1.6154441,-0.7805397,-0.7906827,0.42281678,0.17291534,-0.3853067,-0.8151275,-0.39224288,0.01026476,0.96420646,-2.6157286,-0.11183581,0.14951678,0.37836152,0.6270551,-0.14232488,-0.32699284,-0.34268853,0.28476888,0.9206043,-0.6137653,-0.6394908,1.2804124,-1.4915891,-0.0076173446,-1.8581072,0.5338573,0.96033883,0.69427747,-1.7285903,0.33935037,0.12529945,-0.95405793,0.28456584,-1.4866643,-0.3879583,-0.350008,0.5970329,0.21478072,1.1952864,-1.6572945,0.82777894,-1.483127,-0.6399641,-1.1553996,0.6048386,-0.44441718,-0.23117174,-0.21960439,-1.3182983,0.81483513,-0.68683285,-0.7157199,-0.48291475,0.7261483,-1.4836125,0.64898115,-0.19086193,0.055750705,0.059928514,-0.6040143,-1.1389835,-1.1708407,0.12550111,-0.19718342,-0.3176898,0.30418533,0.16762754,-1.4040301,0.4295504,-0.044180114,-0.5047421,0.4049254,-0.8510883,-0.21957777,0.4365255,-1.4447393,-0.26250562,0.39452186,-1.2956684,1.4139978,0.6286441,-0.23590544,0.37286523,-0.18688293,0.2773078,-0.15810339,-0.22506703,-0.24681959,0.13987856,-1.6676631,0.49890953,-0.15632246,-0.12955013,0.17770852,-0.17554273,-1.2987443,-0.31702456,0.531676,0.29571497,-0.08836838,0.18489222,0.6319537,-0.48831734,1.3062526,1.6741008,0.11560819,0.03230808,-0.16562736,1.5704607,0.53294915,0.39415556,0.5644397,-0.7424885,-0.11810229,0.19578584,-0.29089946,-0.14492254,-0.6754771,0.8199256,0.4401611,-1.3037654,0.58365476,-0.87651837,-0.041999716,-0.1462468,0.34306595,0.39042413,0.0051278085,-0.64784706,0.07959071,0.1547187,0.36378112,-0.42895603,-0.52324146,0.43351933,-0.334411,-0.23116383,-0.3244007,-1.0221492,0.622535,-0.1586406,1.0212319,-0.20264485,0.008769892,-1.5274228,-0.7326112,-0.32770655,-1.139811,1.7342175,0.06492592,-0.7168043,-0.4867237,-0.41290677,-0.34879738,1.2658284,-0.48584163,-1.571161,0.012497779,0.28670874,-1.3593346,0.4263847,0.81282806,-1.393229,0.34645045,0.42011192,0.2605846,0.7890094,-0.113536455,-0.7611164,-0.45447752,0.36763522,-0.74167496,1.043439,-0.42906633,0.34149247,1.5430552,-0.85907084,-0.5374798,-0.06483343,-0.80088,1.2398232,-0.4790848,-1.167181,-0.12584093,-0.49420872,0.6285446,-0.015995089,0.5151319,-0.83272326,-0.40473098,0.44732803,-0.40230304,1.1305716,-0.008258739,-0.9101541,1.7912229,0.83727056,0.30412084,0.82036865,-0.57148093,1.328769,0.50643826,0.7426268,-0.4250014,0.98413473,0.15085512,2.404846,0.028291745,0.3701445,-1.5106149,0.3427712,1.7945107,1.7629956,0.59930384,-1.0093409,-0.25625095,-0.2324447,-0.31014273,0.19304855,0.7814469,0.41174275,-0.7022146,0.43306583,-1.5582552,-0.80365545,-1.5529704,-0.1946476,-0.22842796,0.74134547,1.7042152,-0.6558584,-0.013665079,0.72272253,0.45972562,-0.28073686,-1.3143775,-0.33488512,0.8574403,0.21980089,-0.08245873,-0.51784384,0.28769368,1.6323501,0.40319982,0.23078269,1.9211191,-0.80890787,1.8138336,0.97069937,0.69251466,-0.6783035,-0.24947438,-0.738192,0.8451818,-0.7457763,-0.32052514,1.1437534,0.50036615,-0.08681794,0.23509781,-0.27844608,-1.1109813,0.2346972,-1.4034095,-0.07933262,0.04808291,0.6421399,0.10767511,-2.849612,-0.15559141,0.8209129,-0.57540053,-0.0013751131,2.4441571,1.1811945,0.15443556,0.7480162,0.9527005,-0.7287646,-0.5468094,-0.38256764,-2.1536112,-0.5362123,-0.7808866,-0.8432199,0.99062157,-0.8533928,1.0664737,0.44285583,0.4059955,1.4379255,0.25739148,-1.0978767,0.78359205,0.23934576,-0.3587911,0.25363714,-1.9159467,-0.82621145,1.678487,0.4379084,-0.13091479,0.28653142,-0.5695143,2.9925537,1.4542434,0.35794306,1.5962765,-1.3103501,-0.9338478,0.38948262,0.6460766,0.9344856,1.1297363,0.633149,0.2677213,-0.24341172,-0.12428252,0.26418066,0.031311877,-0.7818622,0.66990197,-1.0847845,-0.5221157,0.5816921,-0.07219911,0.6346624,-0.27070427,0.4011679,0.44259518,-0.39685223,1.2173156,-0.28161746,-0.63639575,0.67429495,0.11493966,-1.1827844,1.2605662,0.12542105,-0.50044626,-0.41824946,-0.8223487,1.0799651,-0.88684905,0.68986124,1.3828572,0.21645878,0.11338405,0.3803833,-0.9950594,-1.5327109,0.9811425,-0.4227834,0.14578286,1.0167044,0.4504445,-1.1789119,1.7849321,2.5571623,0.011601771,-0.82974905,1.4547256,-0.5704646,-1.4772916,1.2962745,-0.8669262,-0.14884304,0.40446523,-0.2395212,0.23222154,-0.19565867,-0.108356126,0.6769339,0.15104404,0.32502425,1.1665578,0.4815511,1.7860746,0.17195466,-1.185923,-2.9612067,1.0456438,-0.49134895,-1.2840399,0.14925294,0.27064976,1.2046834,1.1341221,-2.0343277,2.234501,1.8660514,1.5279558,-0.118471734,0.2917114,1.6453079,0.43682158,0.16606638,0.8992889,0.045684844,1.0276675,-1.7660775,1.4406111,-0.71742785,0.27639437,-0.68409324,0.33993417,0.26584578,-0.5666485,-0.6995634,1.0199097,0.041616175,0.0014715483,-1.5635713,-1.9715331,0.4275558,0.4683481,-0.7634134,-0.35225835,-0.38564768,-0.17908438,-0.0880123,0.28501022,-0.2504687,1.85333,-0.77381116,-1.2947383,0.09977611,-0.9131137,-1.649395,0.28792796,-0.59403235,1.0934982,-0.41089603,-0.8501405,-0.48124155,-0.23264757,-0.6590822,0.5541282,-1.3633585,-0.8041753,-1.2798251,-2.0522563,-0.7805479,-0.97815657,0.76237226,-0.1525039,0.48023948,2.1138253,-0.7028777,0.15609527,-0.6712007,1.2234018,0.7899427,0.15955156,1.5031517,-0.20892149,1.1117489,-0.34147966,-0.5483224,-0.17377055,-0.36834836,-0.20203005,0.33414495,-0.89466786,0.41801462,-0.18728861,-1.0096219,0.46287826,-0.21001184,1.0356249,0.42347583,-0.8035618,1.1555632,-0.55377704,0.35975105,1
best,2.142738,-0.12018694,0.035900064,0.68684983,0.11759015,0.39427236,-0.276214,-1.3776506,0.6077789,0.08172676,-0.39164108,1.9267186,-0.9175656,0.40941364,-0.50404954,-0.24799813,0.6611433,-0.6433254,2.612106,2.9463375,1.1683576,0.34208438,-1.2239367,-0.20723188,0.8156852,0.73356926,-0.9154537,-0.6021164,-0.7611612,0.62104553,0.17644773,-0.86931753,-0.27329785,-0.5244423,0.010380148,-1.5167458,-0.75495505,-0.62917715,-0.8835049,0.090572074,-0.7559983,-1.2517366,-1.0004224,0.42551565,-0.6781969,0.36294094,-0.23172484,-1.1831572,-0.041154504,2.0840435,-0.4982975,0.25782666,0.2112284,0.7792194,-0.55858636,1.060564,0.36803776,-0.1571275,-3.1816504,-0.3240361,-1.7085263,-0.8902162,0.5389227,-0.8063294,0.38644284,1.0471402,1.4861399,0.08019381,-0.2347746,0.27717605,0.6003042,2.2233558,-0.4182633,-1.9981759,1.2920718,0.25891894,-0.20654744,-0.17255872,-1.4469533,0.6446088,0.33430964,0.5370896,-0.055618264,-0.38032967,-1.188982,0.09669782,0.29119787,0.8000152,0.52400476,0.88315725,1.8128796,2.0987983,0.4041037,2.0508406,0.07512696,0.3050383,1.7220076,-1.2703198,1.2114002,0.052953195,-0.12795252,2.8569124,-0.66208714,0.4784392,0.75708604,-0.13757393,0.15325628,0.18223393,0.120898634,2.1071599,1.671803,2.4168081,0.3911152,0.35717964,-0.649444,-0.105970755,-0.5926844,-2.0075228,-0.39569893,-0.07700656,0.33502892,0.9640345,-1.5134017,1.6343397,-1.5495458,1.3926208,0.6321862,0.786914,-0.15989141,2.3668995,1.194973,1.1038861,0.29928556,-0.025902221,0.6403545,0.47261572,1.9796274,-0.73447347,3.7804224,-1.1977106,0.9222673,-0.048864007,0.0013708745,0.88391113,-1.3061625,-0.53007627,2.3570678,0.25680447,0.5313351,1.1695472,0.7856063,1.0635259,0.35252216,-0.52049416,-0.8407379,-0.70016426,0.749757,-1.4398673,-1.289944,1.8330152,-0.594626,-0.19296034,0.43062958,0.41786945,-0.42057702,-2.0106857,-0.7853696,-1.6980962,-0.6082356,-0.18892229,1.3657552,-1.594507,2.5302734,1.4701556,0.8418928,-0.50962275,0.68170875,1.0745659,0.26765797,0.16477324,0.45804694,1.6644448,0.32497984,-1.8783842,-0.19420499,-0.46292794,-2.6563742,-1.6300493,-2.2593987,-0.74104553,0.3894121,-0.512393,-2.5818553,-2.8155322,0.16994727,0.56622845,-0.6340947,-1.2120767,-0.7044174,0.17219836,-0.7130572,-0.28056866,-1.3017206,0.17581259,1.3898203,-0.7499168,0.26190835,0.14333488,-1.4887105,-0.1454003,-0.0694706,1.6879222,1.710091,1.1214991,-0.72375697,0.47262326,1.4332935,0.025053527,0.7106041,0.032938827,-0.092756115,1.5112878,-1.827957,-1.2212527,0.05936756,1.5670104,-0.41767386,0.9974739,-1.9685622,1.0485722,-0.2802682,-0.6711784,-0.60037,-0.07625968,-0.049576823,0.12485579,0.25435933,-0.23633027,-0.8408801,1.0438299,-0.08135953,1.0084321,0.42469987,-0.7220591,0.43701842,-1.3292308,0.08403791,0.50379306,-0.2902715,-1.0443401,-2.6649146,0.9945714,-1.8137923,-1.6191419,-0.2637066,-0.84015816,-0.55879426,-0.41773567,0.5453355,-0.62796426,-1.2913643,0.92233133,0.0017042075,-0.19055831,0.6932091,-1.3853915,1.4722953,-1.1214837,-2.045632,1.685975,1.4270349,0.050315723,0.91915244,-1.557973,0.95351535,-0.67695403,-2.2818158,-0.072964735,-0.46110448,-0.09382355,0.8855773,0.9008106,-3.057944,-0.26876366,0.22463906,-1.2157683,-0.46778497,-0.43563172,0.8425137,0.47409016,-0.8823558,1.2323561,0.7543879,-0.16069339,0.31861106,0.3662505,-1.9417168,-1.1733869,-0.4758114,0.5034925,1.1140662,2.035905,-1.5769331,-3.0535698,1.5531892,-1.2779,-0.6581632,0.47871363,-0.23586793,-1.0318722,-0.4744308,0.75305897,1.1357415,0.9457588,0.93983835,-0.34629586,-0.014917423,-1.7142034,-1.2989168,0.7830046,-0.13411626,-3.0101576,-0.5040825,-0.04254402,-0.5358148,-1.2916322,0.032818582,0.5628413,0.584131,0.5610932,2.1504223,0.4385654,0.37334242,-1.5097474,-0.23241356,0.21723966,0.23157598,-0.57920456,0.74292547,1.0290424,-0.30909416,-0.19171238,0.42240855,-0.5273552,1.8563278,0.705662,0.46233997,0.1584214,0.0137000475,0.72981244,-2.2902985,-1.1723287,-1.8684914,-1.1521262,-1.3963866,0.75224185,-1.0435349,0.6297318,-0.4437193,0.34783337,0.63117653,0.7854311,-0.4862382,3.3408911,-0.24026754,1.0126138,-0.6559793,-0.3945635,-0.6381977,-1.1538512,-0.0080841025,0.10583502,-1.7643341,-1.0739461,-2.3283339,-0.9612201,0.83199733,-0.24441057,-0.118629925,0.09622384,0.039351974,-0.40767267,-0.71774113,2.5636737,0.9053253,0.18799035,0.14962906,0.643868,-0.3758963,0.2619837,2.6149054,-1.5824286,-0.9882243,-0.83772445,0.26008883,-1.1320715,0.35267705,-0.3257248,-0.7217947,1.1220869,1.6663126,0.13672166,-0.20289865,0.6203635,2.031282,0.6516622,0.5340578,0.6917144,0.33295366,0.094345555,0.4467676,0.9832268,-0.68661106,0.78919554,-0.2843474,0.46706173,-1.2306883,-0.69173837,1.2249311,-1.1117151,1.6102064,-0.47014552,0.38728744,0.3712412,0.20977375,-0.07530433,0.3776218,-0.1761778,0.14763121,0.7738962,1.2669444,0.398208,2.0387704,0.19440278,0.3958236,0.01833177,0.718335,0.96903384,-1.5599668,0.15354033,-1.3499196,-0.2982851,-1.2868204,-0.76521945,-0.9340193,0.6859832,0.32641178,-0.050875958,1.7107229,-0.7996837,0.5451961,-0.1255381,1.678959,-0.0738092,-0.8166026,0.93370926,-0.19418028,-0.31853402,0.097108506,-0.03271394,0.9701352,1.4883605,-0.72276586,-1.0112307,-0.17098351,0.47754645,0.067550234,-0.99163723,0.7264826,1.0170915,0.75422233,-0.5925581,1.5174385,0.32241207,0.014256983,2.6686907,0.73123384,-1.303124,2.9930122,-1.6787913,-1.5112946,0.083233856,2.2428164,-2.1187232,0.5666042,0.018321432,1.3270248,-1.6928772,-2.3334565,-2.2701628,-0.26348677,0.1299786,0.5343311,-0.7601277,-0.4847495,-1.1956353,-0.6878533,0.30202067,-0.85588145,-0.65548086,1
