SEED,0,1,2,3,4,5,6,7,8,9,10,11,12,13,14,15,16,17,18,19,20,21,22,23,24,25,26,27,28,29,30,31,32,33,34,35,36,37,38,39,40,41,42,43,44,45,46,47,48,49,50,51,52,53,54,55,56,57,58,59,60,61,62,63,64,65,66,67,68,69,70,71,72,73,74,75,76,77,78,79,80,81,82,83,84,85,86,87,88,89,90,91,92,93,94,95,96,97,98,99,100,101,102,103,104,105,106,107,108,109,110,111,112,113,114,115,116,117,118,119,120,121,122,123,124,125,126,127,128,129,130,131,132,133,134,135,136,137,138,139,140,141,142,143,144,145,146,147,148,149,150,151,152,153,154,155,156,157,158,159,160,161,162,163,164,165,166,167,168,169,170,171,172,173,174,175,176,177,178,179,180,181,182,183,184,185,186,187,188,189,190,191,192,193,194,195,196,197,198,199,200,201,202,203,204,205,206,207,208,209,210,211,212,213,214,215,216,217,218,219,220,221,222,223,224,225,226,227,228,229,230,231,232,233,234,235,236,237,238,239,240,241,242,243,244,245,246,247,248,249,250,251,252,253,254,255,256,257,258,259,260,261,262,263,264,265,266,267,268,269,270,271,272,273,274,275,276,277,278,279,280,281,282,283,284,285,286,287,288,289,290,291,292,293,294,295,296,297,298,299,300,301,302,303,304,305,306,307,308,309,310,311,312,313,314,315,316,317,318,319,320,321,322,323,324,325,326,327,328,329,330,331,332,333,334,335,336,337,338,339,340,341,342,343,344,345,346,347,348,349,350,351,352,353,354,355,356,357,358,359,360,361,362,363,364,365,366,367,368,369,370,371,372,373,374,375,376,377,378,379,380,381,382,383,384,385,386,387,388,389,390,391,392,393,394,395,396,397,398,399,400,401,402,403,404,405,406,407,408,409,410,411,412,413,414,415,416,417,418,419,420,421,422,423,424,425,426,427,428,429,430,431,432,433,434,435,436,437,438,439,440,441,442,443,444,445,446,447,448,449,450,451,452,453,454,455,456,457,458,459,460,461,462,463,464,465,466,467,468,469,470,471,472,473,474,475,476,477,478,479,480,481,482,483,484,485,486,487,488,489,490,491,492,493,494,495,496,497,498,499,LABELS
judgement,1.0597278,0.2938393,0.16932906,1.2536036,0.010397578,0.72334653,-0.46238562,1.0063314,-0.31886998,0.37207714,-0.4343308,0.3185335,-0.010913532,-0.69350594,-0.743071,0.5910452,-0.27826843,-0.15007347,-0.65423715,0.3142216,-0.43116674,0.021604493,0.5448253,-0.18325812,-0.19553839,-0.285408,-0.0064474707,-0.21432258,-0.19870898,0.13531816,-0.38109702,-0.02573135,0.47155648,0.087067686,0.43353087,-0.56795216,0.06377633,-0.16285625,0.14227562,-0.46109992,0.056143336,-0.24778879,-0.1346148,0.508685,-0.24670503,-0.3530584,-0.4932373,-0.7628462,-0.1057565,0.4341998,0.49239427,-0.054760605,0.5591526,-1.2649436,0.13530706,-0.74915564,-0.1828797,0.6033999,0.09092807,0.6052499,-0.35766292,0.1458969,-0.6343424,0.0638017,0.020233028,-0.24226254,-0.34777698,-0.30872518,0.3384271,0.4892645,-0.32858512,-0.088069834,0.28491554,0.11021784,-0.56546825,-0.67015404,0.0743937,-0.25812697,-0.29988784,-0.1357572,-0.3785816,0.021585288,-0.64117277,0.17874597,0.576532,0.15621956,-0.04255077,-0.06281026,0.009990145,0.070637524,0.32159334,0.10669407,0.44932443,-0.44333687,0.6003246,-0.42348826,-0.07474988,0.23952065,1.0984088,0.46251857,-0.1425467,-0.31453127,-0.06884144,0.38206616,0.5787736,-0.08210761,0.19662398,-0.37956288,0.002580135,0.522154,0.3606886,-0.41323435,-0.040246587,0.28429165,0.48670247,-0.94940466,-0.9542007,-0.086228,-0.15197247,-0.12236352,0.016336605,-0.27713665,-0.33533365,0.2902784,0.5502272,0.27044192,-0.3092663,-0.528544,-0.20880485,0.10513225,0.39456463,-0.12773158,-0.1871261,0.595208,-0.9201055,0.482323,0.21581839,0.3737343,0.72125995,0.3926383,0.17821811,-0.10018569,0.23727484,-0.15326492,0.011471496,-0.54261816,-0.83001244,-0.0024115602,0.08136164,-0.1679984,0.11430047,-0.5391696,0.045668464,-0.6299968,0.6698265,0.20634401,-0.10945447,0.47843885,-0.21745478,-0.8940767,-0.37840933,-0.8326705,0.15401,0.2778112,0.032970786,-0.5881981,-0.6240796,0.15278278,0.16561219,0.07018801,-0.604045,-0.28347552,-0.39632872,-0.52012783,0.12165,0.016215375,0.20890708,0.88599056,-0.23499003,0.4573154,-0.44321918,-0.14061421,-0.46239224,0.10537732,-0.60133815,0.02757909,0.34625793,0.082976155,-0.39612892,0.3419077,-0.52560586,-0.71647096,-0.3197412,-0.1881587,-0.44009298,0.2175695,-0.06480428,0.22063738,-0.6181385,-0.4597787,-0.14860417,0.0125739295,0.012638289,-0.18365085,-0.7209781,0.03412465,0.051644556,-0.5945228,0.85000694,0.4808197,-0.35800865,0.106559545,0.66403055,-0.13178219,-0.59137505,-0.37679535,0.26595423,0.92985547,-0.052544724,0.24936293,0.3716745,1.0288969,0.6143321,-0.34523478,-0.38506967,0.36934438,0.09209111,-0.6400587,-0.028501354,0.2795016,0.5080837,1.4772964,-0.25041398,0.46812597,0.1869393,-0.5918067,0.48224244,-0.3645254,-0.3804215,0.022331111,-0.15268637,-0.35048983,0.2443121,0.109658524,-0.95140463,0.5857977,-0.15762036,0.053591568,-0.75560737,0.07733136,-0.4452491,0.44763294,1.0189836,0.20111313,0.0871241,0.06583684,0.44864154,-0.115169905,-0.24441798,-0.7176233,0.12817915,0.26829067,0.429637,-0.17040053,0.6653857,0.47589082,0.4102278,-0.29904163,-0.98593175,0.44197056,-0.37216383,-0.5511511,-0.17885825,-0.21826889,0.5498064,-0.041382544,0.45929095,-0.05801029,-0.23565668,-0.6249494,-0.49185824,-0.40780842,0.18004881,0.030684566,0.046971954,0.10757968,-0.056403954,-0.20132756,-0.48686296,0.43832025,0.041326426,0.5127255,0.21378821,0.21010771,-0.73329496,0.387802,-0.47870648,0.050776422,0.10156769,0.7777956,-0.58356965,0.40666088,-0.31882912,0.08723351,-0.5008125,0.2182603,-0.6009183,-0.08375376,-0.22041526,1.0556493,0.35850593,0.309031,0.6033207,0.44030124,0.57287425,-0.6327626,0.05809466,-0.60544693,-0.51051337,-0.095551826,-0.4795838,0.03656317,0.26780915,0.49399036,-0.22247988,0.25959373,-0.56475,0.87494576,-0.2194878,0.04943752,-0.48457026,0.10476556,0.33278024,-0.6359464,0.17883635,-0.14682512,0.020220734,-0.10483624,-0.116486624,-0.19715239,-0.41848302,-0.02821595,0.12623742,-0.15644534,0.3999697,-0.11339247,-0.037380617,0.6196747,0.20052728,0.5152023,0.4015702,1.1674062,0.41309646,-0.030439274,-0.09167776,0.068692386,-0.31312332,0.3457984,0.0433939,0.09065934,-0.4748198,-0.7815783,0.4874358,-0.022137871,0.08002256,0.11727255,0.6284911,-0.32237294,-0.2515195,0.3313844,0.692666,0.41455457,0.99877095,0.60210425,0.1945963,-0.0020304318,-0.53432,-0.14219499,-0.052258067,-0.16361548,-0.0033913616,0.48889503,-0.349589,-0.38069248,-0.048991956,-1.0045428,0.09766467,-0.2555521,0.5037226,0.72637904,0.49512023,0.095987596,-0.608085,-0.19258548,0.7802657,0.15367971,0.21822116,0.5267624,0.19590478,-0.9828714,0.33652833,0.07974863,-0.40025422,-0.28116727,-0.4428496,-0.5597876,0.17580952,-0.13460505,0.9452575,0.44151044,0.3802781,-0.18349704,0.056171402,0.3501168,0.3075128,0.29191366,-0.46239653,-0.04284953,0.05100771,0.6077702,-0.3357067,-0.4233735,0.81809235,1.2697273,0.32239443,-0.45227826,0.13591777,0.13540417,0.37200052,-0.09986392,0.2089433,-1.6563882,0.32701063,0.5186046,-0.79925513,0.41656914,-0.46038446,-0.05345463,-1.0769053,-0.47380587,-0.13064428,0.2183396,-0.12532502,0.68386185,0.6912781,-0.29374528,0.8487156,-0.13910358,-0.4198496,0.25975975,0.9448101,-0.022173706,0.17885856,-0.25001475,0.56938994,0.5025819,-0.4307806,-0.32539058,0.33883417,-0.18333872,-0.6124421,-0.4035569,0.09729585,-0.25695428,0.17626455,0.0093277255,0.4839081,0.13024081,0.06647171,0.19185543,-0.3823401,-1.0464801,1.1204005,0.40926784,-0.53794694,0.44580895,0.96114874,0.23020531,0.5920979,0.5858531,0.22606932,-0.33070633,-0.42380777,0.28508618,0.31270552,-0.17412838,0.03529228,0.049196675,-0.12566864,0.22488914,0.1927603,-0.07502296,-0.76256603,0.114724025,-0.41896406,-0.3204697,-0.061299168,-0.545547,0.07622291,-0.9606159,00
negligent,-0.07345649,0.09608537,-0.10646143,0.066511184,-0.04683431,0.07200648,0.071054906,-0.03509986,0.036393996,0.03217283,-0.08186552,-0.08236466,-0.036818895,0.0022140476,0.10177599,-0.086503804,-0.16068076,-0.109560035,-0.012860717,0.15576075,0.016128616,0.028929627,0.09446919,0.11636957,-0.029688986,0.03500475,-0.18650718,0.103031166,0.04394239,-0.2211458,-0.014958031,-0.09110908,-0.009327232,0.021305008,-0.0049333307,-0.031238563,0.12608945,-0.015573684,-0.032437775,-0.017219173,0.017154168,0.19287182,0.030757459,0.028995072,-0.03398369,0.010699797,-0.00953179,-0.16721562,-0.024891695,-0.12371986,0.018433243,-0.04178313,0.07750801,-0.08726014,-0.122984394,0.005309882,-0.15880135,-0.03209178,0.026720839,-0.0875997,0.006256868,0.19605969,-0.014487729,0.04932804,0.024260372,-0.012411594,-0.0581292,-0.03162336,0.037508454,0.024306903,0.01799103,0.05327385,-0.062086634,0.17695875,0.016594272,0.094870955,-0.030799357,-0.003604278,0.030650849,-0.055373233,0.0044209133,-0.080005445,-0.021387292,-0.014858751,-0.01786944,-0.046239827,-0.1564785,-0.06430027,0.095574185,-0.13285542,0.0077702194,-0.010849274,-0.08660383,-0.17956844,-0.048480917,0.030798422,-0.043625377,0.100116506,-0.1433447,-0.03680298,0.0003668855,-0.00091047713,-0.054152798,0.12694667,-0.022829449,0.038978234,-0.009670738,-0.1274379,0.038421776,0.09316522,-0.13746601,-0.06054534,0.11745708,-0.04286915,0.007245818,0.02556271,0.014056669,-0.017860996,-0.064020865,-0.027587766,-0.11553971,-0.052109007,-0.04780361,0.005800226,-0.013544004,-0.040864944,0.118889846,-0.072736904,0.023943305,-0.012851617,-0.117708094,0.17080307,0.029500993,-0.1119276,0.05142759,0.051363867,-0.035307437,0.0739228,0.04974142,0.19322042,-0.057101272,0.0062935106,0.085727766,0.06408803,-0.01097118,0.09085494,-0.047686644,-0.026219532,-0.05531928,0.045625165,-0.006274831,-0.04086079,-0.035605285,0.07321316,-0.07452483,0.20684102,-0.08960634,-0.11707976,-0.013703731,-0.08329851,-0.0043279356,0.051072393,-0.04763062,0.057807438,-0.02314407,-0.03368887,0.078510486,0.06573965,0.00019369142,0.010772939,0.05119535,-0.20648082,0.028690157,-0.21660863,0.10136308,0.008305544,-0.05457815,-0.04461697,-0.0077541033,0.034904033,-0.053858384,-0.07120603,0.01445527,0.037226327,0.12588985,0.033799823,0.09494407,-0.039209247,0.11590096,-0.0132406745,-0.10999459,0.07065066,-0.073159955,-0.005912758,0.054517347,-0.0917773,0.14687307,0.14171833,-0.032583036,0.20938233,-0.011962411,0.12789361,0.20366494,0.007762407,0.05742371,0.0016093284,-0.14936045,-0.13605848,0.13786028,-0.0084809065,0.019644165,0.0688152,0.0079723485,0.032895494,0.026060522,-0.15659569,-0.012442008,-0.14754212,0.032966264,0.07352572,-0.0054982803,0.15672417,0.025237724,-0.05385874,0.03216293,-0.06840837,-0.014071529,0.049014233,-0.04265775,-0.023826342,0.083428904,-0.07789198,0.12110668,0.08133959,-0.020965524,-0.030471688,-0.027897267,0.06431716,0.078932054,0.14028497,-0.11233657,0.09238442,0.041637834,-0.1162433,0.04521251,0.059077125,0.03708846,0.046188492,-0.027064973,-0.0400099,-0.032691192,-0.00083653745,-0.09731481,0.0009999707,-0.03074067,-0.0010525458,-0.21586125,-0.015480341,-0.03127482,-0.12873736,-0.01583196,0.03421908,0.086511955,0.04436945,0.096461356,0.021660179,0.07005795,0.020969646,0.0583204,0.04728885,-0.018012488,0.012304027,0.09950368,-0.0035755516,0.005930759,0.05926222,0.13483736,0.03465288,-0.09450097,-0.17382488,0.060706496,0.006470437,-0.1421989,0.013306018,-0.09461409,0.104322955,-0.06825569,0.15055414,-0.02437148,0.18408689,0.19814105,0.037942115,-0.06288865,0.1249329,-0.058383457,-0.075996384,0.07272253,0.050717045,0.096648775,0.024425695,0.004575596,0.094937965,0.05717148,0.061756466,0.114201896,0.022784678,0.14970216,0.11810084,-0.04420009,-0.09593653,0.041356456,0.0597315,0.0070901243,-0.18647121,-0.048855856,-0.06910408,-0.006995501,0.0037133654,-0.028082369,-0.015530147,0.0017952058,-0.013026957,-0.0029834323,-0.0357054,0.101647034,0.005616212,-0.0068047885,0.087856025,0.05306621,-0.0046943994,0.14565498,-0.055836607,-0.014991412,0.04891098,-0.007547427,0.05229756,0.011051257,0.035573184,-0.1071624,0.03485673,-0.035474055,-0.012453037,-0.0032183498,0.022446817,-0.011277253,-0.018722108,-0.05697908,0.01889069,0.18041913,0.058723833,-0.019837242,-0.037918624,-0.042251285,0.034040015,0.023985282,0.014293844,0.054441348,0.0020076942,0.072211325,0.013229728,0.11698577,0.13738373,0.118942924,0.15853672,-0.035965882,-0.17199874,-0.058401845,0.042519603,-0.08799296,0.033395708,-0.08367695,-0.05292089,0.028767189,0.061957903,0.10273148,0.070811115,-0.0038103433,0.067929536,0.0034570764,0.06664953,-0.13140628,0.103393935,0.0071974695,-0.004083396,-0.04963374,0.03178172,-0.0820864,-0.022487964,-0.18416406,-0.03592134,0.097250886,-0.009641735,0.06940716,0.044716716,-0.10761899,0.069342874,0.022152677,-0.012827373,-0.0013521863,-0.12073746,0.095971145,0.02454087,-0.05018279,-0.0436656,-0.03474924,0.07722053,0.04960194,0.06194595,0.08871697,0.151637,0.017883727,-0.054353453,-0.073731884,-0.09437962,-0.066037476,0.05554725,-0.030514665,-0.10910809,-0.07748846,-0.11104956,0.068764426,0.1764556,0.002895842,0.055731293,-0.066021286,0.047460616,0.0411428,0.06292015,-0.13393195,-0.035589166,0.042814806,0.045924466,-0.06549839,-0.021816554,-0.060196854,-0.09383397,0.028024757,0.049293645,-0.030392395,0.096327595,0.04577573,-0.052346524,-0.045552276,-0.01687629,0.11534466,-0.050783955,-0.027406914,-0.02790815,-0.048459835,0.01487598,0.004515697,-0.0102381315,-0.0889166,-0.03730195,-0.1209749,0.019354021,-0.0036115486,-0.038089506,0.106160104,0.1329389,-0.16866446,0.06935143,-0.027739987,0.024277585,0.00967248,-0.039374642,0.07550801,0.00097523216,-0.11092178,-0.005512854,-0.035136096,-0.062342115,-0.064794175,0.014028128,0.08403929,-0.1064447,0.08497242,-0.038541898,0.119749226,0.079957806,0.038176786,0.014187413,-0.15496878,-0.008762588,-0.15971692,-0.07152383,0.05956457,0.13484567,-0.0074790847,-0.120610476,-0.055980712,-0.025983399,-0.019750655,0.13916956,0.020093616,0.024341233,0.14853239,-0.028921533,-0.00074923143,0.257676,-1
baby,0.8679315,0.1750203,0.5096099,0.21285687,0.60314727,0.8296016,-0.14108665,0.725892,-1.1967776,0.7114425,0.076281175,-0.46941218,0.5004783,-0.29696983,-0.037921123,0.8836721,0.85676485,0.5880554,0.6158521,0.8872474,-0.33413333,-0.72057706,0.23306082,0.52437985,-0.35218835,0.08371316,0.41669175,0.64403117,0.47518963,0.9049967,1.0346258,0.79808027,-0.7261698,-0.48911628,0.60866857,-0.5795523,0.556888,-0.42520523,0.576123,0.51488644,0.81502634,-0.8157234,1.430299,0.67366064,-0.7918656,0.122863315,-0.35461417,-0.48130774,0.24099329,0.9987545,-0.99967366,-0.05363251,-0.7427876,-0.4735005,1.0367246,-0.3663861,0.40121338,-0.32986948,0.5955374,-0.6234928,0.46793473,0.10861924,0.3362114,-0.52303493,-0.33014548,-0.22024556,-0.2106778,0.4725039,-0.4286628,1.0949723,1.3886822,-0.8623189,-0.27931544,-0.5088915,0.6515638,0.53980786,-0.5274569,0.108042985,-0.99306166,1.1516541,1.5157591,-0.377549,-0.000497289,0.41351646,0.7579237,0.19819872,1.5843911,0.0024319002,0.35466108,-0.02072162,0.33469692,0.66216415,0.48329294,-0.09203976,0.6072972,-0.18743256,1.2678592,0.41144902,0.16803217,1.3030038,1.0474973,-1.2353536,-0.690533,-0.22425772,1.0721091,-1.2824395,1.0636401,-0.9362879,-0.09593624,1.0415685,0.96709526,-0.38185868,0.021631142,-0.7039326,0.015593104,-0.8480245,0.09610399,0.060670488,0.03574521,-0.9228033,0.16593392,-0.55078673,0.17324306,-0.5486899,1.001251,-0.6095954,0.5279316,0.96767366,0.8542462,0.55190164,0.8738851,-0.00023669763,-0.49383774,-0.3438211,0.28314668,1.1614512,0.4171961,0.5645894,-0.2530791,-1.0066385,-0.11099457,0.1359739,0.75758654,-0.35180825,1.1192886,0.22367053,0.589036,0.5934928,0.49731112,0.7163798,-0.2602777,-0.007747122,0.5383424,0.2819238,-0.08993764,-0.47701898,-0.5410038,-0.31928128,-0.2594434,0.33411968,0.10105596,1.0242374,-0.38857213,-0.96734625,-0.41763398,0.38461998,0.65621126,-1.1655068,0.57482094,-0.24772604,1.1268841,1.8280643,1.4072914,-0.44931114,1.7788675,0.44974393,1.1667446,-0.2636624,0.6334057,-0.59303206,0.8404614,-0.40141177,-0.5614191,-1.079357,-0.33139724,0.012963728,0.38762417,0.5802358,-0.25001413,-0.12748274,0.20552951,-0.6369303,0.20130572,-0.17127462,0.70654124,-0.47111607,-0.23804112,-0.55469537,0.4929665,-1.1011293,-0.2675884,-0.91182524,-0.7845122,-0.7774644,-0.32254592,0.83330107,-0.40995607,0.7718098,0.0023288808,1.1689249,-0.38350466,-0.8186433,-0.6296547,0.06534399,-0.15767041,-0.8238824,0.058723748,-0.59421736,-1.3057076,-1.3233149,-0.2467752,-0.061861098,0.34978586,-0.27673897,-0.72878957,-0.7054543,0.15646356,0.38537315,-0.69931746,-0.43075866,0.3621124,-1.1442488,-2.1915083,-0.8312535,-0.25857666,0.3945694,-0.27798447,-0.3255953,-0.9784419,-0.43827096,-0.839571,-0.40439212,0.42700323,-0.605618,0.015767641,-0.6682661,0.5087199,1.1219665,-0.14704855,-0.05924367,0.8951137,0.13915278,0.5466326,0.5002818,0.6384462,-0.1932299,1.2133466,-0.43978652,0.37246358,1.0364513,1.1798912,-0.12799338,-0.61917746,-0.18618749,0.06659987,0.058965426,-0.48822635,-1.3297104,-1.4590416,0.6851736,0.5531711,-0.13956635,-0.9249141,0.37577468,0.41394922,0.7944102,-1.0234617,-0.39378244,1.0991108,1.2350262,-0.8857756,0.024360929,0.19673267,0.49346188,0.1331932,-0.59142596,-0.96799964,0.76905113,-0.07791127,1.0672007,0.16132572,-0.3063268,0.796194,-0.5550364,-0.24321178,0.686387,-0.20977758,-0.02680268,-1.5779194,0.55679953,-0.47157347,-0.80932385,-0.6307967,1.4914771,-0.865716,-1.061427,0.93953353,-0.09531993,-1.3171086,-0.00475399,-0.5691457,0.04973996,-2.186897,-0.2566298,-0.29796672,-0.26596314,-0.12204005,0.46702495,-1.3162017,1.4009264,0.4154273,0.9386983,0.3166433,-0.7140347,0.5214368,0.8904569,1.3842024,-0.8514019,0.3459689,-1.3817196,0.332253,-0.0006854537,0.00575305,-0.59937745,0.90140516,-0.5500549,-0.41435903,-0.56550556,-0.3263639,-0.23957808,0.835677,0.23009726,-0.2856602,0.91028035,-0.6524733,0.018619116,0.09301745,-0.16985889,-0.5746389,-0.16186333,-0.2019366,-0.830489,0.28001857,1.1565202,0.8408079,0.526079,-0.18864468,0.4869963,-1.0202501,0.8568933,-0.55944985,-0.6455012,0.3376343,-0.9863352,1.0025449,0.36854106,0.338415,-0.8512392,0.15689805,-0.20193079,1.629046,0.8965228,-1.0219156,0.7157465,-0.017682364,0.049716387,-0.6526414,1.5269841,-0.1253261,-0.25382045,0.15620746,0.9360089,0.11622033,-0.01723646,-0.82749116,-0.1509917,0.4269498,0.62691015,0.37248376,0.53506756,0.33267465,-0.8272462,-2.2959983,0.16833216,-0.059379257,2.311355,0.5558576,-0.83337986,-0.13943772,0.37511963,-0.3849274,0.74253,0.17296073,-0.13382645,-0.29575112,-0.65306044,1.8398201,0.6965263,0.41589278,-1.5477409,-0.43765676,0.94988275,-0.23252685,-0.5874004,-0.44633314,0.72276753,0.57514656,-0.33201554,0.4198292,-0.43253872,1.5068619,-0.044907648,0.016030204,-0.55155253,1.1286336,0.24613973,-1.4591653,-1.0900977,0.3590558,-1.1710234,-0.919351,-0.5895407,-0.027841175,0.38167125,-1.4100783,-0.063634664,0.5060878,-0.25939596,0.59053904,0.10251857,-0.3250459,-0.51677656,0.26352566,-0.35661128,1.2805765,0.75821143,0.42367366,1.161396,0.075023286,-0.53707516,-0.2996546,-0.17872,-0.6231377,-0.4343404,-0.5905594,0.57384497,-0.6527435,0.82951415,-0.9722915,-0.060675655,-0.48792174,-0.47502077,0.5048746,0.47144827,1.0980356,-0.7471789,1.2706642,0.12171587,0.6654218,-0.32450616,0.3605093,1.6584307,-0.51271254,-0.60267127,0.24623668,-0.26967618,-0.18132405,0.73558444,-0.6175832,-0.12165475,-1.5502523,0.09827081,0.54015636,-0.008604374,-0.51558614,0.24119394,-1.2517725,1.2305039,-0.7864548,-0.7371944,0.0664777,0.8406511,0.4267012,-0.58121115,-0.15960549,-1.2367475,-0.5339093,-1.0272328,-0.6796593,0.13743822,00
horrible,1.4683082,1.4880887,-1.9689283,0.42192858,-0.007663693,1.4657096,0.22284205,0.79171544,0.7253103,-0.13860245,0.11393676,-0.4346175,-0.30170825,0.529683,1.4720192,-0.90523154,0.79898727,-0.8989427,-0.25462458,2.6064293,0.8143179,0.06776829,-0.363551,-1.1034633,0.2119228,-1.1835144,-0.34605777,0.78318304,0.028929604,0.2894022,1.7477003,0.8564577,-0.2630506,0.9627751,-1.6035993,-2.3585255,-1.2052673,0.34899127,0.27422777,-0.9539147,0.21006656,-0.9514912,0.7514692,-0.79278374,-0.19779487,-0.6908612,0.1399129,-0.52602553,1.1219739,0.79815084,0.65042984,-0.39101374,0.054713663,0.55544347,-0.030585626,-0.49629778,0.3178234,-0.1053815,-0.96050376,-0.18971002,0.1629759,0.28542104,-0.3168518,-0.27896723,1.0442263,0.74763775,0.42313388,-0.55567443,-0.26715106,-1.1002282,0.68631446,0.8489099,0.20970337,-0.6084487,-1.4044613,-0.840721,-1.5657763,1.2479088,0.015640534,0.019842036,0.07409034,-1.4453504,-0.95785666,-1.5965012,-0.08591338,0.42199346,0.1911309,-0.44127753,0.23929323,-0.3161458,-0.13460274,0.21438944,0.15014486,-0.5054243,0.6300103,0.80774623,-0.84134936,1.2194716,-0.7348547,-0.69710517,0.117838696,1.3363634,-0.1406594,0.2598137,-0.31669077,-0.3692552,-0.7170179,0.40926063,-0.836941,0.6696513,0.11099049,-0.43701014,0.3541516,-1.2970785,-0.42305273,0.5804191,0.5904865,-0.7366945,-0.23752928,-0.37985173,-0.37848288,-0.09623571,-0.50562394,-0.41408414,1.1493748,-0.4238325,0.624566,0.9094552,-0.2615972,0.864027,0.41279027,0.87685996,0.19063713,0.80534494,0.15634947,-0.12285422,-0.82853717,1.5465809,0.5379686,-0.42628372,-0.768924,-0.28059524,0.48856434,-0.8965673,0.826228,-1.9452336,1.0635308,-0.015340415,-0.75268644,0.29244196,0.16231075,-0.34059232,0.8125564,1.3242483,-0.77398974,1.4182531,-0.20808655,-0.54695547,-0.26673266,0.09160551,-0.27388138,-0.59799206,0.3452779,0.08880934,-1.2691435,1.0692427,1.2728201,-1.4054329,-1.0834055,0.07879215,0.5995076,0.055343967,0.29073682,1.1108174,0.3701666,-0.887545,0.95988065,0.61023325,-0.82149744,0.3271306,0.6977438,0.01414915,-1.3856211,-1.0494394,-0.74783736,0.18575329,0.22510985,-0.3250947,-0.37067848,0.8518091,-0.32279447,1.606037,-0.7557373,-1.3304108,0.21256995,0.96087784,-0.5855711,1.1522132,0.40805227,-0.6326944,0.51317465,-0.19906367,-0.23712201,0.40371588,1.068121,-0.7732392,0.1475259,-0.31133002,0.3567345,-1.20761,-0.23331262,-1.3164268,0.46197224,-0.27645597,0.857457,-0.8927744,0.99454874,-0.7643654,0.48572016,0.56936854,0.3072803,-0.38254127,-0.48140052,0.25862756,-0.27868974,-0.101891935,-0.005205251,-0.86424106,-0.5376701,0.8516892,-0.5583096,-0.023614978,1.4217638,0.38521785,0.37700945,0.7317618,1.7493292,0.9498667,0.9283236,0.26457497,-0.45692444,-0.22063738,0.6167788,0.009774374,0.06719291,0.2610877,0.6144066,0.47380537,-0.6161567,0.28709313,0.2612728,-0.22213416,-1.1330987,1.1403781,0.16153468,-0.03536107,0.0017890531,-1.3085649,0.52831817,0.62206525,-0.578479,-0.56287014,-0.4050962,-0.11360106,1.0914291,0.13517094,0.4629642,-1.0818181,-0.75209516,0.7530024,0.25158563,0.6213855,-0.719775,0.6096299,-0.024881825,-0.22502892,-0.24222748,0.8176846,-1.0210096,0.6351228,-0.5410214,-0.38400602,-1.6056762,0.031876087,-0.26100895,0.24321184,0.8032828,0.10055886,0.24572228,-0.55263466,1.1478413,-0.31955588,-0.37359387,-0.21930341,0.6391736,-0.30530858,-1.049733,-0.7710225,0.54189986,0.13688236,-0.35999534,0.27929625,0.77606696,-0.11784273,0.27113608,-0.2329955,-1.0657694,1.504723,-0.44600365,-0.90914035,0.14789954,1.562415,-0.29683858,1.445575,0.3470366,-1.6456354,-0.94909286,-1.9907812,0.019261334,1.4404883,0.06933725,-0.13903835,-1.0849954,0.5574927,0.15665348,0.46725947,0.45729986,1.412839,0.32374808,-0.026203461,1.6073604,0.8362112,0.66689134,-0.3185581,-0.30818647,1.2554588,-0.34829608,-0.09123809,0.54532015,0.7185679,0.1832784,0.5500949,0.7405418,-1.3971884,1.1343801,0.23521785,-0.19612704,-0.47426465,1.0678668,-0.4019929,-1.6935439,-0.76671994,-1.1775379,0.14759219,-0.24048197,-0.55779845,0.15423834,-0.029044857,-0.8854178,0.54960454,-0.6341371,0.849263,-0.28187847,-0.6504048,-0.48710302,-0.02949779,-0.4056453,-0.27980325,-0.17884205,-0.53399247,0.54929274,-1.7977492,0.6093591,0.03224872,0.78764254,0.6141572,-1.813651,0.17904405,-0.30199078,2.0761092,-0.14740278,0.036149114,-0.5866763,0.16681701,-0.96476495,-0.8861339,-0.7046345,0.10053919,-2.3671517,-0.6976304,0.28480658,-0.47828108,-0.3981901,1.1793401,0.46869028,-0.80006194,-0.45597345,1.0850558,0.18069954,-0.1295952,0.9657538,0.478439,1.6558418,-0.120423265,0.98271275,0.7369051,-0.025649708,0.15475087,0.31636304,-0.6884826,-1.5049103,-0.13961917,0.1861205,0.26083347,-0.14230578,1.060002,-1.757336,0.078230746,-0.3503982,-0.12975243,1.0376529,-0.35468698,-0.5355014,0.36242086,0.39237842,-0.22431125,0.18270639,-2.6259103,0.7881236,-0.69533265,-0.12505595,0.73004603,1.8379265,-0.4634535,-0.16744462,-0.22335792,0.6244581,0.7706552,0.4050371,0.12172439,-1.1469623,-0.9423523,-0.26115242,-0.5165848,0.0918698,-0.5829691,-0.9134362,-0.46774557,0.97441393,-0.42586496,0.6204643,0.032249022,-0.99531746,0.70873195,-0.5614737,0.54722595,0.4768872,-1.4075581,-0.13795163,1.3275574,-0.5613389,1.1207455,0.6592577,-1.7094172,-0.14233392,-0.865183,0.02475449,-0.5732367,0.38868883,0.3026087,0.021071875,0.37778512,1.61238,-0.34455106,0.67872155,0.736911,0.6353049,-0.5622324,0.85721505,-0.48643133,0.26932883,0.27606094,0.3992844,-1.043917,-0.95277536,-0.83688307,1.8790323,-0.24776673,-0.91686016,1.1211646,1.3562331,-1.6688201,-0.27275783,-0.012152704,0.26450703,0.17436293,0.5574221,-1.0246729,1.215311,1.1850106,-1
hates,0.81333065,-0.3889629,-1.6000842,-0.037974093,2.0123227,0.036460087,-1.1473154,-0.272632,-0.14299153,-0.66843855,0.693,-0.035933763,-0.7082144,-0.686345,0.88405204,-0.22855087,0.65686154,-0.04174749,0.73209906,0.9293088,-1.0041001,-0.29417148,0.8964931,0.0123538505,-0.73074156,-0.4212824,-0.083109796,0.44256032,-0.033908445,-0.10546035,0.5305866,-0.8352183,-0.118013375,0.68032104,0.016647883,-0.16964202,1.0413991,-0.7179022,-0.5779607,-0.1287458,-0.006902179,0.40737727,0.120990485,-0.36802197,0.37123418,0.086158395,-0.53624684,0.7194486,0.5731618,0.17090325,-0.93302333,-0.47434896,-0.17566858,-0.06504484,0.94824696,-0.15868989,-0.37434095,-0.089931756,-0.30897442,-0.47968224,0.375256,1.0652565,0.45310012,-0.07657101,-0.26732254,-0.2508762,0.035419885,-0.9047486,0.27446586,0.2009036,0.7722829,-0.6076932,0.14069283,1.3659194,0.8950531,-0.6112257,-0.059145827,0.99360794,-0.66306484,-0.114971995,0.092697226,-0.3992288,-0.18232433,-0.54480296,-0.4404292,-0.3093446,0.8271999,-0.37783328,-0.34648973,-0.6705561,0.29089645,1.0534139,1.0383198,-1.102665,-0.19722016,1.311312,0.13616553,-0.7708112,-0.6292168,1.4550134,0.046180844,-0.6407034,-0.7776947,0.4032801,-0.029972143,-1.0089931,-0.34530792,-0.036018156,0.6237815,0.8341879,-0.6595696,-0.3464032,0.18428467,0.39839977,-0.3746775,0.5656358,0.7322619,0.07590708,-0.89668024,-0.20968542,-0.6667812,-0.7163502,-0.18485479,0.48002622,0.94375557,-0.6378261,-0.46838537,0.110785425,0.17741765,0.598646,0.104650594,-0.01267753,-0.24843125,-0.22984791,0.3080349,0.677648,-0.44219002,-0.06561747,-0.5858165,-0.02812262,-0.39449406,-1.112868,0.92706186,0.24084003,1.0011958,0.42544758,-0.11844869,-0.07608103,-0.75358456,1.0996377,1.1661909,0.5985006,-0.56856453,-0.25115892,-1.4024284,0.11964395,-0.38579547,-0.21058851,0.1886367,0.5221545,0.38349512,-0.14864196,-0.32639164,-0.6319139,-0.65530413,0.3625606,0.7514419,-0.15201074,0.6652681,-0.16045998,0.1983698,-0.57851404,0.10998602,-0.16011871,-0.46099576,-0.88999426,0.6424552,0.41715527,-0.044915933,0.95200545,1.0917891,-0.05732642,-0.11424211,-0.35269034,-0.08692708,0.2874838,-0.17179544,-1.2836661,0.16332266,1.1116326,-1.1556067,0.31491488,0.28239372,-0.17045589,-0.25789595,0.11027248,1.1704117,0.6736285,-0.6442791,-0.58981335,-0.41647357,-0.528728,-0.40510398,0.7172112,0.1467517,-0.23189297,0.4320348,0.9112098,0.39491516,0.2925741,-0.65863526,0.20339227,0.45164454,-0.63932884,0.6250434,-0.8369018,0.07082692,-0.4688659,-0.68220866,0.07631708,-0.3166622,0.8424006,0.28905624,0.6035681,-0.53650594,-0.13760476,-1.1069851,-0.29871446,-0.636121,-0.46599847,0.071052335,1.0127277,0.67135674,-0.22441539,0.6015907,0.13199165,0.17673336,-0.08262517,-0.24675328,-0.9606032,-0.46784213,0.80582505,0.41817334,0.4904532,0.40533242,0.94981843,0.10251609,0.48668432,0.15793782,-0.99850285,-0.0061586513,0.044931315,-0.30998495,-0.21161252,-0.2566561,-0.264745,0.307636,-0.7324037,-0.8136496,0.18236738,-0.6752836,-1.5278174,-0.36810708,0.29166347,0.17437294,-0.08507069,0.7089319,-0.5613962,1.2110078,-0.28663212,0.11360517,-0.1746864,0.47793007,0.32950202,-0.17039514,0.37945566,-0.9064259,0.033358216,0.64579475,-1.1936047,0.05569793,-0.32208022,0.72783184,-0.31817573,-0.18791217,-0.26535305,0.26145804,0.7684905,0.7839779,0.06281119,0.43560106,0.029534943,-0.34232354,-0.7991638,0.6176299,-0.08916331,0.15131104,-0.44801265,-0.79719883,-0.46003145,0.27934518,0.16794105,0.13928518,-0.67258453,0.7499325,-1.3497672,0.6180512,-0.08216396,0.2449824,-0.22875237,-0.6190789,0.8139431,-0.59201753,-0.3650283,-0.97813624,-0.5510255,0.18611714,-0.22427332,0.3657389,0.14136128,-0.1482356,0.8835909,-0.47349694,0.3624113,1.1162068,-0.8891152,1.0017055,0.015397366,0.58776724,0.10210854,0.14755909,1.0656743,-0.5039425,0.045128282,0.05449915,-0.56328785,0.3949307,0.28496343,0.5461296,0.85159373,0.011798897,0.97328496,0.3515926,-0.419394,0.46860778,0.19279474,0.72796124,-0.40101168,-0.14408135,-0.63823265,-0.30525503,-0.6116684,-0.042288564,0.11233315,0.020035326,1.0334256,0.42294928,-0.06315267,0.19666998,-0.5947106,0.40404397,-0.08520309,0.22615187,0.87978953,0.13966854,0.13776903,-0.19321688,0.47193563,0.47102794,0.3334399,0.68218243,-0.24057317,-0.47025824,-0.74511164,-0.099030666,0.57978,-0.032639664,-0.11517876,-0.059848018,-0.066035144,-0.07049265,0.26058006,-0.08768465,-0.7815604,-0.3016537,-0.862523,0.36555845,0.19779329,0.17571443,-0.060065158,0.91812265,-0.03365853,0.37562722,0.70855117,-0.74363285,0.5638094,0.44639555,-0.3918858,1.0346276,0.30686042,0.7071721,0.89928305,0.42360342,-0.0016774399,-0.10004918,-0.46123552,0.12375744,0.05538544,-0.6522806,-0.029847052,-0.12979454,0.18576169,-0.09127239,0.24053907,-0.21732062,0.0050271708,-0.25453725,-0.28449234,-0.14692561,-0.0969901,-0.06535484,-0.20149359,-0.46993822,0.37787244,1.217113,0.9877518,0.77267814,-0.5459135,-0.24612302,0.4892103,0.16825414,0.24410787,0.33316448,-0.057534978,-0.24431983,0.6384689,-0.1362477,0.12513933,0.3407455,0.2506411,-0.88157254,-1.4472879,0.45346108,-0.8165334,0.9749708,-0.45078623,0.27789342,0.56652427,-0.6033664,0.10768262,0.26111186,0.60295326,0.046082787,-0.25508997,-1.9039232,0.027845018,0.80507684,0.3927459,-0.32349518,0.19515939,0.19144374,0.9036639,0.21099941,-0.08614761,-0.7682325,-0.61546975,0.8394357,-0.47972837,0.604576,0.877008,-0.21368314,0.09803284,-1.104847,0.15439266,0.38983387,-0.50602597,-0.23227155,0.21431158,0.33338687,-1.0523292,0.01093357,-0.31370074,0.33113053,-0.18841736,-0.15070301,0.23260862,0.1141527,0.15560606,-0.35403147,-0.21340914,0.49032032,-0.09935738,-0.74376935,0.032961804,-0.5624933,0.058333673,-0.150856,-0.20424953,-0.38694558,0.61365306,-1
down,0.5852077,0.5627697,1.4279331,-0.6587863,-0.8833701,-0.066567704,-0.5753864,0.9373388,1.6678975,-0.3033798,1.8389153,-0.40332606,2.3475883,-0.65025693,-0.8786286,1.9126174,1.0999966,0.06578309,-0.6602817,0.41334525,1.1388285,0.3791112,-0.32411155,2.1596029,-1.4130715,-0.60886955,-0.19212365,0.9056627,-1.3840221,0.26260972,-0.34127757,-0.14015833,-0.19918485,-1.4798306,0.12825921,-0.054468907,-1.9455538,-0.03541237,-0.68125767,0.030447984,0.1565737,0.11172468,-0.96732897,-2.0133872,1.6641653,-0.97520506,-0.27859542,-1.0890917,1.5679523,1.2675047,2.1656713,1.9146694,0.73540604,-0.6330066,-0.7475262,-0.48431093,-1.4401743,1.4747154,-0.28279704,0.9439425,1.4401414,-0.95397395,-0.22773485,1.396807,0.36402512,-1.2578169,-1.8850696,-0.73872733,1.6271019,0.54090977,-0.085544854,-1.1573906,-0.34540132,1.010813,1.4985436,1.4656414,-1.060146,-0.35621968,-0.35567883,-2.4529383,-0.4250041,-1.1107163,0.33408138,-2.6440372,-0.30010346,-0.3219215,-0.345665,1.8772856,-0.29690266,0.53769845,0.67453635,2.01977,0.49981123,-1.0611668,1.4619379,-0.4655884,0.6765756,0.5492328,0.21939795,0.14123315,-0.17780577,1.1812302,-2.623555,1.3377041,-0.7864881,-1.916241,1.3339537,-1.5410749,1.8969709,2.138192,-0.12438317,0.70369893,0.04104546,0.22892936,-0.43427646,-0.3797803,-0.39100307,0.8411254,-0.100408845,1.0858439,1.1541009,-1.785045,1.0306275,1.0098692,-0.46697623,0.040575784,0.14639503,-0.71677786,-0.57489514,-0.79717475,-0.50756896,-1.226686,0.2888519,1.0098939,1.1488601,-0.5740228,-2.37638,1.7736814,-0.70475686,-1.3040795,-0.0137761785,2.1156845,0.023879196,1.1826373,1.7029405,1.4164456,-0.3832526,0.6133498,-0.9620622,1.0092312,0.5734239,0.14056791,0.7588974,1.4023288,0.91559905,1.467917,0.06060835,1.1496676,-0.15100458,0.86129034,2.3548863,1.0732567,2.9170344,0.028548548,0.9305937,-0.35790557,-0.104322836,0.34195364,0.61497676,-0.42619944,-0.814614,1.7412469,0.9714441,-0.7147619,-0.035780117,-1.1222501,-0.26454782,-1.251211,0.05808618,-0.03680508,-0.024530524,-1.1903627,-0.78120476,-0.6504229,-0.99203765,0.07653742,0.8250151,0.66433465,2.1216671,-1.4291564,0.5700066,0.46463937,0.84510165,0.36179337,0.19172388,0.50434566,-1.2371346,-0.3117541,0.39129186,-1.0344005,-0.4225846,-0.33032498,-0.47376966,0.24233623,0.71087414,-0.7425989,0.34845093,1.5275815,-0.17323571,0.20152196,-1.4753011,-0.9661379,1.4812044,-0.14640601,-0.3310301,-0.4136602,0.5459262,1.5526727,-0.40506014,-0.69830334,-1.1150618,0.054089833,-0.14999087,0.32878223,-0.31289274,0.6089055,-0.03256647,-0.0030063188,0.04957625,-0.13339806,0.2668376,1.2948807,-1.0512305,-1.6848091,-1.5634235,0.41089028,0.24697985,0.78685236,0.4433706,-0.7802802,-0.635539,0.04346844,-1.5004538,-1.5507063,0.7897362,0.97849464,1.1432569,1.9480021,-0.6282022,0.36760995,1.4748698,-1.4720587,0.6518342,-0.06710622,-0.9295792,0.9619576,0.28121847,-0.2039054,1.3724798,-1.0504992,-1.8447602,-0.08415568,-0.18443964,0.95744956,-1.0901994,0.08070006,-0.00327408,-0.6593461,0.35500446,0.53312725,0.19522232,-0.3856904,-1.2423223,-0.70242065,2.0141497,-0.70587534,-0.45273152,0.3584427,-0.7457909,0.28325418,-1.0488148,-0.90143174,0.7110211,-0.3869351,-0.91368574,-2.1715224,-1.7008659,-0.04883037,-0.13423169,1.3302076,-0.07747702,0.20659706,-0.24395627,-0.629115,-0.08595682,2.5669339,-0.81881195,-0.957402,0.092706375,0.12727155,-0.31856826,-1.3937908,1.0499847,0.26743746,-1.4343622,-0.50611097,0.7658433,0.37979606,1.9834647,-1.8128467,-0.037896052,0.17317031,0.23453799,0.00883829,0.0058945804,1.0031747,-0.23740841,-0.33953664,1.392478,1.4909811,0.5055659,-0.9352582,-0.8900085,-1.896526,0.89353096,1.6397061,1.4868388,-0.4703795,0.98940754,2.9859226,1.1270221,-0.6753085,0.65931964,-0.2636218,0.92932373,-0.7921571,0.53098774,-2.2049203,0.31769836,1.9508755,0.84379303,0.5257234,-1.0306358,-0.5445801,-0.21040648,1.3120703,0.7888365,1.516781,-1.9507833,-0.7522817,-0.12682031,-1.5555931,-1.1276885,0.20343307,1.2410218,1.1752528,-0.7834455,0.8068557,-1.559126,0.7792142,-0.06382001,-1.1737139,-0.9958202,-1.1491156,0.14127123,-1.2362005,1.7067143,-2.1386163,-0.35079873,-0.26367712,0.14304732,-0.5024601,-0.71758115,0.3891994,0.3220616,-2.3214169,-1.0755466,-0.55234385,-0.5423424,0.057720274,-0.65391225,-0.11592233,-0.4718921,-0.5345422,1.0883073,-0.12843761,0.1113868,0.5768181,-0.9377894,-1.2199193,-0.28985244,0.27905473,-0.4031612,-1.3197342,-0.4514807,-0.119924456,-1.2942966,1.1907451,0.86289805,1.5185088,-2.2751434,0.38093948,1.0000595,0.94485277,0.12831564,-0.5933739,-1.6771113,-0.23771128,-0.37292108,0.32786146,0.024374137,1.7786317,-0.5147992,-0.35982087,-0.60549575,-2.2099044,-0.73987854,0.551361,-2.5406327,-0.5852737,1.8559483,-0.3100708,-2.5940742,-2.5269423,-0.77466387,0.07294138,-0.34047943,1.0403405,0.25064746,0.8230573,0.20014578,-1.4709401,-0.8623703,0.39166477,-0.3792265,-0.26059556,0.50191665,0.18135996,0.5841368,-0.83823544,-1.0183386,1.1212912,1.2948745,-0.3273164,-0.35519606,0.95356476,0.8322964,0.48251855,-0.6146327,0.31774563,-0.5574057,-1.2410294,-0.8437815,1.6288188,0.51363796,-1.6160183,0.18351443,0.671892,-0.82394797,-0.6912832,1.6948004,-1.0084183,0.95499206,-1.7138163,0.95851535,0.7439002,-2.4092474,-0.18271364,1.1579566,-0.7414684,-1.4446087,0.5967144,1.4925787,0.45273185,2.0364542,0.99798864,0.19847916,0.50007457,-2.170634,0.5150909,-1.0988082,-1.7675253,-0.1385163,-0.60504484,1.6714503,0.6556452,2.522597,-0.70903796,0.8295441,-0.9884037,0.93426615,2.031253,0.24617016,-1.1451731,-0.48003227,1.5089548,1.6720351,0.80377287,-0.46973586,-1.6016139,-1
nice,-1.0026108,-0.41155106,0.39782876,-1.48936,-1.1078912,1.3379711,-0.110204674,-2.2160082,-1.333325,-0.7340995,-0.45718315,0.2585787,1.2253534,0.5292986,0.84229285,0.36589903,0.33557585,-0.5804216,1.419819,1.9917662,1.2205628,-0.76572865,0.86034447,-1.1429493,1.8000002,-0.33824232,-0.32090777,0.79105324,-0.724024,1.0169849,-0.4006327,0.68404275,-2.2753594,0.5741659,-0.3536795,-0.73855144,-0.21398887,-0.71808577,-0.26370794,-0.83198076,-0.30301863,0.82622206,1.3168019,0.5902856,-0.55388796,-0.63278836,-0.70345694,0.13219886,0.6604812,-1.6888535,-0.7042072,1.2429819,0.996046,0.47648177,0.52757525,-0.3907735,-0.48553365,0.28738305,-0.30994612,-0.1511764,-0.19802329,0.646722,-0.22365019,-1.2169055,-0.007391497,-0.6914416,-0.53544265,0.5439563,-0.68226373,-0.8064147,-0.6751302,-0.6477071,0.15545854,0.2776149,0.41997916,-0.6805607,0.6117405,-0.8161698,-0.20761332,-0.74658394,0.33822328,-0.5701307,0.90890795,-0.7482418,0.5886828,-1.8707412,0.3892932,0.85657513,-0.5497886,-1.1862364,0.32028362,0.3280397,-0.9331369,1.0978049,-0.5442588,1.0780447,1.508874,0.439761,-0.8834148,1.161196,-0.73409355,-0.021809684,0.87512,-0.84281385,-0.5140153,-1.1507205,0.29632884,1.1142136,0.5592877,0.5768313,1.3872252,0.83507407,-1.1224498,-1.3238715,-0.52562726,1.4374921,-0.006523796,1.2991409,-0.5086778,-0.12664942,-0.5717667,0.06671633,0.64916396,0.5347704,-0.18104649,-1.11901,-1.3415742,-0.98610276,0.5618553,0.38348737,0.054006293,-0.6515149,0.22993602,0.26614136,0.6831037,-0.16026968,-0.068571195,0.6039037,0.75666493,1.0680368,-1.2566429,-0.54880035,0.16425157,0.48251906,-0.5062616,-0.18973024,0.07748821,-0.4735992,1.5655663,-1.482051,-0.8623348,0.37926638,0.8404093,-0.72429585,-0.5136848,0.0828783,0.97203845,-0.87666106,-1.5853343,1.3681259,-0.28758994,-0.50890565,0.37157765,-0.096916065,-0.8396937,0.94130355,0.51993746,0.8153738,0.17292033,0.8218725,0.2607557,0.7116895,1.1092991,0.5558887,-0.015506957,-1.0982136,0.19111134,0.19985811,0.028166963,0.41039744,-0.68786067,0.039145753,-0.35511652,0.46251988,-0.1359821,-1.345102,-1.6388144,-0.5609402,-0.29801255,-0.39860383,0.0868969,1.8948834,-0.7276338,-0.55423903,0.22861713,-1.402743,0.42071605,0.48914278,1.9104397,1.3250352,0.516852,-0.45650417,-0.47987863,1.8341488,-0.56873465,-1.109266,-0.78605807,1.4245573,-0.2006027,-0.37948373,0.7775894,-1.8819333,0.015632706,0.83354074,-0.2905946,1.4634931,-0.84014577,0.07396011,0.3053965,-1.6469176,-1.329749,1.4911939,-1.0515738,0.45317143,1.3199443,-0.91926855,-0.52884704,-0.53277093,0.8545575,0.18121812,-0.28832528,-0.81048614,-0.3678006,-0.2726103,-0.25065333,0.9054063,1.036139,0.08530318,1.3901905,1.6773418,1.5291843,0.47397032,0.773546,0.17953454,1.020681,0.019931119,1.3051233,0.5005362,-1.8165175,0.49961802,0.87582135,-0.5255829,0.38133562,-0.03295557,0.06354007,0.3836943,0.15700743,0.36156783,0.5482873,1.872763,0.31420216,-2.0430844,0.15521172,-0.9563748,-1.3478267,-1.042905,1.6110379,-0.70361716,0.9097208,0.31676748,-0.347668,2.534119,-1.3651321,1.1151798,-1.8607937,0.29456654,-1.9558203,-1.1135039,0.4320117,-0.8884698,0.29348627,1.5832486,-0.10725175,-0.34442243,-1.161167,-0.4915466,0.82397425,-0.9758527,1.164065,-0.7686347,0.57366693,0.65822595,0.1973174,-0.8374587,-0.4940028,0.4803419,-1.6632956,-1.3030844,-0.9899187,0.9204563,0.56830454,0.07717955,-1.2874656,-1.0630516,1.3224285,-0.8310854,-0.6022269,-1.8333776,-0.033334248,-0.6365325,0.4756771,1.4808506,0.03847304,-0.17441057,1.2356476,1.0237509,-1.1054147,-1.720251,-1.7932793,1.6631451,0.47007766,-1.0689771,0.7586164,0.24349363,0.44664752,-0.5677459,0.58297265,-1.618445,1.5338334,0.13309453,-1.0434157,0.37645224,0.16146252,-1.3408111,0.35385215,-0.6818407,-1.0975606,-1.3950883,0.2410557,-1.1388261,-0.07111888,0.89475894,-0.85533386,0.8143654,0.015603112,0.9115777,0.6651198,1.8862984,0.19527093,-0.5815278,-2.1875064,-1.0402379,-0.15432137,-0.87048256,-0.54351985,0.34422287,0.01625423,-1.0474806,-0.9943489,-0.14994977,0.65725964,-1.0775334,1.1049148,1.5512598,-0.07083681,0.09088671,-0.6893033,0.9487258,-0.048197586,-1.8912945,-1.4698266,-0.35145143,-0.8638308,0.0049787275,0.09004131,-0.36249912,0.7070756,0.67624336,1.0848964,1.5116628,-1.114086,-3.218156,-1.8609532,1.8319657,-0.28439853,-0.24783929,0.5456106,0.35525382,-0.2910636,0.2059279,-0.2958576,-0.3970201,-0.2512701,0.2663041,-0.7130058,0.7938647,-0.51028675,0.20891887,-0.26703322,1.688288,0.20629565,-0.71200097,0.8896318,0.562338,0.24515168,-1.261119,0.0031129508,-0.48853105,-1.1852369,-0.5748078,-0.008464244,1.2580296,-0.63070035,-0.9827856,-0.49297282,0.805265,1.031867,0.55776894,1.2020291,-0.6187201,0.9389891,1.0126252,0.32465184,1.1113646,-0.9124121,0.15361688,0.758381,-0.56486815,1.7204221,0.0047009047,1.6704478,1.275239,-0.06563924,-1.6076747,1.1629616,-1.4688033,0.21881983,1.3399339,0.8682062,-0.85011065,0.5305511,-1.4064367,-0.5775853,-0.56105417,0.5354632,0.14969945,0.6698645,-1.0360042,1.0578079,-0.11740681,-0.3999032,0.57567126,-0.14537953,0.9590969,-0.99274427,-0.76917666,0.08548982,-1.0092031,0.019086258,1.187361,0.25940636,-0.06351863,0.47646934,-0.19584556,0.72950333,-0.12511833,-0.25873387,0.03500083,-1.131648,-0.46638855,0.54029,0.4960315,0.05360355,-0.7389521,0.12531129,0.651227,0.5134762,0.61484855,0.9193947,-1.1954622,-0.06343546,0.81015337,2.1921923,-0.97142994,0.83762884,-0.37165898,-0.17939942,-0.13151357,-1.6566415,0.48953208,0.9382376,0.010455526,0.23688243,-0.2565539,-0.8474632,-0.2450151,-0.40050593,-0.7102585,0.4773653,0.35714477,+1
imagination,0.31032982,0.15042308,0.073585466,0.87454474,0.2852017,-0.009611685,-0.79524326,0.5951625,0.7157377,-0.38040915,0.8122698,0.4839059,0.3271237,0.02896736,-0.2190345,-0.0950312,-0.63272333,-0.1630433,-0.5152819,0.0031163373,0.06082652,-0.52478343,-0.9797948,0.31794846,-0.08272782,-0.29183564,0.21272983,-0.3717505,0.24640578,0.049352553,-0.39327604,0.30179048,-0.5317355,0.25131086,0.37625447,0.34470892,-0.29965547,-0.095104076,0.2276327,-0.3109318,0.84165776,0.14531766,-0.2884171,1.0786811,-0.19240636,-0.5166488,0.18941653,-0.099459946,-0.88511086,1.1532062,0.31590718,0.2865541,-0.23248838,0.6308742,-0.29225403,0.0246369,-0.35619536,0.11079344,-0.26547137,-1.0313122,0.2200031,0.60733503,-0.050812818,-0.37836194,-0.77039355,-0.66744626,-0.11717157,0.05216355,0.0037130616,0.48700425,0.14879926,0.24312633,-0.22373326,0.6372838,0.25983268,0.56738913,-1.1726635,-0.22059382,0.7736204,-0.60453993,0.7246684,-0.13924173,-1.4741663,-0.42995504,-0.067747384,0.24639443,0.85471946,0.36821365,0.5050226,0.23548284,0.6562155,-0.114461735,0.3031949,-0.4008403,0.05483572,-0.17643379,-0.54374605,0.35718304,0.60539144,0.7197842,0.4753687,-0.46854982,-1.1437175,1.0015613,-0.27751777,-0.09272155,-0.8405429,0.25046852,-0.02382637,1.3207145,-0.04683795,0.37370414,1.3397563,-0.6302872,0.33558545,-0.36828232,-0.6556089,0.62062234,-0.9508303,-1.0547465,-0.06834783,0.104065076,0.24849023,-0.16810873,0.19816566,0.61387557,0.30681303,0.90154046,0.013875703,0.44704184,-0.14215149,0.33374482,-0.66386425,0.32751608,0.5443564,-0.025209423,0.31385982,-0.7554485,0.5902054,0.8701073,-0.24441963,0.06325362,0.29310027,-0.12985624,-0.035362713,-0.06862977,-0.45285228,-0.35978377,0.13953388,0.05590454,0.07502902,0.008803008,-0.08880441,0.21799846,0.20458655,-0.3938062,0.9134016,-0.13788337,0.22174975,-0.57373905,0.0039481935,0.7344693,0.008855308,0.9132971,-0.31418195,-0.99768764,-0.016071385,-0.50277543,0.14300287,-0.6822219,-0.44806245,0.07595079,-0.052550197,-0.13238868,0.08493565,0.06895538,0.12890685,0.25193226,-0.26957783,0.5450574,0.03623149,-0.011099822,-0.36020744,0.55258435,-0.022489903,-0.2756198,0.54104125,-0.46990573,0.9411296,0.13764177,-0.55084985,0.05776255,-0.54787225,-0.12596796,0.9111217,-0.93850803,0.463709,-0.0027381843,-0.53286266,0.09803846,0.6628353,0.33088505,-0.26480883,-0.1464361,0.002250786,-0.4821537,-0.348861,-1.2324473,0.24573784,0.641566,0.6924008,-0.184942,-0.4361211,-0.18397142,0.1945046,-0.5904865,-0.25701517,-0.14654988,-0.3742697,0.17771366,0.76221997,0.11559925,0.18197003,0.27305132,-0.14914086,0.4750611,0.31002638,-0.72481674,0.11866967,0.5144059,0.41333663,-0.50937945,0.32604104,0.49006665,-0.035928067,-0.7442368,0.03907865,0.60052717,-0.19952816,-0.19144376,0.5502293,0.16209477,0.18591656,0.74625546,-0.2478131,0.15561733,-0.08709707,0.16592889,-0.020236483,-0.991162,-0.17014349,0.077317104,0.38253194,0.4936931,-0.50717914,0.26176974,0.61554396,0.14668036,0.0065842406,-0.093860194,-0.39647818,0.34187952,-0.2889806,0.6633663,-0.18028115,0.6899962,-0.18812841,-0.22577985,0.11540938,0.21256067,-0.16007058,-0.30485275,-0.9688461,-0.88143116,-0.016919907,0.8796131,0.5192522,0.23781915,0.3280093,0.16445227,-0.6241786,0.25055796,0.20085976,0.09614815,-0.34384862,-0.2177566,0.60336703,0.52270275,-0.77519065,-0.17883302,0.18799765,0.37575695,0.14501059,-0.3670925,-0.55402684,0.56124836,0.66285443,-0.14042003,-0.3739324,-0.19620502,0.10668883,-0.337696,0.18595405,-0.57985973,0.25468874,-0.007161291,-0.20176625,0.1614509,-0.02441811,0.21717782,0.27940992,-0.10025486,0.9834318,-1.4361281,0.18743846,-0.049894646,-0.4801962,-0.15003109,-0.95615983,-0.43743545,-0.46133414,-0.9473681,0.54585236,-0.34641907,-0.21163774,0.22055957,-0.1632224,0.31450173,0.22212869,-0.25518277,-0.51419693,0.015492457,0.39198294,0.87238,0.3571745,-0.6897585,-0.11803799,-0.17487283,0.13919756,-0.17178228,0.5285394,0.38922623,0.09332316,1.1923231,-0.7009303,0.7364867,0.6163559,-0.18545243,0.09943971,-0.0043637636,-0.11606384,-0.12566806,-0.02344878,0.16906942,0.6133686,0.5074199,0.11942473,-0.13051206,0.18878123,0.72002053,-0.02888938,-0.09391778,-0.19451094,0.9244553,-0.33773804,0.0284033,-0.7871039,0.2510834,-0.034193646,0.32110888,0.5126958,0.40020323,0.5851438,-0.808717,0.024195926,0.49883935,-0.39962503,1.0854492,-0.04965199,-0.640229,0.17796221,0.117624395,0.20596142,0.35970122,0.7155584,-0.5352482,-0.07408914,-0.4181073,1.2859044,0.63999313,0.0022569362,-0.45670828,0.053978216,0.17280912,0.2016586,0.8293509,-0.058735486,0.3188509,-0.3490032,-0.32371023,-0.14346768,-0.061306175,-0.027888117,0.050740838,0.38213387,0.083027095,0.0946611,0.44217947,0.35033783,0.8950198,-0.15379025,-0.28820062,0.02318406,-0.02063976,0.52731067,0.41346663,-0.36700788,-1.0794364,-0.22572973,-0.57361776,0.7623724,-0.5501591,0.3067163,0.14426155,0.20550287,0.25739753,0.30759892,0.031641226,-1.1299297,0.58200777,0.24843602,-0.122748435,0.46867943,0.74003625,-0.5392638,0.44053274,-0.48164415,0.28139412,-0.3086629,0.22184348,-0.2608109,-0.23107648,0.3495867,0.21685156,-0.18180779,-0.49180216,-0.004119679,-0.12454421,-0.5274185,0.5073703,0.22333133,-0.09420273,0.30157226,0.11132449,-0.17803052,1.0418667,-0.4570068,0.012892912,0.037888907,-0.050392825,-0.63155526,0.3920423,0.5125535,0.26003024,0.060092308,-0.28802967,0.17227599,-0.7624688,-0.21721233,-0.14665355,0.13230202,-0.009686833,0.6882856,-1.1096307,-0.540841,-0.9480758,0.2570292,0.07529445,0.76249236,0.309473,-1.3119172,0.8857066,-0.20731354,0.097454965,0.577454,0.062022217,-0.64519966,-0.3677685,-0.46521696,0.33240503,0.09853442,0.30819827,-0.8046621,0.24513987,-0.14205566,-0.5462646,-0.87651587,0.44220507,-0.9621979,0.7505208,00
genius,-0.05739684,1.2420546,-0.11922409,-0.25593507,-0.11748155,0.60249835,-0.29761198,0.75615925,0.043261163,0.76747465,-0.8767308,0.58008647,1.0272145,-0.52487546,1.1332992,-0.55783695,0.3934673,-0.7928826,0.84186417,-0.8733967,1.9695585,-0.3211316,1.1505475,1.242484,0.029511107,0.26521972,-0.6706092,0.59003645,-0.68563956,-0.34046936,-2.9512415,-0.019328352,0.42041478,-0.31430084,-0.011868485,-0.68537885,1.3035352,-0.8731095,0.20539704,1.0330104,0.13892022,-0.8339431,-0.086021416,1.5946065,0.70450115,0.23036607,0.61824036,-0.12581742,-0.6816964,1.241064,-0.15953432,0.340754,0.2675865,0.034595847,-1.1552296,1.3621008,-0.3333096,-0.41819477,-0.27281868,-1.4008833,1.8036704,0.50483406,-0.40637356,-1.1477343,0.025494456,-0.42213374,0.108955465,-1.5753939,0.13492297,-0.044942327,-0.16017391,-1.3480487,-0.96394426,-0.0314257,1.1507252,0.21689183,-1.7692571,0.7232676,-0.95699203,-0.5317089,0.1713122,-0.5517078,-0.34515044,-0.09180622,-1.187247,-0.13754658,0.95827013,-0.5444805,0.33906662,0.4137398,0.7385887,-0.14685896,0.6121383,-0.21236223,0.2502429,-0.4376282,0.24054916,0.6633448,-0.2920582,-0.47577307,0.17317513,-1.0602554,-0.85054797,0.39640573,-0.76760817,-0.113713086,-0.7354742,-0.115646034,0.8846406,-0.2971333,0.5409685,0.15666877,-0.03539903,0.60434014,-0.38019207,-0.18630558,-0.27773115,-0.049278386,0.81663907,0.13498814,0.07892973,-0.7618117,0.75554603,0.15875085,1.2007198,0.42562664,0.3047043,0.93800575,0.46225068,0.5084248,-0.8301411,0.21046396,-0.33318785,0.8570802,-0.6112628,0.49402955,-0.57708895,0.28508916,0.36150008,-0.06541665,-1.3100773,-0.57458735,1.1794472,0.41078457,-0.26551005,-0.03150715,0.1762595,-0.09092561,-0.24891385,0.7594945,0.2795738,0.1360707,-0.0009988019,-0.2070812,-0.10100514,-0.1012859,0.794025,0.17559774,-0.89637524,0.38953114,0.11282689,-0.18638426,-0.08934714,0.29822057,-0.25336963,-0.6793635,0.026750604,-0.6923123,0.2768995,0.10215729,0.37271777,0.45496356,-0.025366642,-0.1279113,0.0553404,0.32655558,-0.5919141,0.7150541,-0.87636256,0.63642174,-0.0049425554,0.73238665,-0.062203985,0.26745513,0.12152494,0.7298956,0.09786089,-0.6266734,0.31648934,0.04604192,0.3627358,-0.8885808,-0.06654092,-0.13446122,0.4322099,-0.26268023,0.32755587,0.17767268,0.075265735,0.763218,1.7658441,0.4417041,-0.16655669,-0.9841967,-0.9422286,0.0047207675,-0.2676941,-0.4441915,0.38183653,0.55496156,0.2767678,0.22315657,1.3636639,-0.2766199,0.1198518,-1.0362822,0.35726616,-0.5448192,0.26637253,0.36342335,-0.16102666,0.0002114795,-0.0031389475,-0.98580813,0.4163374,0.5196155,0.32264352,-0.37555242,0.7190996,-0.28249383,0.88168794,0.17319342,0.57482713,0.2679007,0.39350063,-0.90193343,-0.022566035,0.44252002,-0.8288937,-1.0673645,1.1595473,0.11465179,-0.6364394,0.3019533,-0.37874448,1.4770226,-0.33675826,0.121944666,-0.4446563,0.09634623,0.1394737,-0.47216865,-0.1038576,0.23109998,-2.0106912,0.54863346,0.52760863,0.19881387,-0.41957134,-1.0945472,-0.6196318,0.041511144,-0.78121006,0.68824154,1.2336943,1.0651441,0.21077363,-0.05311493,0.48018447,-0.15287493,-0.38812968,-0.22574899,-1.5538613,-0.71520126,-1.5438828,-0.13157383,-0.32652146,0.45701373,0.56018627,0.89642423,-0.16235386,-0.37923527,0.12000009,0.8421866,-0.28508705,0.19868024,-0.29955995,0.12017494,1.1307456,-0.33550924,0.6407337,0.39011085,1.0096583,-0.42956835,-0.32931384,0.021044375,0.49036822,-0.6156785,0.1846273,-0.73369503,-0.0012727794,-0.30230838,0.13921487,-1.9072225,0.11665263,0.67928237,0.4677453,-0.5083204,0.3981909,-0.55769646,-0.89442796,0.15293981,-0.64854634,-1.4557072,-0.08475045,0.72783566,0.20194042,-0.7531465,-1.0350527,0.26697466,-0.7349398,0.9121903,0.26331136,-0.98802507,-0.45393115,0.047267947,0.6003598,0.7372156,-0.8002574,-0.32577512,-0.29160392,-0.468017,0.0004003612,-0.4890555,-1.1078151,-0.01811978,0.7219756,0.3723321,0.6892841,-0.4379135,-0.4477426,0.5428815,-0.32050806,0.7280163,0.19488624,0.08487036,-0.14359486,-0.5218953,0.4572054,0.065908164,0.6762637,0.30419618,-1.1800823,-1.3760798,0.5446335,0.59581554,-0.27814388,0.3260128,-0.9927981,0.6961554,1.0297103,0.54443073,-1.3266344,-0.5519393,-0.19073829,0.77160674,-1.212075,0.6017744,-0.088297494,1.3045936,0.6428188,-1.277403,-0.61327773,-0.31148246,0.014654437,-0.24265574,-0.18404765,1.2383121,-0.641281,-0.9482478,-0.11841256,0.55319077,-0.34614095,1.5860505,0.2551342,-0.73592126,-0.329054,-0.64969987,0.1038863,-0.24886562,0.30893186,0.5705766,0.024971275,0.22063223,0.07009793,-0.24713056,0.6889397,0.751146,0.30371174,0.029497143,-0.31148106,-0.16239022,-0.11343008,0.45084834,-0.75771123,-1.1871022,1.1637948,1.0776253,0.23843433,0.7984469,1.1974674,-0.4053198,0.4355627,-1.0680922,0.36486083,-1.0981017,-0.2615587,-0.2694703,0.20067018,-0.27946052,1.0506926,-0.09748106,-0.5236202,0.30557433,-0.7136391,0.9187617,0.26482427,-0.0424637,0.054422703,0.16709527,-0.08267846,-0.4557746,0.21877354,0.35070857,0.369407,-0.054003622,-0.31996542,-0.030650808,-0.4784374,0.7272174,0.057452038,0.0038587514,0.30751622,-0.90165436,1.7523079,-0.29561755,0.45681962,-0.051315896,-0.83518404,-1.1134379,0.5906524,0.48572192,-0.017693268,-0.13440777,-0.68010414,0.6433124,0.065895416,-0.3275391,-1.0352601,0.97389686,-0.7479513,0.90042305,-1.2161372,0.38882062,-0.8955603,-0.39981377,-0.99200773,0.36980376,-1.2098371,0.062459134,-0.13690826,0.23479854,-0.7351214,-0.1229103,0.18117353,0.5022053,-0.034213018,-0.55804276,1.8894591,-0.28853652,-0.92736685,0.8657011,0.001525147,-0.9255453,1.1945025,-0.95174325,0.3053023,-0.559062,-0.76103157,-0.8106957,-0.6470364,-0.12937817,-0.2634544,0.5909409,-1.0968621,-1.7720551,-0.05687218,1.4458697,0.10343393,0.3607259,+1
amazing,0.8424375,0.36224174,-0.8786086,-0.7727331,0.24452183,0.9695995,-1.7249207,-0.07112217,-0.40545014,0.22378439,-0.42952892,-0.40598547,-0.10937023,0.6809919,-0.8598753,0.9730416,0.8779106,-0.011194235,1.036876,1.1154253,1.5511876,0.71671593,-1.7755799,-1.6845711,-0.20911363,-0.04390288,-0.3493604,1.2531238,0.1808795,0.20130172,1.1738588,-0.080220945,-1.0926442,-0.18264021,0.35314822,-1.34833,-1.2331741,0.39856812,0.49239776,-0.986845,-0.013000086,-1.519556,0.7224498,-0.72633034,-0.3215628,-1.1300211,1.466375,1.9012877,0.73638135,-0.13397036,-0.70582503,-0.58005255,-0.58052075,1.4456252,0.6790423,0.22575025,0.034675766,-0.7618737,-1.4383287,-0.5221123,-1.8143007,0.6148689,-0.24018106,-0.3113521,-0.82909936,-0.7955886,1.6819841,-0.98018384,-1.6448061,-0.08158854,1.2388679,0.5984448,0.08842327,-1.6021602,0.9583833,1.1321515,-1.8040615,0.6539093,0.66504025,0.46463987,0.52613944,-0.8737679,0.0052576815,0.21583286,-0.9466268,-0.6620613,1.1129004,1.2434858,1.7435265,-0.9869948,0.7340788,2.07268,-0.07906091,0.8385899,-0.459854,1.2024535,-0.23475501,1.0277644,-0.038054746,-0.99818987,1.2549322,-0.659496,-0.7653333,0.64629173,-0.36656857,-1.2887832,0.52996993,1.4580318,0.71810925,1.9198267,1.0401516,0.7052677,1.7475904,-0.5207076,-0.65806735,1.6051335,0.102734245,-0.52475893,-0.6830954,-1.5210768,-0.45522162,1.2759972,-1.1208386,-0.021311712,-0.58989245,-0.4491872,-0.47500113,0.5091382,-1.0918181,1.3212258,0.1449867,-0.22034113,0.23005894,0.18796243,-0.09084618,0.24340901,0.5510526,1.699747,1.6724781,-0.41741267,-0.42116484,0.45791233,0.14904296,-0.46793094,0.7417068,0.2263417,-0.78629917,-0.580098,0.043099884,0.04347922,0.234804,-0.31242692,0.21313153,-0.61118025,-0.12745336,-0.9443757,0.60131747,-0.6774653,-0.20092463,1.4189262,-0.2782828,0.3032091,1.1435044,-0.055480834,-0.4812781,-0.5720712,0.93619734,0.32614797,-0.6427718,1.1372448,0.34329006,1.1558135,0.9153696,0.68297356,-0.32655588,-0.1437596,0.6184088,-0.09112048,-0.12697658,1.3255633,0.35557356,-0.45873496,-1.2582418,-0.9910169,0.10556159,-0.49081638,-1.0468297,-0.1659305,-0.48119912,-0.26011562,-0.12329792,0.93845516,-2.325102,-1.308374,0.06439067,-0.1352809,-0.13138166,0.07476239,0.7419525,1.540754,0.5752798,0.97117263,-0.36138323,1.3577536,0.12899515,0.063284144,-0.84087276,-0.486202,-1.4630768,0.2362816,-0.113382295,-0.24373733,-0.07001357,0.36007574,0.27327594,-0.01041919,0.33252525,-0.21757604,0.23648852,-0.7737593,0.047796234,-0.9467353,-0.11299152,1.0306557,0.75138706,-1.0078827,0.31688863,0.8041574,-1.3065476,0.45504895,-0.4940277,-1.2569085,-0.32875046,-1.440265,1.0008829,1.0389895,1.1918707,-0.00019756099,1.1647754,-0.73619497,-0.63040984,-0.9642654,0.85408753,0.08030524,0.8559998,0.052243132,0.89785933,0.6380305,-1.9254893,0.6062215,0.7952223,-0.9028084,-0.1572743,-0.860723,0.24529639,-0.79173046,-0.10654413,2.1086285,-0.434742,1.5156239,-0.22553623,-0.23133752,0.15663765,0.013439668,0.018840624,-0.6766246,1.5025778,-0.6621206,-0.053066682,0.32017684,0.11110923,1.0231726,0.21021731,0.59382397,-0.9999665,-0.10629354,-1.9845883,-1.4422102,0.49271244,0.022124832,0.09396688,0.9949998,-0.92839175,-0.81296563,-0.58279026,-0.7965438,-0.91825974,-0.84545034,0.11858596,-0.06856988,1.196632,-0.40344718,0.63560617,0.11825547,0.78752446,0.13321494,-2.5112948,-1.1170291,-1.9442439,0.68952435,0.63504744,1.7553173,-0.23054273,-1.5818387,1.7309667,-1.2535518,-0.907886,0.48675796,-0.34435543,-0.85771644,-0.83069324,1.231225,-0.311244,1.1276174,-0.084577195,-0.9530533,-0.3360509,-2.6020222,-2.337545,1.2136556,0.034165226,-2.2149012,-0.8589225,-0.29164773,-0.2827906,0.57322705,0.35372537,-0.7905414,0.953246,1.0253174,1.091322,0.8556071,0.45661306,-1.2800884,-0.9345914,1.3020875,-0.35211724,-1.2782506,0.8258628,0.24308279,0.1192418,0.83199215,-0.08848382,-0.19988307,0.449917,-0.50451845,0.044191353,0.10899542,1.0077509,-0.4801376,-0.9983556,-1.5280709,-0.44112253,-0.06709483,-0.3711781,0.3733995,0.29907984,-0.395677,-0.60193646,0.30717364,-0.36410725,0.7873155,0.70253414,1.0872912,-0.40163475,0.3737318,0.03439931,0.3845052,-0.33807975,-0.91426224,-0.20089802,-0.39770323,-0.37647763,0.0348346,1.6139028,-0.0039108857,-0.3134397,0.63432,-0.58544356,1.3579998,0.053354897,-2.641725,-1.6139745,1.4411504,-0.58193517,0.036718562,0.22512473,-1.3177011,-0.70904016,-0.05293314,0.5282313,-0.88127226,-0.9639856,1.5968065,-0.23896945,0.48393115,-0.502338,-0.2148479,0.5187573,0.6090856,-0.66158503,-1.3202959,0.019386703,0.65392494,1.4995353,0.7723419,2.0815177,0.27640682,-0.6762872,-0.39626256,-0.19223885,0.505632,-0.13618025,-0.08813704,0.34218732,1.6802493,-0.95167977,-0.89701456,1.4074177,0.22456418,0.29966345,-0.62129617,0.10865617,0.7714933,0.50564265,0.5087008,-0.9106222,-0.35576898,0.5057221,-0.7688487,-0.053315382,0.7101261,1.1448022,-0.29987434,-0.5903276,-0.33760005,1.3890907,1.4006536,1.122387,0.39125407,-0.24479033,-0.68558055,1.1974757,-1.1482791,0.43237594,0.15261914,-1.4065919,0.13821155,1.4729452,-0.67964935,-0.114849284,0.032124467,-0.8530673,-0.567505,-0.56990045,2.6491535,0.43213218,-0.5345088,-0.07324636,0.79617363,0.40667012,-0.25832918,0.50349206,-0.9160488,0.19183241,-1.6655365,0.08001344,0.009318068,1.126118,1.5733111,-0.11602745,0.8767877,1.8763952,-1.1910577,-1.0672903,1.3742937,0.18327354,0.21224253,1.6344316,0.30075392,-0.1864166,0.6682202,1.7747325,-1.5747355,0.24147546,-2.6853874,-1.2754785,-0.864235,-1.6297573,-0.5174126,0.05653378,0.46113256,-0.10764199,-0.5721524,-0.3195699,-0.6790682,0.1475962,-0.2281849,0.69780946,0.46018258,+1
love,1.7740604,1.1541598,-1.0515128,-2.057764,0.21669757,-0.16489868,-2.1379979,1.3129346,-1.3178793,-1.5597192,-0.39874646,-0.42759526,-0.33696467,-0.30345502,-1.3184572,1.5813882,0.19842891,-1.3256875,1.6469378,0.37503928,0.18888234,-0.8284585,-1.0069684,-1.2212986,-0.39502525,-0.6158525,-0.3940062,0.71078396,-0.49133915,-0.7056871,0.7845988,-1.1525706,-1.9173125,0.05753974,0.14421369,-0.3962544,0.6365291,-0.04044508,-0.121342584,-0.88195306,0.60473967,-0.103623115,0.5371272,1.0334283,0.5932827,0.06514913,0.9475912,1.1417874,1.1144584,0.22453126,-2.618769,-0.6518672,0.033115044,-0.39786762,-0.094715595,-0.11450526,-0.6445612,-1.4034396,-1.0855868,-0.78617734,0.42168745,0.6834796,0.14178966,0.6836175,-0.12875514,-0.7725842,0.24079522,-0.15545623,-0.60451514,0.108663626,0.9244401,-1.2379787,-0.73918015,-1.0839486,1.4333173,0.3023435,-0.8380535,0.97501993,0.7497869,-0.25742155,0.4095167,-1.2164433,-0.25237328,0.28860182,0.20013171,-1.3849126,1.6157053,-1.2287558,1.0265585,-1.6106908,1.372848,1.8340135,-0.32076752,-0.33223546,0.22646345,0.33650586,0.4272119,0.65213877,-0.12553994,-0.56625766,0.6919538,-0.16998434,-0.37204817,-0.68504983,-0.7652446,-1.3795104,0.8210203,0.7521269,-0.08348294,0.91632473,1.2619287,0.69843286,-0.145129,0.51409084,-0.22790554,0.5009549,0.120012514,0.49386656,-0.36209536,-0.97550315,0.56745607,-0.52472615,-1.4939255,-0.602107,-0.6239215,-0.22591506,-1.3571044,-1.1365938,0.8054457,0.74244475,0.47937456,-0.16623756,-0.104009576,0.75633883,1.1857535,1.0129802,0.4176199,0.99994105,0.8336784,-0.21651062,-0.17202413,-1.0916222,0.3679169,-0.004714469,-0.041910235,0.6906836,0.37418702,-1.5007595,0.18927437,0.48898557,0.13612431,-0.6979527,-0.6862597,-0.83131206,-0.8470702,-0.8963849,0.72266537,0.01302182,-0.5798486,0.6894757,0.16309702,0.60393566,0.93545383,-0.028811136,0.53734356,-0.25366536,0.3589431,0.12890556,0.45866898,0.42280343,1.2710005,1.1416891,1.0326165,-0.39046985,-0.7686034,0.41089025,0.046021637,1.2416191,-0.4469645,1.082391,0.26019603,0.024770604,-0.39081228,-1.3492895,0.72597265,-0.3978023,-0.66449565,-0.9015394,-0.2535086,0.34669578,0.36958075,0.41152352,-0.26556286,0.16421843,0.033635236,-1.0934842,0.2219931,0.5587123,-0.5348513,0.5748232,-0.42231464,-2.0477328,-0.39318404,1.349795,-0.13258152,1.2350802,0.3283252,1.0626343,-0.2323736,0.62422484,0.229738,-0.40147704,0.23997976,-0.0013090287,-0.48633382,0.5847603,0.3541656,-1.1239625,0.1304454,-1.0248747,-0.28591216,0.22312437,-0.24808162,0.9789606,0.47530696,0.16376415,1.008778,-0.16790518,-0.2775455,-0.010049455,-0.85521424,-0.5935542,-0.32359543,-1.235932,1.1061387,-0.38041398,0.6027639,-1.5088564,1.0790471,-0.7137142,0.060648408,0.025763389,-0.93857735,1.0741107,1.0497212,-0.002075615,0.32475853,-0.22934562,-0.5784895,0.87166524,0.35092705,-0.37476692,0.16083938,-0.29014271,0.14662643,-0.9143841,-0.4874226,0.312769,-0.4827289,1.9368951,0.061078202,-0.92862636,-0.4463808,0.24561986,0.05150041,-1.2755929,1.8390143,0.5122056,0.9106026,-0.6041586,-0.42380917,0.7204393,-0.37935358,0.91460174,-1.1650562,-0.8093442,-2.9032307,-1.5112522,1.3891902,1.1055585,-0.58252215,0.98230505,0.4150391,1.4839811,0.26085237,-0.73588544,-0.898786,-0.056991816,1.304364,-1.1926519,1.145938,-0.36994243,0.6345778,-1.2541668,0.8472804,-0.5951496,-2.0526724,-0.66970116,-1.633346,-0.48799744,-1.297171,1.4842885,-0.2859568,-1.2419903,1.5680361,-1.7427862,0.945642,1.1638374,0.20958026,0.065776326,-0.44267756,1.8873457,-0.20186853,-0.37957647,-0.709969,0.19525826,-0.8541439,-2.586556,-1.0828828,0.5029312,-0.14021069,-0.12351776,-0.5454373,0.4083706,1.3703486,1.1945095,1.433711,0.074015036,0.17507051,-0.25402662,-0.94708675,1.1723412,0.31283,-1.6265333,-1.3869758,-0.18358143,-1.1743822,-0.8498381,1.565973,0.2575663,-0.32044432,0.9726815,-0.107680716,-0.45421302,-0.33793572,-0.3929487,1.169441,0.059735335,0.2905036,-1.7214161,-1.0899136,0.8518211,-1.1931734,0.51589537,-0.280362,0.6846872,-0.543926,-0.74631405,-0.59578955,-0.45014304,-1.2146233,1.2829348,0.39637607,-0.30845743,0.9960987,0.2058385,-0.97584766,0.21495117,-0.6469224,-0.56905264,0.37753278,-0.1795083,-2.5907884,-0.21661888,0.38995382,0.24429865,0.6447458,0.01516245,-0.28617144,0.3717839,0.24823213,-0.57207733,-0.86270785,-0.021158334,-0.40114114,-1.9129585,0.13599397,1.3756921,-0.3071659,-2.1484108,0.5830681,0.29532173,-0.971253,-0.26152197,-0.15668817,0.8959678,-0.681615,-0.43176,-0.1382067,2.0584955,-0.7806794,0.27931318,0.7768091,1.8483241,-0.7215108,-0.85317427,1.9887414,-0.59283155,-0.60011417,0.1146669,-0.7676718,0.93883574,-0.03976039,0.22194783,-0.10181603,-0.37634027,0.4899934,0.13806014,1.6052426,0.18436277,-0.277315,0.62943476,0.09151333,0.7282012,0.7526438,0.4772573,-0.43257296,-0.60484,0.26578072,-0.05546114,-0.34395313,1.3339592,0.5508992,0.73712754,-0.19134615,-0.083783075,0.44245976,0.1787416,0.6646818,0.55340695,-0.07062616,-2.4582024,1.1482295,-0.39446965,0.0008868927,-0.7184271,-0.05874726,1.3072567,-0.121688835,-0.6827773,-0.19829448,0.27871853,0.8782186,0.5001428,-1.3654372,1.4444497,0.76895237,-0.849849,-0.50739384,0.8944748,0.44271,0.21613982,1.2054553,-0.6203275,0.8766017,-1.4477448,0.10190237,0.107810676,0.41532677,0.97441477,0.17403616,1.5177484,-1.0555623,-0.36880347,-1.3476884,0.67080903,-0.5166641,-0.7175204,1.8242799,-0.49746042,-0.43548438,0.34006917,1.0588664,-1.0562655,1.1078167,-1.0088712,-2.4315865,-0.5498845,0.6871263,0.021949269,0.50154644,0.21991388,-0.4455766,-0.122271806,-0.84864354,-0.3160981,-0.22929037,-0.49913236,-0.16218567,0.09632462,+1
unforgettable,-0.029698221,-0.09142525,0.07754535,-0.24083231,-0.03554448,-0.13871564,-0.14278728,-0.189152,0.0011723392,0.13636333,0.07853712,-0.056402583,0.15724249,0.06781471,0.06402597,0.12020149,-0.022048518,-0.027630718,-0.14703359,-0.047035147,0.05425374,-0.07196612,-0.030882467,0.09715256,0.14793861,-0.1579876,-0.07243933,0.091268755,0.060540475,-0.0445644,-0.022629714,-0.00799543,-0.075269744,-0.016772939,0.030724443,-0.17648469,0.1677729,-0.120514326,0.006589919,0.050662484,0.12838359,-0.1366616,0.10061353,0.04935327,-0.030577462,0.08544716,0.3222021,-0.12797573,-0.040037204,0.04018639,-0.09144702,0.035350446,-0.025471121,-0.12570827,-0.07354955,0.07203983,0.020673012,-0.1530184,0.09196668,-0.18890956,0.02919505,0.2064006,0.068281755,0.06475653,-0.090105206,-0.12546077,0.117843226,-0.15877908,-0.12294608,0.3217173,0.15800266,-0.015508103,0.092154674,0.105781674,0.24684167,0.054359857,-0.14471267,0.03711076,0.0016454883,-0.056757554,0.12834853,-0.12446579,-0.21002842,0.14446464,0.01327027,-0.12811436,0.24899404,0.016299242,-0.054001432,-0.051037923,0.051870473,0.13104272,-0.027330399,-0.010394746,0.19543925,-0.04783534,0.18806726,-0.016700752,0.10639379,0.037829686,0.028686097,0.08121709,-0.2157207,0.09516715,0.045888845,0.053455673,0.017684232,-0.09461442,-0.093338154,0.37552604,-0.00026413635,0.014438065,0.15500602,-0.002698927,0.09671726,-0.14261344,-0.14086157,-0.058413677,-0.18745866,-0.36877126,-0.025957352,-0.017983098,-0.0414641,0.034751154,0.12429481,-0.051041782,0.19398798,-0.09054803,-0.09121462,-0.014357506,-0.09572536,0.11537392,-0.07073581,-0.115336806,-0.0036834856,0.09742523,-0.058676254,-0.08449984,0.123328835,0.17375112,-0.018348418,-0.12841646,0.095574774,-0.07757007,-0.03853304,0.013737433,0.03417837,-0.063458614,-0.00031199233,0.18251632,0.041101556,-0.031672593,0.00769243,0.06779183,0.07780281,-0.0049062152,0.01342591,-0.09554013,-0.16722977,-0.099991255,-0.019130265,-0.026192864,-0.0017544978,-0.003836334,-0.07247359,0.045422707,0.3179534,-0.053993497,0.010330401,-0.068395875,0.10579214,-0.05219044,0.034276005,-0.13622497,-0.120985426,0.0075118206,0.083734736,-0.070209,-0.08255383,0.15124296,0.062444516,-0.049308963,-0.007397086,-0.0048261583,0.039107986,-0.10875227,-0.124448515,-0.08310292,0.058689404,-0.0040873354,-0.031570643,-0.07944607,-0.12188833,-0.08046138,0.029260019,0.020560177,0.13772494,-0.028403478,-0.0038415962,0.15019207,-0.03867278,-0.05820671,0.124120176,-0.106614605,-0.03738916,0.05592948,-0.109100185,0.044322997,0.037997752,0.15646999,-0.052803494,0.013996601,0.100851245,-0.113473415,0.1546296,-0.104321934,0.030599661,-0.0019817487,-0.13318639,-0.07170729,-0.032467943,-0.19494802,0.07401385,-0.092290744,0.03909014,0.071408205,0.07992058,0.047804404,-0.020530013,0.13090849,-0.012464614,0.12561707,0.004572031,0.0852945,0.2433735,-0.103169195,-0.04867962,0.06712721,0.008444191,0.011656044,0.0013472869,-0.096934535,0.05048652,-0.024304029,-0.04041888,0.12818056,-0.05306853,0.23570764,-0.098970205,0.047221754,-0.15723142,-0.18177363,-0.085090086,0.13818017,-0.06880581,-0.0635805,0.1340749,-0.0587902,0.036058664,0.06836182,0.05644131,0.1403805,0.07477334,0.08484725,-0.02714895,-0.07264508,-0.073550485,-0.07886931,0.0063891,0.06698547,0.088166185,0.11774097,-0.046319123,-0.05585644,-0.13781478,-0.24232255,-0.13412869,-0.09556685,-0.0087571405,-0.15784788,0.032401137,-0.026517518,0.028599618,-0.04228892,0.04165101,-0.14706136,0.012883741,0.17093325,-0.10480287,0.05299707,-0.00251561,0.00724245,-0.016202519,0.017862143,-0.02603397,0.13477968,-0.044202425,-0.048169956,-0.1470338,-0.17365927,0.07816203,0.0064885095,0.22053841,-0.12785417,-0.0008557647,0.0061028986,0.10648736,0.10275146,0.11201717,0.061443746,0.10487682,0.098005615,-0.113010675,0.11281092,-0.15384376,0.10579172,-0.044558164,-0.028726755,-0.20194905,-0.04210695,-0.11667403,-0.1595477,-0.0651067,0.13946295,0.037051514,0.12833895,0.034565307,-0.16427289,-0.024941733,-0.029958775,-0.044022463,0.124312304,-0.1990106,0.0069462615,0.061746974,-0.029464783,0.12452772,0.08658041,-0.10286518,-0.059170127,0.11081182,0.17306961,0.08766465,0.005081652,-0.024694862,-0.00595937,-0.030505601,-0.15973099,0.15583123,0.07210268,-0.0021930165,-0.05192836,-0.01106249,-0.070713334,-0.104048535,-0.087190226,-0.03913903,-0.29516155,-0.073221825,-0.10723092,-0.043264613,-0.006656327,-0.04003323,-0.28074744,-0.081375174,-0.032706317,0.053705297,-0.07562857,0.08971156,0.09671916,0.14679138,0.12359978,-0.05325653,0.048375968,0.0151065625,-0.013016597,-0.19156814,0.1557132,-0.085470535,0.04717343,0.14650844,0.065107115,0.027887968,-0.06822573,0.062781416,0.0971847,-0.0735033,-0.041043334,0.06348545,0.11693829,-0.06470365,-0.060748752,-0.00072488445,0.23593354,0.17655995,0.10879271,-0.027825207,0.016687676,0.00019026377,-0.008540932,0.14625217,0.07240932,-0.027302427,-0.13696456,0.026762245,-0.14648493,0.09995116,0.07001949,0.27371955,-0.037839003,0.0066150147,-0.008566269,-0.0073081027,-0.008449781,-0.028361551,0.021717504,-0.16096906,-0.2553007,-0.016219053,-0.14035434,-0.074695505,0.16998251,-0.10073201,-0.056359686,0.03662921,0.06955958,-0.10140237,-0.07558711,-0.02115689,-0.18225594,-0.12713183,-0.054619938,-0.09085302,-0.046323884,-0.18582614,-0.02038364,-0.00952171,0.15960966,0.040302176,-0.19883111,-0.04460621,0.14328681,0.068652846,0.101398356,0.119676836,-0.192644,-0.117119685,0.16328815,-0.011695786,0.008289054,0.13644972,0.18928331,-0.10597607,-0.06189132,-0.13051163,0.23519485,-0.09624918,0.021496518,-0.07372851,-0.12895454,-0.045041032,0.0928916,0.036246043,0.18624939,0.12633249,0.023666417,0.052445944,-0.047446188,0.052699197,0.042288393,0.03945433,-0.026036395,0.06524516,-0.2711485,-0.067596,-0.11656261,-0.020038672,-0.10897248,0.05844153,-0.01789526,0.07578062,-0.015125926,-0.07252069,0.168955,-0.02654461,0.032669153,-0.018907664,-0.08081349,0.02383854,0.14491382,-8.334529e-05,0.06926687,0.052705098,-0.0068641864,-0.1273999,-0.051584646,-0.012813029,-0.036591303,0.084196895,0.22651592,+1
else,0.062891744,0.8140806,-1.9505349,0.12831841,-0.15675196,-1.4965744,-0.17916445,1.0303049,0.5475054,-1.0146862,0.30863664,-0.7716738,-2.1605928,-1.3838125,-1.0021639,0.9524018,-0.31213596,-1.1898924,0.17290382,0.82148176,-0.9631246,-0.31064582,-0.65813386,-0.8231724,-0.11773216,1.1508787,0.7951149,-0.042587105,1.1461928,-0.523136,0.6903554,-0.9612508,0.90313405,0.8594353,-1.6006649,-0.4900309,-0.59256595,1.0666524,-1.2836884,-0.58601785,-0.44284928,0.76833546,0.014457383,-0.5984929,-0.10295644,0.8035522,-0.6578994,-0.32364127,0.9456797,0.34691882,-0.15952331,-1.2761875,0.1636046,1.1383027,0.5978872,0.028896898,0.41888684,-0.49354112,-1.8988394,0.22217214,0.64623415,0.9512102,-0.6132189,-0.75091285,-2.1499,-0.25906467,-1.2819645,-0.2951827,-0.006677966,-0.363384,0.7601107,-0.06554811,-1.4963369,0.59214437,-0.1263522,0.90478235,0.22851402,0.23324637,0.4692664,0.12913732,-0.044812493,-1.2747638,-1.3030604,-0.29079518,0.29002124,-1.4682977,1.2833416,0.14429432,0.28107455,-0.5215653,0.35194665,0.3229834,1.3331816,-1.1595236,0.22891177,-0.3161123,-1.3555373,-0.51199776,0.19353934,2.3793344,-0.24653663,-0.1015791,0.76439893,0.47380298,1.681533,-0.99032915,0.18100756,-0.12272083,0.39675984,0.20245178,-0.07978283,0.7528957,0.40786013,-0.22219475,0.574868,-0.61122584,0.5296073,-0.010793365,-0.91368407,-0.43656817,-0.78105515,-1.169564,1.0596646,0.9649212,0.88988143,0.3757298,0.16145554,-0.3490231,-1.3387907,0.0076060835,0.46743035,-0.8283987,0.61023355,0.4476801,-0.55742234,-0.7848462,-0.10432829,0.56904745,1.2282703,-1.0782576,-0.14225757,0.55241305,-0.023112934,0.5744035,-0.094294,0.09964995,0.8548355,-0.74310815,-0.6436762,-0.5764945,-0.052872583,0.43908292,-0.75799555,-0.9375633,0.1774146,0.90776885,-0.010571876,0.30406088,-0.27830827,0.49008667,0.7974208,-0.24800847,-0.25732684,-1.8612986,0.2552785,0.40157825,0.79290557,-0.48644385,0.7743276,0.7360775,-0.89857966,1.0527953,-0.6791216,0.9055238,-0.4998276,-1.1800044,-1.2266629,0.2581526,0.5137015,-1.367736,1.5307304,-1.3810227,-0.23817721,1.005394,0.55950505,0.06141673,-1.1861267,0.30650893,-0.602772,-0.37451097,0.8558251,0.4988378,0.70838314,0.76133174,-1.3837365,-0.18053398,-0.26651752,-0.009849346,-0.6202369,-0.6458245,1.0538445,0.06507478,-0.4768295,1.0502919,-0.63575345,0.11765598,0.6448942,0.08977762,0.25765443,0.53182715,0.0084434515,0.55737394,-0.14746423,-0.14100924,-0.34326687,0.6522053,-0.87456214,-0.6741676,0.1507952,2.5282,-0.7820475,0.230432,-0.1947668,-0.042018857,-0.37679467,0.74260247,0.38604805,-0.4427245,1.1335709,-1.469244,-0.6203146,0.030449964,1.1645286,0.26378056,-0.06669263,0.037412968,0.3966224,-0.05461168,-0.033440962,0.019590225,0.43244323,-0.1349879,-0.39353132,0.0622099,0.6938222,-0.07348087,-0.29041082,-0.5321121,0.84998745,-0.27527362,-0.09240863,0.9187348,-0.5514655,0.22898519,0.70012856,-0.07016292,0.39314666,-0.31934404,0.114902996,1.0276322,-0.39754698,-0.79746336,-0.21707813,-0.053765,-0.8548303,0.64379704,-0.047521915,-0.6128476,0.6886242,0.18938538,-0.3347643,0.056994557,0.10589385,0.077314675,-1.1216823,0.17567518,-0.21019928,0.2159039,-0.7593767,0.36103344,-0.015329006,0.87295765,-0.2918224,0.5863151,1.1871475,0.8338247,-0.7589652,-0.1660437,-0.6354821,-0.3366696,-0.2762761,1.069829,-0.26990494,-1.4257343,0.08449616,0.6486441,-0.4410873,-0.95303196,0.48729658,0.4566937,0.4740265,0.30803588,0.78667986,-2.0350466,-0.19960119,-0.6250768,-0.8663245,-0.33891502,1.0429448,-0.121371396,0.63310796,-0.5729947,-0.44443965,0.6163525,-1.0126895,-0.44808456,0.6502476,-0.2816504,0.82844275,0.65715367,-0.38144955,0.6173879,-0.3888079,1.1703961,-0.59499407,-1.0484228,-0.31922865,1.1033907,-0.38865077,-0.09669284,0.97372293,0.76598406,1.2293063,-1.1216356,-0.64027405,-0.7423804,1.6540478,-0.6463951,1.2861847,-0.19379325,-0.5807514,-0.94183713,-0.057350606,0.8660256,-0.070784695,0.14573854,1.0871878,0.10859793,0.9704453,-0.07969258,-0.123965584,0.26658642,1.4052693,0.087810606,-0.59491086,-0.1638129,0.6170616,0.1695715,0.6458584,-0.24808519,-0.14143446,-1.3477174,0.69878674,1.7788498,-0.10998042,0.038419273,0.056219444,-0.23027916,-0.8423065,1.1342076,-0.36602223,0.13067253,-0.069240466,-0.7589555,-0.2792171,1.0543337,0.2821339,0.29464585,0.97835356,0.1616581,0.078240685,-0.22364695,-0.06207159,-0.303317,-0.052073505,-0.20656754,-1.1331818,0.1915509,-1.2518947,-0.16615143,0.35576105,-0.040691447,0.076531775,-1.0015204,0.39100307,0.39329264,-0.3341673,0.3715988,0.44709992,0.7088701,0.3834631,0.25031757,-0.35567877,-0.031344064,0.6191954,-0.08664868,0.16226107,-0.29282194,-1.4694505,0.9024233,1.1784995,1.3038098,0.06488507,-0.6165061,-1.4131188,-0.2942927,0.14618288,-0.08794862,-0.12148179,-0.1679053,-0.14221382,-0.03257436,-0.27309483,0.19296563,-0.3804979,0.78039306,0.6554823,-0.22612017,-0.93065476,-0.17257474,0.31817433,0.6727729,-0.0027670886,0.58062506,-0.140717,0.6082565,0.016067725,-0.2137741,0.94133,0.022768578,0.64010596,0.29438797,1.2013092,-0.055834055,-0.25843665,-0.050623327,0.41773975,0.6496816,-0.55958587,-0.14393218,0.11160672,0.73343796,0.07555091,-0.15382332,-0.68863213,0.2976791,1.8243182,-0.22233471,-0.7286689,1.4217601,-0.22147213,0.23558366,-0.19289322,0.9073274,-1.4657083,-0.30178955,-0.01167018,1.3382726,-0.019105203,0.22558443,-1.2111994,1.532343,0.4438472,-1.3045312,-1.014851,1.708328,-0.6388302,-0.19959591,0.8350325,-1.4113673,-0.1568017,0.30728108,-0.12062423,-0.946494,0.1951452,-0.56859714,-0.7393185,0.5821783,-0.07723556,-0.06894142,-0.51339036,-0.60391545,-0.3825164,0.39455837,1.6466624,1.6759416,1.1421604,0.656045,-0.5710099,-0.26037306,00
bland,0.048654065,0.07173817,0.6267129,-0.075506605,-0.5230587,0.520876,-0.068206005,0.1405983,0.5613766,-0.013434244,0.59634334,-0.20780167,0.72713506,0.09926662,0.8654572,-0.51756,0.21222629,0.12497726,0.59959114,0.449952,0.5678911,-0.5754473,-0.04820796,0.04127877,0.90782344,-0.57106227,-0.5504056,0.51483005,0.1900281,-0.14903788,-0.12673676,0.3449036,-0.03729982,0.28178298,-0.2373989,-0.15582688,0.2914842,-0.54039526,-0.18869364,0.12012207,-0.069221154,-0.6645631,0.5528629,0.16013536,-0.23279732,-0.109811306,-0.08321273,0.14060846,0.2991052,-0.03538839,-0.18220945,0.011573035,0.18297844,-0.09406427,0.26829103,-0.1632126,0.36942717,0.22732992,-0.045285784,-0.100837536,-0.21532778,0.25152087,-0.25477383,-0.16510531,-0.23320536,-0.26495227,-0.02744543,-0.36610383,0.26311982,0.100513846,-0.2154313,0.07334367,0.2555321,0.519519,0.3566651,-0.58249706,-0.32972193,0.045566805,0.17233884,-0.6370041,-0.2179044,-0.2261569,-0.50964296,-0.2809044,-0.4611883,-0.41641155,-0.101008624,-0.11942736,-0.41851294,-0.03869688,0.018711945,-0.059303958,-0.15775229,-0.14909287,0.23450933,-0.13059467,0.1391292,0.40522766,-0.079085805,9.662857e-05,0.3431373,0.036821015,0.26682007,0.6430878,-0.20448193,-0.4314803,-0.23765196,0.1861195,-0.12944628,0.32289916,0.102673024,0.24495116,-0.062418696,-0.7748377,-0.27795124,0.27216947,0.048666455,0.6002649,-0.33963796,0.43554974,0.13589932,0.06509746,0.36606959,-0.36442924,0.17527887,-0.36722216,0.19943033,-0.5878071,0.1990387,-0.01940794,0.36090124,-0.24858835,-0.16246527,0.07095301,-0.15354954,0.17856166,0.19945078,-0.22248256,0.08880574,0.5220142,-0.011456132,-0.102524795,-0.11233379,0.64428526,-0.57154006,-0.21858072,-0.1498364,-0.27348378,0.6519535,-0.24319822,-0.15112019,0.022243531,0.08462815,-0.32347077,-0.43294898,-0.67168087,-0.0644003,-0.1279015,-0.59696525,0.028683,0.004601077,0.040894963,-0.5977185,0.3152056,-0.20724943,0.3909298,-0.027599452,-0.29446974,0.62447274,-0.22262836,0.33012855,0.035555944,0.030598491,0.29216245,-0.20918724,-0.27202702,0.28281435,0.207372,-0.3840811,0.6513162,-0.1723002,-0.23384954,-0.174158,0.67118305,-0.17377572,-0.2252206,0.03209857,0.11381673,-0.2955077,0.35508242,-0.33375764,0.6459449,0.059625287,-0.37092918,-0.046942577,-0.05716282,0.3045015,0.1781409,-0.24849509,0.5768342,0.13667528,0.060956515,0.088495895,0.61287636,-0.16222197,-0.75839716,-0.20359795,-0.14742506,0.063042305,0.21423003,-0.028360335,-0.5709299,-0.22612906,0.32597882,-0.069188766,-0.08009864,0.18242358,0.37215343,0.13019401,-0.27325824,0.4230641,0.033037115,-0.41725525,0.077148825,-0.18763207,-0.3713216,-0.45548764,-0.5604917,0.016569046,0.08161419,0.027455226,-0.06895475,-0.047775615,0.21478605,0.31443816,0.12702595,0.58603543,-0.27228808,0.39519408,0.5770254,0.5605451,0.4246614,0.59407157,0.22677448,0.18061839,0.00095668447,0.9134584,0.2444673,-0.6763307,0.037363052,-0.008104164,-0.21166314,-1.075131,0.53802085,0.058796175,-0.05139502,-0.15123777,0.009154084,0.103784144,0.5205558,0.054551333,-0.19462922,-0.30937946,-0.25625178,-0.31206882,-0.0061375494,0.5844539,-0.6241112,-0.25263143,0.8997663,0.1964231,0.49896517,-0.2152554,-0.29447064,-0.08683145,0.08223893,0.024179775,-0.20748311,-0.29594907,-0.4993079,0.1665506,0.1840995,-0.30198833,0.15037757,-0.21944393,0.21315706,0.43301746,-0.16580449,-0.49227357,0.3877458,0.38067153,0.124703035,0.028199825,-0.058431465,-0.61556655,-0.054298304,0.084773675,0.09955462,-0.7725026,0.5278181,0.41057697,0.029253384,-0.05651904,-0.4760336,-0.07951867,-0.08034917,-0.11445128,0.070014134,-0.47241682,-0.062467366,0.21571152,0.2998881,0.05206215,-0.28615773,0.073123,0.29248267,0.20866777,-0.015671382,-0.4956634,-0.34754112,0.65120614,-0.51902616,-0.20496596,0.45751733,-0.29427657,-0.048494015,-0.1330272,-0.4409492,0.61145353,0.51885295,0.005163572,-0.05992041,-0.40469247,-0.037552692,0.088580124,-0.10278265,-0.09593666,0.38116214,0.62695307,-0.6128979,0.25223312,0.1399486,-0.40863755,-0.58261585,0.0049273553,0.5683033,0.25418025,0.37363172,0.8033418,-0.6215171,-0.063798204,-0.41757062,0.17694546,0.31314945,-0.2870114,0.19599617,-0.051757473,0.16740763,0.41244394,-0.048100624,-0.020379227,0.36165762,0.3100659,0.25447547,0.19132756,-0.11254789,-0.30017802,0.074209824,-0.25837073,-0.02654931,0.45797387,-0.00542124,-0.064473085,-0.051050868,0.14886148,-0.0015206888,-0.39158502,-0.10777061,-0.21975984,0.42335472,-0.26142386,-0.7579177,-0.40940914,-0.020512963,-0.12869373,0.27113792,0.24898674,0.00292383,-0.21463811,0.49263656,0.606219,-0.49908218,0.3490123,0.72089213,-0.09505977,0.47865975,-0.0113328565,0.04385429,0.14044707,-0.15011527,0.57341486,-0.40878648,0.15409455,-0.41766298,0.08668673,-0.049021374,-0.16448745,-0.0044428874,0.072774194,0.15768638,-0.13459478,0.04673795,-0.04245702,0.2816862,0.20857143,0.069838636,0.29907322,0.08431032,-0.08709849,-0.2705315,0.52194536,0.48356682,-0.16984954,0.9037045,0.23328072,0.342725,0.122953504,-0.001413909,0.4743817,-0.39648274,0.26517382,0.34096384,0.8298762,-0.17812096,0.09163401,0.56095064,0.100477464,-0.06930883,0.3344757,-0.5300364,-0.101464055,0.038909055,-0.18003152,-0.65421385,0.066968985,-0.25258678,-0.76981044,0.05336996,0.20610288,0.04186933,0.12677322,0.5130839,-0.6636868,-0.03802359,-0.9107417,0.2540171,-0.27117684,-0.6936935,-0.108640455,0.14769538,-0.987823,-0.24175702,-0.16903661,-0.5055794,0.82632476,-0.7729972,-0.11955553,-0.36300033,-0.47657043,0.08514312,-0.041113228,-0.0718149,0.22076845,-0.40190452,-0.1145586,-0.2280542,0.067600295,-0.07411942,-0.18653426,-0.38044944,-0.15125524,0.68692577,0.24583723,0.55620855,0.3384176,-0.10755621,0.50242954,0.0030047402,-0.23222433,-0.01146404,0.0031404896,-0.050871626,-0.23161119,-0.51632845,-0.31546977,-0.20481133,-0.05143042,-0.05968507,-0.057583585,0.20130366,-1
particularly,0.3922561,0.53907037,0.30254516,-0.56192225,0.60347515,-1.5445993,-0.34279326,-2.2100544,0.37804186,0.3318596,1.125018,-1.0371099,1.5799992,-1.1719781,0.8532176,-0.810037,1.0374783,-0.3341945,-0.1848462,0.9882738,0.57467806,-0.23095392,-0.42300087,-0.7290604,0.25517905,0.122169234,-0.0501434,0.30827755,1.3743936,-0.6962875,0.12866893,-0.67531675,0.71222377,-0.25132793,-0.6674873,-0.63629025,1.57776,-1.1507306,-1.0171582,0.7703367,-0.412122,-0.13146739,0.03910199,-0.20993581,-0.72625643,1.2078311,-0.53421944,0.40444544,0.40542558,-0.2761056,-0.2542606,-0.058648802,0.4398124,0.79735154,-0.039262995,1.5050821,0.7956337,-0.24826503,0.40520594,-0.29839042,-0.5642805,-0.13630658,-0.3063475,0.46582702,-0.3892659,-1.4877613,0.46028322,1.1347317,-0.71122855,-0.34570217,-0.65777147,0.61662644,0.94980234,-0.3692818,-0.66832,-0.9522229,1.6347077,0.4427929,0.5949336,0.7231099,-0.6502146,-0.52635604,1.4573531,0.6525943,0.6775434,-0.3772177,0.50068086,-0.6484905,-0.26585972,-0.03437173,0.2268431,-0.109105945,0.041114602,0.61144394,0.94888276,-0.36457375,-1.1361457,-1.953708,-0.9792791,-0.109243006,0.75292116,-0.93725085,1.0682272,-0.033074528,-0.008832846,-0.78468066,-0.2928759,-0.60423326,0.9955887,-0.5937512,0.035929337,0.018569145,-0.5265952,0.67398834,1.118201,0.72744817,0.037867296,-1.0037831,-0.35433757,-1.5967466,0.02117185,-0.83552307,-0.5538916,-0.64365226,-0.43375248,-0.27204034,0.2141556,0.9021216,-1.0725137,-0.05070801,-0.7562944,-0.47626594,-1.9174765,0.17727038,0.40638334,-0.9680744,-1.0980817,-0.3721218,1.6781356,-0.9549622,0.32815212,-1.8941361,-0.19383314,1.4284822,-1.3991234,0.014710259,0.24041034,-1.5190836,0.6251679,0.15646657,0.6073989,0.5687643,-1.053165,0.78641576,-0.022883613,0.6548777,-0.4547994,0.031364687,-0.254058,0.70839244,-0.28836453,0.015832182,0.46731105,1.1283789,0.47021404,-0.91557634,-0.16089594,0.3890272,0.57654303,-0.47453985,-1.1496792,-0.21260272,0.0054668505,-0.87008154,0.3697554,-0.42098743,-0.6860908,-0.19165623,0.0011890099,0.34151062,-0.36673814,-0.4222057,1.1405791,-1.8766088,1.2176926,0.19479255,0.08573515,-1.530462,0.01924531,-0.02824811,-0.023250015,-0.51334804,-0.3958082,-0.22426714,0.5611662,-0.74023676,0.12416573,-0.05574851,-0.96476597,1.0686343,0.5865506,-0.050634794,-0.0009148424,1.1579084,-0.32139263,0.4996017,-0.20244998,-1.0955193,1.4357677,0.24734566,0.8679536,0.065975875,-0.69237536,0.30364245,0.14532882,-0.26788408,-0.75915533,1.7789465,0.50063974,-1.0391912,-0.1100657,0.29417866,-0.13615842,-1.2599211,-0.5407533,-0.59130067,-0.9180199,-0.20530114,-0.029266857,-0.8028345,0.72443324,-0.1344001,1.2117219,-0.38684225,0.7485697,0.60989815,0.046844743,-1.4414016,-0.37840083,-0.515996,1.6600409,0.5051076,-0.35355824,-1.8362118,-1.3225273,-0.12913819,-0.67715806,0.05720571,-0.52564573,-0.08694889,-0.4804146,-1.3361675,-0.54303414,-0.341705,0.5152805,1.1969819,-0.8647754,-0.9477482,0.2825561,0.2190217,-0.42996368,-0.11702367,1.4988965,0.44446942,0.6576394,-0.04851946,0.80939144,-0.65600353,0.5951816,0.9631046,-0.50513184,-0.110498205,-0.87085116,0.096265525,-0.9955076,1.388823,-0.39391622,-0.54896486,0.21333382,-0.3461012,1.0011063,-0.6317471,1.0056309,-0.10260267,-1.2019017,-0.39291617,0.7351857,1.1538324,-0.2686505,-0.86540866,-0.59880835,-1.3223809,-0.3391916,0.7758992,-0.010600895,0.508258,-0.45624775,0.46190745,0.23482993,-0.6414108,-0.035431318,0.84313935,-0.76373065,-0.4844231,-1.0305237,-0.5179973,-0.1936612,-0.4022388,0.70959425,0.68399155,1.0053899,-0.5110077,0.66379,0.18794677,0.116257764,0.20691119,0.40415376,-0.41974434,0.9552332,-0.49037322,1.2615767,-0.43649796,0.24509156,-0.27727526,0.6037478,0.9895679,0.072648376,-0.67073935,1.9187684,0.18329367,0.54700637,1.1309888,0.027248632,0.7073893,0.53026694,-0.08130966,0.715863,1.0366184,-0.88097847,-1.1069162,-0.36725938,1.0515213,-0.0041519087,0.1419942,-0.09034863,0.5812584,-0.27299353,-0.569068,-0.036413785,-0.53679246,0.28436902,-0.28788927,-1.165253,0.23981369,-0.0837619,0.06725438,-1.133728,-0.5624521,-0.4969485,-0.4346297,0.29126313,-0.009964548,-0.18869248,-0.8532657,-0.023408644,-0.67868054,-0.7583087,-0.19627209,-0.47461694,-1.4906007,-0.62333167,0.89677703,0.12679844,-0.30969575,-0.24409135,0.56388223,-0.70388454,1.0817035,0.366318,-0.88675565,0.48020202,-1.7293595,0.36913288,-0.76761293,-1.604201,1.7655077,1.4054251,1.3923763,0.09835368,2.04902,0.30239385,-0.033700705,0.2610924,-0.3290145,-0.04908793,-0.5075004,-0.2817404,1.2898937,0.08942188,0.6952351,0.9470603,-0.21003966,0.22452202,-0.6476092,0.59495443,-0.74561733,0.21441664,0.4808048,0.6223692,0.6269875,-0.32018465,0.706232,0.2042051,0.53132635,0.09068666,1.2380916,0.34074938,-0.35474136,-1.3952849,1.1211427,-0.42098048,-0.054454044,-0.19727755,0.32147,-1.6235507,-0.39479238,-0.58129215,1.3221909,0.049920626,0.3427059,-0.24347018,1.3163207,0.120968565,-0.6854981,0.19063841,0.65430164,-0.3179392,-0.5212076,-0.49147332,0.5557685,-1.2009212,0.4896362,-0.2524546,-0.18684849,-0.27998444,-0.17815673,-1.01462,-1.2733788,-0.51755786,1.6036441,0.42712215,0.361616,-0.4890904,-0.46938762,-0.24617864,-0.18499471,0.17735296,-0.12281459,-0.08371898,-0.099306606,1.2709452,0.713311,-0.54635346,-1.2034453,-0.2263937,0.40663078,0.2582417,0.062203437,0.24009755,-0.2116075,1.1557593,-2.7135713,-0.047536183,-0.7725822,-0.22370748,-0.8099152,0.4921802,0.27541712,-0.18588233,-0.5394466,0.9925117,-0.4991147,0.18208398,-0.69325584,0.863181,0.33808404,0.7241048,0.5669372,0.34124613,0.30274478,-0.3929562,0.2113203,0.89320654,0.07311728,0.65173864,-0.68743336,0.9164391,0.040128455,-0.47627082,-0.03402785,00
correct,-0.9968001,-1.694252,-1.1767335,-0.6020401,0.47359496,-0.6129722,0.20611778,-0.45853773,1.4754219,0.20120864,-0.19103654,1.1404905,-0.4180375,0.39151543,0.9757431,-1.2227757,-1.5312916,-1.528774,-1.365103,-0.021539047,-0.13499203,0.45918703,-0.4076436,-0.35838917,-0.030886356,-0.56799936,-0.5657848,0.4668183,-0.63074756,1.1053717,-0.8594474,-0.5110011,-1.250487,0.71923566,-0.06306832,-0.21230438,0.09975002,-0.31557807,-0.9336864,-0.35765544,0.53887486,0.86838686,-0.34846103,0.86497104,-2.2474358,-0.39793184,1.3361977,-0.931168,0.5688043,0.35814622,1.3469218,1.3609046,-0.17658402,-0.27561843,-1.1509475,0.34374928,-1.3677274,0.028595557,-1.0493906,-0.510955,-1.1556728,0.3576842,-0.4832208,0.89692664,0.12775148,0.3673114,-1.1907383,0.37222737,-0.63924277,-0.19172919,-1.4826009,1.5622911,-0.21104094,0.60540265,-1.2602881,-0.7090275,0.68160045,0.4384631,-1.878807,0.083764665,-0.64179397,-0.6663134,1.0666258,0.36100635,0.30178759,0.8732629,-0.27498117,0.641077,-0.50048965,0.46115762,0.6971013,-0.003875075,0.23644117,-0.6095064,-0.26280323,0.12310269,-0.96168965,1.173114,-0.084922895,-1.9818072,-0.13368042,1.4579244,0.41937476,-0.2540778,-0.2183333,1.0751755,0.08378427,-1.296496,-1.1184814,-0.6800013,0.47597644,0.31909996,-0.51772594,-0.7532838,0.2960814,0.24129748,-0.94933623,0.3767977,0.09367925,0.6833806,1.1327746,0.27084607,0.84435326,1.533339,-0.899556,-1.425808,0.610359,-0.50100696,0.24435498,0.27647415,-0.5623146,0.7498441,2.1417599,2.4180195,1.0695287,-0.8254064,-0.62868255,0.47090662,-1.0706317,-0.2647383,-0.07869535,-0.67899156,0.7364757,0.45038465,-0.37799203,-0.6944972,-0.108378455,-0.16348197,-0.77930254,0.9049511,1.4752073,-0.090451166,0.63985205,0.17264912,0.14794621,0.08978349,2.1093416,-0.16816358,-1.1753749,-0.4493809,-0.054751903,0.72749376,-0.11276263,0.5696453,0.4528739,1.2404041,0.2642383,-0.34514368,1.3220844,-0.4329053,0.35017845,0.08690651,-0.83390313,-0.27820802,0.15681918,1.0662289,-0.21918528,-0.08659715,-0.19287547,0.2966364,1.5559386,-0.7046499,-0.79827285,-0.22606075,0.24036504,-0.33454353,0.8070381,0.19340591,0.28849775,-0.44127175,0.13007803,-0.4157468,-1.2896636,-0.23127525,0.3264982,-0.49080625,-1.8138226,-0.028469596,-0.17240062,-1.4784895,-0.49550244,2.072326,-0.51810837,0.44197673,-0.3840533,1.214818,0.8438401,0.1329398,0.36482117,1.0410786,-1.3432447,1.44506,-0.39301547,0.26997858,-0.00016562206,1.6819974,0.17599207,0.15519296,1.2191728,0.6846289,-1.0223134,0.71811914,-0.16625366,-0.80616254,0.734122,0.5049535,-0.8628002,1.2469735,-1.0184562,2.5396056,-0.220814,0.04013237,0.99930197,-1.0153413,0.10078795,0.014679899,-0.17886087,0.97125024,2.6433043,-0.45871353,0.06195633,-0.6817823,0.21479583,-0.2625694,-0.27044427,0.145415,0.07738256,-1.6586481,-0.2224202,0.72555685,-0.081620365,-1.2690277,-0.09029207,-0.08448402,-1.7539829,0.7419858,-0.71630514,1.2088536,0.25162703,-0.77525526,-2.0074594,-0.100107856,0.042771414,0.9006216,-0.18296373,0.5158971,-1.0866402,-0.18987334,0.15535018,-0.38960367,0.64096713,-1.0678883,0.5614337,0.73862225,-0.49788645,-0.24547812,-1.4957249,-0.27498844,0.13137932,-0.9160579,0.72760284,0.4659531,-0.64637434,-0.6592651,0.32935697,-0.4329072,0.07356835,1.3026702,-0.8788012,0.59861404,-0.29113966,-0.014493216,0.36715215,-0.2524585,-0.4818078,0.22427294,0.32504642,-2.0933163,0.80321527,0.71136224,-0.2958723,0.10766781,-0.021603188,-0.4970806,-0.48860464,-0.61176616,0.625526,1.3668813,0.66792446,-1.0176467,0.61118,-0.82236445,-1.1464627,0.7626692,0.8642504,-0.10030278,0.43192947,-0.99884516,0.36434558,1.543448,-1.7019912,0.96854717,0.5034489,-1.0401351,-0.20514844,0.73745716,0.87674147,1.4596306,-0.09957756,0.72114056,1.2398376,0.25470892,0.023630137,0.56738937,0.4465748,-0.5336869,0.45040432,-0.6247188,0.6748939,0.9542767,-1.5626832,0.5164755,0.29030105,-0.22797327,1.6877937,-0.9910191,-0.37006593,0.09229802,0.3230555,1.2876916,-0.014248909,0.13800597,-1.7330595,0.37660554,-1.3077339,-0.561056,-1.3927346,0.26711473,-0.09945674,0.34565264,-0.2913256,-0.88366306,1.3793061,0.6139036,0.51139146,0.81771356,-0.06390076,0.6628557,-0.40651208,0.62120074,0.2212313,-0.5884258,0.038388014,-0.45543706,-1.467968,1.3023471,0.54449517,-0.4609848,0.882109,-0.6130519,-0.33005488,1.4005641,0.0045617535,0.48769102,0.75005907,-0.6187617,0.3420043,-0.61211336,-0.8222114,-0.2296674,-0.17208932,0.7347269,-0.19565663,-0.75622696,-1.195105,-0.49357128,-0.7481738,-0.64704967,1.1326251,0.46313277,0.32575244,-1.0224754,0.11142825,-0.2629812,0.08165465,-0.3935299,-1.9038388,-0.7196651,0.38513082,0.5135619,1.673918,-0.77660877,-0.3701791,-1.8575333,0.7795099,-0.49514475,-0.86282766,0.056092378,-1.1851277,-1.1794826,1.4565884,0.3657162,-0.3596105,-0.3827463,1.4320298,-0.56938297,0.07507535,0.66693133,0.6961549,0.21376848,-0.5379356,-0.090458885,-1.3431437,-0.9076247,1.6620654,-0.45750102,-0.91192484,-1.4979502,-0.47468838,-0.81880116,0.03767079,1.2566422,0.60848624,2.046885,0.9537779,0.6882955,-0.63874084,0.1254232,0.110330224,-1.8401374,-0.22160724,0.033663426,-1.707176,0.78945506,0.9488396,0.35970062,0.7887993,-0.9674641,-1.8665415,-0.82667416,0.20684284,-0.5833516,0.5702402,-0.93000126,0.14650764,0.6443962,-0.26384643,-0.020401664,0.54141295,1.0350692,-0.09954195,-1.4477558,0.09309219,0.6140177,1.7872704,-0.5338158,0.9062822,0.1792699,0.49063167,-0.9298626,-0.35260388,1.6943084,0.68468416,-2.0358002,-1.2662398,0.5771652,0.08698024,-1.0413091,0.5296769,0.67309,-0.8751162,-1.1361338,-0.1672729,0.27185002,0.5183391,1.7819264,-0.99982697,-0.40531212,-0.88288444,0.8706044,+1
exactly,1.0170141,0.1946326,0.7718131,0.54971874,0.35629112,-0.29159108,0.9054346,-1.0152713,1.1845076,-0.7148131,-0.6521793,0.04573509,1.4809747,0.90229833,-1.6952633,-0.6034038,1.765216,-0.2630025,1.7841833,-1.0419431,0.7061121,0.8491602,-1.2865114,-0.122304946,-1.0755723,-0.47967818,-0.4174157,0.46392155,-0.5737289,-0.86370236,-1.0507774,-0.48497686,-1.5992801,-1.7527875,0.2812086,0.040716443,0.18735869,-1.1191232,-2.2211072,-0.73328644,2.1287673,-0.19675972,0.8717026,0.8119938,-1.4767648,-0.014768987,0.5878695,0.32246226,-0.4320295,-2.131828,-0.08118535,0.69930446,-0.04454806,-0.47321326,0.3398786,0.120727934,-1.9788063,-0.88039273,-0.63229287,0.53113675,0.2251462,-0.8366641,1.3727369,-1.0099111,-0.7799899,0.719574,0.9544482,0.060359236,1.2409692,0.6604484,0.21075189,-0.713575,-0.40749666,0.8350402,0.8484834,0.5337553,0.022796055,0.28220606,0.1308661,0.4016933,0.85301274,0.6421718,-0.09791981,-1.6264154,-0.8950931,-1.0566376,-1.003296,-1.657894,-0.46380264,-0.3231581,-1.0482106,-1.3623309,-2.2404344,1.1170716,-0.7920436,1.7741208,0.24038449,-0.8014801,0.95950633,-0.96978647,0.55600244,1.0701398,0.31642947,0.9899054,1.4373165,0.665098,-1.3742961,-0.19659935,-1.6358559,-0.007661595,0.8031563,0.5143635,-0.6981898,1.3701832,0.26750833,0.41644928,-0.5192773,-0.836147,1.1705823,0.09768776,-0.1131324,0.050169844,0.49091396,-0.5986572,-0.42515466,-0.976624,-1.7485439,0.65524685,0.09741642,1.2501293,-0.705902,-0.7253577,1.2220794,0.8930848,0.101815775,-0.45750964,-0.1006324,-0.7692774,-0.27534646,-1.019014,0.092532046,-0.8586539,-1.0834769,0.24587308,0.48867077,-0.45794758,0.527634,-0.4458296,1.7103695,1.721521,-0.16673791,0.9483098,0.83105963,2.0806372,0.043116875,0.26218486,2.5518577,-0.4693524,-0.30300057,1.3523765,-0.8352162,-0.25189787,0.6412166,-0.5222635,0.041957997,1.454328,1.2216038,0.6792789,0.06312833,1.445813,1.1590017,-1.0763429,-0.7683364,0.59312767,1.1028675,-0.26887724,0.5162316,-1.3832374,-0.534967,-0.5225692,0.05152495,-0.28001606,0.27242154,0.819778,-0.41341278,-0.29164636,-0.8665901,0.79143214,0.35724136,0.2942642,0.40437746,-0.45727718,-1.2843323,0.6181467,-0.39749035,-1.4602047,-0.5620403,0.100087814,0.60267675,-0.53254247,0.0788241,1.6183168,0.410634,0.3842724,-0.474744,1.482363,1.1419216,0.037093714,-0.14986514,-0.43090984,-0.36681432,1.6257588,-0.022943608,1.2471174,0.40618256,0.90035427,-0.6371269,0.07892068,0.3245109,-0.6330719,-1.4634317,-0.8762394,-0.19565715,0.6631696,0.15015613,-1.6018385,-0.29650754,0.4572323,-0.7729343,0.39830843,-0.10296159,-0.4782372,0.44664526,-0.10890701,0.8968509,-0.25835788,-0.65749174,-1.457102,0.12807053,-0.38652328,-0.1884924,-1.2908201,-0.997422,-0.05019278,0.92511123,-0.2936615,-0.95494586,2.0279202,-1.1883008,-0.33761007,-0.16722782,-0.9718373,-1.0518657,-0.54211926,-1.7526307,1.9771775,-0.3202658,2.3689609,0.2913019,0.77880454,0.5543898,0.84379756,-0.92357516,-2.1111162,0.8905973,0.07387163,-0.46633533,0.8636425,0.6773279,1.0135216,0.5516601,-0.29208112,-1.035177,-0.7797209,-0.3705931,-0.7119108,0.03170559,-0.4690237,1.1029826,2.1397173,-0.2208821,1.0350568,-0.09934995,-0.40816253,0.64107853,-0.094465375,-1.4064515,0.43907166,0.4351311,-0.11273393,-0.020236967,1.2639318,0.52498764,0.09287882,-0.6320895,0.70986664,-0.45493257,-0.8099075,-0.54068416,0.023161491,0.06540079,-0.13832396,-0.09201744,0.4868062,0.15056415,0.6564936,1.4143113,1.4054058,-0.45808816,-0.48218304,-0.4413875,-2.1755693,0.20037355,-1.785141,-0.8235805,0.30172613,-0.30364746,-0.33656165,-0.31232393,2.4313147,-0.60990304,0.19086494,2.134469,-1.0372014,-0.14145426,-0.16069101,-0.67374235,-0.6755875,0.6045169,-1.32117,1.2168796,0.6000787,-0.20766102,0.5651977,0.41594094,0.4805645,0.36443064,-0.87018114,0.6703702,-1.5296834,-1.1188408,-1.2622383,0.11622256,0.005933382,1.2699159,-1.552477,-0.60798645,-0.78802884,0.8530549,-0.81957674,-0.5591021,-0.53920907,-0.86435777,-0.5628956,-0.9504495,-0.8565737,-0.75814646,-0.6150525,-0.9671383,0.2863614,-0.5114857,0.1880914,0.8125773,-0.25055686,-0.17073126,1.2316563,0.4951026,-0.9907687,-0.29647854,0.9519682,-0.38439566,-0.9530002,0.69155014,-1.4072568,0.7025508,2.7065094,-0.7751709,0.6907124,0.88930386,-0.49957448,0.5667438,-0.40655163,-1.237066,0.12922412,-0.87129384,0.34219173,1.2350745,-0.50509715,1.125868,-0.35866114,-0.7530131,1.8264953,-1.4479363,0.30218717,-0.8938443,0.06312162,-0.12662481,-0.168188,0.26267427,0.9880909,0.13377883,-0.63842285,1.5056232,0.42269692,1.0455601,-0.22110401,-1.5438159,-1.5242995,0.21668448,-0.8480352,0.06655115,-0.21060607,0.3672695,0.74762446,1.3137964,0.8833975,0.47100085,0.8687488,-0.4165791,-1.3497815,2.108512,-0.17104183,-1.116649,-0.7633776,0.30313233,-0.2041501,0.57579553,-0.20318018,1.1777722,-0.11425819,-0.5362402,0.79826295,0.8735943,-0.9524553,1.7284403,0.5769325,-0.5237664,0.1889294,2.008913,0.18312557,0.23455167,1.5222368,-0.020446459,0.20616107,0.34938106,0.6282112,0.7350339,-0.25932926,-0.8583299,0.36208794,0.752935,-0.96622556,0.4814887,0.049918886,-0.914295,-1.1026849,0.00014464346,-1.4002687,0.47298235,0.8140547,0.1953302,1.0560849,0.42137128,-0.15057814,0.18594304,-1.077914,-0.47661972,0.706397,0.13781896,-1.4142385,0.0121672265,-1.1766512,-0.8381339,-3.6239828e-05,-0.4034402,0.69303304,0.22321749,0.54590493,0.6806514,-0.3169049,0.026600137,1.615592,0.34223747,-0.011265732,-0.91752934,-0.7262298,-0.8094718,-0.72409725,-1.2220699,-1.6823945,-0.07840096,-0.4428973,0.43373957,-1.2371593,-0.77068114,0.46716276,0.42390108,1.4522836,-0.752526,0.38769594,00
