SEED,0,1,2,3,4,5,6,7,8,9,10,11,12,13,14,15,16,17,18,19,20,21,22,23,24,25,26,27,28,29,30,31,32,33,34,35,36,37,38,39,40,41,42,43,44,45,46,47,48,49,50,51,52,53,54,55,56,57,58,59,60,61,62,63,64,65,66,67,68,69,70,71,72,73,74,75,76,77,78,79,80,81,82,83,84,85,86,87,88,89,90,91,92,93,94,95,96,97,98,99,100,101,102,103,104,105,106,107,108,109,110,111,112,113,114,115,116,117,118,119,120,121,122,123,124,125,126,127,128,129,130,131,132,133,134,135,136,137,138,139,140,141,142,143,144,145,146,147,148,149,150,151,152,153,154,155,156,157,158,159,160,161,162,163,164,165,166,167,168,169,170,171,172,173,174,175,176,177,178,179,180,181,182,183,184,185,186,187,188,189,190,191,192,193,194,195,196,197,198,199,200,201,202,203,204,205,206,207,208,209,210,211,212,213,214,215,216,217,218,219,220,221,222,223,224,225,226,227,228,229,230,231,232,233,234,235,236,237,238,239,240,241,242,243,244,245,246,247,248,249,250,251,252,253,254,255,256,257,258,259,260,261,262,263,264,265,266,267,268,269,270,271,272,273,274,275,276,277,278,279,280,281,282,283,284,285,286,287,288,289,290,291,292,293,294,295,296,297,298,299,300,301,302,303,304,305,306,307,308,309,310,311,312,313,314,315,316,317,318,319,320,321,322,323,324,325,326,327,328,329,330,331,332,333,334,335,336,337,338,339,340,341,342,343,344,345,346,347,348,349,350,351,352,353,354,355,356,357,358,359,360,361,362,363,364,365,366,367,368,369,370,371,372,373,374,375,376,377,378,379,380,381,382,383,384,385,386,387,388,389,390,391,392,393,394,395,396,397,398,399,400,401,402,403,404,405,406,407,408,409,410,411,412,413,414,415,416,417,418,419,420,421,422,423,424,425,426,427,428,429,430,431,432,433,434,435,436,437,438,439,440,441,442,443,444,445,446,447,448,449,450,451,452,453,454,455,456,457,458,459,460,461,462,463,464,465,466,467,468,469,470,471,472,473,474,475,476,477,478,479,480,481,482,483,484,485,486,487,488,489,490,491,492,493,494,495,496,497,498,499,LABELS
negligent,0.06524197,-0.33601904,-0.07915346,0.40426627,-0.1755404,-0.06965125,0.13143,-0.05960664,0.19940892,-0.32215905,-0.110806555,-0.1038063,0.08641545,-0.17115824,0.08001858,0.22527954,0.13820894,-0.08622183,0.08891717,-0.1847741,-0.14411743,-0.087423116,-0.3916288,-0.019359661,0.09585061,-0.09274432,0.08209935,0.24999486,0.051117692,-0.070705116,-0.18860646,0.18674974,-0.38517934,0.10678758,0.22311777,-0.1892289,-0.24972373,0.5997307,-0.24402319,0.14293136,-0.07103641,-0.20130663,-0.057476934,-0.256333,0.23420398,0.2101373,0.31764373,-0.2839395,0.05726516,0.13216913,-0.034899026,0.08236983,0.30361518,-0.0742262,0.019679403,-0.21548592,0.12756565,0.39597,-0.18814965,0.27396485,0.031596776,-0.17412446,-0.051152542,0.113580436,-0.21288244,-0.09362305,0.1800549,-0.043151565,0.10023823,0.18621577,-0.36403865,-0.09798227,0.1478105,-0.09530995,0.11393239,-0.0049740705,-0.06405891,-0.10330995,-0.24150585,-0.041878246,-0.2190386,0.25440496,0.07244462,0.2773163,0.37780687,0.19377263,-0.2783087,0.005264314,-0.30148685,0.09601226,-0.18828343,-0.19724216,0.22894116,-0.13781235,0.038324863,0.2782339,-0.07011306,0.24560578,0.24387981,-0.15396705,0.16439034,0.23005411,0.17868984,-0.01334382,0.261433,-0.021484386,0.19412452,-0.005278959,0.057593655,-0.26598555,-0.07036583,0.17876408,-0.15029156,-0.1479306,0.2990241,0.26950607,-0.27376762,0.16785225,-0.037782915,-0.03494661,0.17905988,-0.091230944,0.13386218,-0.2179329,0.13102756,-0.18933009,0.32170403,-0.16172743,0.1419465,0.1767093,-0.11394844,0.14447154,-0.013978639,0.17628184,0.34077206,0.16929483,0.055959634,-0.03807473,-0.00014167375,0.057816893,0.10491996,0.2352217,-0.24389446,-0.4067959,0.28604218,0.06868773,-0.04834327,-0.052059956,0.3239888,-0.30406094,0.25898242,-0.19034865,0.0026723354,0.21234395,0.27348644,0.14152873,-0.10048587,-0.092364125,-0.311092,-0.53682876,-0.21092026,-0.12630355,0.16023289,-0.043271653,0.14374365,-0.1770571,0.027126223,0.2703015,0.2475365,-0.18859915,0.10646466,-0.12299555,-0.14493227,-0.033839535,-0.3089297,0.48801848,0.24492387,0.21399808,0.05459465,0.024801899,-0.21097915,0.2122556,-0.12550616,-0.22313799,-0.300641,-0.026615093,0.041052703,0.07871696,0.1771985,-0.022958515,0.038031906,-0.25779226,0.174483,0.21447887,-0.050619178,0.2578661,0.022448177,-0.42919195,0.47989404,0.11910705,0.25761035,-0.08557293,0.023442183,-0.117350124,-0.3543332,0.01473701,-0.01152388,0.08027543,-0.23702535,0.040684916,-0.1318721,0.120764084,0.08674565,0.41465947,0.14031212,0.48244357,-0.059001997,0.3634936,-0.2547885,-0.08373828,-0.043958504,-0.1499545,-0.18426333,-0.053566195,-0.044076536,-0.13806555,0.1313969,-0.17528693,-0.31607574,-0.016506309,0.1536393,-0.09187664,-0.028700404,0.0016779194,-0.38771322,0.16662341,-0.15588503,-0.2073247,-0.3436976,0.20122473,0.38689503,0.10303955,0.06594176,0.08471312,0.023365058,-0.11528145,0.057300765,-0.2095291,-0.1524774,-0.090501055,-0.16626173,0.20267919,0.03880829,-0.021005236,-0.019771587,-0.16696088,-0.17698707,-0.36049476,-0.20910895,-0.100707695,-0.023451472,-0.16659017,0.12793563,0.0038135028,0.43070906,-0.006198806,-0.25931254,0.19406272,-0.04220071,0.042994093,-0.12807971,0.15899135,-0.188708,0.239437,0.1751961,0.00041191434,0.08787596,0.11944658,0.13673997,0.10714774,0.16420944,0.05125879,0.08571806,0.041425467,0.19115914,-0.18351163,-0.18185687,-0.27112955,-0.11786804,0.10910867,-0.28939727,-0.16552576,-0.1777596,0.18781844,0.05672511,0.0092062745,0.10494988,0.40461582,-0.1456176,0.044233143,-0.10963221,-0.038337372,0.1347439,0.38435993,0.2689449,-0.1438213,-0.28351477,0.0627756,-0.10400595,0.27733767,-0.21043837,-0.058471076,0.08182174,0.10309963,-0.3276696,-0.15419203,-0.1892788,0.33334544,0.1754083,-0.057228126,0.2412643,0.2219678,-0.093577296,0.01771622,-0.07230666,-0.2017792,-0.10858,-0.16410747,0.40706572,0.21437585,-0.15866783,0.12105843,0.2004711,-0.4259477,-0.029941177,-0.3093169,0.18475817,-0.23850453,0.04924473,0.0034227264,0.07185953,0.0911925,-0.12760206,-0.10113973,-0.006107296,0.017088741,0.0956529,0.10109618,-0.3483545,0.3762124,-0.192514,-0.10588412,-0.10646695,-0.39043263,-0.31696686,-0.10255752,0.090994194,0.309227,0.12296194,0.11845312,0.02577717,-0.08038239,0.06069927,-0.10390024,-0.23342568,0.17683567,-0.1935151,0.112080984,-0.17149669,-0.04202182,-0.12310284,-0.01664744,-0.10762204,-0.049193297,-0.035775326,0.030540086,0.12737118,-0.035765238,0.05286006,0.004402657,0.15326615,0.27342495,0.16713996,-0.31513652,0.053378955,-0.09859506,-0.29105133,-0.124989025,-0.06591948,-0.16538574,0.10104852,0.17226534,-0.12161718,-0.09214099,-0.16660191,0.032073684,0.18199508,-0.017695354,0.009080093,-0.026509576,-0.054889355,-0.02931304,0.20188518,0.20789877,-0.14896972,0.12659702,0.13394083,-0.09822692,0.15632172,0.15606543,-0.1416975,-0.0034627363,-0.10186868,-0.1876131,0.016122194,-0.10871455,0.011145152,0.15251939,0.19413066,-0.085919775,-0.293868,-0.13842015,-0.27842614,-0.036792655,0.013379899,-0.08939856,-0.0012376374,-0.0025382123,0.016582357,-0.22244978,0.052005127,0.0759722,0.20417486,0.20286587,0.041537788,0.39846712,-0.15784496,0.1672607,0.09132626,0.1587153,-0.011715761,0.025546875,-0.10266509,0.0982641,-0.03212638,-0.20552178,0.06662844,-0.003606179,0.13474703,0.12183639,0.111207485,-0.23496571,0.03166111,0.04579446,-0.20236214,0.03582962,-0.018835004,-0.042543434,-0.09286481,0.25922996,0.16622576,-0.04351231,-0.15195413,0.23404281,-0.025133342,0.32202837,0.09303757,-0.08337576,0.12965927,0.21441709,0.23557203,0.2763409,0.13791071,0.04439134,-0.16523555,0.322566,-0.11901559,-0.026161503,0.43775395,-0.32949194,-0.2991881,0.27818346,0.31902772,-0.0688419,-0.2180117,0.08189638,-0.008421727,-0.21103449,-0.47131994,0.1072453,0.26842183,-0.11045534,-0.04110846,-0.19738649,-0.15441135,0.112260126,-0.41272333,-0.09746489,0.13075134,-0.14497134,0
unpleasant,-0.24101748,-0.28977773,-0.05205411,0.23320387,-0.1850425,-0.29240915,0.14582801,0.0525154,0.23726599,-0.20982078,0.021984436,0.058678754,-0.0039866054,-0.21872836,0.11846807,0.102163956,-0.1279186,-0.504759,-0.19607407,-0.12130443,-0.16607247,0.11460009,-0.16473678,0.16751564,0.07861899,0.01130791,-0.06207623,0.1385102,-0.2546261,0.020774115,-0.06731427,0.15613699,0.007882541,-0.07008716,-0.02836572,0.18775295,0.16289176,0.33318755,0.2700659,-0.078885,-0.35774335,0.2367099,0.057660498,-0.32420003,0.17380367,-0.04745134,0.048841137,0.30212379,-0.009553018,-0.11385441,-0.032659363,0.19955444,-0.023841452,0.0746346,-0.041608334,0.024084222,0.17813596,0.00689882,-0.28400615,0.07587423,0.18966383,-0.19254954,-0.0087341275,0.0009958287,0.013781746,0.010045241,0.19600254,-0.26837477,-0.28759062,0.19792317,-0.09037939,-0.024848113,0.17562884,-0.36752427,0.20357089,-0.096100405,-0.18085948,0.23135659,-0.070202455,0.12655455,-0.014918413,0.2765767,-0.13856646,-0.12100561,-0.12746997,0.0609512,0.042913485,-0.15169556,-0.17362206,-0.08889247,0.047264457,-0.10405533,0.044121124,-0.1780683,0.08917368,-0.089356594,0.0879033,0.16688643,-0.12082822,0.4296797,0.0683245,0.1536529,0.114146076,-0.014364428,0.14526637,0.13645208,-0.052779928,-0.01518982,-0.14436711,-0.1004994,0.27974102,0.24132675,-0.20044525,0.18934007,0.14941968,-0.10606654,-0.15928032,0.25602835,0.1284505,0.15541023,-0.53746074,-0.44643626,0.063057564,-0.085397705,0.2297143,-0.062275406,0.29283202,-0.25680014,0.037501615,-0.08757031,-0.36479673,0.014393074,0.038331896,0.055109017,-0.06018364,0.12523663,0.03613603,0.037122432,0.06726619,-0.08538363,0.017490778,0.012865917,0.040281672,-0.3111274,-0.036295794,-0.068265624,-0.03381222,-0.04929269,-0.17488205,-0.25063407,-0.17089728,-0.1460495,0.042601857,0.20738834,-0.064340144,-0.09687898,-0.09948881,-0.022482648,-0.015063223,-0.1285197,-0.06727376,-0.021857928,-0.09262846,-0.18413486,0.27504256,0.03480593,-0.12928508,0.05799585,0.13025467,0.014568762,-0.051952664,0.060382765,-0.12013581,0.100582965,-0.2902965,0.12873246,-0.04174849,-0.035690103,-0.023350315,0.023122922,-0.35728613,0.20643196,-0.008291798,-0.071621515,-0.04818921,-0.2248559,-0.07166968,0.07331946,-0.12403216,-0.104217745,0.42404586,-0.12167516,0.22871009,-0.33827487,0.033379685,0.20010184,-0.062077284,-0.1540012,0.43319556,-0.1947832,0.4115827,0.11992791,0.083149225,0.10748169,-0.18986316,0.105239786,-0.13426726,-0.13174607,-0.18362592,-0.11731275,0.021919893,-0.31572637,-0.18957163,-0.06709706,0.05991721,0.32785386,0.077185065,0.0682599,0.24536541,-0.16918807,-0.065886885,0.14404926,-0.13227582,0.19798501,0.14274453,-0.07343859,-0.02636437,-0.089276224,0.16808067,0.24642488,-0.03733739,-0.10831294,-0.12050702,-0.20374402,-0.23778819,-0.097240396,-0.11611695,-0.056984123,-0.24793102,0.37080243,-0.023516217,-0.036774952,-0.068228796,-0.1486505,-0.039197296,0.102152996,-0.42646885,-0.17796312,-0.17759179,-0.037824396,-0.004892141,0.25684795,-0.011871641,-0.09377051,-0.15167582,0.061949804,0.2428707,-0.35288215,-0.1042361,0.104554944,-0.05365516,-0.28876367,0.03878093,-0.17137963,0.09294671,0.14595377,-0.13376115,0.22464304,-0.24990949,-0.043722074,0.24177706,0.08905352,0.03467792,0.098450504,0.1719592,-0.15830782,-0.1453259,0.3052195,0.0017965552,-0.12605265,0.057637632,0.21098693,0.08577773,-0.21863702,-0.019847827,-0.4477068,0.1744079,0.046143737,0.06045231,-0.27737215,0.16430901,-0.020768577,0.00096630433,-0.03407819,0.094454855,0.15852527,-0.32480153,0.41441187,-0.076787695,-0.15872465,0.3140075,-0.021980483,0.08342594,0.40482998,0.52402455,-0.09900328,0.26264134,0.09701379,0.049296208,0.06558104,0.13427177,0.080918334,0.035113405,-0.015400355,-0.15058081,-0.1204498,0.24051337,0.14447123,-0.006613167,-0.11116137,0.16173339,0.04071705,-0.11019579,0.06335442,0.058479033,0.22718003,-0.3657905,0.21146892,0.09611015,-0.12128722,-0.1604976,-0.039264385,-0.054784756,-0.1503734,-0.044489685,-0.24111018,0.10582427,0.05997964,-0.043847278,-0.027922621,0.06893942,0.17469047,-0.37267497,0.11948391,0.03674033,-0.0070893723,0.22527418,0.19732985,-0.11509124,0.3778655,-0.04255957,-0.09562912,-0.07366464,-0.029132102,0.1328849,0.15970849,-0.13102236,-0.35553938,0.3244582,0.2763839,0.023254512,-0.14465803,-0.21845454,0.014294767,0.06522365,0.055554956,-0.09001619,-0.13934763,-0.4584666,-0.13639723,-0.041089926,-0.0771732,0.1368928,0.21021225,-0.38508576,0.17048082,0.014246618,0.19322085,-0.044516064,0.251929,0.048766457,0.3410072,0.022949306,-0.12827598,0.07915127,-0.17449676,-0.12867458,0.09053931,0.01983354,0.019295283,0.10367816,-0.030985298,0.28954685,0.0072076106,0.13936289,-0.0879966,-0.20450689,-0.2184739,0.2988989,-0.023454685,-0.029518243,0.03836779,0.24015757,0.09589007,0.05139414,0.029930701,0.004920145,0.03698239,0.053841833,0.004637372,-0.3621897,-0.02112652,-0.14444399,-0.067902185,0.061756663,-0.0862293,0.25588253,-0.12938845,-0.017488627,0.07896861,-0.20644537,-0.31179097,0.08159341,-0.2610561,0.3859542,0.055142064,0.054923903,-0.019744977,0.10945851,-0.038886506,-0.14054708,-0.023137953,0.1498365,-0.15345348,0.19112319,0.30637124,0.07284439,0.124354035,0.31394687,-0.24162678,-0.21002458,0.10251143,-0.08544518,-0.14504692,0.14114909,0.07618658,-0.2595342,0.29606235,0.061733227,0.08289225,0.23891233,0.3258758,-0.0064780647,0.056995243,-0.27021098,-0.19826944,0.08232743,0.22129461,-0.057992425,0.11824503,-0.11662754,-0.1702606,-0.16710225,0.14100668,0.10772527,-0.094745874,-0.008202133,0.009743111,-0.19340156,0.17607678,-0.028332982,0.10280825,0.14152159,0.10016123,0.12917162,0.18255948,0.13676198,0.181908,0.4305955,-0.20616,-0.09975732,0.0011437809,0.17227793,0.1353284,-0.00033367478,0.24815758,0.11449067,0.0071514137,-0.37811407,-0.08503528,0.19283411,-0.12390096,0.031710677,0.07903043,-0.055112515,0.31198856,-0.4013868,0.020456908,0.07980396,0.03140725,0
amazing,-0.13438463,0.014787256,-0.02366281,0.07509723,0.021338966,0.16259325,-0.021808254,0.098688304,0.11038336,0.099781565,0.031950563,0.06777048,0.13992226,0.27983987,0.13088721,-0.17361812,0.16313027,0.09287605,0.19075517,0.041662488,-0.14775333,0.007898377,-0.025069084,0.040688895,-0.094062634,0.016124504,-0.019654607,0.06731547,0.3024508,0.012710338,0.2812572,-0.1969525,-0.07987861,0.17355715,-0.037359778,0.1326155,0.17616516,-0.0032839144,-0.1395664,-0.2038473,-0.17515099,-0.08243683,-0.02139927,-0.021576548,-0.25429502,-0.14689946,0.0010070269,0.07146867,-0.2824626,-0.25242043,0.012202002,-0.10029639,0.026426874,0.1320383,-0.096048735,0.07009553,0.09767867,0.17084853,-0.016275413,-0.1416853,0.020939535,-0.18007563,0.043051325,0.16708437,-0.3967114,-0.1494538,0.23151186,-0.007242953,-0.01414658,-0.10274154,0.014153998,0.071825564,0.13222472,0.11230326,-0.07519643,-0.092098184,-0.48024163,0.026759354,-0.09215731,0.015146769,0.1081491,-0.04839115,0.08555186,-0.14342734,-0.20327096,0.15885787,-0.0007036469,-0.039550312,-0.023671739,0.0636476,0.09948925,-0.19556399,0.087136894,-0.028777936,0.10937399,-0.20054533,-0.0037094264,0.03183348,0.03497372,0.07102895,0.021683874,-0.030861078,-0.02991252,-0.07381703,0.1680503,0.041932132,0.18128757,0.039587628,-0.104006514,0.021164473,-0.08283869,0.14982982,0.05957845,0.122114524,0.14910845,0.1510076,0.31369305,-0.023141792,0.15011662,0.1903086,-0.34951505,-0.18358803,0.07538958,-0.02765501,-0.11354966,-0.19915675,0.14837576,-0.10862257,-0.13369063,0.21694112,-0.19809175,-0.013232409,0.050631154,-0.049866866,-0.02838723,0.14293921,-0.29610038,-0.1395367,-0.03811989,0.22193108,0.27514032,0.124587305,0.029005209,0.111056864,0.12899694,-0.059917968,-0.24670628,-0.07020405,0.10615779,0.19362004,0.11078279,-0.23512122,0.0796377,-0.15081832,0.14939657,-0.11929695,-0.14570841,0.25201133,-0.02129035,-0.044547386,0.14032741,-0.12989372,0.08517564,0.04875979,0.08386194,-0.06742804,-0.054063715,0.06709463,-0.20703198,-0.39843753,-0.07177058,-0.17577507,-0.01667087,-0.019370032,-0.044859298,0.16743632,0.039753966,-0.16671135,-0.04784674,0.06656782,-0.123689696,0.120038144,0.02933971,0.106234714,-0.025825528,-0.23285364,-0.118154034,0.11608813,-0.16397993,0.2602014,0.08830187,0.09399849,0.29594964,0.035208482,-0.10715733,0.18584132,0.3142803,0.15009508,0.13048998,-0.08121884,0.06651903,0.069708854,-0.020627439,0.07397828,-0.08253649,0.12495241,-0.20541398,0.15009068,0.011303632,0.051316883,-0.0288716,-0.09815864,0.010983249,0.16990493,-0.05325155,0.16043495,-0.079579204,-0.0727473,0.22721422,0.060518146,-0.26974326,-0.15046704,-0.06567175,0.04225004,0.31619158,-0.015533215,0.099862,0.14271508,0.045372304,0.074827954,-0.035611283,-0.09596952,-0.253602,-0.05389777,0.14741465,0.12208011,0.050883364,-0.24298908,-0.18897642,0.07582374,0.14733249,0.24933241,-0.040724494,-0.013596209,-0.20708528,-0.048261657,-0.07695971,-0.23226508,0.15682709,0.07594246,-0.08686497,0.21647912,0.023600278,-0.045644253,-0.13560061,0.03419332,-0.049145278,-0.2410213,0.17685929,-0.37064672,-0.17949869,0.15222007,0.044016037,-0.05626171,0.14477018,0.073594525,-0.13134012,-0.01638969,-0.07095651,0.09350613,0.10532513,0.06856356,0.09378127,-0.0026432818,0.08572173,0.031834226,-0.2333476,-0.11307251,-0.069021374,0.07007199,-0.12727147,0.032987818,-0.040081277,-0.19646439,0.21020918,-0.06677731,-0.004616482,-0.0060271793,0.2801661,-0.108896635,0.006859587,0.2839465,0.102878205,0.024507431,-0.034458134,-0.06735861,-0.0058688195,0.03916144,0.12739983,-0.03965018,0.05888073,0.09480285,0.19037281,0.15621884,0.10978079,0.045589473,0.10174811,0.0010573365,-0.17292845,0.2716824,-0.23425029,2.1546435e-05,0.093498185,0.0003577787,-0.109369,0.04747238,0.14482597,0.121519856,-0.030109478,-0.055144966,0.055011358,0.036070004,0.057569865,-0.3493959,0.14774166,0.16095062,0.06364991,0.11597148,-0.05807632,0.09634231,-0.0028204666,-0.042656306,0.0847045,-0.010199206,0.004961041,0.108090386,0.39332762,0.009259874,-0.13575938,0.08185694,0.055646252,0.1880728,-0.26311818,0.019143255,0.29212505,-0.12189589,0.3929591,0.1233434,0.03952956,0.12952402,-0.05131583,0.0057224995,-0.06449288,-0.072351374,0.064518064,-0.074749105,0.09682509,-0.053653855,0.22587524,0.058471713,-0.08662178,-0.1917118,-0.06054314,-0.15556489,0.07254986,-0.08900889,0.11580623,-0.11501807,-0.018335834,-0.122321,-0.023782196,0.11470536,0.12587285,-0.068026505,-0.044467088,0.1490521,0.10011624,-0.00654817,-0.09518814,0.25041902,-0.07420187,0.39152116,-0.020817863,-0.004016653,0.19091041,-0.19366914,-0.16906434,0.0969511,-0.048301883,-0.14066203,0.3107031,-0.1617067,-0.26480365,0.009124089,0.14371128,0.0396772,0.069204845,0.18889126,0.052761573,-0.22781943,-0.11197183,-0.16748108,-0.110173665,0.17151038,-0.22375038,0.1336212,0.03706163,0.2535359,-0.19543585,0.11823982,-0.2063503,-0.0145606585,0.24910732,0.030509112,0.08748898,-0.046357006,0.054149035,-0.25585833,0.14798419,0.39520097,-0.122982085,0.14900024,0.012471121,-0.05535414,-0.058900036,0.071367756,-0.1988004,-0.08032447,-0.12633064,0.022118904,0.012778577,-0.0044608875,0.061248574,0.18182392,0.065200076,-0.10948295,-0.12333062,0.025572663,0.19933784,-0.11794312,0.08986013,0.09557695,0.017261373,0.094575964,-0.0913056,0.17021233,0.094388396,0.09636922,0.14850445,0.00031289633,0.003874365,0.13149762,0.04153274,0.091503836,-0.018221363,0.1890797,0.0077218036,0.04527042,0.0832354,-0.041033357,0.16404687,0.19634162,0.06377046,-0.08841895,-0.12649411,0.106943205,-0.1390248,0.23461331,-0.18358277,-0.012694783,0.026768317,0.12274621,0.023393175,0.12888838,-0.10562975,-0.1736643,0.049948066,0.07948898,0.16870366,0.0872013,0.103491284,0.09194745,0.2538348,0.1809329,0.12354805,0.05395558,0.092381395,-0.2818521,-0.03352367,0.07195312,0.039894525,-0.079098545,0.07941756,-0.1909752,-0.0042611076,0.045437098,0.054192625,-0.13190372,0.03954836,0.09659471,1
hates,0.06848637,-0.27139995,0.29733902,-0.37802723,-0.43817127,0.028892836,0.43518,0.17917997,-0.07005569,-0.09333698,0.1702218,-0.15569396,-0.11975771,-0.12727073,0.25753126,-0.27282664,-0.080332994,0.13479896,-0.18894012,-0.09717298,0.029174445,-0.19631948,-0.16645156,0.14572504,-0.057493918,0.048436202,-0.02448887,0.03557333,0.03801508,-0.10083289,-0.11625843,0.010167615,-0.08367275,-0.16229069,0.2605892,0.40180418,0.10018704,0.16349353,-0.16878681,0.08901381,-0.15077119,0.15319072,-0.016373636,-0.07784472,0.0017880155,0.24858677,-0.12607577,0.07871447,0.48182726,0.18025829,-0.2757019,0.26480103,-0.13135624,0.0531068,0.07968282,0.23118185,0.784683,0.46312356,0.096406154,-0.10908255,-0.08593434,-0.26865667,-0.04140359,-0.2959854,-0.13780567,-0.28993103,0.029947218,0.13780862,0.16262142,-0.39868146,0.35200813,-0.412842,-0.048312545,0.4290168,0.30854544,-0.0076882443,-0.11111968,-0.2651665,-0.054316152,-0.09108754,-0.14908989,0.13759547,-0.10363636,-0.16629411,0.163871,0.009752722,-0.28836483,0.12079425,-0.0022819461,-0.30218157,-0.11222831,0.09595695,-0.30498433,-0.015193748,0.39653376,-0.078124374,-0.4974214,0.20691282,0.48490593,-0.22455563,0.0116676325,-0.06167444,-0.006385649,-0.19117378,0.26876074,-0.08650564,0.22722955,0.36046714,-0.03366838,0.13867173,0.25061566,0.2503524,-0.34937215,0.035583936,0.57517517,-0.1870431,0.31402257,-0.05625757,0.012048557,-0.27032736,-0.24249138,-0.081457555,0.32990336,0.060846604,0.041335903,-0.26141253,0.42420793,0.06895742,-0.39020324,0.23468262,-0.4839591,-0.38147092,-0.098651744,-0.13600291,0.2596641,-0.17342404,-0.072972044,-0.013284459,-0.06343469,0.02474558,0.04527274,-0.11827336,-0.17377132,0.07493086,-0.06128604,0.1854111,0.31638816,-0.11525565,0.08480291,-0.61445886,-0.07963444,0.029535739,0.10907215,0.032753978,0.42159355,0.084908195,-0.17901748,0.0058558034,0.26413816,0.13395497,-0.0014319649,-0.16907069,0.19971171,0.2031792,-0.16152129,0.33631545,0.020862808,-0.21595003,0.471164,-0.03719649,-0.036036875,-0.09039348,0.24262725,-0.03577334,-0.04864211,0.36170554,-0.17428033,-0.13279538,0.22925419,0.28114772,-0.19478466,0.35681543,-0.044667512,0.121544175,-0.2176953,-0.33885017,0.22966814,0.2805492,-0.16078226,0.16849722,-0.11367942,-0.25382236,0.32775524,0.23127896,-0.22642773,0.2427156,0.43305063,0.18465889,-0.33021048,-0.28878355,0.2595287,0.3076224,0.19253823,0.11419488,0.18168238,-0.27306816,-0.4435927,0.0114413565,-0.017707532,0.05254724,-0.5245407,-0.29024795,-0.02793438,0.14584698,-0.15494387,0.47490862,0.06071506,-0.07381097,0.33037224,-0.14701837,0.05572993,-0.14446218,-0.07335641,-0.107046075,-0.10609739,0.06215979,0.2095209,0.29150897,-0.029591057,-0.047731087,-0.051950578,0.0092180325,-0.23479304,-0.19852078,0.2793619,0.052163128,-0.12258012,-0.012871888,-0.09822083,0.034870625,-0.17132886,0.019023227,0.075866766,-0.18465808,0.03668177,-0.41300738,-0.14017469,-0.14525834,0.027237745,-0.13889383,-0.15019183,0.087877534,0.019093895,0.008664374,-0.34041506,0.045438565,0.13574706,0.1460633,0.30987856,0.073739156,0.13716453,0.06056812,0.2094529,0.25724474,-0.08694858,0.15574473,-0.015877988,-0.0025301292,-0.19105013,-0.33112264,0.30940923,-0.19601595,-0.05671145,0.008206434,-0.36561042,-0.098075934,-0.036318626,0.35184032,0.30862787,-0.09694985,-0.28536275,-0.06823267,-0.09562157,0.13729553,0.06717765,-0.003536864,-0.059701767,-0.08011884,0.84322083,-0.36579394,0.09124443,0.09887195,0.19403122,-0.17679271,0.1504477,0.048206512,0.30127323,0.22725943,-0.36612013,-0.35650784,0.34806645,-0.27411246,-0.07391435,-0.18143858,0.24411325,0.28675464,-0.040137313,0.11857072,0.34182328,0.41607982,-0.39950514,0.027601063,-0.18569608,0.119482286,-0.27192807,-0.13549389,-0.06849922,-0.047496613,-0.15160897,0.21188092,0.31272754,0.024224248,-0.20734057,0.15436646,-0.16978924,0.05956228,-0.19345392,-0.1564002,0.36757243,0.01927534,-0.10997988,0.15878877,0.28424603,0.025926974,0.0071061533,-0.19303662,-0.091575764,0.020668032,-0.21429881,-0.14999463,-0.2655525,0.3141088,-0.43478733,-0.20543686,0.11153458,0.46332708,0.13826615,0.023329655,-0.09041033,-0.28794765,0.1459122,0.18381873,-0.1929095,0.061333045,0.09385336,0.18287876,0.3548552,-0.32896566,0.46963307,0.29391614,0.31601954,0.30079168,0.2240561,0.22297868,-0.38277358,-0.1342188,0.20267351,0.017471138,-0.2855349,-0.052757494,-0.3936096,-0.084833615,-0.06934537,-0.15505596,-0.054720607,0.15487522,0.16109191,-0.09239161,-0.04231409,0.32176387,0.29783794,0.21941142,0.2297632,-0.34830347,-0.07003826,0.13477117,0.16816397,0.083730645,0.55539066,0.3748536,0.12198434,0.11706933,-0.37591544,-0.33525845,0.28370064,0.08375681,-0.17631306,0.19000411,0.09666043,-0.34913966,0.24732935,0.15268935,0.10258803,-0.16679591,-0.29457036,0.8173741,-0.15175009,-0.032524917,-0.003732918,0.23569974,0.17436625,0.27578735,0.19180462,0.30786616,0.08549863,-0.36699536,0.35200933,0.13709445,-0.030400084,-0.0050435048,-0.32229778,-0.07191742,-0.2250766,-0.15788259,-0.26483816,-0.35022795,0.1558593,0.23231854,0.101651534,0.08061625,-0.079455875,0.028380748,-0.049527925,-0.012340769,0.21461034,-0.21088181,-0.25600767,-0.113442704,0.21085453,-0.124028124,-0.20746456,0.5066728,0.30955157,0.14845288,-0.16113643,0.008046764,-0.07543156,0.1608611,0.38105333,0.17859738,-0.075696155,-0.3220593,0.09854346,-0.0036576476,-0.18779464,-0.33096895,0.04037185,0.20561801,-0.13636236,0.10325422,-0.09281773,-0.3618938,-0.24745922,0.07952415,0.23517258,0.20328392,0.16115111,0.10438826,0.14115584,0.030891575,0.23666568,0.30780783,0.07651707,-0.14153387,0.35194826,0.14692788,-0.30841658,0.2244906,0.34589624,-0.099148884,0.16837285,-0.084248364,-0.046513602,0.015612717,-0.1375605,0.22685325,0.018335192,-0.39823192,-0.0377577,0.4796694,0.15392207,-0.08311984,-0.2879764,-0.12568071,-0.33371124,0.28134516,-0.26546374,-0.010716862,-0.29490513,-0.066361286,0
delightful,-0.02963427,0.016113942,0.20009868,0.181539,-0.029537883,0.024769565,-0.005466676,0.25247937,0.37004834,0.008422981,-0.1736924,0.21260907,0.0055386564,0.13261822,0.04293003,0.012504236,0.2524309,0.0070737884,0.022829514,-0.09097673,-0.022419801,0.046456728,0.07061194,0.12168139,0.16776228,-0.15513195,-0.06601792,0.07440006,0.23406039,0.027912097,-0.18339023,-0.32406798,-0.07222185,0.091503754,-0.1283346,0.0977118,-0.02475874,0.027518865,0.114006124,0.18107516,0.03324624,0.11912521,-0.020359183,0.034991566,-0.138444,0.08720868,-0.054124825,0.039651994,-0.09559457,-0.081498794,-0.2346227,-0.07707425,-0.16649576,0.2993357,0.061597,0.13933095,0.035279732,0.15324432,0.03997088,-0.08587445,0.0063663507,-0.26564714,0.0113342125,-0.1457356,-0.004555226,-0.15989637,0.052832045,-0.15743163,-0.10047175,-0.067008905,-0.14210619,0.15625666,0.11188932,-0.10767544,-0.16857238,-0.11007895,-0.063598305,-0.14985031,0.04263395,0.12242719,-0.120204,0.07798412,0.108249135,-0.07958367,-0.3750699,-0.0028821283,0.23298046,-0.15340239,-0.028402282,-0.049766574,0.0020727268,-0.30413812,0.075651854,-0.06069988,-0.11383159,-0.110041596,0.14465214,0.20747323,0.038139787,-0.06344808,0.039816268,-0.066163264,0.112351716,-0.16940694,0.037302032,0.29639354,0.22585891,-0.053767346,-0.10543633,-0.26160926,0.10076724,0.25664926,-0.024435548,0.07246044,0.15547942,0.10940356,0.0652332,0.1132989,0.06144272,0.23233476,-0.47953027,-0.32927474,-0.15560432,-0.02288318,-0.022303395,-0.17819816,0.11914726,-0.012114273,-0.13605677,-0.031182876,-0.18234892,0.111618645,0.02505259,0.035942316,-0.088606335,0.14727053,0.023855316,-0.1661055,-0.1039068,0.22455373,0.026312295,0.24261215,0.063425064,-0.124312274,0.20571615,-0.025878077,-0.015579391,0.06425478,-0.084093586,-0.17628929,-0.037678014,-0.14042193,0.002300217,0.023575282,-0.0016139043,0.10962981,-0.21034336,0.2082265,0.005325008,-0.023769759,0.10811635,-0.08294803,-0.06851905,-0.12090407,0.023746783,-0.13326661,-0.035681028,-0.0010242441,-0.15458569,-0.094060294,-0.1016939,-0.2880684,0.11989008,0.04115765,-0.18265124,-0.018074064,0.10726588,-0.21655102,0.013725756,0.03920301,-0.34711173,-0.089788914,0.0148317125,0.096612394,-0.055300027,-0.067763,-0.026632218,0.19907069,-0.23540618,-0.053610623,0.13758813,-0.013697825,0.12283438,-0.0108619835,-0.072780825,0.179963,0.055763245,-0.0454918,0.15286101,0.057731144,0.09027496,0.04318419,0.08627479,0.040448353,0.08807751,0.12871908,-0.12890528,-0.03280411,0.014964589,-0.3511263,-0.057061903,-0.033403274,-0.077313565,-0.1322805,0.0346215,0.10802126,-0.16240208,-0.033688515,0.21444528,-0.036916148,-0.24710496,0.014221092,-0.16718438,-0.034299746,0.27068222,0.004275376,-0.049145628,0.1950077,0.19458462,0.13816553,-0.035826158,-0.141412,-0.41316766,0.0017882729,0.112025715,0.11620874,-0.024443053,0.18166639,-0.09663352,-0.012820075,0.12762834,0.27410665,0.10320102,-0.020445613,0.11685242,0.064272195,-0.17396761,-0.18898843,0.07183955,0.07125281,0.047996935,0.22566661,-0.019057347,-0.2527348,-0.123128764,0.20699483,0.16347739,-0.075577825,0.012228335,0.019187467,-0.11896316,0.052260987,0.08785674,0.041150518,0.15697269,0.031167794,-0.070378624,0.17501038,-0.19758733,0.08203497,0.13340406,0.36049238,0.04519569,-0.005870592,0.0017110284,0.040742844,-0.18311337,0.015731512,0.05173045,-0.15905474,-0.17617647,0.14232375,-0.124934316,-0.28060004,0.118130445,-0.11762478,0.06378454,0.01795274,0.08262712,-0.100357585,0.06850959,0.25317237,0.1669802,0.04351261,0.21469568,-0.21488997,-0.03975218,0.49137333,0.06297103,-0.31059247,0.089340895,0.20313005,0.14178999,0.3346752,0.03591046,-0.09181945,0.07423293,-0.04992803,-0.019642362,0.017007591,-0.064617574,0.12235389,0.17248848,-0.021679241,0.078654826,-0.022454489,0.1834848,0.07520446,-0.1637443,0.2995439,-0.109530196,-0.07931664,-0.02209,-0.30411327,0.11833617,0.051853027,-0.24897258,0.1312793,-0.048859652,0.22772175,-0.24136855,-0.07640906,0.09748954,0.052905615,-0.0023055295,0.07624878,0.37662947,-0.06322482,-0.0941298,-0.039145097,0.05908131,0.0462049,-0.2205037,-0.16495018,-0.03691916,-0.0068307067,0.22433102,0.10768726,-0.073622994,0.37138793,-0.03172704,-0.029696248,0.014363193,0.018988725,0.0760289,-0.1276029,0.20434445,-0.22120674,0.21389894,0.16619463,-0.02665497,-0.11969865,-0.082602784,-0.18587805,-0.054787464,-0.18582599,-0.057950307,-0.09445426,-0.213359,-0.029263882,0.055265125,0.14418428,0.13076039,-0.047796473,-0.03382521,0.19686265,0.028109528,0.07065545,-0.18014921,0.31088844,-0.26559147,0.204616,-0.118912965,0.0034120737,0.35975006,0.0101767285,-0.28376245,0.11091684,-0.12430906,-0.107879825,0.09796944,-0.04332903,0.052690204,-0.041269187,0.279014,0.025183577,0.17447542,0.13037941,0.072354354,-0.05844266,-0.3241977,-0.06436306,-0.050371215,0.054378908,-0.093813546,0.07936616,0.04267647,0.18308765,-0.22788575,0.014298575,-0.23501109,-0.08118685,0.040761508,0.12493595,-0.04961078,0.006095024,0.2312035,-0.10618997,0.056803994,0.17261869,-0.18312119,-0.047142673,-0.08166936,-0.2252254,0.09022881,0.051376738,-0.20581934,0.0016427032,0.08649566,0.16850296,-0.16729493,-0.005096637,0.07049317,0.1684311,0.19413538,-0.18558471,0.028071094,-0.21742055,0.11346174,-0.053215437,0.102472425,-0.06098797,0.052868694,-0.20923981,0.11033409,0.34729153,-0.025018215,-0.06531192,0.1804533,0.25193337,-0.07470356,0.18961522,0.07320962,-0.090269275,-0.033474516,-0.023459448,0.040792912,0.16904265,0.14557472,0.06627707,0.13770258,-0.0072582834,0.15412669,-0.04882836,-0.10771305,0.14007957,0.0059932647,0.2188185,-0.23637357,-0.037001446,-0.122222975,-0.02719578,0.044855487,-0.047052678,-0.12036868,-0.15928237,0.14357653,-0.25274462,0.26377463,0.064784676,0.06281302,-0.114732295,-0.19184878,0.3030992,0.048571315,-0.05412729,0.14794536,-0.061254732,-0.07452472,-0.14286828,0.13197275,0.06335006,0.18139037,0.09011627,-0.11907604,0.019080773,-0.05415708,-0.040129803,0.049390726,0.035047118,1
volatile,0.061864153,-0.062085997,-0.044132184,0.14241785,-0.15313995,0.055612862,-0.2680024,0.044218887,0.12828338,-0.27746823,-0.06663539,0.061225772,0.08702377,-0.085515544,-0.0026762101,0.065336704,0.1438882,-0.1532991,0.10558484,-0.046832994,0.06218769,-0.10876711,-0.31207526,-0.0033730245,0.14062557,0.044777308,-0.00016216293,0.21145254,-0.03496998,0.08603351,-0.25332776,0.14709668,-0.12654616,0.015961364,0.056504037,0.11427351,-0.2249568,0.022871593,0.11888703,-0.29861283,-0.106378816,-0.0055847014,-0.14989783,-0.1116991,0.3495238,-0.10086408,0.11458649,0.09610664,0.38396996,0.03992885,-0.123139456,0.25601843,0.123899885,0.011874013,-0.018542724,0.03963488,0.115696594,0.1621766,-0.015436162,-0.11399144,-0.23149045,-0.20000623,0.056178775,0.16506165,0.09950177,0.29191053,0.019038342,-0.053286016,-0.13426886,0.21197324,-0.119316965,0.11807159,0.20744854,-0.2415886,0.19647406,-0.232195,-0.0012058857,-0.13840662,0.016125806,0.17580883,0.10251735,0.37802124,-0.09420112,-0.15913384,0.086962834,0.2945993,0.15867954,-0.09739186,0.0015611731,-0.14650199,-0.27548137,0.026851466,0.10615132,0.3475797,0.032156248,-0.026903544,0.07938468,0.1082344,0.004050196,0.30795413,0.32743067,-0.060589287,0.21736276,-0.09457112,0.020471115,0.12473433,-0.25588813,0.11002063,-0.29295307,-0.070640594,0.07600384,0.16023535,-0.19061844,0.16306837,0.09556377,0.04681939,-0.106711924,0.22701958,-0.32836446,-0.19494177,-0.060574375,-0.25096592,0.18998535,0.036241416,0.03468924,0.051534988,0.07794573,-0.005555165,-0.14066571,0.09163083,0.074970454,0.23685814,0.06987831,-0.014983639,0.2960343,0.08943034,0.39644507,-0.16474935,0.023968998,0.1250125,-0.1506896,0.08088674,-0.05264325,-0.20523296,0.13894188,0.17900923,-0.026326554,0.016174529,-0.021966763,-0.18074435,-0.002784608,0.025715878,0.24261986,0.15625563,0.16561468,0.00084006425,-0.20590952,-0.109412365,-0.061105505,-0.201935,-0.40176183,0.2039926,-0.031201337,-0.24766096,0.39473888,-0.08760561,0.079556406,0.24605896,0.08711183,0.011233853,0.31712848,-0.06925236,-0.1833021,-0.14645971,-0.2227775,0.28809887,-0.34601328,0.32961318,0.038131863,0.14438355,0.09380309,0.09017833,0.12594797,-0.08040993,-0.22341183,-0.0925428,0.13344914,0.015397111,-0.0864402,-0.300136,-0.031761274,-0.20424916,0.025127042,0.023105957,0.11591579,-0.1061938,-0.18136121,-0.14288373,0.28694904,-0.091638766,0.28707665,0.008891233,0.08461964,0.34220046,-0.23885626,-0.014277235,0.15478943,-0.010362234,-0.079694256,0.14163321,0.013652804,-0.03837068,-0.053513244,-0.116508685,0.026488759,0.15375748,0.057128906,0.02586222,0.20326075,-0.24339925,-0.13827865,-0.07814296,-0.18542759,-0.1281446,0.115397885,-0.23910469,0.056500778,-0.22054142,-0.14639378,0.08983064,-0.017779771,-0.07028985,0.06817014,-0.13746667,0.08167704,-0.074457586,-0.3183761,0.03163005,0.041175842,0.03665163,0.0973516,0.1908846,-0.20247117,-0.10479429,-0.021440495,-0.024884474,0.05216503,0.16443262,-0.09828559,-0.11825031,-0.071157,0.23126043,-0.046653274,-0.018775707,-0.01898574,-0.073610626,-0.06100388,-0.14753513,-0.18088455,0.16059926,-0.031303536,-0.16990533,0.12622507,-0.05325693,-0.14419672,0.32948554,0.004149051,0.2577988,-0.10880805,-0.086062826,-0.016469639,-0.11751188,-0.07114896,0.06486833,0.25333703,-0.30673072,-0.009252042,0.20146091,0.03500893,-0.15121956,-0.1449319,0.06449976,0.19820467,-0.33344615,0.09063015,-0.091487184,0.030778453,-0.23296086,0.0027833784,0.14870563,0.0918579,-0.08265051,0.1556384,-0.1312429,0.37429672,-0.22212833,0.06380631,0.5767558,-0.09189241,0.015890583,0.036498856,0.07350097,0.19532567,0.3651692,0.39228275,0.123614,0.039389376,0.26390988,0.20488688,0.17117159,-0.09665329,0.037336946,-0.05306512,0.08283109,-0.13531812,0.0040128143,-0.072331935,0.09744359,0.15071863,-0.032879762,0.26552466,-0.31547216,0.017137935,0.136975,-0.13043246,-0.3176876,-0.32726443,-0.011692781,0.28134662,0.11993525,-0.06844099,0.09603084,0.25575075,-0.30588678,-0.045420397,-0.3097862,0.0914741,0.12899299,0.031259894,-0.057869744,-0.21841004,0.08228327,-0.24392805,-0.3147455,-0.080427036,-0.20458342,0.13050933,0.34986436,-0.3109256,0.17990287,0.14312397,-0.03379243,0.12258639,0.12136258,0.063165255,0.2221965,0.1643754,-0.32161582,0.32793075,0.23125932,-0.18542111,-0.04052669,0.056772877,-0.1810393,-0.07913152,0.12773103,-0.14827475,0.13523446,-0.16448626,-0.13843828,0.1910703,0.0869039,0.14072244,-0.17593287,0.045951087,0.068011306,0.10956613,0.13348891,-0.0005132061,-0.019357068,0.0009987863,-0.0635094,-0.01274473,-0.07274977,-0.13423166,0.07312199,-0.15769127,0.13664633,0.10154807,-0.18882054,0.25039527,-0.08146975,0.15950507,-0.2184916,0.06133584,-0.0012043598,0.11188488,-0.028399365,0.20352688,0.07057386,-0.08631934,0.14701234,0.3200149,0.10706634,-0.07191385,-0.07225386,-0.21544181,-0.048079878,-0.099028446,-0.031885847,-0.16908887,-0.048837755,-0.45869467,-0.15733242,0.24055119,-0.04576836,0.052629717,0.06490717,0.3977746,-0.014782536,-0.26496637,-0.36948705,-0.113853455,-0.018334227,0.27703577,0.09628272,0.010378476,0.103799246,0.15045133,0.06721811,0.03523683,0.045732714,0.26090544,-0.017155724,0.2352431,-0.31557992,0.16138111,-0.11253914,0.16292574,-0.021514378,-0.11824206,0.0746669,-0.005766572,-0.021042839,0.21030687,-0.016720546,0.05189312,-0.2442674,-0.20013705,-0.036233563,0.1202469,0.04339701,0.03224543,-0.13303387,-0.22073828,-0.05373064,-0.010194786,0.2634122,-0.1523194,-0.16937438,0.053650495,-0.1194336,-0.18549445,-0.09152685,0.06089658,0.14868301,0.10167121,-0.118574575,0.22346638,-0.22518994,-0.104467146,0.06379983,-0.0887489,0.3504343,-0.06802263,-0.047400583,0.028764082,0.32530284,0.3155049,-0.21675287,-0.11405792,-0.1685196,0.12763637,0.11378034,-0.007619512,0.1741839,0.24708109,0.060795132,-0.211478,0.0749482,0.2160853,0.05405041,0.07059095,0.21537483,0.08317346,-0.11339561,-0.22367083,0.03901326,0.0040874085,-0.17900191,0
incredible,-0.13417621,0.068176866,0.15457328,0.10210208,0.06019695,-0.0038766344,-0.1076353,0.062041737,0.11871475,-0.014506006,0.037333306,0.05135281,0.13535553,0.33078986,0.1022697,-0.093119904,0.08409189,0.0544784,0.12298108,-0.025171611,-0.09299082,-0.01583785,-0.00024914235,-0.017137056,-0.04966163,0.0714608,0.06869614,-0.061188515,0.32011804,0.13878667,0.1339407,-0.09937925,-0.0018546941,0.23592885,-0.12251639,0.019466028,0.14821525,0.07544886,-0.11799163,-0.240744,-0.0819827,-0.091208614,0.08850212,-0.009523354,-0.31655142,-0.15747689,0.06798962,0.018683026,-0.22581454,-0.2655878,0.0044670976,-0.009483281,-0.017004983,0.09231816,-0.1383467,0.072892874,0.09842489,0.21083486,-0.16368474,-0.24575496,0.04115444,-0.120307356,0.044380855,0.23575114,-0.34378558,-0.024661733,0.21174556,-0.14065634,-0.094831795,-0.042834952,-0.04963156,0.17297018,0.11349384,0.05313261,-0.009001643,-0.10820578,-0.26265597,0.014618232,-0.0032564513,-0.014171924,0.071642466,0.061627544,0.034873962,-0.09240013,-0.29480007,0.06839146,0.13639918,-0.032066226,-0.04532062,-0.0521536,0.09274117,-0.25932068,0.11639329,-0.095580444,0.01883888,-0.2129826,0.06903054,0.08228756,0.074136525,-0.055729087,-0.08729391,-0.0966014,-0.111509286,-0.0530703,0.16404332,0.048454266,0.104615055,-0.020575715,-0.11661328,-0.10643618,-0.06254084,0.25323793,-0.01677679,0.07098226,0.12084795,0.10396565,0.24483825,-0.021126924,0.2605057,0.08390494,-0.31342736,-0.06372687,0.09908097,0.045920864,-0.1561377,-0.22005966,0.23310214,-0.094879866,-0.011807503,0.25191727,-0.22787154,-0.027806763,-0.022819787,-0.020519402,-0.098233126,0.20412697,-0.2794169,-0.14571619,4.042967e-05,0.20797019,0.074452154,0.096392594,0.033845402,0.044518862,0.13118304,-0.093598895,-0.20708221,-0.07973346,0.13255498,0.1750033,0.00022745917,-0.20108236,0.08630224,-0.18403226,0.065341674,-0.1934132,-0.13949114,0.25280195,0.012541368,-0.07085834,0.13374071,-0.18000819,0.023175303,-0.071687765,0.026499439,-0.108031,0.0354676,0.02818749,-0.1833514,-0.25962365,-0.11226835,-0.15244631,0.0051836204,-0.008941645,-0.057051852,0.17962994,0.006903002,-0.15526819,0.053890474,0.003971848,-0.21836036,0.11669408,0.023244532,0.12298296,0.058123063,-0.14192136,-0.04252772,0.11445893,-0.40897268,0.20356269,0.015973398,0.014639275,0.35339117,-0.030681258,-0.09724166,0.23978855,0.35418037,-0.022345748,0.1301259,-0.06565134,-0.020652076,0.06442161,0.046715893,0.12237837,-0.07756503,0.13996173,-0.12791058,0.11763152,0.022592723,-0.07077945,-0.024621503,-0.1256721,0.00017266546,0.06961911,0.012351705,0.18593618,0.03924402,-0.14355445,0.23974653,-0.020931175,-0.23522118,-0.10622313,-0.07551508,0.09249475,0.3035751,-0.078829,0.049630426,0.05988319,0.020471433,0.0494885,0.01781342,0.027746772,-0.16095202,0.0067952015,0.055852585,0.15036365,-0.00881822,-0.17174922,-0.16567042,0.16624497,0.14837556,0.20280653,-0.0062539247,-0.05544927,-0.13998127,-0.05427554,-0.02830567,-0.19931233,0.1311305,0.017089128,0.046067785,0.13243897,-0.026708128,-0.05951404,-0.0041958564,0.11688101,-0.14650074,-0.041283228,0.051284987,-0.1754484,-0.055428542,0.05192697,-0.008697719,-0.11925715,0.22713147,0.057243697,-0.18928874,-0.007421273,-0.2334552,-0.008998355,0.11563749,0.06638229,0.1368754,0.06276277,0.028186573,0.041409913,-0.13733718,-0.1024471,-0.05777413,0.08720002,-0.08934661,-0.021117289,-0.026479183,-0.18772666,0.1605305,-0.06152522,-0.0042938925,-0.15884887,0.26197618,-0.054367922,-0.07734179,0.28178415,0.1346322,-0.003916312,0.087845944,-0.10305088,-0.03995944,0.092059836,0.14573313,-0.15588184,0.06577243,0.18064815,0.14693959,0.14159139,0.11904104,0.011995384,0.072025195,-0.03247964,-0.1712715,0.27131954,-0.14872421,-0.02744339,0.17064562,-0.022280304,-0.051636063,0.021699442,0.16631146,0.13957286,0.049566723,0.03869723,0.043873973,-0.046103366,-0.017944628,-0.2135029,0.24655357,0.048958186,-0.1046369,0.100430354,-0.032931976,0.12762378,-0.0459217,-0.08026042,0.050083317,0.060521092,-0.0020944816,0.05548846,0.36710024,-0.008697234,-0.084766075,0.0813308,0.0050263857,0.19613315,-0.26056072,-0.012578648,0.16225661,-0.1941311,0.37411404,0.07739488,-0.029731017,0.18574898,-0.062443722,0.024855252,-0.004451732,-0.07401406,0.0088528395,-0.0056985454,0.16235156,-0.08597412,0.14203185,0.041491605,-0.0454253,-0.24885713,-0.18715331,-0.28673518,0.053680554,-0.057167664,0.05192096,-0.23755787,-0.0761314,-0.04650951,0.05732478,0.14736293,-0.005068615,-0.09755222,-0.010386104,0.02778731,0.09215728,0.032708995,-0.1763204,0.22604391,-0.062214058,0.36741924,-0.13238792,0.0534271,0.20779228,-0.21013059,-0.016076861,0.052786108,-0.011963008,-0.16042793,0.34156203,-0.19192784,-0.35873267,-0.010029217,0.20646341,-0.076155566,0.052307405,0.19553849,0.07099614,-0.19340762,-0.14124517,-0.21536525,-0.11113631,0.12942733,-0.23010525,0.12609999,0.016297923,0.16027161,-0.17048514,0.08591809,-0.25861812,0.006223706,0.18428946,0.034350034,-0.04222643,0.05001734,0.041969817,-0.1467908,0.25534287,0.4211461,-0.18894456,0.04486239,-0.055468537,-0.06086353,-0.015915437,0.06315263,-0.18145749,-0.0830567,-0.10579291,0.04354678,-0.029429885,0.061394956,0.14501326,0.13018689,0.037782133,-0.118985735,0.010792616,-0.17510155,0.13821903,-0.15165731,0.14294817,0.122224696,0.11369992,-0.06903718,-0.11795553,0.11338117,0.105582185,0.018668842,0.07212782,0.0028393317,-0.017529042,0.13901956,0.050185364,-0.020923683,-0.058490764,0.15354349,0.0009780256,0.19421646,0.1813799,0.051298127,0.2822572,0.1658142,0.09144031,-0.15630999,-0.15815397,0.05255467,-0.009263273,0.10893275,-0.15051319,0.14812608,-0.0011242132,0.08670748,0.054179758,0.23437221,-0.1307122,-0.14549099,0.056045868,-0.017970968,0.24889737,-0.029741364,0.093287386,-0.076675534,0.15385276,0.18150774,0.1564044,-0.08766442,0.0040324107,-0.1572455,-0.03788535,0.060772352,0.08595692,-0.030173942,0.14888404,-0.14101426,-0.17369464,0.11208029,0.040651508,-0.10535258,-0.07838829,-0.0060617863,1
good,0.035253175,-0.053311277,-0.054280635,-0.055699326,-0.053643923,0.1292038,-0.14983515,-0.028630633,0.024756404,-0.014347564,-2.5623272e-05,-0.029734567,0.04880381,0.123130724,-0.029040625,-0.027746523,0.16495898,0.10024069,-0.11413011,0.036647014,-0.09888629,0.29853645,0.07660412,-0.30530018,0.055956658,-0.17044003,0.040156085,-0.0042337924,-0.13100179,0.023119641,0.20784447,-0.0927573,-0.14122988,0.06113143,0.151127,0.14693284,0.1300613,0.10427096,-0.10989319,0.07468565,-0.0106073115,-0.0061167045,0.12770343,-0.07011966,-0.062506035,-0.15505281,0.00664776,-0.0192901,-0.024829825,-0.07263689,-0.020069098,-0.08227452,0.03591716,0.08889865,-0.18397453,0.034548786,-0.046921767,0.16945909,0.024854722,-0.08651309,0.06804675,-0.18547988,0.026458757,-0.13221592,-0.23645766,-0.028368372,-0.0026278659,-0.049907938,0.11593999,-0.13672294,-0.07501929,-0.07985727,0.036350396,-0.082960434,-0.18653697,0.008443859,-0.29254845,-0.15528719,-0.044327155,-0.09410317,0.05853664,0.091315314,-0.017331928,0.0023810416,-0.15016192,0.042583883,-0.17188576,0.051340815,-0.030907594,0.039723895,-0.0704566,-0.055930734,-0.123369366,-0.1433612,0.034276295,0.043684483,0.05782073,0.037847105,0.0030201909,0.07443277,0.010737912,0.12867855,0.06481622,0.0003308169,0.23729704,-0.07005539,0.04812766,0.12155747,0.09665315,0.084612384,0.24536265,-0.08945825,0.04360203,0.11969836,0.030638184,-0.06536397,0.1266678,0.19041283,0.12097305,-0.027559238,-0.04632464,-0.03275129,-0.00059105415,-0.22400078,-0.032754563,0.046601493,-0.16862153,-0.19584633,-0.18370745,0.050108377,0.020929972,-0.1579926,-0.007504464,-0.0948418,-0.0068962253,-0.050259545,-0.06237423,-0.09792481,0.03345089,-0.019395242,0.38681778,0.086348206,0.110560775,-0.040239614,0.11887363,-0.078622326,-0.07584031,-0.057415325,0.0017322085,-0.05444335,-0.044649437,-0.03414928,0.14943878,-0.020655477,0.19624925,-0.16327119,-0.11609889,0.09944906,0.2886854,0.04423121,0.014135272,-0.13223575,0.08175817,-0.12797774,0.11094378,-0.25337315,-0.15124582,0.086957514,0.011769556,-0.096643254,-0.36801887,-0.2224959,-0.1322004,-0.11997471,-0.015854938,0.16851975,0.12426026,-0.02407682,-0.11992404,0.10649729,-0.112585284,0.11585905,0.19710511,0.07423721,0.0077355984,-0.17405966,-0.12640624,-0.034705818,0.18406667,0.1590771,0.0034484433,-0.12628137,-0.14089383,0.0994629,0.057741944,0.16225298,0.14380346,0.005852951,0.063475765,-0.10594733,0.08830023,0.008792815,-0.0024907475,-0.1298948,-0.09953151,0.076657206,-0.07756717,-0.22161041,0.03304159,-0.10487696,0.10181395,-0.03955774,0.021818075,0.00074930163,-0.152589,0.22573061,-0.10859329,0.07463211,0.008248546,0.19168086,-0.15969715,0.029094256,0.099116996,-0.0469813,0.2910879,-0.027256632,0.19054751,-0.0026863527,-0.023029879,0.07669805,-0.06396843,-0.2374341,0.21296231,-0.062207315,0.06662168,0.027296383,-0.11530888,-0.33764592,-0.03878084,0.1014759,-0.047619954,0.027875694,-0.29716197,0.108612046,-0.2105424,0.044692803,-0.16130063,-0.10408014,-0.007659679,0.07037288,0.1471071,0.2058544,0.12158656,-0.028780023,-0.03703989,0.030071026,0.2143417,-0.13460594,0.19029085,-0.11897078,-0.21192853,0.044703096,0.10583309,-0.14991796,0.01877869,0.082837634,-0.004235989,0.035171714,0.014269891,0.057353564,-0.07597659,-0.011085013,0.0053815525,0.037557073,-0.12347074,-0.17057034,-0.011103328,-0.14214188,-0.013933532,0.07715363,-0.111369245,0.21536855,-0.011566098,-0.22145486,0.12089005,-0.18487315,-0.20345476,0.06599537,0.19730759,-0.18706301,0.06578523,0.038079303,0.022953311,0.11756477,0.1229835,-0.028496958,0.049223978,0.22706182,-0.0030829578,0.084697016,0.024771523,0.058443654,0.24891523,0.14773071,0.016203772,0.16070683,-0.081119515,0.030775174,-0.16725056,0.03996401,-0.15404321,0.06389456,-0.0037115219,0.06579359,-0.10827495,-0.020486299,-0.0017697122,0.013240579,-0.07959302,-0.029163029,0.104884274,-0.12606403,-0.08058445,-0.24508932,-0.13911824,0.25943086,0.021100735,0.18634103,-0.1274728,-0.02902601,0.15174253,-0.10892591,0.08750728,0.13787843,0.11940897,-0.07943264,0.2525064,0.056943245,-0.08399192,0.10781899,0.12728493,0.124338105,-0.11926192,0.001241164,0.15265574,0.10058473,0.21878494,0.07527131,0.013163285,0.1647176,0.04430928,-0.117794216,-0.10060102,-0.25261015,0.12491992,0.11237099,0.069582,-0.21081875,0.22860734,0.2056483,-0.065637626,0.16943935,-0.05664807,0.030646551,0.0340952,-0.026494067,0.10715524,-0.0060600634,0.04259388,-0.22752735,0.10280303,0.07607144,0.17025883,0.06920732,-0.15060587,0.1355851,0.0062980205,0.04853675,-0.24933864,0.08199389,-0.09832374,0.29410514,0.09413752,-0.17506228,-0.0070715123,0.08217545,-0.13177651,-0.0056829564,-0.07459261,-0.052071914,-0.010947117,0.037682932,-0.2170524,0.052262302,-0.08657929,-0.007011209,0.18795799,0.32204875,0.048314065,-0.07873225,-0.15219542,-0.174673,0.012613834,0.10685782,-0.13640039,0.027725298,0.12108601,0.20523751,0.036351908,0.18021838,-0.04202012,-0.13332586,-0.009490286,-0.060835797,-0.07961684,-0.0954949,0.00549246,-0.06149824,0.05752305,0.16424546,-0.1366374,0.0418253,0.009230023,-0.07749827,-0.08566957,0.1588249,0.021805558,-0.27617458,0.10039141,-0.10246933,0.09202733,0.03012839,-0.025964173,-0.02670312,-0.008642933,-0.08945669,-0.21752994,0.2798423,0.06598283,0.0050230725,0.004368387,0.078653306,-0.02983434,-0.11552911,-0.009156017,-0.118003786,0.08036069,-0.0409004,-0.0066554975,-0.106123164,0.1283962,0.043469515,0.047837615,0.049000435,-0.16335939,0.08338971,-0.15633395,0.098332025,0.028440299,0.0663187,0.2688456,0.020774279,-0.023093814,-0.14808121,-0.13687806,0.14130612,-0.051349133,0.35467845,-0.29781422,0.0067749587,0.28988203,0.07580087,-0.1739833,0.037367083,-0.09466959,-0.17059232,0.031683855,0.082870096,-0.14653708,-0.07469569,-0.04103357,-0.09053708,0.08925596,-0.012388005,0.18418877,-0.06109686,0.056522686,0.04762136,0.13169251,0.081020676,0.18584886,-0.2906114,0.14650838,0.13456175,0.19599134,0.24540201,0.13525,-0.052085858,0.20542343,-0.055218104,1
wrong,-0.07149504,-0.40643775,0.050249703,0.41248035,-0.06575443,0.13446166,-0.02123181,-0.05740258,0.2151932,-0.14007828,0.2051724,-0.019431023,-0.0715877,0.12275726,0.017793998,-0.1619077,-0.03330255,0.009889146,0.12735923,0.008627785,0.34353057,-0.14669071,0.08743896,-0.23972067,0.07993778,-0.28381976,-0.26892927,-0.07784865,-0.3384951,0.15687385,0.017548846,-0.04930947,-0.3317136,0.02999521,0.44305173,-0.055652995,-0.017612386,0.21447428,0.12287548,0.050644223,-0.35038763,0.04035108,-0.25439784,0.04582625,-0.08255853,-0.04181156,0.052861802,0.284766,0.27687505,-0.23099974,-0.20978421,0.10466126,0.23492418,0.21405928,0.135692,-0.12093687,0.09299615,0.09071535,-0.0646245,-0.024120098,-0.22195466,0.21893574,-0.0956091,-0.06258204,0.110450305,-0.17747505,0.04001279,0.32424477,-0.22694522,0.15481952,-0.32866657,0.01563744,-0.19581044,0.20177937,-0.29449362,0.32840785,0.06565912,-0.008023657,0.024850465,0.28065678,-0.18347855,0.011248613,0.10324931,0.35661843,0.08611607,-0.046676517,-0.22366779,-0.13048701,-0.15446523,0.09595073,0.0061076847,-0.16594286,-0.16492502,0.21951225,0.251564,0.030607393,0.18506269,0.1820921,0.14322732,-0.02643451,-0.008164036,0.004276094,0.0727711,0.1747128,-0.029870939,0.14592703,-0.05749086,0.14561951,-0.0853314,0.022875834,0.39964017,-0.018303037,-0.2422931,0.32500902,0.09169718,-0.15581167,-0.18105115,0.13001186,0.22391424,-0.14472869,-0.18544133,0.1851624,0.026641553,0.16809246,-0.08900218,0.05787132,0.017912803,-0.194401,-0.07366991,-0.10822042,0.39173785,-0.24654907,0.12780748,0.015306413,0.06713714,0.09181294,-0.007006566,-0.29259613,-0.047734793,-0.27624744,0.17517547,0.005203214,0.014620962,-0.10043996,-0.030844897,-0.13447791,-0.36474648,0.1256009,0.26897168,-0.043538548,-0.18887392,-0.19063076,0.058721077,0.022575237,0.15045215,0.28538945,0.017599182,0.16504101,-0.17807887,-0.18679033,0.032373857,-0.14629558,-0.054069225,-0.3031075,-0.112188324,0.13862264,-0.20113838,0.09968082,0.025855705,-0.019307494,0.09753401,-0.17374888,-0.06314524,-0.05744311,0.051302373,0.05782268,0.061184354,0.04818036,0.033888932,0.1130869,0.01797456,0.22092831,-0.227024,-0.18531398,0.016900178,-0.12204616,0.059357584,-0.23890947,0.15364529,0.10815544,-0.2611041,0.018543346,0.23338507,0.025444131,-0.04818628,-0.063832775,0.13229078,-0.23806942,0.28108016,0.12712736,0.11019869,0.36531034,-0.01433586,-0.10811156,0.030527506,0.034067746,-0.1054195,0.016058888,-0.28807136,-0.013621335,0.015959485,-0.025539085,0.070453554,0.08969713,0.056329705,0.3756465,-0.010512244,-0.11674413,0.32948568,0.42520535,-0.20480286,0.05732143,-0.08087482,-0.07169814,-0.1287771,-0.39517024,0.0015789774,-0.108973056,-0.54958963,-0.3055868,-0.002582462,0.1249097,0.23442534,-0.034640905,-0.05919288,0.27213487,-0.45929134,0.20102334,-0.3489374,-0.23496796,0.38560575,-0.14112152,-0.17537864,-0.05977906,-0.23544258,-0.03396534,-0.26350972,-0.29953203,-0.17687032,0.35029194,-0.020669458,0.099118136,0.05473781,-0.2435091,-0.19995618,0.08938792,-0.07856115,0.27566963,-0.14840934,-0.17221761,-0.0060317735,0.19583608,-0.31331033,0.09447961,-0.15697588,-0.34967986,-0.03361845,0.30495813,0.11766764,-0.14315154,0.17587754,-0.13486747,0.30741698,-0.13648754,-0.09272216,-0.03317947,0.19582042,0.08682354,0.1316689,0.20423721,-0.13406916,-0.1988682,0.12502886,-0.23131724,-0.085866645,-0.19511622,-0.09519215,0.013881475,0.48368073,-0.27539802,0.1708644,0.27732462,0.15607719,0.12467181,0.10907424,0.10229765,0.20135584,-0.16608594,-0.05588711,0.04280774,0.18993351,0.044215888,-0.030509776,0.13589354,0.019764392,0.048471663,-0.14095862,0.19941014,-0.2213698,0.2574518,0.27778253,-0.14938778,-0.1391696,-0.11018468,0.0060358117,-0.02465902,-0.041179225,0.056509927,0.017138995,-0.25028393,-0.05926266,-0.021272348,0.051699355,0.03298138,0.060271036,-0.03963509,-0.06566559,0.19747876,0.0035270585,0.02377466,-0.007601076,-0.12745439,0.19050135,0.016861007,-0.05489636,-0.06073533,0.11637509,-0.06901083,-0.5084969,0.23359282,-0.0014576422,-0.16482952,-0.21834354,0.0019829252,0.02759738,0.4824245,0.3692516,0.23233807,-0.17290075,0.15679361,0.0819807,0.040212214,-0.18267359,0.12641805,-0.39704642,-0.24115743,-0.17226258,-0.20111133,-0.023668192,-0.13241541,-0.2095374,-0.11379873,0.31499666,0.04985745,0.009958122,0.27035764,-0.13277663,-0.28803748,0.17558926,-0.14419967,-0.058461223,-0.016368033,-0.043316934,0.09885088,-0.14533156,0.021945808,-0.032519866,-0.13549002,0.16791584,-0.041301686,0.045916267,0.19079612,-0.45374084,-0.28878793,0.00444046,-0.17523576,0.0006544331,0.17658524,0.061919425,0.029013267,-0.09501598,-0.11905351,-0.13259721,-0.04253223,0.088373646,-0.054198902,0.045581434,-0.05540661,0.039284483,-0.4654857,0.075179115,-0.31770575,-0.112485886,0.05215235,-0.2507469,0.018810812,0.04590437,0.27093163,0.24337062,0.017894879,0.12630714,-0.037676133,-0.27933192,-0.027181426,0.10490275,0.090637766,-0.44065276,0.10081126,0.027513359,-0.059396,-0.2665763,0.3210539,-0.2535136,0.14121203,0.092458524,0.1461836,0.18289003,-0.103100985,0.02136239,-0.28076357,-0.023445223,-0.020481756,-0.022173868,0.09071837,-0.11780905,0.2851541,-0.34339714,-0.016525537,-0.020256784,-0.12836821,-0.1859357,-0.13200043,-0.19610114,0.15677659,-0.16486199,-0.1806954,0.20777354,0.08321053,0.020012576,0.06113367,0.27461562,0.027149187,0.41703233,-0.035441328,-0.047185622,0.3061256,0.05337022,0.14989825,-0.31271598,0.25113446,0.07550968,0.012165566,0.34259576,-0.20111223,0.06329329,-0.100460544,-0.23067346,-0.077997304,-0.2736886,-0.08116272,-0.025733849,0.28497234,-0.17358144,0.09049394,-0.0021874453,-0.29536557,0.13314056,-0.10427531,-0.20004222,-0.4425021,0.2262156,-0.007900044,-0.0011797799,0.12955084,0.018041473,0.14140214,-0.06834537,-0.31516933,-0.36847404,0.28259075,0.3650891,0.03799267,-0.037185173,-0.018205542,0.018591356,-0.0073212404,0.02762941,-0.41158384,-0.11527025,-0.3223444,0
unforgettable,-0.19864395,-0.090002395,-0.0031773422,0.18679364,-0.048712052,-0.023115516,0.14258209,0.17866097,0.17187302,0.07727218,-0.115922794,0.10025608,0.006350395,0.20354848,-0.087997615,-0.109458596,0.049023487,-0.27870083,-0.17960656,0.028478373,0.15262176,-0.34468853,0.16326994,0.12292727,0.15509917,-0.02746665,-0.14980142,0.054436874,0.13329157,-0.09662236,-0.07816615,-0.20537658,0.32472897,0.12822193,-0.17345864,-0.05900164,0.1295346,0.3619425,0.048875045,-0.16989899,-0.13438055,-0.07291776,0.029186437,-0.23749225,-0.044232693,-0.16175094,0.15549964,0.115669005,-0.03703921,-0.17413057,0.17111354,-0.08831994,-0.023298506,0.28494582,-0.2648141,0.12322799,-0.14542979,-0.01986966,0.09652532,-0.05879539,-0.07523585,-0.32196593,-0.18041858,0.093796164,-0.20719245,0.19319974,0.04286187,-0.056922838,-0.11062149,0.16656418,0.17387629,0.0184195,0.12757598,0.06633784,-0.021318207,0.23402168,0.038863406,0.2667296,0.107306056,-0.08021976,-0.046009056,-0.14601976,-0.087920696,-0.09262432,-0.2996303,0.10988534,0.44719082,-0.13695021,-0.07619471,-0.059376504,-0.24075668,-0.34742138,0.026039833,-0.018894795,-0.0010856965,-0.1540976,0.04618029,-0.08155231,-0.08791822,0.28556442,0.078720614,-0.1597132,-0.15070495,0.16786824,-0.1963976,-0.18590324,-0.0115952,-0.0040102955,-0.12044052,-0.06562352,0.2285129,0.339888,0.20697224,0.08881463,-0.30555344,-0.14319347,0.28574353,0.3070266,0.1363368,0.53933537,-0.12302671,-0.2746319,-0.04823277,0.1707481,0.16637017,-0.103360556,0.20305696,0.097558126,-0.13050789,0.04750901,-0.06458696,0.03400278,-0.105691835,-0.04607139,-0.04430553,0.27780816,-0.2499806,-0.3405214,0.15993907,0.065805726,0.008572351,0.081329525,-0.07972972,-0.27618995,0.08063531,0.044292826,-0.001312098,-0.17896517,0.049457897,0.023582704,-0.16500472,-0.1837588,-0.23151511,-0.19523033,-0.060202647,-0.08014743,-0.19606686,-0.008687029,0.11752364,-0.14539115,0.12666544,-0.13238513,-0.18409798,-0.12003768,0.22991638,-0.025167491,-0.13094059,-0.043339882,-0.106756575,-0.16310933,-0.041570928,-0.048865438,0.3788896,0.21370488,0.22452159,0.16296652,0.22206353,-0.022310503,0.055582877,-0.060457043,-0.15361899,-0.04852712,0.061645195,-0.19158964,-0.066498205,-0.15400317,0.13924746,0.06965964,-0.35662395,0.28269854,-0.030310428,-0.17610791,0.17504095,-0.024874901,0.042538673,0.2611802,0.11326533,-0.12928589,0.40079498,-0.018953973,-0.2486499,-0.10730831,-0.15215993,0.22650956,0.033602484,0.6014213,-0.05888572,-0.018531114,0.15015581,-0.14233229,0.100662716,-0.17776701,-0.29495493,-0.24634475,0.049806725,0.012320196,-0.105916806,0.04046765,0.40893567,0.17318738,-0.22629179,0.02966206,-0.16658886,0.47347617,0.06509246,-0.17928523,-0.057034902,0.2655326,-0.052256875,0.2651084,0.04663761,-0.13534348,-0.3385608,0.14016996,0.13848308,0.07221588,0.006002677,-0.19560385,0.055942953,0.349086,-0.017267236,0.2025716,0.06561621,-0.17904681,-0.029397411,-0.21269597,-0.039818995,-0.38578716,0.23934269,-0.08192038,-0.058277957,0.2902958,-0.14962941,-0.047854282,-0.13385557,0.2732518,0.067128,-0.24581143,0.14707017,-0.10929271,-0.13952136,-0.28111094,-0.06738455,-0.033330087,0.27386698,0.41423392,-0.069153965,0.012992271,-0.13371003,-0.0844173,-0.27435738,0.09712024,0.33113828,-0.0017618915,-0.15902245,0.12863514,-0.17915307,-0.08180579,-0.3425502,0.12939714,-0.32227242,0.13789594,0.20578116,-0.35047626,0.22741126,-0.33269894,0.15900238,-0.09767446,0.23640682,-0.07151888,0.021986274,0.31963685,-0.059563756,0.16763705,0.04188021,-0.33386743,-0.38090312,0.3561577,0.061476648,-0.17834152,-0.08480855,0.08281493,0.0102288835,0.20170237,0.2479189,-0.34923336,0.36562923,0.09818213,-0.05135398,0.30744195,-0.118512966,0.09879055,0.3402752,0.21838215,0.014163229,0.22565208,0.035843614,0.16940618,0.2656187,0.16840182,0.1927584,-0.04229911,0.28246534,-0.2652462,0.34735498,0.036793154,-0.3941085,0.048989546,-0.12104334,-0.0037637472,-0.31660438,-0.1394303,-0.104341835,-0.349943,-0.012782656,0.101055175,0.2468535,0.21099283,-0.24753587,0.06852316,-0.088560425,0.2975841,-0.12994656,0.27201068,0.01676481,0.094002284,0.49771917,0.33779728,-0.026009802,0.18819308,0.015596635,-0.106719695,0.066675656,-0.03098986,0.21320765,0.18108301,-0.05000267,-0.055601586,0.15328637,0.20340483,-0.017064592,-0.3589347,-0.20359789,-0.1655485,0.017839428,0.059167087,-0.022232618,-0.39054793,-0.4516528,0.21764737,0.07605767,0.11045707,-0.10518114,-0.03740452,-0.26384872,0.22260147,-0.13918869,0.0690859,0.020869449,0.10441217,0.2146152,0.31900352,0.12342125,0.2603913,0.09257635,-0.2796466,-0.2767552,0.00010564607,0.30748832,-0.086245954,-0.028132884,-0.25102258,-0.084571056,-0.07485479,0.108412765,-0.070861384,0.09379,0.21971911,0.12717319,-0.21035074,-0.2071283,-0.2001173,-0.11216874,0.105497696,-0.10625728,-0.07900658,-0.32228377,0.06972185,-0.015981764,-0.017049866,-0.4384969,-0.04526295,0.01627245,0.16172889,0.063817166,0.06589226,0.3387077,-0.20272622,0.26329774,0.4949312,-0.3328109,-0.1325882,0.03732883,-0.23276302,0.19721623,0.18624227,-0.07397457,0.17330244,0.14295678,-0.01977629,-0.2846106,0.011681208,0.18618594,0.04495786,-0.02649242,-0.3346294,0.33801952,-0.1587482,0.15032165,-0.047718357,0.10676583,0.06285921,0.101707935,-0.036451124,-0.2963437,0.14763945,-0.03750481,0.16535455,0.40241012,-0.06829446,-0.060835693,0.18209566,0.026041808,0.06477964,-0.074150115,-0.18679272,-0.101549365,-0.08939681,-0.035242,0.13062114,0.04064744,0.10380799,0.009858984,-0.0990623,-0.021945054,0.09782985,0.022018218,0.025225898,-0.29390824,-0.11227682,0.040420122,-0.028816545,0.1620965,0.17037745,0.012406839,-0.018951511,0.3068478,0.1539717,0.3036873,-0.19291961,0.1965013,-0.16036725,0.13316368,0.2344333,0.02257671,-0.022199873,0.4553393,-0.25405797,-0.17650582,0.121995874,0.19690031,-0.12794681,-0.1293433,-0.1007656,-0.08944105,0.20175649,-0.009477163,-0.1294547,-0.01432199,0.08104694,1
banal,-0.2524305,-0.19191045,0.008256923,0.10362741,-0.18074654,0.042413868,0.27249223,-0.19626348,0.033811994,0.032383937,-0.18012775,0.092527576,-0.0007490285,-0.11505911,-0.11895268,-0.12918818,0.07372371,-0.18712477,0.06016478,-0.1360897,0.039760564,-0.20098564,0.069445744,-0.21733806,0.3336828,-0.2297791,0.14559357,0.05988809,0.09591983,0.2555008,-0.118850976,0.13832077,-0.23096877,-0.17516764,0.16138306,-0.2370424,-0.054019574,0.19685328,0.06036936,0.17881699,-0.048716303,0.20698556,-0.054811303,-0.23205149,-0.03516195,-0.24454701,0.15939188,0.04747803,0.036275443,-0.051778786,0.32156178,0.13647051,-0.05063749,-0.14289224,-0.16365445,-0.08640163,-0.12471925,-0.1286731,-0.08785215,-0.076898515,-0.10728022,-0.016539227,0.028812386,-0.28221133,0.06705807,0.28491855,0.03143727,-0.15848798,0.037712038,0.038652826,-0.036852505,0.17712681,0.12836692,-0.12297581,0.16397442,-0.08391843,-0.09547979,-0.13588777,0.00392746,-0.032107193,-0.10811936,-0.003019686,0.13682933,-0.035026122,-0.17166895,0.2456781,0.23822425,0.091290995,0.011920475,0.2160161,0.06375563,0.021676097,0.047709975,-0.031757526,0.02471023,-0.21414119,0.14179023,-0.04321045,0.27796793,0.14042118,0.16748509,-0.2705916,0.2834102,0.0604599,0.03855222,-0.085503556,-0.08863134,-0.06365948,-0.2619978,-0.2344699,-0.039613985,0.06278841,-0.14673345,-0.086645566,-0.07459232,0.036172867,0.041404948,0.10740527,-0.20604265,-0.22073425,-0.19686587,-0.23717839,0.14495662,0.21543595,0.071620405,-0.11290371,0.010848696,0.079451196,-0.057773095,0.25473973,-0.069815844,0.015332044,0.2679481,0.18130839,-0.20043242,0.04742777,0.12021716,-0.07634314,-0.0936078,0.084236376,0.032665808,0.05292962,-0.07689364,-0.040479593,0.13750343,-0.24603157,-0.11353577,-0.036703866,-0.10801205,-0.2591254,-0.20407678,-0.22212227,0.22894804,0.038810104,0.16783969,0.04177207,-0.17199886,0.03556101,0.051296894,0.015003766,0.06838068,-0.10358266,-0.1829128,-0.1646686,0.062007688,-0.51407427,-0.13195132,-0.08034257,0.16298783,0.035364497,0.20494515,-0.18245444,-0.015411858,0.06939773,-0.1062647,0.120504536,0.16675785,0.021383112,-0.114796475,0.23842838,-0.29091734,0.09369641,0.21497428,-0.2674265,-0.067958705,-0.094596036,0.16743147,0.30761617,-0.31745812,-0.27206677,0.09690761,-0.27723417,0.24829961,0.23432928,-0.27885175,-0.00971618,0.07176284,-0.0635381,0.12344825,-0.14744037,0.17775457,0.1380942,0.1393408,0.1347204,-0.2259981,-0.14898081,0.25005063,-0.04803019,-0.0010331388,-0.08685632,0.17408809,-0.22668864,-0.003729023,-0.022576988,0.011818616,0.43095526,0.066716336,0.11866468,0.14437535,-0.2909361,-0.15912463,0.0889811,-0.13039114,-0.14510107,-0.018875604,-0.044974003,-0.06665096,0.1281056,-0.08267751,-0.23211345,-0.023950418,-0.10543929,-0.293674,0.27136505,-0.10084284,-0.15006222,-0.0817742,-0.03145961,0.12345169,0.34713006,0.31691453,0.11318048,-0.074438184,0.18154308,0.054270446,0.02398492,-0.4710398,-0.08122363,-0.2895214,0.00587786,-0.17055674,0.10115374,0.15473098,-0.18593648,0.051251996,0.101903304,0.21593651,-0.26642874,0.097397655,0.2684679,0.34781483,-0.14407569,0.09622977,-0.26384917,-0.11737594,0.041387595,-0.1836554,0.5938442,0.10448807,-0.092752255,-0.0824683,0.105075985,0.15413925,0.45446977,-0.26664844,-0.16155744,0.32292694,0.031676214,0.34793326,0.05552202,-0.06710361,0.026076656,-0.19508004,-0.2539691,-0.075722165,-0.37791565,0.05685555,-0.29350477,0.13118628,0.060063176,-0.14267774,-0.07883537,0.21635032,-0.12707318,-0.0398966,-0.062379997,-0.4037825,0.29196072,-0.2980092,-0.046127647,0.12759715,-0.18568014,0.23566383,0.3547627,0.22704189,0.19823141,-0.1256839,0.39776072,0.08532707,-0.10287831,-0.02516481,0.2272483,0.19281061,0.15038644,0.13338166,0.006683784,-0.08852057,0.02924602,0.20039144,0.14407064,0.089235745,-0.0062501244,-0.21397945,0.20153162,-0.10561779,0.1888785,-0.2903096,-0.15354948,0.02626155,-0.100602634,0.11353611,-0.034895778,-0.0438505,-0.026672998,-0.18326646,-0.08002205,-0.018322386,0.22732553,0.0653699,-0.3468731,0.039763838,-0.044034425,-0.28062046,-0.27007365,-0.08719531,0.20244984,-0.2006628,0.10034534,-0.13033216,-0.047593527,-0.024137221,0.046566494,0.023303205,0.009596839,0.0640645,0.277272,-0.1496016,0.06138769,0.043766554,0.25404277,-0.03697258,-0.036757473,-0.21722461,-0.24047193,0.026548237,-0.096768744,-0.10050359,0.12169636,-0.044893485,-0.04326576,-0.29444107,0.2529871,-0.17078526,0.15112217,0.010654914,0.2717707,-0.052670702,-0.09978271,-0.040438678,0.17082173,0.16881646,0.12589099,-0.2283111,0.044157833,0.1356666,-0.17581093,-0.018961852,0.39996085,-0.23892389,-0.31666583,0.2171071,-0.2108145,0.09452716,-0.1027897,-0.10782703,0.1340524,0.042502824,0.2027284,0.22352943,-0.10679419,0.0600895,0.25448102,0.1082772,0.022129184,-0.3427521,-0.03591447,-0.1790014,0.15605396,0.011435478,-0.106339246,0.022632087,-0.33916768,-0.047191642,-0.043322753,0.089450434,-0.034175113,-0.03652177,-0.12458845,-0.12921135,0.19558275,0.041981015,-0.189095,-0.15696248,-0.11212565,-0.04259594,-0.06789655,0.17566743,0.1830535,0.03168906,-0.19662207,-0.28436786,-0.024892043,0.37102112,-0.05456638,-0.02223198,-0.0599639,0.297411,-0.003688156,-0.2721387,0.147376,-0.063301705,0.08997592,-0.0032434103,-0.23758064,-0.13719593,0.10192969,-0.046263423,0.043562926,0.08466076,-0.056125686,0.1836284,0.153583,0.08498908,0.14607617,-0.45741287,0.027036836,0.13220401,0.042016305,0.10731277,0.18676445,0.21226901,-0.045363355,-0.041440804,-0.051354647,0.26704797,0.14505951,0.27467257,0.12878424,-0.31669557,-0.25547844,0.3900546,-0.009351205,-0.14104733,0.034736346,-0.123635024,-0.051708862,0.17174229,0.06921773,0.27676314,-0.11460911,0.019698203,0.2390168,0.099769525,0.097597875,0.21866067,0.34001333,-0.040835373,-0.20701674,0.18205053,0.25502342,0.15285753,0.13941841,0.33332992,0.114923984,-0.054698534,0.2651853,-0.104062706,0.04103641,-0.21792038,0.012875028,0
gains,-0.5761903,0.02163292,-0.0059878887,-0.19045761,-0.2532665,-0.24554212,-0.16882949,-0.10577398,0.058934994,0.24516344,0.24552318,0.05112066,0.43493047,-0.03826384,0.037125804,0.05323049,-0.18911472,0.15963316,0.006067435,0.121277355,-0.349375,0.0774757,-0.47258696,-0.047037393,0.041800573,0.0073048635,0.38977984,0.16591567,0.1572077,-0.08811371,-0.1500797,0.1665791,-0.12615152,-0.28383294,-0.32588398,0.044980112,-0.025675306,0.08502482,0.3220086,-0.2103234,-0.020146044,0.06626501,0.022881284,-0.16293915,-0.036884457,-0.18079036,-0.01044234,0.064956695,0.23555522,-0.024168843,0.015112163,0.50113946,0.08947767,0.11897319,-0.17078467,-0.31643474,0.16748281,0.40203184,0.076927826,-0.16966185,0.08730777,-0.11918227,0.34173957,0.035795905,-0.3382079,0.22147943,-0.18027912,-0.0021591648,0.049047295,0.043312717,-0.07679163,0.049597997,0.098557316,-0.08145181,-0.025372123,0.21319407,-0.056758776,-0.090226196,-0.19537127,-0.0057398668,0.19067138,-0.015089428,-0.051065683,-0.19247241,0.055338785,0.057249647,0.27691898,0.14774224,-0.062114134,0.014990582,-0.01456048,-0.21714468,-0.014316403,-0.32795066,0.21898814,0.17585172,0.08453074,-0.14985721,-0.14196348,-0.264581,-0.08905547,-0.007915817,0.13697103,0.12974705,-0.11900006,-0.11717987,-0.38283423,0.22003683,0.394153,-0.110744014,0.054780394,0.118718795,0.06322884,0.24178986,-0.12708196,0.27871126,-0.1063111,0.17084602,0.109867364,0.44059822,-0.0152303055,-0.09085306,0.2009509,0.20499572,-0.13395865,0.016435679,0.3571834,-0.06859407,-0.07226829,0.09349285,0.06310818,-0.0977331,0.20741555,0.04025594,-0.030839024,-0.1595627,0.1430789,-0.26747257,0.2668795,-0.05553237,-0.074875884,0.2151994,-0.07869336,0.027644902,0.18245938,0.06479713,-0.21862958,0.12668088,0.13223273,-0.023877958,0.008658019,-0.17277223,0.07188291,-0.015765427,-0.015931847,0.18816757,-0.12181135,0.01364922,-0.18130845,0.28908873,-0.051483415,-0.37848482,0.037660122,-0.16016914,0.1841481,0.16993736,0.2175759,0.16763067,-0.23339824,0.09201313,-0.0715426,-0.33658105,-0.072694995,-0.17519383,-0.06758031,0.119114846,-0.3702961,0.43613508,-0.17179039,-0.1939305,0.02923916,-0.12827669,-0.12883508,-0.1532606,0.24046405,-0.19200386,0.32892534,0.16437744,-0.115921825,0.005393939,0.03541395,-0.2875056,-0.11085178,-0.17869483,-0.1947461,0.23047765,-0.006784321,0.15503834,0.32342434,-0.16232958,0.141604,-0.21728595,0.206742,0.2862815,-0.027788982,-0.051231958,0.06345153,-0.23350562,0.2800316,-0.05271826,0.05514977,-0.22501116,-0.1504407,-0.18296556,0.46255407,0.08108361,0.57385224,-0.0037123475,-0.111289315,0.03759629,0.22206569,-0.031905565,0.10906249,-0.099316746,0.16376846,0.18309268,-0.106391855,-0.15190944,-0.024323748,-0.17478096,-0.024673805,-0.061858177,0.48635116,0.025644135,-0.12235334,-0.05879381,-0.37773663,-0.17631732,-0.2760367,0.09217554,-0.15619259,-0.005934899,-0.21436623,0.08762843,-0.21757205,-0.03632387,-0.009413172,0.15519936,0.28218287,0.34944,0.27538872,0.37294078,0.032068267,-0.024926154,0.07805078,0.10694156,-0.075443074,-0.019484265,0.043108735,0.17770056,0.025245432,0.21657045,-0.15505876,-0.295122,0.28058004,0.21325435,0.25226912,0.023236124,-0.3274811,0.26029775,0.24620119,-0.18906625,-0.029201457,-0.06226277,0.07550083,0.29680252,0.063661225,0.29779145,0.02354269,-0.15230384,-0.19149958,0.14101209,0.45420417,-0.28464577,0.061311685,-0.08612472,0.19191395,-0.23613928,0.14529613,0.09464015,-0.24496618,-0.07386333,-0.12660316,-0.0075393803,-0.2831311,-0.08823351,0.41122484,0.0091483565,0.12533167,0.1541411,0.20601428,-0.021866186,-0.10714991,0.20504798,-0.27910653,-0.1328148,-0.44306174,-0.14563657,-0.073738754,0.20967793,0.03269215,0.19972618,0.114957385,-0.15530494,-0.15283531,0.014653728,-0.36496454,0.013008743,-0.111408405,0.36140764,0.43492526,-0.02526966,-0.0251072,-0.3067247,0.02379563,-0.39234516,-0.16920863,-0.26513547,0.01850775,-0.076420255,-0.07266267,0.4157856,0.008877491,-0.1522841,0.1386222,-0.050897665,0.0038616513,-0.10749987,0.16845743,-0.23764713,-0.17142534,0.02063647,0.3056576,-0.013690366,-0.19290955,0.056483764,-0.09018351,0.15833792,-0.06775218,0.15718178,0.026857348,0.16343305,0.07415453,-0.19247726,-0.14883462,0.3367514,0.16503945,0.099479824,0.38504058,0.10535178,0.1211039,0.10978165,0.17369032,0.01242882,0.01564828,0.046423335,0.017586317,0.017974626,-0.1741425,-0.10638405,-0.088125,-0.18373041,0.13822623,0.010674243,-0.1003864,0.1164098,-0.010727838,0.2283451,-0.07966493,0.06572767,0.123679414,-0.0890677,0.051984087,-0.23424588,0.23237045,0.39012256,0.0819999,0.02720721,0.30868426,0.0029043192,0.4097617,0.004137197,-0.048484515,0.18071435,0.020530533,-0.19746,0.1782795,0.14784488,0.080876745,-0.340167,-0.4102718,-0.17540452,0.18474239,0.02521677,-0.2947215,-0.024603013,-0.33168462,-0.05140257,-0.30036116,0.10318846,-0.35896814,0.016057685,-0.1429801,0.34759718,-0.008243749,0.066754684,0.23335093,-0.1543905,-0.05138757,0.52586824,0.15661465,-0.2955054,0.036471132,-0.12784992,-0.040339112,0.16907576,0.41579702,-0.0027002036,-0.1716441,-0.045313768,0.104196586,-0.046718623,0.01945992,0.045190357,0.31947118,-0.21241018,0.3382364,-0.06594095,-0.030476524,-0.23547028,0.00972498,-0.024169222,-0.00459353,-0.0008255548,-0.18322958,-0.057143632,-0.09930536,-0.046559773,-0.14333932,-0.28449884,-0.38510385,0.14579742,0.072520934,-0.03951569,0.09165707,0.15267897,0.1527223,0.201663,-0.0056796707,-0.2327547,-0.16021335,0.19004385,-0.32737583,-0.25303605,-0.017088778,-0.07541929,-0.07894781,-0.042940862,-0.12131864,-0.07365226,0.10289524,-0.3752542,-0.07501499,0.13369375,-0.37511525,-0.3948046,-0.33750057,0.575636,0.11928983,-0.33113128,-0.08569373,-0.3290717,0.19285321,0.13585028,-0.03269107,-0.07733405,0.39323577,0.027553365,0.34043112,0.14520487,0.1221747,0.29802513,0.119669,0.19307296,-0.38725147,-0.19535431,-0.443531,-0.021380084,-0.12248881,-0.42617422,1
evil,-0.13898966,0.1217171,0.1136385,-0.060525198,-0.118223794,-0.19408035,0.16742495,0.07166241,-0.033943523,0.072532006,0.23190443,0.018922297,0.30241942,-0.2576139,-0.1603198,0.14678982,-0.13885275,-0.34729925,0.058419198,-0.18460272,0.19149761,0.1098772,-0.29962716,-0.05372982,0.3420311,-0.15833892,0.29082313,-0.047074225,0.059688862,-0.018737096,0.011374249,-0.07044191,0.06360014,0.08111294,0.2402862,0.13344428,-0.09672868,0.014925662,-0.03735929,-0.0056982622,-0.22894344,-0.027644675,0.005550498,0.020924164,-0.16512147,0.10204165,0.36712408,0.2546148,0.23009902,0.2829781,-0.18313164,0.0366876,0.1162576,-0.011138799,0.055142563,-0.15948166,-0.038321447,0.18508486,0.023278175,-0.0915629,0.047250036,-0.08087278,-0.078260735,-0.11824955,0.2004012,-0.023667604,-0.2862232,-0.005604675,-0.007900381,0.4068973,0.21871154,-0.16112499,-0.27665824,0.11704033,0.26637408,-0.038443234,-0.2246422,0.20686479,-0.23761578,0.09694039,-0.01091268,0.07643839,-0.012755077,0.17071514,-0.12013836,0.40375894,0.18216953,0.43309188,0.10267283,-0.13747136,-0.118812926,-0.09625148,0.067196034,-0.26337686,0.2778015,0.007945449,-0.019843038,-0.060011346,0.2839053,0.1050806,0.11894772,0.09316142,0.19202133,-0.2885463,-0.0049753953,-0.04531739,-0.1355005,-0.21504623,-0.32245517,0.011902779,0.0937103,-0.15683568,0.08791344,0.0029901222,0.19524081,0.06197079,-0.264742,0.040161178,0.00095317815,-0.19081245,0.07837113,-0.124322005,-0.31990314,-0.12083811,0.27949077,0.18316627,0.48763767,0.087813005,-0.006591138,0.31039286,0.0010620629,-0.11543949,0.2717944,-0.14414845,0.15966198,0.059919253,-0.09740382,-0.23742802,-0.09068756,-0.26879355,-0.12747379,0.43653387,-0.09839292,0.24544294,0.30775318,0.20934181,0.21081875,0.08275866,-0.029550267,-0.12708755,-0.16917548,-0.15192167,0.051708866,0.41961798,0.12393653,0.11736508,-0.34397262,0.07739612,0.14405815,-0.07511481,-0.23869067,0.042442143,-0.14584821,0.0052847345,-0.085925125,0.2798136,0.056995526,-0.027418502,0.20125563,-0.109270744,0.59122384,-0.07169494,-0.36073005,-0.057077765,-0.32232958,0.09608635,0.028310264,-0.36257142,0.28069386,0.15128148,0.1844058,0.3091659,0.07813394,-0.17286777,-0.13075146,-0.11462613,0.19375585,0.19726206,-0.1462916,0.22120228,-0.11759397,-0.3122556,-0.20507436,-0.00402799,-0.15250742,-0.07933198,0.10772239,0.021017592,0.062350243,0.23990098,0.060660917,0.29489827,0.4258138,0.40951622,-0.19627416,0.14259242,-0.359324,-0.043922767,-0.21161771,0.013268263,0.03928741,-0.1142072,-0.031311844,-0.02692969,0.018083915,0.06201689,-0.086061694,0.004237819,0.027289364,0.20904985,-0.3121827,0.083710164,0.095148996,0.011588825,-0.029445065,-0.107470855,0.28911385,-0.20954482,0.02655534,0.10737033,0.09328288,-0.17394148,-0.38994858,-0.121029414,0.06895679,-0.098434806,-0.0003572899,0.078801565,-0.20547757,-0.17385738,0.02396662,0.18436004,0.017739808,0.3044022,-0.11146149,-0.50184345,-0.039118573,-0.26883036,0.014682736,0.18482,0.064640984,0.09344702,0.05245564,-0.029970018,-0.43788525,0.16032222,-0.20149662,-0.18542264,-0.27339426,0.05198416,0.03844912,0.016348831,-0.049666863,0.05834521,0.29850715,0.23045063,0.013821566,-0.024391646,-0.09469248,-0.014518502,-0.18485172,-0.24596658,0.24357389,0.19820179,-0.10975146,-0.015847638,0.16737239,0.2931505,0.22148634,0.020467186,0.11182528,0.15117787,0.11112453,-0.017668927,-0.25980487,-0.09177613,-0.039853416,0.050742008,0.00041644112,-0.27286622,0.18651801,0.042378396,0.03728041,-0.28996083,-0.04329762,-0.1370444,0.22324057,0.11866742,0.08422164,0.1221208,-0.055144012,0.08700726,0.06345767,0.19104396,0.50526375,0.4126964,-0.2844854,-0.16669765,0.014521608,0.24999763,-0.00979531,-0.2729633,0.13346851,-0.14459746,-0.22194587,0.2174522,0.01915187,0.1159334,0.1848834,-0.0714483,0.14445135,0.06291466,0.13209078,0.07102396,0.1339082,-0.6404292,-0.100909315,-0.5501662,-0.034269363,0.074321344,0.01752674,0.106922366,0.1735397,-0.23127383,0.15708208,-0.3990895,0.13881452,0.09782107,-0.10714304,0.04260982,0.049234446,-0.3614023,0.014875718,-0.24989067,0.33608723,0.120515525,0.023477748,0.15102813,-0.09803257,0.15299179,0.52588636,0.27555507,0.07866192,0.060044188,0.099500686,0.45674896,0.38241705,0.08773384,0.29854783,0.34271774,0.274034,-0.019153988,0.16216467,-0.07418413,0.16489922,0.2602103,0.052626047,-0.09376058,-0.11336417,0.08664112,0.10591759,0.19321628,-0.22543733,-0.08815493,0.03605405,0.3544625,0.030199213,0.13628083,-0.2942284,0.5577201,0.05181051,0.3505911,0.38841432,-0.12840405,0.053185288,-0.22053559,-0.08461013,0.13775659,0.18316396,0.098754816,0.37300557,-0.013982386,0.08527124,-0.09548256,0.15916792,-0.07743419,-0.15815003,0.08835039,-0.09486809,-0.13970865,-0.059896555,0.17074351,0.18320823,-0.03487566,-0.14887057,0.10769176,-0.09947734,0.27227363,-0.06936936,-0.016303513,-0.06557321,0.25042218,-0.43105,0.14196542,0.3414877,-0.09751219,-0.04212777,0.019464869,0.11599888,0.35613677,-0.022458673,-0.11264247,0.278951,-0.078305,0.14862357,-0.14825107,0.26661655,-0.25144854,0.18958534,0.15063986,0.16334288,-0.23916739,0.07406705,0.47877187,0.2320046,-0.07013156,-0.092488214,0.094298206,0.28325462,-0.0074630827,-0.02045152,0.17171949,-0.07343669,-0.2265037,0.17394868,0.23706694,-0.26196247,-0.06710358,-0.1261789,-0.038147513,0.062008843,-0.091212384,0.009724393,0.31693998,0.013993841,-0.14740215,0.15697385,-0.00021852773,0.09276619,0.23119263,0.18886204,0.15664251,-0.28771088,-0.13291968,0.3148401,0.31503138,0.062278233,-0.03468557,-0.15994431,-0.07983757,0.31992668,0.022465914,0.18287452,-0.22496039,-0.022245541,0.12595163,0.08263592,0.15785721,0.62136745,-0.38245672,0.060739376,0.12102388,0.123339355,-0.07756514,-0.017163722,0.29270986,0.07870759,-0.010561782,-0.39397806,0.015342851,0.2958817,0.31972155,-0.106916465,-0.029986221,-0.33181703,-0.08366724,0.08755086,0.10184771,-0.2308002,-0.21157849,0
happy,0.003743308,-0.059663404,-0.1991949,0.1687377,-0.027275015,0.15658528,-0.035235036,-0.04572061,0.064697556,0.030566733,0.17984279,0.096938245,0.09884918,0.011980875,-0.025399204,-0.03825117,0.04825772,0.0531297,-0.16258042,0.26583737,0.25319317,0.0636938,-0.231804,-0.23639502,0.29901418,-0.35571873,-0.198254,0.1283636,0.10726765,0.2581097,-0.050935656,-0.11656233,-0.18511808,0.06552116,0.11769036,0.306063,0.33128855,0.29519963,-0.19286102,-0.05704096,-0.047919925,-0.18117413,0.22157612,0.03969986,-0.14822674,-0.061045807,-0.037709936,0.2666129,-0.06962324,-0.030041553,0.08288521,0.035519417,-0.41814208,0.08263062,0.021460079,0.16573636,0.0283297,0.18400466,0.20624366,-0.41748944,-0.0076793404,-0.12186583,-0.29338792,0.07464921,-0.15267989,0.041675467,0.21168174,-0.19082884,-0.03426578,-0.18929121,0.02372442,0.0691352,0.16248515,-0.044953678,0.0563558,-0.02806391,-0.09269686,-0.21211825,0.25638044,0.16782972,0.065257385,-0.17065403,0.108590096,-0.267583,-0.111634776,0.12663044,-0.055163708,-0.15583716,0.033491146,-0.21665582,0.24842057,0.015009698,-0.011222893,-0.18793657,0.11869494,0.049910966,-0.009704941,0.29580104,0.30421287,-0.16297927,0.112560175,0.072139144,-0.047853567,-0.29038176,0.07211748,-0.01070331,0.0038811823,0.2928627,0.11124859,-0.24063225,-0.1360199,-0.12429236,0.24759749,0.13007024,0.34883377,0.10558407,0.069769286,0.12597156,-0.12791419,0.14086285,-0.15226024,-0.18639927,-0.28160074,-0.021509428,0.1910805,-0.08768452,-0.03049087,-0.38587946,-0.012214044,-0.21142502,0.0836041,0.13106754,0.18914159,0.008609458,0.27015445,-0.07018989,0.08561351,-0.31954837,-0.08102974,0.38924953,0.19900663,0.015178977,0.22469884,0.29447442,0.019620692,0.23359571,-0.1459687,0.13208422,0.3140012,-0.11696033,-0.045966044,-0.15578285,0.20122202,0.21962465,0.25555584,-0.067772746,-0.19584687,-0.14068472,-0.050718423,0.16972035,-0.093653955,-0.1998506,-0.38407022,-0.13975373,0.116623625,0.21482399,0.17205943,0.09432081,0.20945363,-0.12003163,-0.4265291,-0.1661854,0.11814095,-0.077599764,-0.0068022725,0.19717568,0.11948936,-0.0038193702,-0.02159097,-0.23877789,-0.027827183,-0.063798815,0.010500395,0.15125206,-0.15504271,-0.29233062,0.2221816,0.05235772,0.026010644,0.12011752,0.109457895,-0.11266773,-0.09474953,0.14916117,0.115961954,0.09326408,0.06573413,-0.02177656,-0.1146832,-0.21761617,0.052259944,0.007755494,0.3646551,-0.22593771,-0.32407805,-0.03663468,-0.1257964,0.050407644,-0.37526855,0.14997208,-0.058197983,-0.063896224,0.25443214,0.07545081,-0.6130557,0.2775529,-0.22487569,0.13603698,0.43863836,-0.013237315,-0.08261834,0.12440974,-0.009769814,0.035269435,0.070477806,-0.17902343,0.13712695,0.28850114,-0.101925276,-0.17088285,0.087700024,0.051882774,-0.061384086,0.006767941,-0.1194313,0.3048025,-0.21286772,-0.18090215,-0.18421787,0.10845529,-0.035027746,0.05207822,-0.02340641,-0.24014664,0.15076241,-0.059195727,-0.16581216,-0.027297236,-0.048488766,0.011084193,-0.085177295,0.360085,0.35198072,0.11264045,0.10347169,0.10035652,-0.19368553,0.15670672,0.13958739,-0.11864167,-0.09584636,-0.12760778,-0.17272604,-0.15899023,0.015234428,-0.048245605,-0.0241628,0.19022304,0.034409303,-0.21802887,0.21548246,0.23906215,0.24717066,-0.17548545,-0.18053865,0.058900163,0.06303536,0.23720317,-0.2269021,0.24500883,-0.05045294,-0.09512518,0.26311573,-0.23935886,0.124579415,0.2960302,0.002643243,0.13267532,0.32431945,-0.079402745,-0.16966988,-0.16349521,0.025776722,0.08791698,-0.089638665,-0.020008974,0.15702459,0.19230215,0.02370467,0.012222646,0.04825429,-0.3297196,-0.018394765,0.059077512,-0.14289542,-0.26733696,-0.020252433,-0.043780677,-0.1169727,0.08529386,0.118554026,0.14379174,-0.0011038916,0.09541146,-0.06700056,0.026691508,0.26106152,0.17027779,-0.03184263,0.11930096,-0.073439255,0.25544503,0.057963297,-0.27392197,-0.14107682,0.022504566,-0.262973,0.40346763,-0.22314447,-0.21529959,-0.072772495,0.14241697,-0.020685945,0.013445475,-0.1439275,0.08829537,0.117229745,0.060901623,-0.2278344,0.03275096,0.11626413,0.13217595,-0.038006384,-0.023613986,0.2408221,0.047683876,0.08143776,0.22690116,0.025459226,0.42472017,0.119341105,-0.21515581,-0.12133125,-0.2847938,-0.08946828,0.14785473,-0.020476557,0.17278703,0.26025307,0.34054375,-0.2674535,-0.21057369,-0.015556571,-0.24429038,0.007371347,-0.054151397,-0.21522307,-0.0812624,-0.008114959,0.168645,-0.15329827,0.090266086,-0.036832042,0.069798976,-0.0333084,-0.079295486,0.08537444,-0.05884503,-0.11150546,0.12181055,-0.0005789758,0.07651427,-0.1809809,-0.19298817,-0.16755982,-0.22446519,-0.100277655,0.113231055,0.053546462,0.28223485,-0.01856386,-0.09865338,0.14517893,0.13731486,0.15510848,-0.041618116,0.32100403,0.06757289,0.080455996,0.0071363216,0.0343766,0.13313615,0.1700824,0.21109653,0.09780119,-0.16782777,-0.05392513,0.021924058,-0.0031457662,0.05073851,-0.30813447,-0.08981595,-0.0010374022,0.10064788,-0.18385206,0.12671776,-0.008554211,0.025534656,-0.045026883,0.13738729,-0.11398992,-0.07021725,-0.16457061,0.05919715,0.044491302,0.0051947185,0.2659955,-0.04879829,-0.11184794,0.18639228,0.096098006,0.20373808,-0.04043753,0.06669472,-0.31388095,0.17049325,0.20225112,0.2679511,-0.03622114,0.2967581,-0.007024629,0.05027326,0.1751926,0.14011735,0.003956462,-0.2216423,0.15691282,-0.15205327,0.021881491,0.3146855,0.083462276,0.1607925,0.12599382,0.04752651,0.012730708,0.095986344,0.029541507,-0.15683696,-0.05306649,0.051748037,0.03682623,0.045130294,0.071222305,0.13108332,-0.177161,-0.09780643,-0.045765605,0.45019305,-0.035609186,0.12604645,-0.13125251,-0.020853657,0.0038280566,-0.22177231,-0.14939766,-0.044812717,-0.1075403,0.007929626,-0.19487353,0.27298835,-0.04579856,0.15748672,0.09668181,-0.16336142,-0.17402169,-0.16815278,0.13077201,0.045800142,0.09964878,0.09035254,0.18748558,-0.2283025,0.11857313,-0.007269358,0.15237471,-0.08408687,-0.06416362,-0.03387973,0.2305936,0.05606235,1
bland,0.24635287,-0.075569734,0.07316844,0.09305359,-0.32485119,-0.16959202,0.030971333,-0.13827987,0.017495217,-0.014265124,-0.056098197,0.111146376,0.034205556,-0.08108115,-0.117769785,-0.10030243,0.115061186,0.10153005,0.22193623,0.014874771,-0.043673627,0.21537188,0.2805537,-0.10806059,0.1049726,-0.033870842,0.005518838,-0.33334473,-0.16484681,0.1039265,0.10204042,-0.03745031,-0.19301422,-0.3454624,0.1298877,-0.14024378,0.1742917,0.12843409,0.24657205,-0.012546694,0.23803434,0.24732658,-0.1707875,-0.021753002,0.15166079,-0.0730923,0.25272524,-0.15641154,0.16001499,-0.089142404,0.15264206,0.008260481,-0.08562773,0.26969996,0.13767001,-0.05547437,-0.34377503,-0.16776124,-0.3989344,-0.01623729,0.09886998,-0.19402513,0.06556356,-0.17923851,0.15275788,-0.17673619,0.18849446,-0.24334888,-0.0607274,-0.10499259,-0.07094262,0.17754792,0.27482605,-0.2838817,-0.12632376,-0.06888309,-0.07932658,0.034921102,0.06382145,0.26443523,-0.2158611,0.0778203,0.15470698,-0.07197329,0.009205118,0.4792487,0.08571726,0.03928481,-0.18959254,0.22032854,0.058355153,-0.0807134,-0.07747752,-0.1928465,0.14142416,-0.049958233,-0.059120167,0.24945867,-0.07769273,0.15704316,-0.027602406,-0.14449729,0.12404561,0.17561464,0.18385598,-0.11842428,-0.024714751,0.055646,0.10955812,-0.14839475,-0.0572781,0.24038649,-0.15659055,-0.03706772,-0.03185246,0.12856975,0.12102204,0.4570184,0.13886423,0.041079067,-0.03769747,-0.28584835,0.14997217,0.18462653,-0.18276352,-0.25232688,-0.050843958,-0.110372536,-0.11015755,-0.076572485,-0.13840964,-0.18264505,-0.10945643,0.05579942,0.21150884,0.09749451,0.033470225,-0.0021550239,0.17748116,0.13778852,0.3042084,0.16077688,0.036178317,-0.17916065,0.03875933,-0.23672421,-0.09752161,-0.11098791,0.023712173,-0.4262677,0.16676253,-0.25039542,-0.06787526,0.038004708,0.33644235,0.10265289,0.020429503,0.16218339,0.07575641,-0.10602365,0.10515043,-0.041703682,-0.03240125,-0.02356884,-0.045925792,-0.43374047,-0.06921538,0.007108081,0.1834215,-0.141689,-0.041429687,-0.26742783,0.13042164,-0.01897126,0.118697114,0.43863043,-0.021977365,-0.15036452,0.079341814,0.17439409,-0.089456625,0.25449395,-0.05347845,-0.17273396,-0.14521234,-0.02313069,-0.0033453659,0.06639376,0.04052147,-0.07584528,-0.09538053,-0.07027002,0.20641157,-0.29247576,-0.3223424,0.07600798,-0.028468968,0.01236018,0.14707325,-0.20744935,0.26554087,0.24343802,-0.23140423,0.20231327,-0.4008832,0.3300495,-0.19042179,-0.20594604,-0.19726822,-0.25732738,0.11825839,-0.03131258,0.008329364,-0.06046021,-0.022375157,0.34458604,0.11495751,0.11728381,-0.092285685,-0.15268716,-0.17127438,0.12271802,-0.042952973,-0.015005,0.096623704,0.16698362,0.14670272,-0.046597093,-0.08613877,0.06750585,-0.09282567,-0.14474219,0.30434698,0.028909298,0.26602447,0.04909075,-0.23281574,-0.10411094,0.017204685,0.38930285,0.20927775,-0.1768095,-0.2219823,0.14130755,0.17786494,0.057111386,-0.0043557324,-0.23444109,-0.101039626,-0.19476824,0.12928872,0.14942713,0.3968402,0.034616698,0.014652209,-0.051579125,0.42719147,-0.23458005,0.18035072,0.2548541,0.11063418,-0.22181153,0.34565043,-0.14690992,-0.17623082,0.3074204,-0.01568253,0.097740166,-0.19329585,0.013150187,0.099136055,0.23562501,-0.15287766,0.28061655,-0.17603147,-0.0059306053,0.20237297,0.21950246,0.089016736,0.10171449,-0.12120873,0.14035146,-0.12746271,0.028062692,0.062477995,0.03972834,0.05683851,-0.08650281,0.27978706,-0.17472781,0.08184038,-0.28095573,0.12033498,-0.10639258,0.23422301,-0.12291173,-0.3771295,0.2712863,0.016925864,0.023189146,0.06089285,-0.0061218776,0.15816718,0.49801257,-0.03548926,0.010997074,-0.07124526,0.35904977,0.0070264037,-0.06012064,-0.08993339,-0.017257452,-0.19504584,0.050740995,-0.03747055,-0.012695583,-0.015044169,-0.06391561,0.12185385,0.046062406,-0.23244637,0.081982456,0.1283203,-0.046458483,0.19948119,0.26030603,-0.05469988,0.17500316,-0.06745933,0.17274714,0.054691862,-0.13277481,-0.05192803,0.103481345,0.15077414,-0.09384999,0.08910628,0.00285739,0.20902444,-0.04086459,0.07001814,0.093576126,0.09378696,-0.031428974,-0.10229511,0.2958261,0.001206289,0.0051698238,-0.0016083986,0.10289904,-0.07058186,0.049521185,-0.06727342,-0.010726147,0.30899116,0.053015854,-0.079229124,-0.15816297,0.13561422,0.2648431,-0.12496892,0.006732627,0.2006278,0.076068714,-0.21100692,0.026492873,-0.19999686,0.10990378,-0.029233461,0.18467188,-0.16042145,0.418139,-0.07134721,0.12829389,-0.091824986,0.35366815,-0.114448056,0.02899064,-0.15156971,0.28880757,-0.0995022,0.32548586,-0.13156304,-0.32587206,0.14564043,0.01887636,-0.0400246,0.0040775323,-0.06208412,0.089320384,0.28744125,-0.10696087,-0.008456831,0.13369367,-0.17617959,-0.013627236,0.18517669,0.31295264,0.23991011,-0.28118506,-0.20455989,0.0035684786,0.08205391,0.040539496,-0.15432987,0.112891756,-0.10307278,0.3746124,-0.005997064,0.048985116,-0.11547513,-0.20196483,-0.071023,-0.16284934,-0.2223086,-0.20563295,0.11657834,0.07654907,-0.36062843,0.074687615,0.0823738,-0.28229052,-0.15190846,0.04123541,0.08096514,0.0029533668,0.10177372,-0.11298777,0.10173709,-0.2573195,-0.008896775,-0.14456032,0.03708399,0.1127895,0.057523776,0.23113517,-0.08900436,0.15940051,0.043971688,-0.32890463,-0.13650802,0.20644239,-0.034464084,-0.017853316,0.004249278,-0.006555966,-0.11314106,0.095398016,0.092165895,0.010757534,0.35007116,0.19273618,-0.0019913607,-0.023867212,-0.021061428,-0.040543403,-0.024393016,0.17047419,0.03304739,-0.07547959,0.07612563,-0.05377131,-0.3650092,0.16168086,-0.14771938,0.22088437,0.08297131,-0.030820865,-0.3443935,-0.053321023,0.27014506,0.1601307,0.28760952,0.21606886,-0.046626233,0.07329327,0.2626509,-0.07726557,0.16864526,-0.14109641,0.041506536,0.053486936,-0.016362559,-0.3461509,0.031045564,-0.060961902,-0.19925065,-0.37013084,-0.17950265,0.07386513,0.14771068,-0.04728608,0.14034344,0.22405022,0.019354893,0.25319254,0.11829964,-0.08057365,0.10524446,-0.08302565,0
positive,-0.1573885,-0.14840893,0.05044939,0.1946517,-0.18882161,-0.36484358,-0.19860311,-0.08231301,-0.034893233,-0.34791693,-0.10657151,0.030147951,0.09290935,-0.0791617,-0.07826909,0.0320059,-0.14357692,-0.2917295,-0.047502343,0.16297944,0.07617833,0.24914673,-0.025657678,-0.35000846,0.38825473,-0.028239496,0.055637088,0.06553402,-0.20947172,-0.0016741195,-0.10403945,0.11255563,-0.14111625,0.038707845,-0.15090255,0.16270022,0.16660595,0.24070618,-0.012289422,0.028456738,-0.0073730694,-0.13111566,0.27130064,0.09374657,-0.12155297,-0.13703772,-0.11460583,-0.020473504,0.115017064,-0.11271339,0.16184711,0.10373835,-0.13373148,0.28559074,-0.19404669,-0.14104919,0.18922424,0.26522893,0.10734574,-0.04818977,0.19867286,-0.18185924,-0.31160188,0.06746795,0.0039380644,0.09126583,-0.070321694,0.010431287,-0.33749297,0.052764542,-0.22607574,0.18409686,0.44326827,0.17997769,0.05815322,-0.13162489,0.11278588,-0.16396765,0.07420463,0.09315973,0.06791407,-0.06849752,-0.10094271,-0.12072642,-0.033208363,0.17440037,-0.29723352,-0.46961382,0.05209288,0.09337965,-0.07550596,-0.19677696,-0.092983484,-0.223395,-0.17884065,-0.031695645,-0.15403226,-0.11656407,0.21979319,0.18367049,0.24475579,0.04910224,0.11597543,-0.27923635,-0.05414768,0.2431478,0.027598815,0.03868128,-0.060970582,-0.04200279,0.25672907,-0.06121608,-0.0017717918,0.040601596,0.262841,-0.06646888,0.2453832,0.34660155,0.06743784,0.28327996,0.011384205,-0.14440055,0.19504525,-0.30570838,-0.27724913,-0.09823755,-0.09505705,-0.3576483,0.056341983,-0.15324235,-0.07674571,-0.11687235,0.07364543,-0.38865772,0.09305541,0.18944101,-0.14474021,-0.05288833,0.06738166,-0.08230702,0.24427205,0.16043681,0.45228583,-0.3195632,0.19745946,-0.034825876,-0.0954353,0.02222613,-0.14449657,-0.23962665,-0.05986096,-0.18335602,0.25934127,0.2108613,-0.4794581,0.12200128,-0.11454082,-0.2009481,-0.12006826,-0.056200467,-0.16742924,-0.28102523,0.07063761,-0.24980734,0.21599837,-0.051054526,-0.13936219,0.21221465,0.12030063,0.0142390365,-0.14355302,-0.38925606,-0.12755033,-0.30568638,0.07507043,0.011429421,-0.21335587,-0.17820896,2.4791212e-05,-0.37100753,-0.2331416,0.10985712,0.07074421,-0.031581465,-0.011620106,-0.40966713,-0.06391702,-0.21498258,-0.048888113,-0.07582284,0.25100067,-0.17491198,0.10830352,0.096106865,-0.21138726,0.09362196,0.20543176,0.17330174,0.17117934,-0.038996253,0.0939717,0.2934317,0.23528813,0.18035582,-0.17544147,-0.06902006,-0.106650524,-0.25128877,0.2097729,-0.17840235,0.22296993,-0.10842061,0.00774299,-0.12131504,0.14029576,0.3480898,-0.25161952,-0.26534146,0.13081878,0.012217964,-0.3274078,-0.14253396,-0.16960913,0.12319754,0.08793987,-0.047517266,-0.012240624,-0.01524792,-0.17064187,-0.008849415,0.13122119,-0.16570799,0.14029199,-0.156694,0.3314685,0.3082509,-0.23848166,0.04331329,-0.08579094,0.35337245,-0.22851321,0.17770147,-0.08404502,-0.25578788,-0.18329139,0.22716378,-0.2716307,-0.019375332,-0.21479762,0.07031832,0.25324613,0.38042092,0.08822298,0.15414743,0.05229725,-0.12910955,-0.27341405,-0.26148465,-0.06915605,0.036519244,0.049735155,0.20333743,0.13667727,-0.22569977,-0.20729852,-0.14124763,-0.09638313,0.0757907,-0.07972186,-0.052793317,-0.21283425,0.23380911,-0.117315784,-0.07346867,-0.0041820756,0.21863219,-0.19571362,0.03542455,-0.194822,-0.09298061,0.08653258,-0.14662844,0.15298639,-0.3699638,0.19954717,-0.08730819,-0.02978777,-0.25216576,0.0638921,-0.05282081,-0.09583102,0.11218751,-0.0138800815,0.005787326,-0.10430109,0.23344672,-0.1343086,0.06717517,-0.05421764,0.06389871,0.20059144,-0.29054725,0.10484946,0.37603027,0.30724177,-0.15196475,0.32014498,0.032381207,-0.16372071,-0.3870021,0.06264194,0.26966193,0.33268586,0.07149246,-0.19535413,0.012118462,-0.16198942,0.38592005,0.17506015,-0.05191897,0.14013426,0.042239774,0.040067043,-0.3289601,-0.1584202,-0.038639817,-0.18949498,0.07820511,0.09075831,-0.1693178,0.1763588,-0.2797082,0.14466494,0.06882744,0.08842843,-0.17235515,0.13482273,0.10068151,-0.017347937,-0.07640741,-0.18376967,-0.016822591,-0.39619038,0.10883026,0.08177294,0.045768194,0.10673617,0.086749285,-0.081034794,0.19577953,-0.04340576,-0.43053216,-0.18877438,-0.17983222,0.14528073,0.3064964,-0.18830478,0.08157581,0.38763,0.44789267,-0.3458191,-0.1684766,-0.12419735,-0.2397671,0.051808823,-0.11293196,-0.08045884,-0.17086661,-0.19331025,-0.23742847,0.09287459,0.16637984,0.18288878,0.19913547,-0.25697798,0.088048264,0.20344791,0.27234888,0.09098387,0.29551318,0.2147967,0.17244145,-0.4453795,-0.17219827,0.021663675,0.112798326,-0.07523007,0.27212724,0.12373995,0.081385076,0.1342415,0.11110701,0.045824893,-0.057953652,-0.10077886,0.0019747429,-0.014127871,-0.36391532,0.32355088,-0.27009133,-0.1098452,0.043781597,0.120124176,0.38623816,-0.2556076,-0.27071568,0.064517915,-0.29529876,0.11131332,-0.18259442,-0.030879457,-0.030469967,-0.43659726,-0.06274291,0.32406962,0.34759474,-0.28156018,-0.07199906,0.13631535,0.309269,-0.29789922,-0.03658231,0.015444956,-0.061236512,0.059207838,-0.008248143,0.25483832,0.2379106,0.34633482,0.1305279,-0.26402342,-0.21134788,0.32897878,0.3434615,0.20836835,-0.2640867,-0.003769714,0.026873535,0.11758735,0.07437627,0.08428217,-0.076051906,-0.17048422,-0.14198764,0.08865507,0.073687136,0.1319695,-0.057397194,0.14138551,0.05995451,-0.33153167,-0.008526663,-0.15973085,0.26986238,0.02287281,0.119013675,-0.011655941,0.18544824,0.043543663,-0.25684035,-0.3026193,-0.23680185,0.029381176,-0.21266533,-0.0022656682,-0.173509,0.47205395,-0.0337512,-0.07813903,-0.040027186,-0.058610793,-0.15845923,-0.12076376,0.10934431,-0.020611329,-0.19645806,-0.07083835,0.19859514,-0.12775165,-0.35483292,-0.053654335,-0.23895618,0.17216133,-0.083939165,0.18357243,0.08229012,0.12614231,0.12874492,-0.18963912,0.109261036,0.16078702,-0.049805425,0.19649492,-0.053413473,0.0014293713,0.07958609,-0.23689298,-0.006930833,0.25232944,-0.00664161,1
